{"id": "4a3c896b-b912-4f3d-9c69-9a1d4ad4324f", "population_size": 10, "crossover_prob": 0.5, "mutation_prob": 0.005, "fitness_rounds": 100, "tournament_size": 5, "generational_best_individuals": [{"non_splittable_weights": [[[0.09402735531330109, -0.07024778425693512, 0.11195789277553558, -0.17170515656471252, -0.025973588228225708, 0.10278646647930145, -0.054274559020996094, 0.017811432480812073, -0.05149070918560028, 0.033619076013565063, 0.1733843833208084, 0.11991478502750397, 0.056612297892570496, -0.16047155857086182, 0.0773518830537796, 0.19153670966625214, -0.1755133718252182, -0.06614223122596741, -0.13595998287200928, 0.010081961750984192, -0.13695736229419708, 0.12964411079883575, 0.13305620849132538, -0.0852685272693634, -0.06849151849746704, 0.08558289706707001, -0.09355120360851288, -0.21130043268203735, -0.12666910886764526, 0.1896175593137741, 0.047711119055747986, 0.037999227643013, 0.12782002985477448, 0.008163437247276306, -0.1547686904668808, 0.0997052937746048, 0.1367446333169937, 0.027096688747406006, -0.20007236301898956, -0.05277678370475769, -0.047205403447151184, 0.05054955184459686, -0.09182697534561157, -0.052421703934669495, -0.1591571718454361, -0.07619194686412811, -0.12002641707658768, -0.14670592546463013, 0.1540890485048294, -0.05712234973907471, 0.11595965921878815, 0.06187029182910919, 0.011668771505355835, -0.05262330174446106, -0.026847749948501587, -0.15584607422351837, -0.01155024766921997, -0.2107178419828415, 0.09969054162502289, 0.060846492648124695, 0.13213886320590973, -0.1998540163040161, 0.1419290155172348, -0.05064767599105835, -0.2071165144443512, -0.18209724128246307, -0.1837521195411682, -0.11060083657503128, -0.1727030873298645, -0.14004476368427277, 0.09287850558757782, -0.16548539698123932, -0.04412101209163666, 0.20932118594646454, -0.16931010782718658, -0.009449616074562073, 0.1701047569513321, -0.06757797300815582, -0.06282292306423187, -0.1191396564245224, -0.11281382292509079, -0.12898674607276917, -0.01791878044605255, 0.19235171377658844, -0.19312861561775208, 0.2038782387971878, 0.2049938291311264, 0.14841820299625397, 0.022427067160606384, -0.2047109603881836, -0.06719319522380829, -0.21330136060714722, 0.14971710741519928, -0.16019374132156372, 0.1199481338262558, -0.19819246232509613, -0.08221800625324249, 0.01658785343170166, 0.05400596559047699, 0.10525773465633392, 0.09784100949764252, -0.04647846519947052, -0.048448413610458374, 0.026491746306419373, 0.08017952740192413, -0.08602914214134216, -0.12647858262062073, -0.1229734942317009, 0.18789158761501312, -0.12921126186847687, -0.12991565465927124, -0.06882189214229584, 0.027811601758003235, 0.13713379204273224, -0.14642739295959473, 0.003324255347251892, 0.19578002393245697, -0.10053060948848724, 0.14630191028118134, -0.1527279019355774, -0.13927623629570007, 0.1211463063955307, 0.0962771326303482, -0.2108757644891739, -0.1670638471841812, 0.020833522081375122, -0.06203465163707733, 0.16205210983753204], [0.0598478764295578, 0.09899644553661346, 0.11718030273914337, -0.02828674018383026, 0.043372586369514465, -0.17454737424850464, 0.0012423545122146606, -0.033198267221450806, 0.20586274564266205, 0.12256856262683868, -0.12207882851362228, 0.17482714354991913, -0.1342129111289978, -0.06392353773117065, -0.20285151898860931, 0.09030623733997345, 0.08173604309558868, -0.20987582206726074, -0.025496914982795715, -0.16980212926864624, -0.04961356520652771, -0.19300779700279236, 0.1466703563928604, 0.19925902783870697, 0.024162933230400085, 0.11618782579898834, 0.05175752937793732, -0.08519984781742096, -0.12079653143882751, -0.02431584894657135, 0.045380815863609314, 0.02811320126056671, -0.00359305739402771, 0.1294504553079605, 0.20966993272304535, 0.19824032485485077, -0.07849989831447601, -0.13793127238750458, -0.086966872215271, -0.2108711153268814, 0.14825178682804108, -0.2127448469400406, -0.1348564773797989, -0.1453910768032074, 0.07368122041225433, -0.08383375406265259, 0.20743133127689362, -0.09381933510303497, -0.1070856973528862, 0.08624298870563507, -0.1506507396697998, 0.132279172539711, -0.09030240774154663, 0.04071609675884247, 0.06373776495456696, 0.010567709803581238, 0.0745493620634079, 0.16412778198719025, 0.12085454165935516, -0.1019849106669426, 0.1000104695558548, 0.15745331346988678, 0.0342976450920105, -0.1909923255443573, 0.17338339984416962, 0.11188952624797821, -0.13683438301086426, -0.023952394723892212, -0.10757767409086227, -0.11117327958345413, -0.21062348783016205, -0.04636131227016449, 0.18587704002857208, 0.12782643735408783, -0.11428511887788773, -0.14962822198867798, -0.15367645025253296, 0.2057976871728897, -0.04089483618736267, 0.11199401319026947, 0.08731161057949066, 0.0003435462713241577, -0.19186586141586304, -0.08741329610347748, 0.1589803546667099, -0.19031475484371185, -0.09576026350259781, -0.15157587826251984, -0.20086972415447235, 0.12504051625728607, -0.07772596180438995, -0.018977805972099304, -0.1913067251443863, 0.12763755023479462, 0.05891500413417816, -0.03311893343925476, -0.018741920590400696, -0.18631967902183533, -0.02886606752872467, -0.047832190990448, -0.02323499321937561, 0.061260923743247986, 0.21034984290599823, 0.17564333975315094, -0.12268985062837601, -0.009599417448043823, -0.2102876454591751, 0.17568998038768768, -0.11142528802156448, 0.16867230832576752, -0.18786123394966125, 0.015383526682853699, -0.13709956407546997, -0.21267324686050415, -0.05733171105384827, 0.12530745565891266, -0.1260700821876526, 0.04494874179363251, -0.0678555965423584, -0.009508341550827026, 0.16739632189273834, -0.17354688048362732, -0.15959450602531433, 0.038466766476631165, -0.1962566375732422, 0.19539029896259308, -0.087187260389328, 0.14422257244586945], [-0.14595025777816772, -0.19340884685516357, -0.135152667760849, 0.09476013481616974, 0.03134673833847046, -0.09946944564580917, 0.14956100285053253, -0.053043246269226074, 0.04920439422130585, -0.042717427015304565, 0.019025057554244995, 0.09244982898235321, -0.20832467079162598, 0.20606382191181183, 0.06432317197322845, 0.015841424465179443, 0.031155645847320557, 0.1850830465555191, -0.06322072446346283, 0.11477766931056976, 0.147733673453331, -0.02815335988998413, 0.20594172179698944, 0.10492657124996185, -0.0882052481174469, 0.1765032559633255, -0.05163486301898956, -0.20567619800567627, -0.06639476120471954, 0.020183265209197998, 0.0796041339635849, -0.11643984168767929, 0.0710100382566452, 0.0032072067260742188, 0.07057322561740875, -0.03526018559932709, 0.022756069898605347, 0.15884582698345184, 0.07898570597171783, 0.20402227342128754, -0.10014103353023529, 0.17647482454776764, -0.018439292907714844, 0.05894188582897186, 0.11257384717464447, -0.0021317005157470703, -0.005347847938537598, -0.21320104598999023, 0.11099840700626373, 0.17868144810199738, 0.09463123977184296, 0.12485550343990326, -0.1155993640422821, -0.1685952991247177, 0.05974067747592926, -0.1552892029285431, 0.10731710493564606, -0.20767498016357422, -0.10504823178052902, 0.03659619390964508, 0.16501550376415253, 0.09118987619876862, -0.19814066588878632, 0.14102454483509064, 0.13219131529331207, -0.17068292200565338, 0.1964486986398697, -0.07351315021514893, -0.2045706957578659, -0.19793197512626648, -0.13781538605690002, 0.09863744676113129, 0.13961456716060638, 0.059945687651634216, -0.14970138669013977, 0.15415288507938385, -0.09084322303533554, 0.008327320218086243, 0.10375960171222687, 0.18779338896274567, -0.0410168319940567, -0.02460475265979767, 0.18162719905376434, -0.19776666164398193, 0.047771766781806946, -0.07906617224216461, 0.11091156303882599, 0.21312685310840607, -0.014037489891052246, -0.1919802576303482, 0.17550282180309296, 0.027793943881988525, -0.1894901990890503, -0.11506477743387222, -0.02027684450149536, 0.09149999916553497, 0.19246800243854523, -0.1060568317770958, 0.16453252732753754, 0.0733611136674881, 0.03899310529232025, -0.19840559363365173, -0.017092958092689514, 0.07186321914196014, 0.09557177126407623, 0.06821583211421967, -0.1863982081413269, -0.11660715192556381, -0.12235405296087265, -0.07913520932197571, 0.046155527234077454, 0.036481186747550964, -0.15671992301940918, 0.20125366747379303, -0.03784942626953125, 0.024729549884796143, -0.07885441184043884, -0.11784444749355316, -0.006011515855789185, 0.014149650931358337, -0.11267202347517014, 0.10186745226383209, 0.13361822068691254, -0.12675952911376953, 0.019325122237205505, -0.08876676857471466, -0.10072450339794159, -0.17770667374134064]], [[-0.02692146599292755, -0.13424158096313477, -0.10026874393224716, 0.1713135689496994, -0.09638857841491699, -0.08266657590866089, 0.11229167878627777, 0.02796873450279236, 0.1725158542394638, -0.10117515176534653, -0.05569971352815628, 0.17013244330883026, 0.0770055502653122, 0.048444852232933044, -0.059976525604724884, 0.1545245200395584, -0.1494409143924713, 0.059835031628608704, -0.033407196402549744, 0.06543196737766266, 0.10086719691753387, -0.13169023394584656, -0.08306170254945755, -0.17075838148593903, 0.1340116709470749, -0.027954652905464172, 0.022673100233078003, 0.12076164782047272, -0.0546698123216629, -0.17508231103420258, 0.12174876034259796, -0.09851648658514023, 0.09795205295085907, 0.16388417780399323, 0.11616881191730499, -0.1321205496788025, -0.01902972161769867, -0.06486648321151733, -0.016680210828781128, 0.06304122507572174, 0.026516780257225037, -0.07368908822536469, 0.12664420902729034, 0.09753717482089996, 0.020756691694259644, -0.09760497510433197, 0.09945325553417206, 0.16733457148075104, 0.09230045974254608, -0.16855746507644653, 0.1422959715127945, 0.16428078711032867, -0.020800188183784485, 0.07386927306652069, 0.10729514062404633, 0.057611703872680664, 0.040388524532318115, -0.019600436091423035, 0.03641305863857269, -0.03192758560180664, -0.02178022265434265, -0.15732377767562866, -0.01620921492576599, 0.012119665741920471], [-0.0017733275890350342, 0.07288353145122528, -0.055648840963840485, -0.12223003059625626, -0.15486681461334229, -0.0268687903881073, -0.04528379440307617, -0.08509187400341034, -0.14157016575336456, -0.00013495981693267822, -0.10362013429403305, 0.12533177435398102, 0.06873628497123718, -0.03918515145778656, -0.02985602617263794, 0.006303355097770691, -0.07399456202983856, 0.17376859486103058, -0.012541547417640686, -0.05167338252067566, -0.11046309769153595, 0.171005979180336, 0.037783801555633545, -0.0542922243475914, -0.1563844084739685, 0.05491375923156738, -0.11432227492332458, 0.16278444230556488, 0.08175446093082428, -0.15246647596359253, 0.15462200343608856, 0.1405276507139206, 0.03399573266506195, 0.007208213210105896, 0.00709003210067749, 0.055958956480026245, -0.09160583466291428, -0.14436137676239014, 0.15140478312969208, -0.16117802262306213, -0.0705346018075943, 0.019964754581451416, -0.026754572987556458, 0.10109157860279083, 0.14556552469730377, -0.08483389019966125, 0.03144374489784241, -0.05704335868358612, -0.10514234751462936, -0.03318360447883606, 0.1597590297460556, 0.05752897262573242, -0.13443762063980103, 0.14348988234996796, 0.1195315271615982, 0.14563222229480743, -0.014352098107337952, -0.1757918894290924, 0.1258566826581955, 0.16644616425037384, 0.14100827276706696, -0.05396731197834015, -0.17381928861141205, 0.06584715843200684], [-0.1720205545425415, -0.1519230753183365, -0.0664820596575737, 0.12327985465526581, -0.005693107843399048, 0.11026345193386078, -0.062479667365550995, 0.05267778038978577, -0.0031894147396087646, 0.014432594180107117, 0.1581440418958664, 0.012254834175109863, -0.028309911489486694, 0.12249715626239777, 0.16710101068019867, -0.13646352291107178, 0.03549063205718994, 0.073122039437294, -0.011956468224525452, 0.025799810886383057, -0.14109057188034058, -0.13634614646434784, 0.1218218058347702, 0.004756152629852295, -0.09024820476770401, -0.09953155368566513, 0.1593492180109024, -0.03104780614376068, -0.12022484838962555, -0.05083887279033661, 0.05365096032619476, 0.1455533653497696, 0.1379656046628952, -0.13907490670681, 0.04785417020320892, 0.003251507878303528, -0.14171764254570007, -0.15787605941295624, -0.10461007803678513, 0.078132763504982, 0.16283459961414337, -0.1429305374622345, -0.0996132344007492, -0.05053086578845978, 0.025232478976249695, 0.08602307736873627, 0.16040699183940887, -0.05887771397829056, 0.09252534806728363, -0.014798268675804138, -0.09860191494226456, 0.003326311707496643, -0.08969489485025406, -0.14108455181121826, -0.08989235758781433, -0.014119789004325867, -0.15249969065189362, 0.07405455410480499, 0.0840190201997757, 0.03522047400474548, -0.11660005152225494, -0.008578062057495117, 0.17205624282360077, 0.14443643391132355], [0.06398916244506836, 0.1532364934682846, -0.05302465707063675, -0.030752867460250854, 0.017817705869674683, 0.06948304176330566, -0.018818184733390808, 0.13521794974803925, -0.14214277267456055, -0.11749504506587982, 0.07428149878978729, 0.09304027259349823, 0.13705573976039886, -0.051056861877441406, 0.05023258924484253, -0.11917880922555923, -0.10727177560329437, 0.16928918659687042, -0.16029727458953857, -0.09735319018363953, -0.03402738273143768, -0.07698404043912888, 0.114495649933815, 0.03274545073509216, 0.018736079335212708, 0.1529683917760849, -0.043139487504959106, 0.14240442216396332, 0.025928229093551636, -0.14749428629875183, -0.08582379668951035, -0.05681770294904709, -0.079918771982193, 0.03042757511138916, 0.010612696409225464, -0.017558038234710693, -0.11325898766517639, 0.12937329709529877, -0.05242616683244705, -0.1321519911289215, -0.02100197970867157, -0.05234765261411667, 0.1434355527162552, -0.052041828632354736, 0.0976925641298294, -0.14392831921577454, 0.06624001264572144, 0.0007826238870620728, 0.07110001146793365, -0.05682436376810074, -0.004804447293281555, 0.09477885067462921, -0.11448592692613602, 0.1567799597978592, -0.09207808971405029, -0.09855905175209045, -0.1586204618215561, -0.07851376384496689, -0.016923516988754272, 0.1023140400648117, -0.08746057003736496, -0.0916026309132576, -0.07257164269685745, 0.008404672145843506], [0.06948018074035645, -0.14471381902694702, -0.12403088063001633, -0.062350235879421234, 0.014944300055503845, -0.02021843194961548, 0.015978336334228516, -0.12361443042755127, 0.15654174983501434, -0.03698393702507019, -0.0661945715546608, 0.03833635151386261, -0.11700285226106644, 0.16740964353084564, -0.09332028776407242, -0.06873851269483566, -0.001596108078956604, 0.09877561032772064, 0.12381719052791595, 0.013823449611663818, -0.15336433053016663, 0.050449520349502563, 0.053396016359329224, -0.02126111090183258, -0.09087876230478287, 0.11515425145626068, -0.014394119381904602, 0.01780514419078827, 0.061959996819496155, 0.13340787589550018, 0.13700498640537262, -0.14499400556087494, -0.014691174030303955, -0.07081298530101776, 0.0561039000749588, -0.046825066208839417, -0.1266486644744873, 0.1161842793226242, -0.15300540626049042, -0.01006348431110382, 0.10259406268596649, 0.005520641803741455, -0.06061319261789322, -0.07965484261512756, -0.07844442874193192, -0.166531041264534, -0.06920482963323593, 0.07313624024391174, -0.12632745504379272, -0.0737973153591156, -0.14890806376934052, -0.0077307820320129395, -0.07362965494394302, -0.04060199856758118, -0.14031603932380676, -0.11549922078847885, -0.13810034096240997, -0.012994080781936646, -0.13517341017723083, 0.1491653174161911, -0.12668120861053467, 0.16117309033870697, 0.07183222472667694, 0.15930558741092682], [-0.1613146960735321, -0.09109105169773102, -0.16297200322151184, -0.010716378688812256, -0.1506408005952835, -0.09804710000753403, -0.05961591750383377, 0.11364050209522247, -0.16356828808784485, 0.06109572947025299, -0.13797155022621155, 0.14508722722530365, 0.04657521843910217, 0.06247603893280029, 0.017788201570510864, -0.07306025177240372, 0.09588201344013214, -0.05326906591653824, 0.00630563497543335, -0.11943341791629791, -0.11402732878923416, 0.0059661865234375, 0.014954626560211182, 0.009052559733390808, -0.06255649775266647, 0.02987384796142578, 0.009432211518287659, -0.0023276805877685547, 0.16297854483127594, 0.12449200451374054, -0.07334347814321518, -0.04808740317821503, -0.09832071512937546, -0.1423530876636505, -0.1338474303483963, 0.002749696373939514, -0.0865015983581543, -0.10126766562461853, 0.01111854612827301, -0.15813985466957092, 0.09457491338253021, -0.052615031599998474, 0.15713892877101898, 0.07783661782741547, -0.06685703992843628, -0.0011087507009506226, 0.04047800600528717, -0.08755294978618622, 0.08003829419612885, -0.13817401230335236, -0.09480288624763489, -0.006791844964027405, -0.13288408517837524, -0.15433378517627716, 0.002110496163368225, -0.12428191304206848, 0.1208086758852005, -0.08156692236661911, -0.0006970316171646118, -0.09298909455537796, -0.046414345502853394, -0.08685500174760818, 0.05839875340461731, 0.08627013862133026], [0.07059361040592194, -0.17215655744075775, -0.10812335461378098, 0.1564357727766037, 0.15068061649799347, 0.12029747664928436, 0.04792909324169159, 0.16339008510112762, -0.07502239942550659, -0.15567776560783386, -0.09348747879266739, -0.06977912038564682, 0.015467464923858643, -0.06311220675706863, -0.09153751283884048, 0.13638879358768463, -0.11444512754678726, 0.08282200992107391, 0.11357714235782623, -0.06945383548736572, 0.09722994267940521, 0.03677552938461304, 0.14553870260715485, -0.017786145210266113, -0.03935416042804718, 0.06151746213436127, -0.010544762015342712, 0.06167495250701904, 0.15604759752750397, -0.1028725728392601, 0.09955938160419464, -0.018226608633995056, -0.12451447546482086, 0.1343516856431961, -0.14481757581233978, 0.15439705550670624, -0.09799854457378387, 0.10785643756389618, -0.10570083558559418, -0.026089787483215332, -0.10455284267663956, 0.14955775439739227, -0.021686241030693054, -0.03624321520328522, -0.008276507258415222, -0.05293193459510803, -0.0076780617237091064, 0.023430362343788147, 0.12368609011173248, -0.07318168133497238, -0.15603585541248322, -0.02705465257167816, 0.16190041601657867, -0.01769585907459259, -0.10218136757612228, -0.06628519296646118, -0.09628767520189285, -0.0884881466627121, 0.051950499415397644, -0.019591286778450012, 0.026212260127067566, 0.010396495461463928, -0.12033776938915253, 0.1715753823518753], [0.08953414857387543, -0.05620497465133667, 0.05025990307331085, 0.1495332568883896, 0.16600362956523895, 0.1443602591753006, 0.04143182933330536, 0.1394144743680954, 0.09246353805065155, 0.08352755010128021, 0.13396628201007843, -0.1320241540670395, -0.03741392493247986, 0.1653701514005661, -0.058370642364025116, -0.013515949249267578, -0.11874499171972275, 0.135512575507164, 0.03818213939666748, -0.12789537012577057, 0.15883620083332062, -0.13631954789161682, 0.042506322264671326, 0.1165619045495987, 0.1740371435880661, 0.02727043628692627, 0.06662261486053467, -0.1507280468940735, -0.12049400061368942, 0.13934136927127838, 0.04403185844421387, -0.04394520819187164, -0.1494358628988266, -0.04213652014732361, -0.03276193141937256, -0.17203369736671448, -0.11127989739179611, 0.08234904706478119, 0.05486592650413513, -0.17450375854969025, 0.10449905693531036, -0.08143103867769241, -0.11789973825216293, 0.0848998874425888, -0.027844995260238647, -0.16527123749256134, 0.008949413895606995, 0.10621936619281769, 0.08338044583797455, -0.08546209335327148, 0.007547363638877869, 0.07329447567462921, 0.08862854540348053, 0.050763681530952454, -0.16626282036304474, 0.0021392405033111572, -0.040837302803993225, -0.05079875886440277, -0.03739862143993378, 0.16041941940784454, -0.09154468029737473, 0.08159221708774567, -0.07077846676111221, -0.16476024687290192], [-0.04570876061916351, 0.06152878701686859, 0.15304459631443024, 0.008832216262817383, -0.05212119221687317, -0.1102714091539383, 0.17193038761615753, -0.09367916733026505, -0.15353144705295563, -0.17505840957164764, 0.008267819881439209, 0.015865713357925415, 0.09442119300365448, -0.010177448391914368, -0.07342895120382309, -0.05927658826112747, -0.0558045357465744, -0.06440046429634094, 0.06868250668048859, 0.13904593884944916, 0.153058722615242, -0.0796145498752594, -0.009028777480125427, -0.12690432369709015, 0.0458432137966156, -0.17075935006141663, -0.08615477383136749, -0.09881319850683212, 0.016155853867530823, 0.10357601940631866, 0.03598244488239288, 0.037301138043403625, 0.12261264026165009, -0.05297762155532837, 0.07980702817440033, 0.13341732323169708, -0.15950508415699005, 0.13765214383602142, 0.12432287633419037, 0.07842762768268585, -0.09475821256637573, 0.08759059011936188, 0.04671548306941986, -0.008571326732635498, -0.046009570360183716, -0.04574543237686157, 0.09466727077960968, -0.14427633583545685, -0.05587027966976166, -0.14924827218055725, -0.00855708122253418, 0.07044509053230286, -0.08265650272369385, 0.0455949604511261, 0.1266418844461441, -0.0026474595069885254, -0.1301555335521698, -0.12173391878604889, 0.06631949543952942, 0.1290443390607834, -0.1296209841966629, -0.11136525124311447, 0.1162445992231369, -0.07687775045633316], [0.029237642884254456, -0.1361808478832245, 0.014910712838172913, 0.13358981907367706, -0.01915721595287323, -0.01633518934249878, 0.17602749168872833, 0.09385178983211517, 0.16567100584506989, -0.061084650456905365, -0.10203313827514648, -0.05454425513744354, -0.165904700756073, -0.027917861938476562, -0.05278488248586655, 0.08345736563205719, -0.07617975026369095, 0.12044291198253632, -0.13227598369121552, -0.1569851189851761, 0.049033939838409424, 0.1424504965543747, -0.12992891669273376, 0.1616419404745102, -0.12978358566761017, -0.1719086915254593, 0.006216824054718018, 0.024055108428001404, -0.03619667887687683, 0.14899225533008575, 0.02880425751209259, 0.04995594918727875, -0.07388860732316971, -0.11412860453128815, -0.05878659337759018, 0.13827179372310638, 0.14664532244205475, -0.08551393449306488, 0.16146688163280487, -0.011534154415130615, -0.15795369446277618, 0.07135917246341705, 0.14880968630313873, 0.052615150809288025, 0.059447407722473145, -0.05957760661840439, 0.0047760456800460815, -0.033550962805747986, 0.06056804955005646, 0.11184202134609222, -0.043271541595458984, -0.005353033542633057, 0.0961972326040268, -0.10627951472997665, -0.1150241419672966, 0.0665770173072815, -0.16516190767288208, -0.14845359325408936, -0.044687166810035706, 0.01732732355594635, -0.15468251705169678, 0.14795739948749542, -0.011742740869522095, 0.1596757024526596], [-0.04550611972808838, -0.1264016032218933, -0.153182253241539, -0.17040160298347473, -0.15637175738811493, 0.11608578264713287, 0.08096493780612946, 0.08695293962955475, 0.17094747722148895, 0.05877888202667236, -0.09275627881288528, 0.12379814684391022, 0.0489225834608078, -0.08675144612789154, 0.07872913777828217, -0.07076013088226318, 0.06643295288085938, -0.14828504621982574, -0.016994327306747437, -0.05661569535732269, -0.17664726078510284, 0.14850567281246185, 0.09097810089588165, 0.13725905120372772, 0.08099047839641571, -0.08948757499456406, 0.05358937382698059, 0.06163516640663147, -0.009368225932121277, 0.08914871513843536, 0.018817007541656494, 0.11990444362163544, -0.06964758038520813, 0.16166292130947113, -0.007171541452407837, -0.041578248143196106, -0.13976560533046722, -0.16396906971931458, -0.08379606902599335, 0.06777381896972656, 0.08399336040019989, -0.03551667928695679, -0.15071067214012146, 0.05611376464366913, -0.09892016649246216, 0.16392941772937775, 0.09313388168811798, -0.16516797244548798, 0.12648113071918488, 0.11195813119411469, -0.10992833226919174, -0.0010609179735183716, 0.025530993938446045, -0.01822863519191742, 0.08236734569072723, 0.10428650677204132, -0.12776951491832733, -0.14581991732120514, -0.06901107728481293, 0.09791268408298492, 0.09624038636684418, 0.04344530403614044, 0.1466684192419052, 0.029676780104637146], [0.17128212749958038, -0.08259762078523636, 0.1522977203130722, -0.16310741007328033, 0.03836546838283539, 0.16387976706027985, 0.15063442289829254, -0.07836009562015533, 0.1279059797525406, 0.07177086174488068, -0.09168165922164917, -0.12402131408452988, 0.1446775645017624, 0.13569964468479156, -0.06084917485713959, 0.0228193998336792, 0.04160471260547638, 0.1301959902048111, 0.08721707761287689, -0.11851352453231812, -0.16377156972885132, -0.03165136277675629, -0.12224352359771729, -0.018294811248779297, 0.1095016747713089, 0.07837475836277008, 0.13784556090831757, -0.1264876127243042, 0.03657987713813782, -0.04730267822742462, 0.045951396226882935, -0.11524730920791626, 0.03467299044132233, -0.12353898584842682, 0.06571342051029205, 0.05612669885158539, -0.040606334805488586, -0.03920191526412964, 0.168039008975029, 0.13220493495464325, 0.09089402854442596, -0.07835524529218674, -0.0015114694833755493, -0.011309012770652771, -0.009641006588935852, 0.01627117395401001, -0.011190667748451233, -0.01730625331401825, -0.1430572271347046, 0.14030705392360687, -0.16348417103290558, 0.17559678852558136, -0.027804777026176453, -0.07948027551174164, 0.07579879462718964, 0.08750329911708832, -0.15395893156528473, 0.012348979711532593, 0.13946734368801117, -0.06237109750509262, -0.1212574914097786, -0.10597361624240875, 0.1603422909975052, -0.10187260061502457], [0.08478857576847076, 0.05227586627006531, -0.1650676280260086, -0.14256732165813446, 0.1677098423242569, -0.09421253204345703, -0.0441398024559021, -0.15654337406158447, 0.0741569846868515, -0.11455205082893372, 0.10533328354358673, -0.16873890161514282, 0.10485018789768219, 0.027806207537651062, -0.00020672380924224854, 0.000592544674873352, 0.0949554592370987, -0.025881454348564148, -0.1065291091799736, -0.04421326518058777, -0.10434594005346298, -0.10728804767131805, -0.1705152690410614, -0.010017246007919312, -0.10982701182365417, -0.15926602482795715, -0.07023540139198303, 0.053875550627708435, -0.08116623014211655, -0.03615942597389221, -0.019447147846221924, 0.06731551885604858, -0.09228431433439255, -0.17023006081581116, 0.12383376061916351, 0.004208281636238098, 0.15045876801013947, 0.16055415570735931, 0.13321487605571747, 0.011262983083724976, -0.058406129479408264, -0.14092957973480225, 0.05962750315666199, 0.015170544385910034, 0.03619550168514252, -0.062762051820755, 0.12921012938022614, 0.008197978138923645, 0.08334504067897797, -0.12642663717269897, 0.07536597549915314, -0.16798275709152222, 0.1196535974740982, -0.039297640323638916, -0.05555203557014465, 0.1409742385149002, -0.054665856063365936, -0.1409941017627716, -0.08888555318117142, -0.04342499375343323, -0.05486541986465454, -0.10666655004024506, -0.10778933763504028, -0.12368401139974594], [-0.06790025532245636, -0.06038859486579895, -0.17183350026607513, -0.07910799235105515, -0.0761507973074913, 0.010140791535377502, -0.16669398546218872, 0.012281924486160278, 0.05641229450702667, 0.05789750814437866, 0.1067652553319931, 0.057274580001831055, -0.05800531804561615, -0.11227145045995712, 0.08603315055370331, 0.012300089001655579, -0.04979203641414642, -0.002890259027481079, 0.12014321982860565, -0.0737750232219696, 0.17567138373851776, -0.01580810546875, -0.08346361666917801, -0.1637682318687439, 0.06555908918380737, 0.11515723168849945, -0.1036524623632431, 0.06624595820903778, -0.017559215426445007, 0.030233576893806458, -0.022116854786872864, -0.11469590663909912, -0.006528928875923157, -0.06605953723192215, 0.17311038076877594, -0.1560002714395523, 0.0988631397485733, 0.1190851479768753, 0.08937542140483856, 0.03505399823188782, 0.15172038972377777, 0.003992021083831787, 0.02889120578765869, 0.040854841470718384, -0.1540965884923935, -0.09602881222963333, 0.03511081635951996, 0.13992942869663239, -0.16478309035301208, -0.10486219823360443, -0.04736901819705963, -0.043010562658309937, -0.09083134680986404, 0.016476675868034363, -0.10546743124723434, -0.12112784385681152, 0.04709535837173462, -0.06277671456336975, 0.07955698668956757, 0.11531676352024078, 0.16769875586032867, -0.17529624700546265, 0.051603883504867554, -0.05906374752521515], [0.003246113657951355, 0.1118507832288742, -0.05219031870365143, -0.17247337102890015, 0.14438621699810028, -0.003124803304672241, -0.063409723341465, -0.10311053693294525, -0.07854465395212173, -0.1570521742105484, -0.05063800513744354, -0.08269405364990234, -0.020444080233573914, -0.008992999792098999, 0.15347449481487274, 0.11867158114910126, 0.09040556848049164, 0.14632286131381989, -0.0590788796544075, -0.1447361558675766, -0.029709696769714355, 0.022809162735939026, 0.05702821910381317, -0.03264918923377991, -0.020231038331985474, 0.15072177350521088, 0.008633196353912354, -0.1398998498916626, 0.12447093427181244, -0.05806908756494522, -0.08393304795026779, 0.1367892473936081, 0.0357317179441452, -0.011256411671638489, 0.10985584557056427, -0.10753637552261353, -0.033696532249450684, -0.09897112101316452, -0.08308597654104233, 0.11572243273258209, -0.022388532757759094, -0.09715345501899719, -0.11632411926984787, 0.11388592422008514, 0.1457209438085556, -0.05886578559875488, 0.003324463963508606, -0.02388356626033783, -0.12214477360248566, -0.01465044915676117, -0.012690499424934387, -0.16911186277866364, -0.04609638452529907, 0.1668054312467575, 0.02016541361808777, -0.003062516450881958, -0.09115549921989441, 0.08769769966602325, -0.06344744563102722, -0.03113265335559845, -0.16004431247711182, -0.00400938093662262, -0.052486270666122437, 0.0651482343673706], [0.08539111912250519, -0.0082186758518219, -0.12521757185459137, -0.14871540665626526, 0.03755250573158264, -0.018692344427108765, -0.01760891079902649, -0.10390597581863403, -0.17147111892700195, 0.04698994755744934, -0.0824979841709137, -0.038150444626808167, 0.013820290565490723, 0.033624082803726196, 0.14418454468250275, 0.11343993246555328, -0.042867183685302734, -0.09859251976013184, -0.057508617639541626, 0.04812301695346832, 0.09157069027423859, 0.125717893242836, 0.09689037501811981, -0.0019224435091018677, -0.15706291794776917, -0.011953473091125488, -0.08638472855091095, -0.0469970703125, 0.13268046081066132, 0.030694827437400818, 0.1072409600019455, 0.14675427973270416, 0.11390151083469391, -0.1590513288974762, 0.005008146166801453, -0.09231440722942352, 0.09964297711849213, -0.06727071106433868, 0.1673741489648819, -0.1697491705417633, 0.009272351861000061, -0.15168654918670654, 0.10179294645786285, -0.07517357915639877, 0.06731748580932617, -0.1122259721159935, 0.08476503193378448, -0.004900753498077393, -0.16536547243595123, -0.02941448986530304, -0.011146783828735352, -0.02053491771221161, -0.11741109192371368, -0.06277313828468323, 0.06107306480407715, 0.01399819552898407, -0.0253191739320755, 0.0708259642124176, -0.0247601717710495, -0.08742145448923111, -0.13883858919143677, 0.03973819315433502, 0.0918537825345993, 0.1374056488275528], [0.14950813353061676, 0.011536434292793274, 0.04413887858390808, -0.029428616166114807, 0.05023254454135895, -0.08387964218854904, -0.08783850073814392, -0.11959054321050644, 0.06654126942157745, 0.05598931014537811, -0.11506730318069458, -0.10682649910449982, 0.10066260397434235, 0.12064038217067719, -0.021319985389709473, -0.07961505651473999, -0.045274436473846436, -0.07765033841133118, 0.060963645577430725, 0.13927136361598969, 0.007884994149208069, -0.016996219754219055, -0.11336562037467957, 0.07788215577602386, 0.0538247674703598, -0.003723546862602234, -0.13034632802009583, 0.11875279247760773, 0.005655139684677124, -0.03981730341911316, 0.06610922515392303, -0.16505979001522064, 0.1481858640909195, 0.16538186371326447, -0.10658794641494751, -0.1269621104001999, 0.00534994900226593, -0.07382918149232864, -0.03287386894226074, -0.07225862145423889, -0.036288484930992126, -0.06720597296953201, 0.03894814848899841, -0.17130570113658905, 0.13194622099399567, 0.12234373390674591, -0.1524098664522171, 0.1527712494134903, -0.0014033615589141846, 0.15645916759967804, -0.0392230749130249, -0.0023944824934005737, 0.1566338688135147, 0.1396779865026474, 0.003232121467590332, 0.03401920199394226, -0.17262384295463562, 0.11999516189098358, 0.04806704819202423, -0.040831610560417175, -0.08630772680044174, 0.16425617039203644, 0.15062685310840607, 0.17138902842998505], [-0.13968868553638458, 0.07420764863491058, -0.11932641267776489, 0.03818373382091522, -0.10728492587804794, 0.0829952210187912, 0.08489562571048737, 0.09977318346500397, -0.00928671658039093, 0.05340743064880371, -0.04950796067714691, 0.0694388747215271, 0.11091811954975128, 0.07818175852298737, 0.09257064759731293, 0.08949463069438934, -0.14624875783920288, 0.09971083700656891, 0.15077020227909088, 0.02726227045059204, -0.017233923077583313, 0.021821066737174988, 0.1437665969133377, 0.07634107768535614, -0.06242398917675018, 0.1687483936548233, 0.17300333082675934, 0.17459993064403534, 0.13130639493465424, 0.1191326230764389, 0.12275557219982147, -0.11679531633853912, 0.05144608020782471, 0.02899855375289917, 0.0828041285276413, -0.047791704535484314, -0.052625901997089386, 0.16874466836452484, 0.057086676359176636, -0.12864305078983307, -0.06164667755365372, -0.05947042256593704, 0.03691039979457855, -0.026039794087409973, -0.030986443161964417, -0.004069820046424866, -0.12506592273712158, 0.08775807917118073, 0.06736971437931061, -0.07004325836896896, -0.12199632823467255, 0.0018736869096755981, -0.10333648324012756, 0.04567036032676697, 0.12329141795635223, 0.04033921658992767, -0.10024555772542953, -0.08046574890613556, -0.058798179030418396, -0.03631912171840668, -0.14196065068244934, 0.1393710821866989, 0.17242781817913055, -0.05474879592657089], [-0.14555716514587402, -0.1758011132478714, 0.12563388049602509, -0.0727924108505249, 0.022997766733169556, -0.08006051182746887, -0.1218840479850769, -0.00833466649055481, 0.11609990894794464, 0.14403246343135834, -0.16536466777324677, -0.0840563252568245, 0.08275015652179718, 0.06101509928703308, 0.15007717907428741, -0.019802197813987732, -0.14268769323825836, 0.13218916952610016, -0.03640943765640259, 0.14620371162891388, -0.03666016459465027, 0.12083329260349274, -0.16212336719036102, -0.0040504783391952515, 0.013664394617080688, -0.013098731637001038, 0.046385928988456726, 0.10073502361774445, -0.04927350580692291, -0.11493268609046936, 0.011856406927108765, -0.06283248215913773, 0.12871886789798737, 0.11524610221385956, 0.07499895989894867, -0.09352432191371918, -0.06392745673656464, 0.141173854470253, -0.04123365879058838, 0.17403660714626312, -0.06966739147901535, 0.030572563409805298, -0.12508560717105865, -0.03402182459831238, 0.039123401045799255, -0.11548227816820145, -0.028758347034454346, -0.0940982773900032, -0.04430793225765228, -0.08211786299943924, -0.010133326053619385, -0.07473500072956085, 0.06734615564346313, -0.045849621295928955, 0.15471337735652924, 0.050481006503105164, -0.0395900160074234, -0.0036637485027313232, -0.14470386505126953, -0.006702437996864319, 0.014772087335586548, 0.1347121149301529, 0.1206607073545456, 0.07582204043865204], [-0.01978069543838501, 0.1420534998178482, 0.16523377597332, 0.0493105947971344, -0.06270776689052582, -0.15417632460594177, -0.1361265629529953, 0.10983581840991974, -0.1705617606639862, -0.07242350280284882, -0.021841630339622498, -0.060828059911727905, 0.10965724289417267, 0.08649469912052155, 0.06030982732772827, 0.11227153241634369, 0.06759890913963318, 0.028327777981758118, 0.11883001029491425, 0.11957849562168121, 0.010143861174583435, 0.014095723628997803, -0.15215589106082916, -0.1294485181570053, 0.1448964923620224, 0.07573570311069489, 0.15610475838184357, 0.01900431513786316, -0.15421421825885773, 0.10252039134502411, -0.16849647462368011, 0.15614910423755646, -0.049830421805381775, -0.03232203423976898, -0.05555485934019089, 0.17470230162143707, 0.12086771428585052, 0.05182676017284393, 0.04039889574050903, -0.16186454892158508, -0.17246907949447632, 0.15495483577251434, -0.031929224729537964, -0.13677482306957245, -0.00271451473236084, -0.07855835556983948, 0.17539377510547638, -0.02695620059967041, -0.160569965839386, -0.04809832572937012, 0.10836027562618256, 0.07743169367313385, 0.1268915981054306, -0.10487707704305649, 0.019686788320541382, 0.10001911222934723, 0.015158921480178833, 0.06338615715503693, -0.04255731403827667, -0.0062805116176605225, 0.0889415293931961, 0.01569312810897827, 0.06636686623096466, 0.10630820691585541], [-0.007984757423400879, -0.10817776620388031, -0.04247887432575226, -0.08126063644886017, 0.09403188526630402, -0.10072843730449677, 0.13763107359409332, -0.09753905981779099, -0.17649498581886292, -0.028388306498527527, 0.04681280255317688, 0.03014342486858368, -0.13735607266426086, -0.1055726706981659, -0.0017252862453460693, -0.02496922016143799, -0.04256701469421387, -0.030536025762557983, 0.03042040765285492, 0.004411429166793823, 0.1195453554391861, -0.002911210060119629, 0.046401649713516235, 0.04455536603927612, -0.14353206753730774, 0.031076520681381226, 0.07424162328243256, 0.16208316385746002, 0.08560703694820404, 0.05667436122894287, -0.0170605331659317, -0.08585768193006516, 0.03942909836769104, -0.07054143399000168, 0.011045590043067932, -0.043456897139549255, -0.06439654529094696, 0.0456216037273407, -0.14206640422344208, -0.007607758045196533, 0.12876464426517487, 0.16817258298397064, -0.14170241355895996, 0.10975997149944305, 0.06356284022331238, -0.013947397470474243, 0.17133815586566925, -0.13226422667503357, -0.01956579089164734, -0.07081817090511322, -0.042215973138809204, -0.15141655504703522, 0.0902584046125412, -0.02174946665763855, 0.148177370429039, 0.13295741379261017, 0.06776231527328491, 0.06625160574913025, 0.03501008450984955, 0.11378894746303558, -0.06962313503026962, -0.037506431341171265, 0.09917862713336945, -0.08210480213165283], [0.17348821461200714, -0.05032384395599365, 0.16078896820545197, -0.10392257571220398, -0.14082378149032593, 0.1522607058286667, -0.07804812490940094, 0.1617245227098465, 0.014861613512039185, 0.04774387180805206, -0.04794237017631531, -0.03951317071914673, 0.10525412857532501, -0.13277319073677063, 0.06344491243362427, -0.10205593705177307, -0.07563930749893188, 0.012780562043190002, 0.10549713671207428, 0.0444769412279129, 0.020759806036949158, -0.04993903636932373, -0.0408148318529129, -0.1537710428237915, -0.15121176838874817, -0.08033353835344315, 0.020434901118278503, 0.03244595229625702, -0.1409103125333786, 0.059237316250801086, -0.16838803887367249, -0.15729182958602905, 0.018545076251029968, 0.06961221992969513, -0.03776922821998596, -0.035987213253974915, -0.13575302064418793, -0.17479515075683594, -0.038528069853782654, -0.1537594199180603, 0.016881421208381653, -0.04601457715034485, 0.08715061843395233, -0.058229997754096985, 0.15951915085315704, -0.0351954847574234, -0.11776524782180786, -0.14816854894161224, 0.1296781450510025, -0.10036879777908325, 0.14598314464092255, -0.07839477807283401, 0.11013107001781464, -0.176277294754982, -0.12765222787857056, -0.0441664457321167, 0.025194212794303894, -0.08916725963354111, 0.16804806888103485, 0.11559675633907318, -0.16755887866020203, 0.06597031652927399, -0.013496056199073792, -0.0803142711520195], [-0.03776934742927551, 0.17069540917873383, -0.008147835731506348, 0.06914050877094269, 0.06826023757457733, -0.1486632227897644, 0.06972415745258331, -0.10167597979307175, -0.16676947474479675, -0.06791163980960846, 0.17358390986919403, 0.15927530825138092, 0.13538457453250885, 0.08124049007892609, 0.1639140099287033, 0.11898620426654816, 0.08916141092777252, -0.08687776327133179, 0.1690877228975296, 0.006225720047950745, 0.06396850943565369, 0.12053649127483368, 0.1643671840429306, -0.017937570810317993, 0.11468832194805145, 0.08613555133342743, -0.09996329993009567, -0.022555768489837646, 0.10854251682758331, 0.03533439338207245, 0.12942223250865936, -0.12119738757610321, 0.03958195447921753, -0.05254843831062317, 0.1375756710767746, -0.07022356241941452, -0.1439630091190338, -0.02434377372264862, 0.13738785684108734, 0.1155640035867691, 0.0658971518278122, -0.12680397927761078, -0.0822872519493103, -0.08769810944795609, 0.17076300084590912, -0.030412569642066956, 0.036490991711616516, 0.0666685551404953, 0.05774843692779541, -0.07463250309228897, -0.0224045068025589, 0.1532215029001236, 0.12331707775592804, 0.1529940813779831, -0.06056194007396698, 0.14050810039043427, -0.09552402049303055, 0.006832137703895569, 0.11423908174037933, 0.016099587082862854, -0.06376227736473083, 0.015207335352897644, -0.008967578411102295, -0.0786527618765831], [-0.1245628148317337, -0.09691853076219559, 0.13803555071353912, -0.040877893567085266, -0.14974771440029144, -0.08076296746730804, -0.1419156789779663, 0.1573457270860672, -0.06331337243318558, 0.08948670327663422, 0.15790434181690216, -0.11156080663204193, 0.008831456303596497, -0.06328888982534409, -0.01580430567264557, -0.0792352706193924, -0.17276187241077423, -0.11085586249828339, 0.039987415075302124, -0.10096859186887741, -0.028050541877746582, -0.08672577887773514, 0.10007266700267792, 0.06502297520637512, 0.037671610713005066, 0.1403270810842514, 0.06259553134441376, -0.03493510186672211, 0.08275945484638214, 0.13275004923343658, 0.1361709088087082, 0.0040328651666641235, 0.1450788825750351, -0.010496169328689575, -0.12892818450927734, -0.09590359032154083, -0.07096374034881592, 0.15466012060642242, 0.10658340156078339, -0.06731484085321426, 0.1523185819387436, -0.1517210602760315, -0.03997969627380371, 0.031696617603302, 0.10034836828708649, -0.04850642383098602, 0.07512976229190826, -0.04168820381164551, 0.014910325407981873, -0.12021275609731674, -0.054461270570755005, -0.10218296945095062, -0.11894864588975906, -0.009802013635635376, -0.0889894887804985, -0.11620126664638519, -0.07293356209993362, 0.16266916692256927, 0.17204512655735016, -0.1184207946062088, -0.16924463212490082, -0.03192724287509918, -0.10526689141988754, 0.09694962203502655], [-0.00586313009262085, -0.05917084217071533, 0.07412900030612946, -0.13637004792690277, 0.004686862230300903, -0.08953870087862015, 0.12491966784000397, 0.1050027459859848, 0.09866859018802643, -0.045438557863235474, 0.014723286032676697, 0.1481621116399765, 0.01577673852443695, 0.002169892191886902, -0.14665371179580688, -0.16730692982673645, -0.003490641713142395, -0.10421022772789001, 0.08148528635501862, -0.03620751202106476, 0.004195123910903931, 0.0370405912399292, -0.11837729811668396, -0.11275617778301239, -0.1713133156299591, -0.059355445206165314, -0.08457612246274948, -0.08177824318408966, 0.048606351017951965, -0.03788457810878754, -0.032942771911621094, 0.08556361496448517, -0.02109593152999878, -0.060593508183956146, 0.05489766597747803, -0.07564882934093475, -0.019102811813354492, 0.09545190632343292, 0.13957123458385468, 0.08984531462192535, 0.09505997598171234, 0.03201769292354584, -0.167835533618927, -0.1363602727651596, 0.10863746702671051, 0.08297128975391388, 0.01870514452457428, -0.05719967931509018, 0.14512427151203156, -0.15725229680538177, -0.014704316854476929, 0.10286073386669159, -0.17063365876674652, -0.11543010175228119, -0.13336101174354553, 0.12021468579769135, -0.04633532464504242, 0.11542259156703949, -0.0969855859875679, -0.07211654633283615, 0.16520045697689056, 0.16887526214122772, 0.05402791500091553, 0.15524791181087494], [0.12004329264163971, 0.06536394357681274, 0.09289886057376862, -0.1399555653333664, -0.043628349900245667, -0.12879322469234467, 0.04409356415271759, 0.08499054610729218, -0.13662920892238617, -0.020629703998565674, 0.04149061441421509, -0.09928756207227707, -0.08035494387149811, 0.1037178784608841, 0.032143041491508484, -0.0508449524641037, -0.09400538355112076, 0.16973792016506195, 0.11287392675876617, 0.1090531200170517, 0.020737424492836, -0.10337285697460175, -0.11277826130390167, -0.03030678629875183, -0.0787329226732254, -0.127590149641037, 0.051807790994644165, 0.005714356899261475, -0.1017492339015007, 0.11018939316272736, 0.1529400795698166, 0.030310451984405518, -0.014233708381652832, 0.16252605617046356, 0.031534358859062195, -0.17353209853172302, -0.057761624455451965, 0.13256965577602386, 0.07776935398578644, -0.10370674729347229, 0.02707037329673767, 0.053311169147491455, 0.008962944149971008, 0.08822228014469147, -0.1715802401304245, 0.02862192690372467, -0.10498535633087158, -0.08382435142993927, 0.1059608906507492, 0.03735959529876709, 0.09318698942661285, 0.031479611992836, -0.00784197449684143, 0.04141244292259216, -0.10309207439422607, -0.0806812047958374, 0.025115638971328735, 0.08282677829265594, -0.06315629184246063, -0.030362457036972046, -0.09629606455564499, 0.04899546504020691, 0.024173200130462646, 0.06941893696784973], [0.06209069490432739, 0.027149826288223267, -0.03606443107128143, -0.0639161616563797, -0.04508928954601288, 0.07561300694942474, 0.06303870677947998, -0.016736596822738647, -0.14607693254947662, 0.1132471114397049, -0.0027762949466705322, 0.06328475475311279, -0.17136402428150177, -0.006116986274719238, 0.1127098947763443, -0.14455479383468628, -0.039254188537597656, 0.10872592031955719, -0.036169588565826416, 0.09386561810970306, 0.0166073739528656, 0.12804393470287323, 0.03201858699321747, -0.03172759711742401, -0.12691541016101837, 0.0994730144739151, 0.07511959969997406, 0.03602653741836548, 0.1507573276758194, 0.16760967671871185, -0.00033836066722869873, -0.08779862523078918, -0.16828645765781403, -0.16253189742565155, -0.0004588961601257324, -0.07188735157251358, -0.00985860824584961, 0.12747658789157867, -0.0260256826877594, -0.012586012482643127, -0.15624338388442993, -0.09921498596668243, 0.08247615396976471, 0.037435248494148254, -0.07255230098962784, 0.005648478865623474, 0.15411467850208282, -0.15826314687728882, -0.1364389955997467, 0.10096614062786102, 0.15704278647899628, -0.11358188092708588, 0.11494128406047821, -0.008837610483169556, 0.016055002808570862, -0.03203211724758148, 0.028976380825042725, 0.05375662446022034, 0.1563631147146225, -0.14238233864307404, 0.05989336967468262, -0.08099490404129028, -0.14930090308189392, 0.09149457514286041], [0.14692483842372894, 0.14564530551433563, 0.04112154245376587, 0.005147725343704224, 0.0550006628036499, 0.10413707792758942, -0.13113081455230713, -0.11638700217008591, -0.14354903995990753, 0.07303449511528015, -0.0993906557559967, 0.010533004999160767, -0.022127732634544373, -0.1298637092113495, 0.08825217187404633, -0.04019750654697418, -0.12374600768089294, 0.018036827445030212, 0.0928095132112503, -0.0742572695016861, -0.07707933336496353, -0.14516663551330566, -0.028013959527015686, -0.1330495923757553, -0.08494439721107483, 0.041407421231269836, 0.0850977748632431, 0.08635596930980682, 0.00034493207931518555, 0.09455640614032745, -0.033159494400024414, -0.10879133641719818, 0.05315716564655304, 0.17380113899707794, 0.10595105588436127, 0.15155868232250214, -0.12467142939567566, -0.11648912727832794, 0.05590328574180603, 0.12051309645175934, -0.06927099823951721, -0.14256390929222107, -0.11091963201761246, 0.09287931025028229, 0.15242870151996613, -0.05312011390924454, 0.0914900153875351, 0.025499597191810608, 0.06308013200759888, -0.16257253289222717, -0.15082532167434692, -0.122597336769104, 0.0646781325340271, -0.03558175265789032, 0.11559544503688812, -0.07599359005689621, -0.05039587616920471, 0.08178524672985077, 0.09078650176525116, -0.03519691526889801, 0.00727960467338562, -0.051240622997283936, -0.17364732921123505, 0.14842133224010468], [-0.009443342685699463, -0.10325838625431061, -0.009881705045700073, 0.02564370632171631, 0.1636754423379898, 0.107741579413414, 0.08974982798099518, -0.11481593549251556, -0.04169836640357971, 0.00565105676651001, -0.036739274859428406, 0.03931163251399994, 0.14267964661121368, 0.04850773513317108, -0.1325426995754242, -0.09480996429920197, 0.03303460776805878, -0.15941548347473145, -0.11650708317756653, -0.1583489179611206, 0.12505169212818146, -0.12232258915901184, -0.03447060286998749, 0.0853147953748703, 0.03723159432411194, -0.0447772741317749, -0.047207415103912354, -0.10542932897806168, -0.10624659806489944, -0.04464957118034363, 0.03475154936313629, 0.1354655772447586, -0.029752641916275024, -0.09332998096942902, 0.17368854582309723, 0.17233146727085114, -0.0380234569311142, -0.05605185031890869, -0.09363609552383423, -0.05685875564813614, 0.17669560015201569, 0.12209062278270721, -0.07273285835981369, 0.03202022612094879, 0.06602831184864044, 0.02259264886379242, -0.13747277855873108, -0.1181827113032341, -0.09632455557584763, -0.004509836435317993, 0.007601946592330933, -0.06934791803359985, 0.1474241465330124, 0.06779396533966064, 0.16119538247585297, -0.040362387895584106, -0.170369490981102, -0.10686527192592621, 0.024790063500404358, 0.0822029560804367, -0.0925290659070015, 0.0628313422203064, -0.06223268806934357, 0.07639364898204803], [0.16834039986133575, 0.07409100234508514, 0.07938949763774872, -0.047629401087760925, -0.08140137046575546, -0.1341741979122162, 0.1295626014471054, -0.10642550885677338, -0.0301210880279541, 0.014713883399963379, 0.171945258975029, -0.11689268052577972, -0.030626386404037476, -0.08429218083620071, 0.056387513875961304, -0.028537973761558533, 0.022836938500404358, -0.06470641493797302, -0.10780670493841171, -0.14586594700813293, -0.1451723277568817, -0.042859554290771484, -0.15384404361248016, 0.1618230789899826, -0.022931724786758423, -0.10403384268283844, -0.1639183610677719, 0.1351213902235031, 0.01139165461063385, -0.13784880936145782, 0.03463687002658844, 0.015513747930526733, 0.16456688940525055, 0.17426292598247528, 0.13528774678707123, 0.14078088104724884, 0.05328136682510376, 0.019237175583839417, 0.054943427443504333, -0.12987267971038818, -0.12791281938552856, -0.0028948187828063965, -0.019102677702903748, 0.034670501947402954, 0.009765759110450745, -0.018460705876350403, -0.04669710993766785, 0.04707203805446625, -0.028951391577720642, -0.14908120036125183, -0.03578503429889679, -0.14802655577659607, -0.14767369627952576, 0.029104083776474, -0.06178445369005203, 0.039621323347091675, 0.12111900746822357, 0.061135560274124146, 0.06997957825660706, -0.017104238271713257, -0.09882614016532898, 0.06113159656524658, -0.17666563391685486, -0.01673470437526703], [-0.08992750942707062, 0.1262376457452774, 0.1636953204870224, 0.10981293022632599, -0.069145567715168, -0.029130592942237854, 0.016982614994049072, -0.011121883988380432, 0.08959774672985077, 0.16289959847927094, -0.04795476794242859, -0.0708814337849617, 0.06367242336273193, 0.04216669499874115, -0.14276090264320374, -0.05702763795852661, -0.1475885659456253, 0.06250461935997009, 0.042058587074279785, 0.013568878173828125, -0.050646692514419556, -0.15199632942676544, 0.00922742486000061, -0.1584528386592865, -0.08515150845050812, -0.16284824907779694, -0.14716988801956177, 0.10116152465343475, 0.0068651288747787476, 0.13532902300357819, 0.1309881955385208, 0.002062201499938965, -0.06123587489128113, 0.15333192050457, -0.06702920794487, -0.08990921825170517, -0.15576496720314026, -0.13439179956912994, -0.0910775288939476, -0.047422319650650024, -0.0015849769115447998, -0.13649293780326843, 0.16287721693515778, -0.021236449480056763, 0.10352723300457001, 0.00618116557598114, -0.1302894800901413, -0.005396351218223572, -0.1240495964884758, -0.008598849177360535, -0.15834477543830872, -0.16129501163959503, 0.13512592017650604, -0.0701884925365448, -0.09016850590705872, -0.10593673586845398, -0.1564699113368988, -0.11108008027076721, 0.08055607974529266, 0.01448039710521698, 0.024482011795043945, 0.13399957120418549, 0.1686253696680069, 0.14982323348522186], [0.004236310720443726, -0.14961279928684235, -0.1627224087715149, 0.1347505897283554, 0.0005613565444946289, 0.17282657325267792, -0.12967999279499054, 0.17180614173412323, -0.17122882604599, -0.08813440799713135, 0.03883242607116699, 0.10083524882793427, -0.08026466518640518, 0.07190003991127014, -0.00834086537361145, -0.1292543113231659, -0.014745712280273438, -0.14571332931518555, 0.010502398014068604, -0.057599060237407684, 0.060072705149650574, 0.12177236378192902, -0.06032634526491165, 0.17099036276340485, -0.10472632199525833, 0.15903328359127045, -0.1584138572216034, -0.15152394771575928, 0.0915461927652359, 0.12208740413188934, -0.1163271963596344, -0.038723722100257874, 0.12078763544559479, 0.10623471438884735, 0.07816781103610992, 0.023265182971954346, -0.1376032680273056, 0.022422879934310913, 0.0818408876657486, 0.04138432443141937, -0.1743396371603012, 0.09177808463573456, -0.13761138916015625, -0.0953911691904068, 0.10464809834957123, 0.13616909086704254, 0.14727036654949188, -0.06458309292793274, 0.13560934364795685, -0.07327710092067719, 0.013691738247871399, -0.014260679483413696, -0.013495415449142456, -0.11412414163351059, 0.1256023794412613, -0.09507789462804794, 0.15447236597537994, 0.056739479303359985, -0.10911574214696884, -0.15598800778388977, -0.038285866379737854, -0.1577821969985962, -0.1203024834394455, 0.03226113319396973], [-0.014814451336860657, -0.06856394559144974, 0.13510601222515106, -0.09478610754013062, -0.07824570685625076, 0.15898989140987396, -0.15564721822738647, 0.13527794182300568, 0.13410325348377228, -0.04563112556934357, -0.11074783653020859, -0.061396196484565735, -0.13433495163917542, 0.16671420633792877, -0.013790994882583618, 0.06097055971622467, -0.04252047836780548, 0.03375810384750366, 0.0385107547044754, -0.026815935969352722, -0.08877432346343994, 0.05720844864845276, -0.17194253206253052, -0.054501816630363464, 0.16186420619487762, 0.0479390025138855, 0.17271123826503754, -0.10397328436374664, -0.03456947207450867, -0.12558770179748535, -0.03540921211242676, -0.17180003225803375, 0.14066170156002045, 0.1487841159105301, 0.15476669371128082, -0.16257168352603912, -0.15452627837657928, 0.001338079571723938, 0.10514162480831146, -0.007559671998023987, -0.03967203199863434, -0.1462426483631134, -0.004771232604980469, 0.0192030668258667, -0.08397325128316879, -0.17339082062244415, -0.15181484818458557, 0.03647291660308838, -0.03269082307815552, 0.015125453472137451, 0.1086476594209671, 0.08061878383159637, -0.07058488577604294, 0.009149909019470215, -0.10185999423265457, -0.14875438809394836, -0.059104375541210175, -0.07241857051849365, 0.14550895988941193, -0.11989429593086243, -0.059746019542217255, 0.0009088069200515747, 0.04376983642578125, -0.113859161734581], [-0.11253393441438675, 0.06084984540939331, -0.07893118262290955, 0.06709423661231995, 0.1357579380273819, -0.017510458827018738, 0.007178321480751038, -0.12835219502449036, -0.1459408700466156, -0.17640326917171478, 0.004310309886932373, -0.05471259355545044, 0.0456618070602417, -0.08566957712173462, 0.02705216407775879, 0.1588553935289383, 0.0313316285610199, -0.09784597158432007, -0.010482221841812134, -0.17177744209766388, -0.10418093949556351, -0.005967870354652405, -0.10690867900848389, -0.014452368021011353, 0.006791412830352783, -0.12375958263874054, -0.09910751134157181, 0.1021101325750351, 0.14083458483219147, 0.1278485804796219, -0.025342851877212524, -0.10120705515146255, 0.05939261615276337, -0.02665628492832184, -0.031408339738845825, -0.1540210247039795, -0.09918278455734253, 0.16595937311649323, -0.13072076439857483, 0.0391407310962677, -0.05200529098510742, 0.022122368216514587, 0.019638702273368835, 0.11033095419406891, -0.1395636349916458, 0.10085727274417877, -0.16330096125602722, -0.14254844188690186, 0.07784472405910492, 0.11452896893024445, -0.00048570334911346436, 0.06588201224803925, 0.011593073606491089, -0.1540997475385666, -0.13286659121513367, 0.1012779027223587, 0.1655210703611374, 0.16923169791698456, -0.022998318076133728, 0.039937764406204224, -0.08626435697078705, 0.06027154624462128, -0.05996493250131607, 0.14616666734218597], [0.10091932117938995, 0.05001330375671387, 0.03481392562389374, 0.020880430936813354, -0.03140151500701904, 0.16575439274311066, 0.15859828889369965, -0.049183979630470276, 0.1156541258096695, 0.17285539209842682, -0.03823882341384888, 0.012644439935684204, -0.13892662525177002, 0.10923375189304352, 0.03369008004665375, 0.0731630027294159, 0.08312635123729706, 0.16705076396465302, 0.15942521393299103, 0.16034241020679474, 0.007860258221626282, 0.09625492990016937, -0.10327886790037155, -0.14243678748607635, -0.170854389667511, 0.14718420803546906, -0.04143823683261871, -0.08865854889154434, 0.13263384997844696, 0.04673461616039276, 0.020885705947875977, 0.04361502826213837, 0.03233911097049713, -0.04177136719226837, 0.12547330558300018, 0.1466977447271347, 0.14944936335086823, 0.1432858258485794, 0.11789582669734955, -0.08203357458114624, -0.03315970301628113, 0.05961954593658447, 0.014422014355659485, 0.10643579065799713, 0.11201418936252594, 0.03794379532337189, -0.10907123982906342, 0.03544491529464722, 0.16729550063610077, 0.04982613027095795, 0.1516885608434677, -0.1458428055047989, -0.013364255428314209, 0.15537308156490326, -0.00305156409740448, -0.048378631472587585, 0.04788278043270111, -0.12289102375507355, -0.05979103595018387, -0.03997814655303955, -0.10592122375965118, -0.13672015070915222, 0.1356877237558365, 0.06831683218479156], [-0.09201082587242126, 0.11047463119029999, 0.028722062706947327, 0.09542353451251984, 0.11910723149776459, 0.10269702970981598, 0.09429039061069489, 0.14878232777118683, -0.12112085521221161, -0.022604361176490784, -0.09132379293441772, -0.1376623511314392, -0.14081931114196777, 0.15165777504444122, -0.052312374114990234, 0.12674154341220856, -0.02950166165828705, -0.0982104167342186, -0.010543957352638245, 0.13566865026950836, 0.15944324433803558, -0.14289754629135132, -0.0017532259225845337, 0.1460927277803421, -0.09448404610157013, 0.11667515337467194, 0.057919636368751526, 0.10848008096218109, 0.05109015107154846, 0.029308289289474487, 0.0733402818441391, 0.0918579250574112, -0.11141076683998108, -0.04760827124118805, 0.07855291664600372, -0.12259750813245773, -0.10494670271873474, -0.1658053994178772, 0.10895566642284393, -0.0811648815870285, 0.15206278860569, 0.16240693628787994, -0.0977969542145729, 0.10722340643405914, -0.12282181531190872, 0.1410999745130539, -0.06347113102674484, 0.13494519889354706, -0.12241177260875702, 0.06837533414363861, -0.06953593343496323, 0.13347043097019196, -0.006381615996360779, 0.038532257080078125, -0.05966649204492569, 0.1363699585199356, -0.15318052470684052, -0.1137232780456543, 0.0038732588291168213, 0.08963294327259064, -0.026610001921653748, 0.08118228614330292, 0.03585714101791382, 0.0736888200044632], [0.10602255165576935, 0.09253104031085968, -0.11367207020521164, 0.06501299142837524, -0.07912181317806244, -0.005886942148208618, 0.06701943278312683, 0.1338920146226883, 0.17628522217273712, 0.15599320828914642, 0.1404435783624649, -0.01702079176902771, 0.14965520799160004, -0.04324738681316376, 0.021875977516174316, -0.156603142619133, 0.14125622808933258, -0.0978112444281578, 0.08560134470462799, 0.0684046745300293, 0.08966024219989777, -0.15656298398971558, -0.08451656997203827, 0.05155275762081146, -0.11864864826202393, 0.1141749769449234, 0.022992447018623352, -0.06121817231178284, -0.12467998266220093, 0.16931910812854767, -0.049327582120895386, -0.023719996213912964, -0.1723504662513733, -0.06671462208032608, 0.019522130489349365, 0.07791025936603546, -0.13068699836730957, -0.040688857436180115, 0.11313854157924652, 0.1250239759683609, -0.12381770461797714, -0.01335802674293518, 0.02776212990283966, 0.0568428635597229, -0.014748156070709229, -0.11428939551115036, 0.11053533852100372, -0.01229250431060791, -0.14808480441570282, 0.08582215011119843, 0.07728876173496246, 0.024121522903442383, 0.12570975720882416, -0.024890795350074768, -0.12052898108959198, 0.002205759286880493, 0.16630084812641144, 0.01780848205089569, 0.08566699922084808, -0.08722387254238129, -0.04899044334888458, 0.08911673724651337, -0.09600643068552017, -0.12192691117525101], [-0.14256125688552856, 0.006434902548789978, -0.14413775503635406, -0.06339193880558014, 0.10179297626018524, 0.07511328160762787, -0.11408548802137375, -0.0906749814748764, -0.12089747190475464, 0.1756802350282669, 0.0766434520483017, -0.06291575729846954, -0.10150153934955597, 0.07531057298183441, -0.00889846682548523, 0.04104314744472504, 0.006908118724822998, 0.038611575961112976, 0.024115070700645447, 0.05270202457904816, -0.0821051374077797, -0.08163359761238098, -0.10355547815561295, -0.021448493003845215, 0.012878090143203735, 0.08356176316738129, 0.09390480816364288, -0.009502887725830078, -0.1012464240193367, 0.0023023486137390137, 0.15553565323352814, -0.14291730523109436, -0.16848881542682648, 0.16820667684078217, 0.06748473644256592, -0.0932537391781807, -0.17525814473628998, 0.07992665469646454, 0.11743979156017303, -0.12364912033081055, 0.16100327670574188, 0.05173011124134064, 0.007836148142814636, 0.09573741257190704, -0.040440917015075684, 0.0025459229946136475, 0.045750319957733154, -0.11557723581790924, -0.12497855722904205, -0.16850276291370392, 0.10722436010837555, 0.10280577838420868, 0.06643025577068329, -0.04199390113353729, 0.030846521258354187, 0.14471293985843658, -0.001992538571357727, -0.16132161021232605, -0.049229204654693604, 0.117283895611763, 0.04755319654941559, -0.08230436593294144, -0.1457204520702362, -0.02081991732120514], [-0.11337759345769882, -0.09780661016702652, 0.01031939685344696, 0.09681282937526703, -0.0292329341173172, 0.17057199776172638, 0.03334258496761322, -0.15075337886810303, -0.010531783103942871, 0.16894979774951935, -0.028895407915115356, 0.0595063716173172, -0.03418871760368347, 0.14621298015117645, 0.10732202231884003, 0.09120552241802216, -0.0757247805595398, 0.030222415924072266, -0.1207842230796814, 0.11561520397663116, -0.17018736898899078, -0.1687912493944168, 0.15708474814891815, -0.09256801009178162, -0.0018461942672729492, -0.07186627388000488, 0.09097801148891449, -0.018966972827911377, 0.15716640651226044, 0.08461178839206696, -0.05051320791244507, 0.16749413311481476, 0.06859003007411957, 0.15062300860881805, 0.1083163470029831, -0.11278656870126724, 0.16147653758525848, 0.02382338047027588, -0.07912547886371613, 0.09870965778827667, -0.09186288714408875, 0.006955161690711975, -0.1030629500746727, 0.11994032561779022, 0.04554097354412079, -0.1552220731973648, -0.1421569287776947, 0.008809491991996765, 0.07635132968425751, 0.11971066892147064, -0.1414685845375061, -0.08890338242053986, -0.11028565466403961, 0.1161167174577713, -0.1529233455657959, -0.10616723448038101, -0.09407050162553787, 0.15335620939731598, -0.01806780695915222, -0.08353264629840851, -0.12288528680801392, -0.1460248827934265, -0.14403381943702698, -0.05454826354980469], [-0.07347725331783295, -0.07593213766813278, -0.08556021004915237, 0.13917876780033112, 0.11872930824756622, 0.005146637558937073, -0.07649644464254379, -0.012137830257415771, 0.054506659507751465, -0.123447485268116, 0.09351687133312225, 0.012111231684684753, -0.11008794605731964, 0.0016203373670578003, 0.13955487310886383, 0.07131554186344147, -0.15355083346366882, -0.11006784439086914, 0.03197036683559418, 0.1456434577703476, -0.0794844850897789, 0.1469075232744217, 0.11143766343593597, 0.00863879919052124, -0.17600031197071075, 0.1703251451253891, -0.009303838014602661, 0.09259392321109772, -0.04423151910305023, 0.11515586078166962, -0.02640862762928009, -0.037316352128982544, 0.0817282646894455, 0.11286647617816925, -0.15123696625232697, -0.03259266912937164, 0.17260803282260895, -0.0022460520267486572, -0.03295457363128662, 0.02701692283153534, 0.008988574147224426, -0.09276904910802841, 0.13870324194431305, 0.08356134593486786, -0.046102166175842285, 0.025437310338020325, 0.061444997787475586, 0.03197099268436432, 0.058950409293174744, -0.0767357125878334, 0.043960005044937134, 0.0676622986793518, 0.029969781637191772, -0.023198306560516357, 0.1181870847940445, 0.01788787543773651, 0.01902499794960022, -0.10329783707857132, 0.04076308012008667, -0.09244430810213089, -0.008823618292808533, -0.13393083214759827, 0.16745232045650482, -0.005929633975028992], [0.01394815742969513, -0.01896132528781891, 0.17577476799488068, 0.12978176772594452, -0.03584201633930206, -0.17556075751781464, -0.14711740612983704, -0.08246249705553055, 0.10123859345912933, -0.08031275868415833, -0.06694424152374268, -0.0033896565437316895, 0.1637158840894699, 0.06120699644088745, 0.016274750232696533, 0.14262981712818146, -0.10316334664821625, 0.11355699598789215, -0.009663298726081848, 0.08334837853908539, -0.0858846977353096, 0.16070406138896942, 0.14546217024326324, -0.17119063436985016, 0.09559021890163422, -0.0819263905286789, 0.05599676072597504, -0.0023429840803146362, -0.13983367383480072, 0.0706455409526825, 0.0036122798919677734, 0.1329212635755539, 0.01177266240119934, 0.0440555065870285, 0.11716984212398529, -0.05893579125404358, 0.10096286237239838, 0.034213244915008545, -0.10861634463071823, 0.09132061898708344, 0.022864162921905518, -0.09729359298944473, -0.16294531524181366, -0.15165160596370697, 0.0383945107460022, 0.02764420211315155, -0.10058408230543137, 0.11137737333774567, -0.15119317173957825, 0.07456184923648834, 0.06744705140590668, -0.004298552870750427, -0.08251514285802841, -0.03393930196762085, 0.06847350299358368, -0.159746915102005, -0.015826568007469177, -0.06555672734975815, -0.0573715940117836, 0.08716090023517609, -0.039236992597579956, -0.09620220214128494, 0.04460586607456207, -0.07391747832298279], [-0.09609679132699966, 0.05756525695323944, -0.022177621722221375, 0.06496675312519073, -0.09179701656103134, 0.08800412714481354, -0.17321735620498657, 0.13249270617961884, -0.11999233067035675, 0.03126819431781769, -0.12115604430437088, -0.07444123923778534, 0.10209058225154877, 0.11030109226703644, -0.13132718205451965, -0.007065325975418091, 0.04426068067550659, 0.17255575954914093, 0.10792391002178192, -0.006466969847679138, -0.12050479650497437, -0.10087843984365463, -0.041205450892448425, 0.03464744985103607, -0.14270344376564026, -0.06481582671403885, 0.09156294167041779, 0.02243189513683319, 0.0008979439735412598, -0.06360148638486862, 0.09486447274684906, 0.16796834766864777, 0.14616991579532623, 0.05875156819820404, -0.09388480335474014, -0.0482364296913147, 0.12696333229541779, -0.007777690887451172, -0.07029251009225845, -0.05043599009513855, 0.058908611536026, -0.11038554459810257, 0.17246611416339874, 0.14295269548892975, -0.08600667119026184, 0.03418534994125366, -0.12764358520507812, -0.11642826348543167, 0.03754238784313202, 0.16452865302562714, 0.09910561144351959, -0.12118344008922577, -0.07657298445701599, -0.05558890849351883, 0.019062086939811707, -0.14703509211540222, 0.03769749402999878, 0.032424792647361755, 0.05567421019077301, -0.11628745496273041, -0.15367886424064636, 0.10827715694904327, -0.041031599044799805, -0.1418042927980423], [0.06265774369239807, -0.06782401353120804, 0.1598152369260788, 0.1659870594739914, 0.030143514275550842, -0.06483002752065659, -0.15100090205669403, -0.17047294974327087, -0.10407388210296631, -0.007519170641899109, -0.07654651254415512, 0.15121953189373016, -0.04158557951450348, 0.10054053366184235, 0.04973100125789642, -0.08009587228298187, 0.1661473959684372, 0.11783041059970856, -0.09952522814273834, -0.11569680273532867, 0.001624763011932373, -0.0619259849190712, 0.041051656007766724, 0.0495571494102478, -0.03075219690799713, -0.0885506123304367, 0.14594842493534088, -0.02192912995815277, -0.17034600675106049, -0.09218598902225494, 0.05850231647491455, -0.018800988793373108, -0.09432376176118851, 0.13727940618991852, 0.16115690767765045, 0.07742808759212494, -0.04037562012672424, -0.09453482925891876, -0.04413166642189026, -0.0717536211013794, -0.06069263815879822, -0.09014540910720825, -0.02288186550140381, 0.11107026040554047, -0.10442652553319931, 0.17028750479221344, 0.044842347502708435, -0.02058844268321991, -0.1636541485786438, 0.08006726205348969, -0.1556030511856079, -0.07776915282011032, -0.0628107339143753, 0.16639627516269684, -0.028172969818115234, -0.13955853879451752, -0.16039113700389862, -0.0948316752910614, 0.09034611284732819, -0.09656820446252823, -0.042632341384887695, -0.0007463395595550537, -0.07245355099439621, 0.011850640177726746], [0.02663584053516388, -0.0068569183349609375, 0.0601344108581543, -0.09682163596153259, 0.17107786238193512, -0.14083002507686615, 0.026203498244285583, 0.0021063685417175293, 0.010096237063407898, 0.15707768499851227, -0.07668096572160721, -0.12249188870191574, -0.036081284284591675, -0.007624030113220215, 0.028824731707572937, -0.03546792268753052, 0.02168653905391693, 0.13607771694660187, -0.007401570677757263, -0.13257771730422974, -0.13525143265724182, -0.12322086095809937, 0.07544173300266266, -0.08222512900829315, -0.13987037539482117, -0.015512362122535706, -0.1030951514840126, 0.03855694830417633, 0.09076391160488129, 0.08483283221721649, 0.061891376972198486, -0.008075416088104248, 0.13453678786754608, 0.17299823462963104, -0.020878702402114868, -0.07077556103467941, -0.1598004847764969, 0.06216453015804291, 0.11943350732326508, -0.16776953637599945, 0.14738942682743073, 0.05182291567325592, -0.056321464478969574, 0.006946101784706116, -0.04182484745979309, -0.061399273574352264, 0.17247019708156586, -0.14196714758872986, 0.07096020877361298, 0.12492649257183075, 0.1411382108926773, 0.17066173255443573, -0.06015973538160324, -0.033374398946762085, -0.09656420350074768, -0.1441621482372284, -0.00028352439403533936, 0.07037533819675446, -0.026032045483589172, 0.03879903256893158, 0.00938887894153595, -0.06945467740297318, 0.14655466377735138, -0.055646732449531555], [-0.0761452317237854, -0.10266896337270737, 0.14895693957805634, -0.04969252645969391, 0.16490115225315094, -0.0698959082365036, 0.009718641638755798, 0.11660708487033844, 0.11908511817455292, 0.1680324524641037, 0.03976956009864807, -0.08259589225053787, 0.12209160625934601, 0.013305172324180603, -0.0908835232257843, 0.10732804238796234, 0.10781420767307281, 0.12233047187328339, -0.17295847833156586, -0.12577155232429504, 0.04532189667224884, -0.05919145792722702, -0.06980365514755249, 0.0695812851190567, -0.009947746992111206, -0.17378093302249908, -0.013156309723854065, -0.0721004456281662, -0.08729876577854156, -0.08611208200454712, -0.12240161001682281, 0.11806099116802216, 0.03942437469959259, -0.17040817439556122, -0.08689305931329727, 0.13244317471981049, 0.04963617026805878, 0.0002317279577255249, 0.07606376707553864, 0.12222759425640106, -0.15029089152812958, -0.01950475573539734, -0.14056062698364258, -0.05617929995059967, -0.1501224786043167, 0.034852996468544006, -0.05212899297475815, -0.13215194642543793, 0.1707383245229721, 0.006699785590171814, -0.13448253273963928, -0.13765522837638855, -0.05747051537036896, 0.08348412811756134, -0.17229947447776794, -0.0033139288425445557, -0.05503387749195099, -0.012991219758987427, -0.027222782373428345, -0.009585157036781311, -0.07353689521551132, 0.15490825474262238, 0.14010871946811676, 0.1184530109167099], [0.007412910461425781, -0.0849461704492569, -0.006034761667251587, 0.11384789645671844, 0.04131326079368591, 0.15452931821346283, -0.016216963529586792, -0.1040845513343811, -0.11422023177146912, 0.11426626145839691, 0.11101989448070526, 0.11190839111804962, -0.08211002498865128, -0.005045056343078613, 0.02802908420562744, 0.1645890325307846, -0.14000040292739868, -0.04261653125286102, 0.07704778015613556, 0.08793754875659943, -0.16004756093025208, -0.17154863476753235, -0.03581804037094116, -0.03728407621383667, -0.15949168801307678, -0.13791701197624207, 0.08911634981632233, -0.08700921386480331, 0.07427690923213959, 0.0713874101638794, -0.10459170490503311, 0.05108046531677246, -0.13055360317230225, 0.03421252965927124, 0.06865948438644409, -0.05788726359605789, -0.033181458711624146, -0.10177721828222275, 0.015541225671768188, 0.08955083787441254, 0.11015848815441132, -0.04386374354362488, -0.0746205747127533, 0.16939260065555573, -0.09598211199045181, 0.10872314870357513, -0.08122982829809189, -0.030567631125450134, -0.10116448998451233, 0.04189734160900116, 0.010337531566619873, 0.1632818728685379, 0.1764615923166275, 0.05020110309123993, 0.08638079464435577, 0.014899253845214844, -0.1758323460817337, -0.1685088723897934, -0.10269834101200104, -0.028494268655776978, 0.05929674208164215, 0.13104306161403656, -0.09774772822856903, 0.007623776793479919], [0.011720448732376099, -0.010389581322669983, 0.03462354838848114, -0.13236883282661438, -0.014239221811294556, 0.12306980788707733, -0.03743559122085571, 0.04543881118297577, -0.10957624018192291, -0.11441929638385773, -0.1104375571012497, 0.06276293098926544, 0.17432938516139984, -0.06347964704036713, -0.007000923156738281, -0.16674818098545074, -0.1261790245771408, -0.048360005021095276, -0.09263510257005692, -0.13989706337451935, 0.166298046708107, 0.0007768571376800537, 0.0033667385578155518, 0.01960064470767975, 0.0023744702339172363, -0.11570233106613159, -0.09050795435905457, 0.03206738829612732, -0.10594124346971512, 0.057801201939582825, -0.08485395461320877, -0.09029266983270645, -0.08782117813825607, 0.09232251346111298, 0.17317964136600494, 0.15171782672405243, -0.0076662153005599976, 0.058312222361564636, 0.10182993113994598, -0.1673586070537567, -0.016388922929763794, -0.011750370264053345, 0.11814330518245697, -0.0363551527261734, -0.13003677129745483, -0.10922528058290482, 0.14465047419071198, 0.1351279467344284, -0.03288984298706055, 0.1745356172323227, -0.05257098376750946, 0.10306353867053986, -0.10613861680030823, -0.05890017747879028, -0.1366969347000122, 0.08560340106487274, 0.020084574818611145, -0.143479585647583, 0.1572304219007492, 0.14797835052013397, 0.12664960324764252, -0.011429175734519958, 0.1495041698217392, 0.17305655777454376], [0.013179615139961243, -0.1493147760629654, 0.16982795298099518, -0.07396771758794785, -0.14110329747200012, -0.14346466958522797, 0.16618235409259796, -0.17021016776561737, -0.12525230646133423, 0.005237415432929993, 0.11293192207813263, -0.08744063228368759, -0.015417397022247314, 0.1493500918149948, -0.052426546812057495, 0.10468627512454987, -0.08834248781204224, 0.08443982899188995, -0.09190317988395691, -0.14838838577270508, -0.08845067769289017, 0.11557714641094208, 0.14474503695964813, 0.027914196252822876, 0.06789110600948334, -0.10336910933256149, 0.0985647588968277, 0.08287148177623749, -0.12132509797811508, 0.16472993791103363, -0.07353474199771881, -0.07061472535133362, 0.005545765161514282, -0.12512922286987305, 0.14045025408267975, 0.05263496935367584, 0.16993899643421173, -0.03693854808807373, -0.03560274839401245, 0.05239127576351166, 0.13614194095134735, -0.031933993101119995, -0.05363763868808746, -0.16756613552570343, 0.15400604903697968, 0.00434546172618866, -0.13194812834262848, -0.022939354181289673, -0.04074980318546295, 0.1592646688222885, 0.029260873794555664, -0.0311288982629776, 0.01582445204257965, -0.1704528033733368, 0.11366264522075653, -0.06476693600416183, 0.050321146845817566, -0.15285027027130127, -0.11356350034475327, 0.0804099589586258, -0.06083058565855026, 0.02438528835773468, -0.05281577259302139, 0.0973333865404129], [-0.10178303718566895, 0.13153217732906342, 0.001791536808013916, -0.1550062894821167, 0.1344119757413864, -0.1458200067281723, 0.02020356059074402, 0.17471753060817719, -0.15889640152454376, -0.09088858217000961, 0.09170208871364594, 0.0024484843015670776, 0.1480686217546463, -0.024729877710342407, -0.05240163952112198, -0.030207619071006775, -0.03936700522899628, 0.16932590305805206, 0.03837592899799347, -0.11225303262472153, -0.16659380495548248, -0.11305967718362808, -0.013119980692863464, 0.17294402420520782, 0.15708006918430328, 0.048639774322509766, 0.06336310505867004, -0.07315411418676376, 0.13855545222759247, -0.043273478746414185, -0.0573037788271904, 0.044785574078559875, -0.16195043921470642, -0.17155301570892334, 0.042553022503852844, -0.029727518558502197, 0.05305752158164978, -0.12919580936431885, -0.10521142929792404, -0.12485704571008682, -0.09195733815431595, -0.03192850947380066, 0.11384664475917816, -0.098478764295578, 0.07918734848499298, 0.026655644178390503, -0.16243310272693634, 0.062179163098335266, 0.032766565680503845, -0.060450293123722076, 0.12436427175998688, 0.15361542999744415, -0.09731483459472656, 0.02795363962650299, -0.13224981725215912, -0.031160011887550354, -0.07510079443454742, -0.16844670474529266, 0.028281792998313904, -0.07906735688447952, -0.08086977154016495, 0.09050910174846649, 0.025101184844970703, 0.09056498110294342], [0.02854028344154358, 0.045308783650398254, -0.17110751569271088, 0.08289606869220734, -0.1528661996126175, 0.023224472999572754, 0.07368214428424835, -0.057903870940208435, -0.023965954780578613, 0.05266392230987549, -0.07827179878950119, 0.15974096953868866, -0.15624451637268066, 0.1420067995786667, -0.01484939455986023, 0.08564142882823944, -0.10362409800291061, 0.004888862371444702, 0.08804623782634735, -0.16529855132102966, 0.1462768167257309, -0.07945464551448822, 0.16484542191028595, 0.1596539169549942, 0.012788534164428711, 0.030676543712615967, -0.046798765659332275, 0.05696547031402588, -0.029275283217430115, -0.10185932368040085, -0.0760272666811943, -0.06563376635313034, -0.15841343998908997, 0.062188521027565, -0.1438240110874176, -0.14885380864143372, 0.17280809581279755, 0.06183136999607086, -0.06439106911420822, 0.10390050709247589, 0.017110362648963928, 0.09534774720668793, 0.14813415706157684, -0.12676140666007996, -0.14681799709796906, 0.14191429316997528, 0.0785379558801651, 0.0412573367357254, 0.0469655841588974, -0.15392859280109406, 0.06994585692882538, -0.12245294451713562, 0.13777627050876617, 0.1504487842321396, 0.0933438390493393, -0.10677865892648697, 0.058450937271118164, 0.04091376066207886, 0.024185046553611755, 0.11924712359905243, 0.14794711768627167, 0.1651572734117508, 0.1303490251302719, 0.04899419844150543], [0.16831399500370026, 0.09161792695522308, -0.08888474851846695, -0.06176801770925522, 0.029267102479934692, -0.12253180146217346, -0.012341320514678955, 0.011166378855705261, 0.006455212831497192, 0.06570853292942047, -0.0943155437707901, -0.06751322001218796, 0.1652275174856186, 0.0446539968252182, -0.03409844636917114, 0.017683804035186768, 0.0968509167432785, -0.023609310388565063, 0.11429964005947113, 0.028629302978515625, -0.10033731162548065, 0.027939781546592712, 0.0844249278306961, 0.16724492609500885, -0.11874806880950928, -0.14067795872688293, -0.09445660561323166, -0.16856244206428528, 0.12967745959758759, 0.1436368077993393, 0.14884336292743683, -0.1047523245215416, 0.034033164381980896, -0.14994503557682037, -0.05024556815624237, -0.0018596500158309937, -0.0421847403049469, -0.09728284925222397, 0.06393469870090485, -0.10907039791345596, -0.049819424748420715, -0.16091527044773102, -0.014881089329719543, -0.1388310045003891, 0.09681235253810883, 0.12895949184894562, -0.15886996686458588, 0.12435786426067352, -0.14619269967079163, -0.03377285599708557, -0.00345689058303833, 0.010830312967300415, -0.09077849239110947, -0.16060246527194977, -0.05423136055469513, 0.12615452706813812, -0.15260851383209229, -0.08203184604644775, 0.1323796659708023, -0.0933423712849617, -0.16843831539154053, 0.04160521924495697, -0.021325215697288513, 0.0932314544916153], [0.14197604358196259, -0.004647791385650635, 0.15306730568408966, -0.0808689296245575, -0.17048442363739014, -0.1115879938006401, 0.03411900997161865, -0.14057812094688416, -0.0625382512807846, 0.0802154392004013, 0.0022473931312561035, -0.15822246670722961, 0.1652338057756424, 0.15065787732601166, -0.010037735104560852, -0.09517011046409607, -0.1658414751291275, -0.09682509303092957, -0.04122580587863922, 0.13058866560459137, 0.01760651171207428, 0.07733677327632904, 0.06268584728240967, -0.11755472421646118, -0.13409125804901123, -0.08800484985113144, 0.1408352106809616, 0.06292827427387238, -0.032007068395614624, -7.662177085876465e-05, -0.12657776474952698, 0.13710461556911469, -0.10985811799764633, 0.086616650223732, 0.17390568554401398, -0.038023918867111206, -0.14210054278373718, 0.15733449161052704, -0.09239444881677628, -0.08132132887840271, 0.09819291532039642, 0.16885678470134735, -0.082159124314785, -0.11089543998241425, 0.00504814088344574, -0.07005712389945984, -0.041208744049072266, -0.05702143907546997, -0.013641506433486938, -0.08690321445465088, 0.06380754709243774, 0.09451578557491302, 0.16666628420352936, -0.07942379266023636, 0.036387860774993896, -0.16917622089385986, -0.15760885179042816, -0.1471015214920044, -0.08874668180942535, -0.11783293634653091, 0.17666269838809967, -0.07593268901109695, 0.0007673203945159912, 0.17010943591594696], [0.06625868380069733, -0.03302846848964691, 0.07161739468574524, 0.10461024940013885, 0.06398902833461761, -0.014910459518432617, -0.06074958294630051, 0.10627390444278717, 0.14013497531414032, 0.17299415171146393, 0.04624238610267639, 0.0018554776906967163, -0.12716643512248993, -0.1397997885942459, -0.16241616010665894, 0.0436357706785202, -0.14579960703849792, -0.037571296095848083, -0.10173498839139938, -0.12873294949531555, -0.14909182488918304, 0.05487729609012604, -0.07014373689889908, -0.09555992484092712, -0.11568976938724518, 0.006281435489654541, -0.13562552630901337, 0.08179889619350433, 0.01079288125038147, 0.10793770849704742, -0.055705949664115906, 0.1360241323709488, -0.13687340915203094, 0.0021814852952957153, -0.11545184999704361, -0.04131537675857544, 0.02738778293132782, 0.1475033015012741, 0.0038326233625411987, -0.0962236151099205, 0.171028271317482, 0.08704324066638947, -0.04449746012687683, 0.04968300461769104, -0.005812391638755798, -0.07963039726018906, 0.12576664984226227, 0.07499100267887115, 0.08948938548564911, -0.15019135177135468, 0.1253563016653061, -0.05984966456890106, -0.1288793683052063, -0.024303346872329712, -0.16604754328727722, 0.15700669586658478, 0.004616975784301758, -0.17148098349571228, 0.08285422623157501, 0.06289035081863403, -0.03291015326976776, 0.14104826748371124, -0.1534889191389084, 0.11228708922863007], [0.15472237765789032, -0.1715644747018814, -0.07749692350625992, 0.11993135511875153, 0.008894205093383789, 0.0205078125, -0.14978598058223724, 0.019596979022026062, -0.07606140524148941, 0.056235820055007935, -0.0770266130566597, -0.15150219202041626, -0.018985137343406677, 0.06588710844516754, 0.04190610349178314, 0.0761478990316391, -0.016876742243766785, -0.11619363725185394, -0.02971617877483368, 0.017460674047470093, 0.00779801607131958, -0.07249485701322556, -0.16564761102199554, -0.13633932173252106, -0.12633109092712402, -0.16954226791858673, 0.08363141119480133, 0.12659110128879547, -0.040705472230911255, -0.05079445242881775, -0.1594473421573639, -0.05586307495832443, -0.12655653059482574, 0.034348830580711365, 0.06388749182224274, 0.010843157768249512, 0.012284412980079651, -0.024376511573791504, -0.16242572665214539, 0.15545253455638885, 0.166891947388649, -0.07700106501579285, 0.016065403819084167, 0.14232902228832245, -0.07863088697195053, -0.0319538414478302, 0.1392742544412613, 0.08707626163959503, 0.08321820199489594, 0.09338398277759552, -0.13673490285873413, -0.12527361512184143, 0.04128865897655487, 0.0994664877653122, 0.044789791107177734, 0.15085528790950775, 0.16745389997959137, 0.0013422966003417969, -0.10029744356870651, -0.015280589461326599, 0.04993532598018646, -0.07962188869714737, -0.17443135380744934, 0.13384367525577545], [0.16430555284023285, 0.0574384480714798, 0.06314040720462799, -0.019431471824645996, 0.05640621483325958, 0.005493298172950745, 0.13822881877422333, -0.030325666069984436, -0.05367586761713028, -0.06594354659318924, 0.08009050786495209, 0.166825070977211, -0.04198659956455231, 0.09035290777683258, -0.10463734716176987, -0.07086516171693802, -0.08764508366584778, 0.09626157581806183, 0.10426013171672821, -0.16081956028938293, -0.01425844430923462, -0.07966478914022446, -0.11042638123035431, -0.020114079117774963, 0.04769286513328552, 0.05507172644138336, -0.13039985299110413, -0.1438952386379242, -0.17135918140411377, 0.006545066833496094, 0.003948986530303955, -0.007030382752418518, -0.1669616550207138, -0.12992650270462036, 0.03448303043842316, -0.1211005374789238, -0.1233229786157608, 0.1274103969335556, -0.16608572006225586, -0.11470243334770203, -0.16872504353523254, -0.07420757412910461, -0.11948884278535843, 0.17111511528491974, -0.08375164866447449, -0.10002100467681885, 0.06171448528766632, -0.04228012263774872, -0.17230989038944244, -0.008477717638015747, -0.14167308807373047, -0.12733915448188782, -0.11174309253692627, -0.003479018807411194, 0.10370565950870514, -0.1482805758714676, 0.10320954024791718, -0.12284381687641144, 0.09837625920772552, 0.01343594491481781, 0.13281629979610443, -0.09492873400449753, -0.16863299906253815, -0.07240331172943115], [-0.0785188153386116, 0.044530123472213745, -0.08302052319049835, 0.0339861661195755, 0.14980225265026093, -0.011490657925605774, 0.012212350964546204, 0.12532053887844086, -0.146322101354599, -0.13230518996715546, 0.00374719500541687, 0.09729562699794769, -0.12485498189926147, -0.05870512127876282, 0.011767953634262085, -0.06712479889392853, -0.1738363653421402, 0.1575622409582138, 0.0018423199653625488, -0.09211690723896027, 0.09771071374416351, 0.12679798901081085, 0.17262868583202362, 0.04282085597515106, -0.021661028265953064, 0.053798139095306396, -0.03540158271789551, 0.17295826971530914, -0.06670893728733063, -0.09973832219839096, 0.164171501994133, 0.07030554115772247, -0.16302910447120667, -0.1370895355939865, 0.09859238564968109, -0.10096762329339981, 0.16711191833019257, 0.07746909558773041, 0.07985655963420868, 0.04031240940093994, -0.052400290966033936, -0.04252384603023529, -0.05584368854761124, -0.1353987753391266, -0.0056615471839904785, -0.06458490341901779, -0.11929745227098465, 0.16458900272846222, 0.02014888823032379, -0.0066306740045547485, -0.12242542207241058, -0.14186565577983856, 0.006766170263290405, -0.0025042742490768433, 0.11629281938076019, -0.17398075759410858, 0.05966177582740784, 0.02130502462387085, 0.11465241014957428, 0.001549944281578064, 0.10420535504817963, 0.056239187717437744, 0.128095343708992, -0.11761866509914398], [0.04420095682144165, -0.10706837475299835, -0.15365341305732727, 0.033536240458488464, -0.06718759983778, 0.13071022927761078, -0.08187083899974823, -0.1674669235944748, -0.026316702365875244, 0.013923466205596924, -0.13163939118385315, 0.04424373805522919, 0.07214120030403137, -0.1619718074798584, -0.10169659554958344, -0.009464159607887268, -0.07556892186403275, 0.1551404744386673, -0.1636682152748108, -0.028094202280044556, 0.10089562833309174, -0.07223611325025558, 0.15194036066532135, 0.04450391232967377, 0.15587367117404938, 0.12378369271755219, 0.01791304349899292, -0.12769845128059387, -0.0952896848320961, -0.028567001223564148, -0.15781398117542267, -0.01537942886352539, 0.0979652851819992, 0.14545585215091705, 7.539987564086914e-06, 0.1131332665681839, -0.005761981010437012, -0.05479157716035843, -0.1728174239397049, 0.06100921332836151, 0.005426198244094849, 0.03612072765827179, 0.06630513072013855, 0.004032015800476074, -0.0931471437215805, -0.07883420586585999, 0.13338221609592438, 0.08796431124210358, 0.10234381258487701, 0.11773093044757843, 0.0327395498752594, -0.0523681715130806, 0.07313030958175659, -0.05276013910770416, 0.11551670730113983, 0.019984006881713867, -0.0360109806060791, -0.02116231620311737, 0.10182194411754608, 0.04857988655567169, 0.037003159523010254, 0.025327816605567932, -0.09529676288366318, 0.07401256263256073], [-0.006342977285385132, -0.07019388675689697, -0.17075373232364655, -0.15854261815547943, -0.07913104444742203, -0.07836346328258514, 0.059498533606529236, 0.08748944103717804, -0.14341755211353302, 0.12792162597179413, -0.13398301601409912, -0.15255329012870789, 0.15666364133358002, 0.05993463099002838, -0.15522578358650208, 0.02244707942008972, 0.06303992867469788, 0.04413272440433502, -0.06083952635526657, 0.002222031354904175, -0.1170094683766365, 0.0256623774766922, 0.027069196105003357, -0.13532501459121704, -0.0632491409778595, 0.0774291604757309, 0.07703913748264313, 0.004238039255142212, 0.12638966739177704, -0.10009007900953293, 0.03322532773017883, -0.04284682869911194, 0.09779931604862213, 0.022203296422958374, -0.16001863777637482, -0.09710722416639328, -0.09985785186290741, 0.16902823746204376, 0.024205908179283142, -0.07140223681926727, -0.04120238125324249, 0.16607393324375153, 0.04158271849155426, -0.0048652589321136475, 0.025034382939338684, 0.10910321772098541, 0.10896815359592438, -0.10953649878501892, 0.05031999945640564, -0.15365830063819885, 0.013601213693618774, 0.14603154361248016, -0.11222618073225021, -0.026588797569274902, 0.078749880194664, 0.055621832609176636, 0.14086027443408966, -0.04734624922275543, 0.1655644029378891, -0.1352822333574295, -0.014173775911331177, -0.10159097611904144, -0.1633162945508957, -0.024149760603904724], [0.06939201056957245, 0.16289566457271576, -0.07735725492238998, 0.11154048144817352, 0.1169460266828537, -0.066627636551857, -0.15990231931209564, 0.07130277156829834, 0.021038487553596497, -0.06710018217563629, 0.13044671714305878, -0.010291874408721924, -0.011694490909576416, -0.05602765828371048, -0.08975209295749664, -0.16047993302345276, -0.04468037188053131, 0.06922425329685211, -0.010178342461585999, -0.004243895411491394, -0.11645708978176117, 0.12026230990886688, -0.029142305254936218, -0.058456964790821075, -0.07825043052434921, 0.02173273265361786, 0.11540539562702179, -0.09765652567148209, -0.0478794127702713, -0.03673367202281952, 0.15188287198543549, -0.002120658755302429, -0.1663230061531067, -0.040194183588027954, 0.09158258140087128, 0.08563236892223358, 0.07275848090648651, 0.03023470938205719, 0.03353598713874817, 0.0009382367134094238, -0.005810990929603577, 0.12546487152576447, -0.04204101860523224, -0.06370040774345398, 0.08714942634105682, 0.14334510266780853, 0.16969715058803558, -0.03137470781803131, -0.1350872665643692, 0.04297153651714325, 0.08106149733066559, -0.07069990783929825, -0.04493144154548645, -0.05400427430868149, -0.06522279232740402, -0.010885179042816162, -0.012035742402076721, 0.009181052446365356, -0.040421485900878906, -0.04911346733570099, 0.004155516624450684, -0.16089551150798798, 0.12701545655727386, 0.15186189115047455], [-0.12514187395572662, 0.10517628490924835, 0.1294732242822647, 0.17049650847911835, 0.14172230660915375, -0.044768258929252625, -0.08783744275569916, -0.02624581754207611, -0.17127972841262817, 0.007180467247962952, -0.1448741853237152, -0.17101037502288818, 0.1726336032152176, -0.14510077238082886, -0.07600788027048111, 0.021487176418304443, 0.03359483182430267, -0.01657433807849884, 0.14073212444782257, 0.12187303602695465, 0.0032712221145629883, -0.1541052758693695, 0.04837176203727722, -0.03570428490638733, 0.05255652964115143, -0.14816179871559143, -0.007520690560340881, -0.10512427240610123, -0.05922310799360275, 0.06722582876682281, 0.05809415876865387, 0.08122389018535614, 0.1332119256258011, 0.07936181128025055, -0.043779581785202026, 0.06523944437503815, 0.014419153332710266, 0.05532962083816528, -0.10668707638978958, 0.08334152400493622, 0.007084637880325317, 0.05422753095626831, 0.053979113698005676, -0.14893019199371338, 0.06931732594966888, -0.09874344617128372, 0.10786540806293488, -0.11390602588653564, -0.13619504868984222, -0.021770328283309937, -0.10196258127689362, 0.0076957643032073975, -0.14920523762702942, -0.02412956953048706, -0.1705140471458435, 0.023690909147262573, 0.05650636553764343, -0.1484307497739792, -0.0696273073554039, 0.030132681131362915, 0.07402662932872772, -0.10106367617845535, 0.14639289677143097, 0.08083896338939667], [0.14782778918743134, 0.11174945533275604, -0.12427765130996704, 0.1415218561887741, -0.04786793887615204, 0.08676962554454803, 0.05909295380115509, 0.00021511316299438477, 0.07672284543514252, -0.1630503535270691, 0.029646888375282288, -0.11698359251022339, 0.12033398449420929, -0.012703359127044678, 0.07828153669834137, -0.12214885652065277, 0.056388095021247864, -0.03733856976032257, 0.14444543421268463, 0.17460452020168304, -0.13173216581344604, -0.006621941924095154, 0.0026899874210357666, 0.03548675775527954, -0.0538315549492836, -0.09511633217334747, 0.08306236565113068, -0.1429978907108307, 0.09900300204753876, -0.15486475825309753, 0.10549591481685638, -0.14959219098091125, 0.12001897394657135, -0.08994875103235245, -0.10340488702058792, 0.09269420802593231, -0.1735072284936905, -0.05183303356170654, 0.021894484758377075, -0.03559309244155884, 0.037711530923843384, -0.014836907386779785, -0.1300642490386963, -0.013683229684829712, 0.08262999355792999, -0.07621899247169495, -0.17109453678131104, 0.034856200218200684, -0.1330152004957199, 0.021756961941719055, -0.09309741109609604, 0.04570449888706207, 0.020163729786872864, 0.17135091125965118, 0.16611577570438385, 0.17457853257656097, 0.044018760323524475, 0.1612975150346756, 0.13325496017932892, -0.03322027623653412, -0.14681988954544067, 0.06843598186969757, 0.12141542136669159, 0.12874428927898407], [0.1679701954126358, 0.11018083989620209, 0.13193319737911224, -0.009751051664352417, -0.06390553712844849, 0.0012314468622207642, 0.04225718975067139, -0.14116740226745605, 0.16849364340305328, -0.16766323149204254, 0.004206344485282898, 0.10601280629634857, -0.07405053824186325, -0.08731764554977417, 0.01315702497959137, -0.09902738779783249, 0.012190505862236023, -0.1657806634902954, 0.11931566894054413, 0.08500029146671295, 0.10371975600719452, -0.10848598927259445, -0.029798835515975952, -0.16835010051727295, 0.03335665166378021, -0.16511794924736023, -0.13706938922405243, -0.13659493625164032, 0.006887763738632202, 0.13638602197170258, -0.028161928057670593, 0.0798182338476181, 0.08497698605060577, -0.10054075717926025, -0.17012090981006622, -0.08512672781944275, 0.10231871902942657, 0.0592164546251297, -0.06760484725236893, -0.11921791732311249, -0.17499560117721558, 0.07443685829639435, 0.060858070850372314, 0.06707106530666351, -0.144466832280159, -0.08811536431312561, 0.1374025195837021, 0.13576065003871918, -0.16265669465065002, 0.16482485830783844, 0.08302156627178192, -0.1107434555888176, -0.0733344629406929, 0.13078270852565765, -0.1699312925338745, 0.036212071776390076, -0.024310976266860962, -0.042711734771728516, 0.08353336155414581, 0.06199708580970764, -0.08826202899217606, -0.11636664718389511, 0.06404492259025574, 0.05590416491031647], [0.01439937949180603, -0.008964970707893372, 0.13880334794521332, 0.05706632137298584, -0.06672937422990799, 0.04893413186073303, 0.06201137602329254, -0.055836647748947144, -0.17111502587795258, 0.17373038828372955, 0.0063372403383255005, -0.0676470398902893, -0.12203105539083481, 0.12149806320667267, 0.049739301204681396, -0.10506808757781982, -0.10882484912872314, -0.10582664608955383, -0.05488956719636917, -0.14365500211715698, -0.0431348979473114, 0.06050668656826019, -0.0008728653192520142, 0.09437103569507599, 0.12940143048763275, -0.12221060693264008, -0.04115690290927887, 0.12533436715602875, -0.05332107096910477, 0.046128079295158386, 0.17552681267261505, 0.018438994884490967, 0.06533187627792358, 0.14470525085926056, 0.044804543256759644, -0.012768939137458801, 0.07574529945850372, 0.126211479306221, -0.0245487242937088, 0.05095115303993225, 0.11652709543704987, 0.08406396210193634, 0.16704021394252777, -0.17208325862884521, -0.026112288236618042, 0.10675989091396332, -0.10170506685972214, 0.049296602606773376, -0.1254628598690033, 0.17047379910945892, 0.09386517107486725, 0.0979963093996048, -0.04688149690628052, 0.03865005075931549, -0.14810988306999207, -0.1508575975894928, 0.1757775992155075, -0.047172099351882935, 0.15357692539691925, 0.022932231426239014, -0.04975941777229309, 0.1007121354341507, 0.08454616367816925, -0.0809585303068161], [0.021842017769813538, -0.09884531795978546, 0.14129485189914703, 0.04760216176509857, -0.1263023018836975, -0.04059158265590668, -0.07603059709072113, -0.16808243095874786, 0.1228911429643631, 0.12470127642154694, 0.08110220730304718, 0.08537115156650543, -0.11627388000488281, 0.14199812710285187, -0.03947983682155609, 0.10541681945323944, 0.02731376886367798, 0.0502486526966095, 0.06616385281085968, -0.14609935879707336, 0.1438470333814621, 0.12212304770946503, 0.11500681936740875, -0.027869731187820435, 0.10216616094112396, 0.07205842435359955, 0.1752680093050003, 0.13532070815563202, -0.06417814642190933, 0.1499868780374527, -0.1546139419078827, 0.06759102642536163, 0.09234471619129181, -0.11155486851930618, -0.1672622114419937, 0.07768122851848602, -0.05356813967227936, 0.07614351809024811, 0.17050404846668243, -0.06643742322921753, 0.028061702847480774, -0.09061825275421143, 0.10456119477748871, -0.06943309307098389, 0.014649227261543274, -0.008543670177459717, -0.05435316264629364, -0.14015933871269226, 0.10077808797359467, -0.0016326904296875, -0.10113503038883209, 0.11685095727443695, -0.07440359890460968, 0.015098482370376587, -0.13106539845466614, -0.13357317447662354, -0.10659102350473404, -0.13536980748176575, -0.15144748985767365, -0.136735200881958, -0.04098604619503021, 0.07453934848308563, 0.13847573101520538, 0.08997033536434174], [0.11533637344837189, -0.109900563955307, 0.12880830466747284, 0.1381559818983078, 0.1700306385755539, -0.11780554056167603, -0.11356388032436371, 0.16046999394893646, -0.1389278918504715, -0.06738745421171188, -0.05118212103843689, -0.009122222661972046, 0.08817587792873383, -0.09963750839233398, 0.019401833415031433, -0.1467573046684265, -0.14598484337329865, 0.15930168330669403, -0.11755666136741638, -0.03095981478691101, 0.050444796681404114, 0.10592286288738251, 0.1023903638124466, -0.10202673077583313, 0.06329777836799622, 0.04023733735084534, -0.05259109288454056, 0.11129634082317352, 0.09728841483592987, -0.05381394177675247, 0.11750717461109161, -0.09543880075216293, -0.13644257187843323, -0.1665980964899063, -0.05105522274971008, -0.04393358528614044, -0.07759188115596771, 0.13196460902690887, 0.06125795841217041, -0.08433268219232559, -0.1371930092573166, -0.09326145052909851, 0.04589685797691345, -0.05938722938299179, -0.09300076961517334, -0.17448891699314117, -0.10610894858837128, 0.04837265610694885, -0.0006114691495895386, -0.09721659123897552, 0.026888683438301086, -0.047538697719573975, -0.0019309967756271362, 0.13607890903949738, 0.1625698357820511, -0.08048070967197418, 0.07882378995418549, -0.09693648666143417, -0.13701793551445007, -0.07659216225147247, 0.029324382543563843, -0.16274866461753845, -0.024305924773216248, -0.01828312873840332], [-0.0026336312294006348, 0.025758937001228333, -0.13757199048995972, -0.05422866344451904, 0.17412607371807098, 0.158621683716774, -0.12506790459156036, -0.049318939447402954, 0.05854251980781555, 0.08033563196659088, 0.11764116585254669, -0.1725451499223709, 0.04149425029754639, 0.17034108936786652, 0.014332756400108337, -0.1309327632188797, -0.03221295773983002, 0.06236131489276886, -0.011580273509025574, -0.13561907410621643, -0.14732182025909424, 0.15437649190425873, -0.12267784029245377, 0.07757915556430817, 0.1265554279088974, -0.1578604280948639, 0.17339079082012177, 0.08666269481182098, 0.14624209702014923, 0.13859118521213531, 0.11737479269504547, 0.09654973447322845, -0.12222868204116821, 0.1396331936120987, -0.08925699442625046, -0.09749341756105423, -0.04486067593097687, -0.08198919147253036, 0.17204149067401886, -0.09769926220178604, -0.11365828663110733, -0.11284641176462173, 0.1307383030653, 0.06043444573879242, 0.13829444348812103, -0.10626531392335892, -0.1736503690481186, 0.05081135034561157, -0.13902871310710907, 0.10976101458072662, 0.009406119585037231, 0.013881146907806396, 0.11649583280086517, -0.05249474197626114, 0.055876776576042175, 0.04118576645851135, -0.08412085473537445, 0.08298732340335846, 0.04759390652179718, -0.1659279614686966, -0.12526556849479675, 0.09453420341014862, 0.03936898708343506, -0.03748317062854767], [-0.143739715218544, 0.07632456719875336, -0.015056833624839783, -0.14072966575622559, 0.15692450106143951, -0.16363289952278137, 0.13819913566112518, 0.14260874688625336, -0.1277751624584198, 0.0589296817779541, 0.13421858847141266, -0.07844371348619461, -0.17533522844314575, 0.06391081213951111, 0.0822356790304184, 