{"id": "2ca6755b-f7d3-464a-8211-6596b198b4b9", "population_size": 10, "crossover_prob": 0.5, "mutation_prob": 0.005, "fitness_rounds": 1000, "tournament_size": 5, "generational_best_individuals": [{"non_splittable_weights": [[[-0.07126618921756744, -0.16553913056850433, -0.16470253467559814, -0.1650368869304657, 0.15881215035915375, -0.04233698546886444, 0.0943395346403122, 0.03585992753505707, -0.07104678452014923, -0.18864962458610535, -0.11036984622478485, 0.14223729074001312, 0.07107000052928925, 0.08258198201656342, -0.163420170545578, 0.10640512406826019, 0.026700690388679504, -0.10142108798027039, -0.018978670239448547, 0.19087807834148407, -0.03331746160984039, -0.014334812760353088, 0.1580830067396164, 0.08913622796535492, 0.19413845241069794, 0.05351532995700836, 0.06537134945392609, -0.17508772015571594, -0.06763379275798798, -0.02503371238708496, 0.03368218243122101, -0.21177424490451813, -0.05850385129451752, 0.04770316183567047, 0.12486062943935394, -0.16390889883041382, 0.1642143279314041, -0.022833526134490967, 0.15446896851062775, -0.09768363833427429, -0.09143347293138504, -0.031303271651268005, -0.11650744825601578, 0.16523559391498566, -0.1076415553689003, -0.08107735216617584, -0.0740099847316742, 0.13395313918590546, 0.1888379007577896, -0.2037898600101471, 0.20527862012386322, -0.07142844796180725, -0.0046852827072143555, 0.19457925856113434, 0.07544995844364166, -0.014085665345191956, -0.20773477852344513, 0.023543745279312134, 0.05348159372806549, -0.20861715078353882, 0.12731508910655975, 0.0031505227088928223, 0.10836441814899445, 0.0038029253482818604, 0.19217415153980255, 0.12677504122257233, 0.04188607633113861, 0.00508803129196167, 0.18611814081668854, 0.08847068250179291, 0.13888238370418549, -0.016404330730438232, -0.007538795471191406, 0.06493039429187775, 0.16689138114452362, 0.1359085887670517, -0.10554806888103485, -0.12310615926980972, 0.19402454793453217, -0.17629869282245636, 0.009832903742790222, 0.042220309376716614, 0.06884206831455231, -0.06456190347671509, 0.13724260032176971, 0.0025103092193603516, -0.07892778515815735, 0.1545393317937851, -0.019358858466148376, -0.18457239866256714, 0.19542236626148224, 0.013581380248069763, 0.010157778859138489, 0.06022118031978607, 0.009568601846694946, 0.0570499449968338, 0.19332806766033173, 0.20004485547542572, 0.1457126885652542, 0.0628480464220047, 0.19307877123355865, -0.03416819870471954, 0.04938630759716034, 0.10581864416599274, -0.09785451740026474, 0.027144193649291992, -0.10892385989427567, 0.2013019472360611, -0.14244389533996582, -0.16762369871139526, -0.0008815079927444458, 0.051849767565727234, -0.1171407625079155, -0.20507843792438507, -0.027648314833641052, -0.07589611411094666, 0.20962928235530853, 0.150690957903862, -0.038691580295562744, 0.03959958255290985, 0.0547591894865036, -0.1376539021730423, -0.18637984991073608, 0.04741378128528595, 0.1971719115972519, 0.025090917944908142, 0.13917295634746552, 0.055298373103141785], [-0.08371645212173462, -0.15025244653224945, -0.04676838219165802, -0.048379331827163696, 0.011950388550758362, -0.06805616617202759, 0.02422747015953064, 0.20085950195789337, 0.039033666253089905, -0.11078023910522461, 0.15822412073612213, 0.12732084095478058, -0.15282699465751648, -0.14796297252178192, 0.15862391889095306, 0.16257940232753754, -0.041052043437957764, 0.07799552381038666, 0.13986735045909882, 0.05092184245586395, 0.14968617260456085, -0.13665443658828735, -0.10399890691041946, 0.014311298727989197, -0.03163696825504303, 0.11843894422054291, 0.04342912137508392, 0.10269312560558319, 0.15657879412174225, 0.15495310723781586, 0.15307731926441193, 0.04801206290721893, 0.06370319426059723, -0.17695839703083038, -0.022349417209625244, 0.09802193939685822, -0.0802081972360611, -0.1766808182001114, 0.03729464113712311, -0.15117302536964417, 0.14596684277057648, 0.06803269684314728, -0.19870734214782715, -0.005863502621650696, 0.051056697964668274, -0.009041309356689453, -0.011100828647613525, 0.04066501557826996, -0.2123156189918518, -0.040948301553726196, 0.0804540365934372, 0.1490531712770462, 0.19951094686985016, -0.11015845090150833, 0.007893264293670654, -0.014798328280448914, -0.0828709751367569, -0.06403675675392151, -0.16948358714580536, -0.19417768716812134, -0.15693673491477966, 0.11875443160533905, 0.047915831208229065, 0.023527473211288452, -0.20636476576328278, 0.20181019604206085, -0.11019069701433182, -0.10321144014596939, -0.18395382165908813, -0.07134312391281128, -0.045322999358177185, 0.12067876756191254, 0.009783923625946045, -0.18046920001506805, 0.014121994376182556, 0.15021197497844696, -0.09848431497812271, -0.0755467414855957, -0.21147412061691284, 0.014377117156982422, -0.018747374415397644, -0.0474228709936142, 0.15115313231945038, 0.06569652259349823, -0.13478876650333405, 0.014688417315483093, 0.18748851120471954, -0.0003685951232910156, -0.1493494212627411, -0.010736256837844849, -0.0007962435483932495, 0.1212082952260971, -0.07103687524795532, 0.01134549081325531, 0.07196487486362457, 0.10232554376125336, -0.13528549671173096, -0.08112037181854248, 0.07436691224575043, 0.16644398868083954, 0.04702775180339813, -0.20265063643455505, 0.10924838483333588, -0.17135603725910187, 0.0862320214509964, 0.04055608808994293, -0.032464638352394104, -0.1689799278974533, 0.15441657602787018, -0.0863020271062851, -0.038637399673461914, 0.1651691347360611, 0.19085852801799774, -0.1416613757610321, -0.1217808946967125, 0.19119851291179657, -0.20666320621967316, -0.1030433177947998, -0.09991591423749924, 0.006664276123046875, 0.16238431632518768, 0.1303294152021408, -0.09287793189287186, 0.10181336104869843, 0.09163506329059601, -0.051234617829322815, 0.041001930832862854, -0.12743157148361206], [-0.06525838375091553, 0.049944981932640076, 0.21159251034259796, 0.18609221279621124, 0.00970381498336792, -0.21327616274356842, 0.13673751056194305, 0.06943188607692719, -0.19393368065357208, -0.13797509670257568, 0.0811958760023117, 0.18377886712551117, -0.15053802728652954, 0.12388963997364044, 0.10749612748622894, 0.07884885370731354, 0.028905004262924194, -0.19862554967403412, -0.1421525478363037, -0.021632254123687744, 0.00959324836730957, -0.12778231501579285, 0.03890414535999298, -0.04090380668640137, -0.0871710330247879, 0.04208742082118988, -0.10947222262620926, 0.1953500658273697, -0.11482363194227219, -0.04459570348262787, -0.10103626549243927, -0.16842859983444214, 0.07185260951519012, -0.024945855140686035, 0.11311547458171844, 0.12950430810451508, -0.0695476233959198, 0.06588439643383026, -0.10439189523458481, -0.0018036216497421265, 0.010900497436523438, -0.07008449733257294, -0.18687932193279266, 0.11238639056682587, 0.03491315245628357, -0.0066383033990859985, -0.049909353256225586, -0.04076482355594635, -0.20435476303100586, 0.03216426074504852, 0.15040864050388336, 0.06296519935131073, 0.1760054975748062, -0.19187724590301514, -0.03601503372192383, -0.16566535830497742, 0.17131195962429047, -0.14347600936889648, -0.1720065474510193, 0.04214809834957123, -0.1931450515985489, -0.20097728073596954, 0.182424858212471, 0.05092935264110565, -0.08339668810367584, -0.011161282658576965, -0.023056715726852417, 0.1949503868818283, 0.04076983034610748, -0.12262387573719025, 0.18707062304019928, -0.0612441748380661, -0.06022246181964874, -0.13496500253677368, 0.12984110414981842, 0.14556680619716644, 0.055799081921577454, 0.18264834582805634, -0.16961951553821564, -0.08178205788135529, 0.01336437463760376, -0.1614615023136139, 0.04575370252132416, -0.01429302990436554, -0.18046465516090393, 0.19708479940891266, -0.16364096105098724, 0.013121142983436584, -0.12352196127176285, 0.13905872404575348, -0.012181326746940613, 0.1758297234773636, -0.02050374448299408, -0.2033025324344635, -0.06289079785346985, 0.1673048883676529, -0.1475994735956192, -0.03580038249492645, -0.05774699151515961, 0.1983589082956314, 0.09673435986042023, 0.11994259059429169, 0.16262657940387726, -0.07208068668842316, -0.15275637805461884, -0.007167741656303406, -0.09243473410606384, -0.032721951603889465, -0.04109668731689453, 0.02979564666748047, 0.0993397980928421, -0.00047360360622406006, 0.007813602685928345, 0.16084839403629303, -0.18340730667114258, 0.015198975801467896, -0.17650744318962097, 0.04135511815547943, -0.058703452348709106, 0.1234574168920517, 0.15296272933483124, 0.07400049269199371, 0.13931281864643097, -0.07657958567142487, -0.03683382272720337, 0.016512081027030945, 0.15826751291751862, 0.041358694434165955]], [[0.01972004771232605, -0.031984612345695496, 0.17646373808383942, -0.15170630812644958, 0.14704091846942902, 0.012424051761627197, -0.1691167950630188, 0.09917934238910675, -0.1295403242111206, 0.07023139297962189, 0.1588955670595169, -0.14673374593257904, -0.08216717839241028, 0.020137503743171692, 0.12557612359523773, -0.015562385320663452, -0.08364345133304596, 0.06451304256916046, 0.1645505577325821, 0.022977367043495178, -0.13058513402938843, -0.07410111278295517, 0.14297635853290558, 0.09984554350376129, -0.15619587898254395, -0.11150272935628891, 0.12639157474040985, 0.009024858474731445, -0.1223047524690628, 0.17086897790431976, 0.01937258243560791, 0.01362869143486023, 0.07438425719738007, -0.006119087338447571, -0.060645729303359985, 0.0758233517408371, -0.05573583394289017, 0.12951628863811493, 0.041919633746147156, 0.14006321132183075, 0.07592661678791046, -0.12494795024394989, -0.16775815188884735, -0.08057820051908493, 0.12350599467754364, 0.1563064306974411, 0.0440385639667511, 0.04558151960372925, 0.14922265708446503, -0.08153624087572098, 0.0008720159530639648, -0.043267443776130676, 0.0473308265209198, -0.021995678544044495, -0.03425388038158417, 0.010859519243240356, 0.1236630529165268, 0.0830594152212143, -0.003489583730697632, -0.16745655238628387, -0.16835756599903107, -0.14417846500873566, -0.08325409889221191, -0.06811128556728363], [-0.12620586156845093, 0.07302349805831909, 0.1363464742898941, 0.05199100077152252, -0.10893973708152771, 0.16132061183452606, 0.1564013808965683, 0.13234548270702362, 0.13090284168720245, 0.1525510996580124, 0.17545117437839508, -0.14645186066627502, 0.0665181428194046, -0.12385129928588867, 0.04692322015762329, -0.0013263225555419922, -0.05575989931821823, 0.1563369780778885, 0.1370612531900406, 0.14240817725658417, -0.04696035385131836, -0.11254982650279999, -0.1642330288887024, 0.1286158710718155, -0.081581711769104, 0.16692550480365753, -0.13216125965118408, 0.0176846981048584, 0.13114483654499054, 0.171119824051857, -0.09764733165502548, 0.07297490537166595, 0.10051493346691132, 0.02348729968070984, -0.1534329503774643, 0.07189619541168213, 0.11031685769557953, -0.040001824498176575, 0.0919841080904007, 0.05112525820732117, -0.02230946719646454, 0.1585516780614853, 0.10894803702831268, -0.1398504078388214, 0.07537935674190521, 0.10864369571208954, -0.03891974687576294, 0.11201156675815582, -0.00936250388622284, -0.013221889734268188, -0.15524189174175262, 0.11602990329265594, -0.005104154348373413, 0.09442441165447235, 0.04651381075382233, -0.008770331740379333, 0.017765015363693237, 0.008546322584152222, -0.10019098222255707, -0.054455243051052094, -0.15199033915996552, -0.1133643165230751, 0.05488809943199158, 0.11488194763660431], [-0.05675380676984787, -0.12710393965244293, -0.11053621768951416, -0.07731033861637115, -0.05499274283647537, -0.16085796058177948, -0.050717487931251526, 0.15516765415668488, -0.16432124376296997, -0.05478820204734802, 0.15454460680484772, 0.12210644781589508, 0.02889174222946167, 0.08962969481945038, 0.16212435066699982, -0.1679714173078537, 0.15551124513149261, -0.09445509314537048, 0.16349269449710846, -0.08691573888063431, -0.17634472250938416, -0.10489465296268463, 0.01417820155620575, 0.07629461586475372, -0.08228421956300735, -0.08272305130958557, 0.01586829125881195, -0.08951885253190994, -0.03110593557357788, -0.06683765351772308, 0.009752914309501648, 0.01679500937461853, 0.022549495100975037, -0.14201940596103668, 0.16481171548366547, 0.04271136224269867, 0.10861407220363617, -0.01173776388168335, 0.1695391982793808, 0.10488338768482208, 0.1412702053785324, 0.03011995553970337, 0.042169392108917236, -0.11865635961294174, 0.0541212260723114, 0.07825307548046112, -0.13977286219596863, -0.11268672347068787, 0.1699923425912857, -0.07219628244638443, 0.1135922521352768, 0.13941620290279388, -0.029514461755752563, -0.00040052831172943115, -0.05775239318609238, -0.002110213041305542, -0.11047270148992538, -0.06349814683198929, -0.14964313805103302, -0.03367120027542114, -0.008912116289138794, -0.15537932515144348, 0.16088758409023285, -0.006492927670478821], [-0.05081278085708618, -0.1562654674053192, -0.02864682674407959, 0.13897021114826202, 0.13653261959552765, -0.13969391584396362, 0.02712419629096985, 0.026733949780464172, 0.11290512979030609, 0.1407918781042099, 0.05598142743110657, -0.02469286322593689, 0.12073402106761932, -0.05646510422229767, 0.011670038104057312, -0.10292833298444748, -0.08628517389297485, 0.07721440494060516, -0.10820276290178299, 0.1384648233652115, -0.15410982072353363, 0.11247368156909943, -0.07541398704051971, -0.1344470977783203, 0.1692029982805252, 0.11995653808116913, -0.08128630369901657, -0.08339478820562363, -0.13617448508739471, -0.10019666701555252, 0.14441819489002228, -0.1764824241399765, -0.025821015238761902, -0.027305513620376587, 0.0007878988981246948, 0.02073127031326294, -0.1018567904829979, 0.014763996005058289, 0.09340773522853851, 0.01434965431690216, -0.16444696485996246, -0.08278171718120575, 0.0451904833316803, 0.10609845817089081, -0.12023602426052094, 0.01008535921573639, -0.046272605657577515, 0.06181168556213379, -0.14812155067920685, 0.03182925283908844, -0.17136819660663605, -0.013799503445625305, -0.10696789622306824, 0.01841762661933899, -0.1463405191898346, 0.15653426945209503, -0.09315245598554611, -0.15909288823604584, 0.0808352380990982, 0.1669282764196396, -0.1467413753271103, 0.13664449751377106, 0.132454052567482, -0.16478422284126282], [0.05432577431201935, -0.16423572599887848, -0.08125043660402298, 0.09215278923511505, -0.0244368314743042, 0.07472418248653412, -0.14441907405853271, -0.027660846710205078, -0.03373783826828003, 0.09685854613780975, 0.09414713084697723, -0.12312944233417511, -0.14433732628822327, -0.14847129583358765, 0.126088485121727, -0.025753870606422424, 0.08993975818157196, -0.17457494139671326, -0.07549958676099777, 0.024823442101478577, -0.0017925947904586792, -0.08465704321861267, 0.16000254452228546, -0.15357422828674316, 0.10813607275485992, 0.17265813052654266, 0.09818147122859955, 0.09353236854076385, -0.018161416053771973, 0.113490030169487, 0.07527323067188263, -0.17054380476474762, 0.08718664944171906, 0.115709587931633, -0.124448262155056, 0.032919421792030334, 0.12811751663684845, 0.032699763774871826, 0.15460141003131866, 0.020062610507011414, -0.07002125680446625, 0.13992799818515778, 0.057592570781707764, -0.1609739065170288, 0.14048661291599274, -0.13347075879573822, -0.11860089004039764, 0.12694142758846283, -0.14734992384910583, -0.08717110008001328, 0.03111313283443451, 0.0909862071275711, -0.06879878789186478, 0.011079981923103333, -0.13181152939796448, -0.059991441667079926, -0.13763213157653809, -0.012692436575889587, 0.022156089544296265, 0.006672605872154236, -0.02558322250843048, -0.07866030931472778, -0.04161250591278076, -0.16377763450145721], [0.031201347708702087, -0.03906835615634918, 0.02387210726737976, 0.024547845125198364, -0.07968632876873016, 0.03797203302383423, -0.05542053282260895, -0.061211928725242615, 0.13797517120838165, -0.15492194890975952, -0.16234004497528076, 0.14054347574710846, 0.09970210492610931, -0.053767621517181396, 0.04577454924583435, 0.10263152420520782, -0.06489358842372894, -0.14505891501903534, 0.08069182932376862, 0.0750240832567215, 0.13267432153224945, 0.15569303929805756, 0.159362331032753, 0.14570777118206024, -0.09047048538923264, 0.16954122483730316, 0.0498710572719574, 0.14730562269687653, -0.010395735502243042, -0.11441081762313843, 0.079972043633461, 0.0853562206029892, -0.1702643781900406, 0.07029394805431366, 0.01776987314224243, -0.04123289883136749, 0.010304108262062073, -0.05706004798412323, 0.006917893886566162, -0.1694401055574417, -0.10199254751205444, -0.12787801027297974, 0.13454799354076385, -0.10314610600471497, 0.11645554006099701, 0.08362208306789398, -0.09031205624341965, -0.033969342708587646, -0.0008168965578079224, -0.16140396893024445, -0.1615738570690155, 0.001857459545135498, -0.002769678831100464, -0.045810550451278687, 0.12696366012096405, -0.16585007309913635, -0.13152943551540375, -0.0709722563624382, 0.01734776794910431, 0.1133420318365097, 0.07592810690402985, -0.02369154989719391, 0.13822485506534576, 0.01976451277732849], [-0.00832366943359375, 0.15781722962856293, 0.048727989196777344, 0.03405582904815674, -0.059115126729011536, 0.08718131482601166, 0.08555145561695099, 0.16667284071445465, 0.06253618001937866, 0.13912935554981232, -0.0738699808716774, -0.03148879110813141, -0.024507462978363037, -0.1711239218711853, -0.16944600641727448, 0.14467553794384003, -0.07092463225126266, -0.16940803825855255, -0.002545967698097229, -0.10821384191513062, 0.04568679630756378, -0.0526040717959404, -0.049679458141326904, 0.06577828526496887, 0.15892477333545685, 0.15204153954982758, -0.07874662429094315, -0.1759232133626938, 0.06438925862312317, 0.1610071212053299, -0.1364016979932785, -0.07550013810396194, 0.1536559909582138, 0.005223006010055542, -0.003826931118965149, 0.17169298231601715, -0.15228739380836487, -0.16285984218120575, -0.01513497531414032, 0.1619751900434494, 0.0072737932205200195, -0.05608999729156494, 0.07827658951282501, 0.07106392085552216, -0.044152528047561646, -0.05397754907608032, -0.09529103338718414, 0.06200079619884491, 0.050490960478782654, -0.07422443479299545, -0.1162405014038086, 0.045757487416267395, 0.050962403416633606, -0.03624404966831207, 0.13517118990421295, -0.17321819067001343, -0.16174809634685516, 0.15961457788944244, -0.12273144721984863, -0.039110928773880005, -0.11878608167171478, -0.11449751257896423, -0.11048538982868195, 0.0012062788009643555], [-0.0007758438587188721, -0.08347946405410767, -0.1582545042037964, -0.019683122634887695, -0.08606062084436417, -0.006124481558799744, 0.09374941885471344, 0.10058628022670746, -0.025984331965446472, -0.11982070654630661, 0.1480301469564438, -0.0705024003982544, -0.13084383308887482, -0.001785382628440857, -0.03267867863178253, -0.026177197694778442, -0.015239253640174866, -0.13599893450737, -0.11356581747531891, 0.006861463189125061, 0.04177047312259674, -0.03799302875995636, 0.12051232159137726, -0.16905918717384338, 0.03855256736278534, 0.17253480851650238, -0.09392349421977997, 0.07214276492595673, -0.046750426292419434, 0.03301265835762024, -0.06386461108922958, 0.05981636047363281, -0.17435607314109802, 0.11059059202671051, 0.1521245688199997, -0.07149091362953186, -0.016929835081100464, -0.013559699058532715, -0.1173781305551529, 0.047635793685913086, -0.16083364188671112, -0.08357715606689453, -0.016945183277130127, -0.07941722124814987, -0.07581733167171478, -0.04656459391117096, 0.048186033964157104, 0.008114784955978394, -0.01908169686794281, -0.0005401074886322021, -0.06466531753540039, 0.06511527299880981, -0.11018749326467514, -0.011771738529205322, 0.12179885804653168, -0.10716661810874939, 0.10520429909229279, -0.15009765326976776, -0.0886143371462822, 0.1329764574766159, -0.10405736416578293, 0.04484647512435913, -0.07851232588291168, 0.14253802597522736], [0.025665491819381714, 0.026895001530647278, -0.062077462673187256, -0.08438275009393692, 0.07699812948703766, 0.16179786622524261, 0.029140546917915344, -0.1506366729736328, 0.14031516015529633, 0.06845363974571228, -0.07787805795669556, 0.07180246710777283, 0.16245363652706146, -0.11214016377925873, 0.043271034955978394, -0.04309864342212677, -0.001734420657157898, -0.1658996045589447, -0.11990812420845032, 0.17141161859035492, -0.016702920198440552, -0.11958080530166626, 0.048043280839920044, 0.0814209133386612, 0.03607252240180969, -0.1619356870651245, 0.006300702691078186, -0.15621303021907806, 0.1558745950460434, 0.06763873994350433, -0.10203827917575836, -0.13609671592712402, -0.0921165719628334, 0.17318005859851837, -0.11342905461788177, -0.11474525928497314, 0.12464918196201324, -0.11952416598796844, 0.09844939410686493, 0.020749986171722412, 0.04694156348705292, -0.10350620746612549, 0.08473838865756989, -0.06048228591680527, -0.08740333467721939, -0.019602999091148376, 0.1365034431219101, 0.12752409279346466, 0.00836724042892456, 0.0009330958127975464, 0.08982528746128082, -0.10372183471918106, -0.15872743725776672, -0.06309778988361359, 0.023683160543441772, -0.08829941600561142, 0.03264331817626953, 0.16834451258182526, 0.13830403983592987, -0.09470299631357193, -0.02641090750694275, 0.11516381800174713, 0.15303070843219757, -0.17098167538642883], [-0.0067520588636398315, -0.1194082573056221, 0.005174487829208374, 0.07956962287425995, -0.12157894670963287, -0.05769389122724533, -0.1704067438840866, -0.027135401964187622, 0.05206386744976044, 0.10652969777584076, -0.040201932191848755, 0.17471082508563995, 0.17676608264446259, -0.03371831774711609, -0.17589029669761658, 0.13585887849330902, -0.00019256770610809326, -0.12272630631923676, -0.11510118842124939, -0.08875355124473572, -0.08524486422538757, 0.024870604276657104, -0.01725289225578308, -0.05856999754905701, 0.08504326641559601, 0.05550828576087952, -0.06314697861671448, 0.016360729932785034, -0.05148422718048096, 0.17277897894382477, -0.01907305419445038, -0.1465083360671997, -0.02493242919445038, -0.10094494372606277, -0.03507301211357117, -0.009860500693321228, -0.15973727405071259, 0.005232661962509155, -0.02715665102005005, -0.10024463385343552, 0.0011587440967559814, -0.131215900182724, -0.14722391963005066, 0.11764495074748993, 0.14586608111858368, 0.028991714119911194, 0.035357967019081116, -0.07118754088878632, 0.11758805811405182, -0.02587626874446869, 0.05235476791858673, -0.058266207575798035, -0.09056203067302704, 0.10995475947856903, -0.12304426729679108, 0.015684649348258972, 0.12137149274349213, -0.07127179205417633, -0.0832415446639061, 0.027049005031585693, 0.1511717289686203, -0.13053663074970245, 0.12196449935436249, 0.16288109123706818], [0.07939450442790985, 0.1687062531709671, -0.12614057958126068, 0.15051908791065216, -0.12572063505649567, 0.17123045027256012, 0.05143655836582184, -0.1624530851840973, -0.094444639980793, 0.1032131165266037, 0.1342601627111435, -0.06217072904109955, 0.014562234282493591, 0.02084052562713623, 0.10841096937656403, 0.07498212158679962, -0.11335782706737518, 0.03554108738899231, -0.17391934990882874, -0.02453438937664032, 0.051118940114974976, -0.022791370749473572, 0.003809407353401184, 0.13542230427265167, -0.1447184532880783, -0.039861857891082764, -0.009823411703109741, -0.1529492735862732, -0.04342663288116455, -0.03457866609096527, 0.06217077374458313, -0.10023397207260132, -0.07045014202594757, 0.14098842442035675, 0.1529107540845871, 0.1391502171754837, -0.037420421838760376, -0.04167930781841278, 0.1398746520280838, 0.026934653520584106, 0.11178763210773468, 0.06445032358169556, 0.03234858810901642, -0.11231245845556259, 0.07431985437870026, 0.054523274302482605, -0.125850111246109, -0.014643624424934387, -0.0953042209148407, 0.11517249047756195, 0.08447597920894623, -0.06685122102499008, -0.011967182159423828, -0.02246628701686859, 0.02331748604774475, 0.059425368905067444, 0.1735086590051651, 0.17202110588550568, -0.08209249377250671, 0.08677341043949127, -0.16437603533267975, -0.05032274127006531, 0.10598962008953094, -0.07520506531000137], [-0.1582212895154953, -0.08097226917743683, 0.12571607530117035, -0.13535885512828827, -0.13206803798675537, -0.05855381488800049, 0.1490737944841385, -0.006381362676620483, 0.028348639607429504, 0.15553201735019684, 0.1436200588941574, 0.12172691524028778, -0.15077899396419525, -0.1297638714313507, -0.11843971908092499, -0.07960447669029236, 0.048612937331199646, 0.13479746878147125, 0.1268477588891983, 0.0235813707113266, -0.03259822726249695, 0.1594262570142746, 0.13510344922542572, -0.12682850658893585, 0.030455946922302246, 0.10571680963039398, 0.013946354389190674, -0.05973721295595169, 0.040455788373947144, 0.0817052572965622, 0.02938149869441986, 0.08896119892597198, -0.09966195374727249, -0.15797872841358185, -0.1654021441936493, -0.10780118405818939, -0.1039542704820633, -0.08020523935556412, 0.16969893872737885, -0.02886486053466797, -0.0392729789018631, -0.036108046770095825, 0.171614870429039, -0.013085633516311646, -0.056678324937820435, 0.14055578410625458, 0.12601236999034882, 0.031611353158950806, 0.07844839990139008, 0.0930812805891037, 0.01944272220134735, 0.15621913969516754, 0.1185729056596756, 0.025871381163597107, 0.13855747878551483, 0.09802849590778351, 0.10620366036891937, 0.1488216668367386, -0.02431999146938324, -0.05994740128517151, -0.16072779893875122, 0.17387919127941132, 0.1259620636701584, 0.1662973314523697], [0.06914965808391571, -0.13349904119968414, -0.1118805781006813, 0.11393280327320099, -0.14144815504550934, -0.15185917913913727, 0.026870936155319214, 0.07430233061313629, 0.1018541008234024, 0.16245944797992706, -0.05421462655067444, 0.03727702796459198, 0.052019283175468445, 0.1330084651708603, -0.031014680862426758, -0.02986074984073639, 0.02704976499080658, -0.07474229484796524, -0.06645997613668442, 0.11273004114627838, 0.17300276458263397, 0.15356124937534332, 0.06017512083053589, -0.140283465385437, 0.1596439927816391, -0.029132992029190063, 0.09032346308231354, 0.11953137814998627, 0.0815291553735733, -0.050629571080207825, 0.020459935069084167, -0.119612917304039, -0.09222990274429321, 0.03352895379066467, -0.1639750450849533, -0.016035616397857666, 0.018835589289665222, -0.15373669564723969, -0.037474825978279114, -0.11543270945549011, 0.08818285167217255, -0.0897427350282669, 0.05678892135620117, -0.04709033668041229, 0.10960720479488373, -0.14895029366016388, -0.10021428763866425, 0.01554456353187561, 0.14274181425571442, 0.09602810442447662, -0.1290123015642166, 0.07861597836017609, -0.09515982866287231, -0.03342270851135254, -0.16816410422325134, -0.12713967263698578, -0.16939875483512878, -0.09957774728536606, -0.17444702982902527, 0.023613065481185913, 0.035583361983299255, -0.06366458535194397, 0.1447860151529312, 0.02228088676929474], [0.04388999938964844, -0.054647184908390045, -0.11620484292507172, -0.10189443081617355, -0.11804455518722534, 0.061946168541908264, -0.07908859848976135, 0.16194705665111542, -0.06141828000545502, -0.037144824862480164, 0.0035279840230941772, 0.03481164574623108, 0.012527599930763245, -0.076692134141922, -0.020538240671157837, -0.04688926041126251, 0.09672774374485016, -0.11349176615476608, -0.0005681812763214111, 0.01950754225254059, -0.15622404217720032, -0.02070552110671997, 0.162800595164299, 0.06339694559574127, 0.11760975420475006, 0.13663066923618317, -0.151264488697052, 0.027152016758918762, -0.11622987687587738, 0.11232729256153107, 0.11256478726863861, -0.014837801456451416, -0.16192835569381714, 0.018625706434249878, -0.017671167850494385, 0.06803533434867859, -0.1396268606185913, -0.10416542738676071, 0.029882922768592834, -0.12414923310279846, 0.01237507164478302, -0.07355859875679016, 0.05787520110607147, 0.09902499616146088, -0.06268665194511414, 0.12498100101947784, 0.03911353647708893, 0.027032524347305298, 0.14605964720249176, 0.13665668666362762, 0.1720932573080063, -0.10964249819517136, 0.0669952780008316, -0.15922939777374268, -0.01600205898284912, -0.06424730271100998, -0.13871875405311584, 0.15020345151424408, -0.15906815230846405, 0.16772033274173737, 0.03028470277786255, -0.04792758822441101, 0.028499826788902283, 0.02593041956424713], [0.023435622453689575, 0.14590059220790863, -0.018749698996543884, 0.06869456171989441, 0.07111324369907379, 0.1067853718996048, -0.15526944398880005, -0.15831969678401947, -0.06011944264173508, -0.0011063069105148315, -0.1370009481906891, -0.1743151843547821, -0.04981870949268341, 0.0042112767696380615, -0.07947196811437607, 0.10729916393756866, 0.028057962656021118, -0.03376586735248566, -0.1444883644580841, -0.07381851971149445, 0.140544131398201, 0.09333647787570953, 0.12548629939556122, -0.03937248885631561, -0.15491537749767303, -0.15825487673282623, 0.07429127395153046, 0.11621387302875519, 0.043456897139549255, -0.17189891636371613, 0.008098214864730835, 0.14211319386959076, 0.09461461007595062, -0.14160363376140594, -0.01444709300994873, -0.11580263823270798, -0.04246564209461212, 0.0028688907623291016, 0.11017961800098419, -0.15179790556430817, 0.011170342564582825, -0.16365806758403778, 0.16443128883838654, -0.006107240915298462, -0.10388410091400146, -0.06535223126411438, -0.09552018344402313, -0.06342809647321701, -0.026731550693511963, 0.06408706307411194, 0.10453183948993683, -0.07917803525924683, 0.1494935303926468, 0.023776084184646606, -0.062494710087776184, -0.0240945965051651, -0.15095242857933044, -0.11265987157821655, 0.11468948423862457, 0.01078006625175476, -0.08634835481643677, 0.15619076788425446, -0.07119036465883255, -0.031827449798583984], [-0.09755469858646393, -0.06111208349466324, 0.17423023283481598, 0.07438184320926666, -0.11237441003322601, 0.13563235104084015, 0.1550821214914322, -0.14008790254592896, -0.00948670506477356, -0.0530305951833725, -0.10747488588094711, 0.02505798637866974, 0.02237078547477722, 0.14819999039173126, 0.06991066038608551, 0.0676165223121643, 0.15554474294185638, 0.169250026345253, 0.0061311423778533936, 0.14315776526927948, -0.0013969093561172485, 0.07268241047859192, -0.12562040984630585, -0.14438797533512115, -0.13758333027362823, 0.027435824275016785, -0.04132826626300812, 0.11560316383838654, 0.09616629779338837, 0.14919643104076385, -0.17282429337501526, 0.12182958424091339, 0.014878973364830017, -0.1663011759519577, -0.15857355296611786, 0.15912847220897675, -0.1387435793876648, 0.15307380259037018, -0.08376167714595795, 0.14550767838954926, 0.13490526378154755, 0.0489216148853302, 0.0107022225856781, -0.15410467982292175, -0.06251709163188934, -0.12473191320896149, 0.004083096981048584, 0.06679508090019226, -0.07763592898845673, -0.038790151476860046, 0.16394399106502533, -0.1045622006058693, -0.11071420460939407, -0.01812930405139923, 0.16124902665615082, 0.1744084507226944, -0.019381478428840637, 0.10536475479602814, -0.013117194175720215, -0.021585673093795776, -0.10525846481323242, 0.03580319881439209, -0.17593058943748474, 0.009018883109092712], [-0.008870944380760193, 0.050764575600624084, 0.09942735731601715, 0.1717386394739151, 0.13913483917713165, 0.05327795445919037, -0.12813198566436768, 0.1650630682706833, 0.03835354745388031, 0.004881694912910461, -0.14619502425193787, -0.12468281388282776, 0.01196068525314331, 0.09409503638744354, 0.03805337846279144, 0.04757636785507202, 0.0756164938211441, -0.12344807386398315, 0.08332322537899017, -0.09511780738830566, -0.07444330304861069, 0.05532646179199219, 0.0033172965049743652, 0.09742404520511627, -0.021846488118171692, -0.022488504648208618, -0.12289835512638092, 0.1397455781698227, 0.171775683760643, 0.15093375742435455, -0.015077069401741028, -0.01994144916534424, -0.1570531129837036, 0.10853533446788788, -0.12152837216854095, 0.14700977504253387, 0.01699727773666382, -0.16851064562797546, 0.014765352010726929, 0.018032655119895935, -0.048661187291145325, -0.14099857211112976, -0.11345058679580688, -0.15628358721733093, -0.16155852377414703, 0.1430315524339676, 0.1039506047964096, 0.018679574131965637, 0.006056457757949829, 0.11638127267360687, -0.1153770387172699, -0.09540440887212753, 0.10120822489261627, 0.04970933496952057, 0.02990517020225525, 0.05627945065498352, -0.10559631139039993, -0.06761837750673294, 0.04439900815486908, -0.0867103561758995, 0.05070026218891144, -0.06102357804775238, 0.0313316285610199, -0.021056443452835083], [-0.125105082988739, 0.012409210205078125, 0.14730204641819, 0.15477021038532257, -0.12762503325939178, -0.12496818602085114, -0.0446510910987854, 0.03362525999546051, -0.02161400020122528, 0.15458394587039948, 0.15743274986743927, 0.002760067582130432, 0.02272149920463562, -0.12487402558326721, -0.008016631007194519, 0.05625808238983154, -0.017382711172103882, 0.1751166433095932, -0.1649455726146698, -0.13112634420394897, 0.022089242935180664, 0.16670896112918854, 0.0248442143201828, -0.06919020414352417, -0.030405879020690918, -0.04208114743232727, 0.17044104635715485, -0.11017333716154099, 0.06070558726787567, -0.06189408153295517, -0.14741310477256775, 0.09597156941890717, 0.1505344659090042, -0.022320717573165894, -0.14132912456989288, 0.008752599358558655, 0.11569376289844513, 0.023738235235214233, 0.06326128542423248, -0.14695042371749878, -0.043940022587776184, -0.03424258530139923, 0.015455201268196106, -0.10239724069833755, 0.16426981985569, 0.0363331139087677, 0.17635910212993622, -0.05361846089363098, 0.07703365385532379, 0.039969414472579956, -0.010809779167175293, 0.1503247767686844, 0.14218313992023468, 0.14734549820423126, 0.17259462177753448, -0.11564445495605469, 0.10949547588825226, -0.1462673842906952, 0.07086415588855743, -0.13823382556438446, 0.025165468454360962, 0.08717353641986847, 0.08446790277957916, -0.14253894984722137], [0.03577627241611481, -0.028364241123199463, -0.08961953967809677, 0.17476768791675568, -0.1457650363445282, -0.1477917581796646, -0.11688871681690216, 0.15717275440692902, -0.05723453313112259, 0.06990885734558105, -0.004240691661834717, 0.08261014521121979, 0.08537222445011139, -0.12139599025249481, 0.03751899302005768, -0.010076969861984253, 0.08409367501735687, -0.04028235375881195, -0.06594911217689514, 0.11852262914180756, 0.07072333991527557, 0.011642307043075562, -0.11421412229537964, 0.13256587088108063, 0.06296245753765106, -0.12915590405464172, -0.13643929362297058, 0.1708957701921463, -0.013632908463478088, 0.042748868465423584, -0.011948376893997192, -0.06875499337911606, -0.086174875497818, 0.019707024097442627, 0.09110741317272186, -0.09137668460607529, -0.027318954467773438, 0.05626232922077179, -0.14171098172664642, 0.06639961898326874, 0.06888480484485626, 0.1100887805223465, 0.08191032707691193, -0.04558733105659485, -0.10563154518604279, -0.10236150026321411, -0.12619343400001526, 0.17285631597042084, -0.12909196317195892, -0.1691140979528427, 0.13330517709255219, -0.04041992127895355, 0.09344173967838287, 0.07316645979881287, -0.1301698237657547, 0.11679600179195404, -0.14679835736751556, -0.026796802878379822, -0.1268148422241211, 0.12426875531673431, -0.10835494846105576, -0.10903047770261765, -0.09749413281679153, -0.13998177647590637], [-0.1366884708404541, -0.09967624396085739, 0.07185709476470947, -0.1560913622379303, 0.16479898989200592, 0.12389804422855377, 0.07189139723777771, -0.04315221309661865, 0.13588197529315948, 0.030471622943878174, 0.1023634523153305, -0.15715712308883667, 0.15475280582904816, -0.14245709776878357, -0.1173039972782135, -0.008547425270080566, -0.09597368538379669, -0.022908449172973633, 0.1105274111032486, -0.10736408084630966, 0.05970311164855957, 0.0030540376901626587, 0.06636476516723633, -0.05974046140909195, -0.03338806331157684, -0.03174024820327759, 0.03196699917316437, 0.0750662237405777, 0.12472034990787506, -0.09991808235645294, 0.046152904629707336, -0.09544145315885544, -0.019676342606544495, -0.0907135009765625, -0.13477449119091034, -0.17320922017097473, -0.006324097514152527, 0.025154292583465576, 0.1078161746263504, 0.07897378504276276, -0.10979174077510834, -0.17164716124534607, 0.07614283263683319, 0.14402084052562714, 0.1057635098695755, -0.12611731886863708, 0.16408370435237885, 0.01654432713985443, -0.004487961530685425, 0.15483368933200836, 0.08981414139270782, 0.015205487608909607, -0.1357448846101761, 0.07791577279567719, 0.12737341225147247, 0.0996042937040329, 0.042088642716407776, 0.14201779663562775, 0.08666954934597015, 0.10080944001674652, -0.0032756924629211426, -0.1450364887714386, 0.10323651134967804, -0.034090474247932434], [0.08173079788684845, 0.0022490471601486206, -0.11054190993309021, 0.16831184923648834, 0.018542036414146423, 0.041525229811668396, 0.12425817549228668, -0.15140298008918762, -0.15190790593624115, 0.07696793973445892, -0.166521355509758, 0.07585515081882477, 0.05406154692173004, 0.12597917020320892, 0.021576151251792908, 0.12045462429523468, -0.08124867081642151, 0.16430215537548065, -0.07032551616430283, 0.17282892763614655, -0.00014358758926391602, 0.1721888929605484, -0.024098381400108337, -0.16986359655857086, 0.16299428045749664, -0.11929656565189362, -0.03901849687099457, 0.05579955875873566, -0.06770667433738708, -0.12522870302200317, 0.12841357290744781, 0.03619086742401123, -0.03752392530441284, 0.10731245577335358, 0.15498454868793488, 0.06342126429080963, -0.13331106305122375, 0.006618186831474304, 0.1521790474653244, -0.14966028928756714, 0.12823401391506195, -0.0526968389749527, -0.07478852570056915, -0.16683484613895416, 0.1383035033941269, 0.11132685840129852, -0.016924411058425903, -0.07065354287624359, -0.17031574249267578, 0.08648882806301117, -0.03139312565326691, -0.115177683532238, 0.17074422538280487, -0.12023951858282089, -0.0752476304769516, 0.14091743528842926, -0.09867782145738602, 0.03160415589809418, -0.04998447000980377, 0.05401468276977539, -0.005924701690673828, -0.08536220341920853, -0.16976986825466156, 0.17621798813343048], [0.06251052021980286, -0.06137356907129288, 0.042310118675231934, 0.1320023387670517, -0.06449908763170242, -0.13998258113861084, -0.07491812855005264, -0.15603390336036682, -0.10003107786178589, 0.12443818151950836, -0.02913476526737213, 0.028601020574569702, -0.05097906291484833, 0.019158020615577698, -0.10221845656633377, 0.06354407966136932, 0.1533547192811966, -0.03002980351448059, 0.0830547958612442, -0.04678519070148468, 0.07683776319026947, 0.1474488228559494, 0.0892011970281601, -0.1365271657705307, 0.08395631611347198, -0.006514042615890503, -0.06017410755157471, 0.07500667870044708, 0.15585778653621674, 0.047883033752441406, 0.1455182582139969, -0.0504998117685318, 0.14622502028942108, 0.08352135121822357, 0.07214348018169403, 0.1327923983335495, -0.10276463627815247, -0.04836417734622955, 0.038906216621398926, 0.12666521966457367, 0.1298093944787979, -0.14965954422950745, 0.17464537918567657, -0.0013332366943359375, -0.12755899131298065, -0.013425245881080627, -0.14051885902881622, -0.01582103967666626, -0.1375839114189148, -0.06371208280324936, -0.10228002816438675, -0.10422030091285706, -0.03200289607048035, 0.13544343411922455, -0.12341675907373428, -0.08272912353277206, -0.09322069585323334, -0.13955141603946686, 0.050381243228912354, 0.08413784205913544, 0.040986716747283936, -0.04543648660182953, -0.17143331468105316, -0.10834892094135284], [0.12341411411762238, 0.14463411271572113, 0.14512060582637787, 0.01843203604221344, -0.008852824568748474, -0.08185579627752304, -0.14458268880844116, -0.004507139325141907, 0.11121268570423126, 0.025008082389831543, -0.0364479124546051, 0.12520934641361237, 0.10258437693119049, -0.05447269231081009, -0.12847353518009186, 0.04311002790927887, -0.1568647027015686, 0.14799921214580536, -0.11125373095273972, 0.1318153589963913, -0.1612108051776886, 0.03570912778377533, -0.1512642353773117, 0.03544937074184418, -0.06034345179796219, -0.14370983839035034, -0.09730788320302963, 0.031416043639183044, -0.024910643696784973, -0.03292359411716461, -0.09443625062704086, -0.042273372411727905, 0.137088343501091, -0.018679693341255188, -0.07342419028282166, 0.1061362475156784, 0.014906540513038635, 0.037018924951553345, 0.17533762753009796, -0.015218600630760193, -0.14428985118865967, -0.029794156551361084, 0.16139765083789825, 0.14198045432567596, -0.12690865993499756, 0.028391465544700623, -0.1672569364309311, -0.10042249411344528, -0.1547444760799408, 0.12144292891025543, 0.09074722230434418, -0.14331930875778198, 0.1529969722032547, 0.11279170215129852, 0.11224131286144257, -0.1487622708082199, 0.09699966013431549, -0.029352620244026184, -0.13491657376289368, 0.017360538244247437, -0.13297182321548462, 0.1296074241399765, -0.12551411986351013, -0.018350109457969666], [-0.06397023051977158, 0.15244193375110626, -0.14425407350063324, -0.1386978179216385, -0.14497074484825134, 0.04519954323768616, -0.015216529369354248, 0.07825763523578644, 0.0814342349767685, 0.028303414583206177, -0.17213961482048035, 0.15352852642536163, 0.08512626588344574, -0.04757186770439148, 0.032280609011650085, -0.0778106227517128, -0.07176322489976883, 0.03197094798088074, -0.049732476472854614, 0.16267241537570953, -0.054255932569503784, 0.10066471993923187, 0.04134596884250641, -0.03273026645183563, -0.06750176101922989, 0.061952874064445496, -0.10180651396512985, -0.1152077317237854, -0.04097777605056763, -0.03644058108329773, 0.12151332199573517, -0.10718988627195358, -0.0879918709397316, 0.07195340096950531, -0.17028464376926422, 0.13032998144626617, -0.06572868674993515, -0.05563586205244064, -0.042693451046943665, -0.12076433002948761, -0.07555130124092102, 0.11169146001338959, -0.13283877074718475, 0.03136715292930603, 0.12525279819965363, 0.13924990594387054, 0.08727748692035675, -0.026588931679725647, -0.1453673392534256, 0.1695684939622879, 0.04618333280086517, 0.0792444497346878, 0.09535668790340424, 0.048526957631111145, -0.0583052784204483, 0.05110238492488861, 0.16502217948436737, -0.09823035448789597, -0.09210287779569626, 0.11432118713855743, 0.021436184644699097, -0.04077555239200592, -0.009211152791976929, 0.1286161094903946], [0.10096685588359833, -0.13654470443725586, -0.03200462460517883, 0.060231730341911316, 0.03313976526260376, -0.1502499282360077, 0.03316451609134674, -0.10031434148550034, -8.644163608551025e-05, -0.11054262518882751, -0.05797024816274643, -0.14658601582050323, -0.06248198449611664, 0.087042436003685, 0.07559727132320404, 0.06935019791126251, 0.06981836259365082, 0.11496011912822723, -0.05761263519525528, -0.016563549637794495, 0.09906400740146637, -0.1476563811302185, 0.12118376791477203, 0.057007238268852234, -0.006245449185371399, 0.05623602867126465, 0.11342446506023407, -0.11741863191127777, 0.07156336307525635, 0.06456349790096283, -0.0999988317489624, -0.10699331015348434, 0.09313927590847015, 0.07681654393672943, 0.10107521712779999, -0.11572820693254471, 0.10257352888584137, -0.1541203111410141, 0.09892995655536652, 0.15455861389636993, 0.1533736139535904, -0.06092381477355957, -0.1334768831729889, -0.09183414280414581, -0.0947335958480835, -0.023318424820899963, 0.08056305348873138, 0.02014787495136261, -0.11022833734750748, -0.005375370383262634, 0.031879037618637085, -0.09004020690917969, 0.1016363650560379, -0.004210084676742554, -0.16053380072116852, -0.049566879868507385, -0.047425493597984314, 0.08401216566562653, -0.11395740509033203, 0.05837574601173401, 0.13283081352710724, -0.04087953269481659, 0.010803207755088806, 0.08296193182468414], [0.128053680062294, 0.017813831567764282, 0.10226456820964813, -0.049338579177856445, -0.058954715728759766, 0.004368230700492859, -0.012482553720474243, -0.06267286837100983, 0.03817024827003479, -0.13758252561092377, -0.10290607810020447, 0.06257681548595428, -0.0873863473534584, -0.16549372673034668, -0.09829395264387131, -0.018426597118377686, -0.10564128309488297, 0.12650074064731598, 0.0329769104719162, -0.14847171306610107, 0.08844129741191864, -0.005124926567077637, 0.1489339917898178, 0.06998138129711151, -0.08333025872707367, 0.07209450006484985, 0.161359503865242, 0.0558437705039978, -0.10764718055725098, -0.011681124567985535, -0.040639594197273254, -0.011628866195678711, 0.12210573256015778, 0.035378143191337585, 0.06978283822536469, -0.17311282455921173, 0.1290029138326645, 0.04706196486949921, 0.09598557651042938, -0.11969704926013947, 0.007002189755439758, 0.169810488820076, -0.11802150309085846, -0.16122783720493317, 0.017859846353530884, 0.047378405928611755, -0.1484939604997635, 0.037672966718673706, 0.017238229513168335, 0.12510402500629425, 0.12000636756420135, -0.09378200769424438, -0.12456449866294861, -0.037538811564445496, 0.1451958566904068, 0.16372041404247284, 0.07140670716762543, -0.08518894016742706, 0.17096076905727386, -0.14496299624443054, -0.11987592279911041, 0.005973637104034424, -0.05808994919061661, -0.12396390736103058], [-0.08222373574972153, -0.07217884063720703, 0.03423137962818146, -0.0259808748960495, -0.07338857650756836, -0.1686258316040039, 0.1298946887254715, 0.17130623757839203, -0.11779976636171341, -0.036202505230903625, -0.0024772286415100098, 0.07270297408103943, -0.14613454043865204, 0.11275120079517365, -0.05319669842720032, 0.07601635158061981, -0.12820127606391907, -0.04084181785583496, 0.10222308337688446, 0.015767887234687805, 0.1264866441488266, -0.01254783570766449, -0.14209109544754028, 0.17435137927532196, 0.1307113617658615, -0.0065797120332717896, 0.10623113811016083, 0.1763090342283249, -0.0898817777633667, -0.09925144165754318, 0.16597141325473785, -0.08770708739757538, -0.01075667142868042, 0.041836947202682495, -0.15276113152503967, 0.12125100195407867, 0.04694214463233948, -0.17450283467769623, 0.1285555213689804, -0.04459443688392639, -0.12504416704177856, 0.17454718053340912, 0.034597381949424744, -0.06507768481969833, 0.02070978283882141, -0.008504137396812439, -0.020180970430374146, -0.027578875422477722, 0.054194867610931396, -0.1403111219406128, -0.005184486508369446, 0.06619963049888611, -0.049888163805007935, 0.1070944219827652, 0.1652529388666153, 0.11375601589679718, 0.073499396443367, 0.07837773859500885, -0.10504402220249176, -0.1274821162223816, 0.04120713472366333, -0.12480904161930084, 0.04924243688583374, 0.1523018628358841], [0.1291796714067459, 0.00043688714504241943, -0.019287794828414917, 0.17463572323322296, 0.012513354420661926, 0.09089191257953644, -0.17265616357326508, -0.14842522144317627, -0.1392940729856491, -0.15435411036014557, -0.06932385265827179, 0.06655843555927277, -0.051365673542022705, 0.026376977562904358, 0.006496056914329529, 0.0050665587186813354, 0.024288758635520935, -0.015384063124656677, 0.12001045048236847, -0.1251874715089798, 0.06511245667934418, 0.06218552589416504, 0.019331783056259155, -0.12400276958942413, 0.15070320665836334, -0.011425048112869263, 0.11836503446102142, -0.15460142493247986, -0.15140415728092194, 0.163893923163414, -0.07713707536458969, -0.1286793053150177, -0.13750118017196655, -0.03738024830818176, 0.1293991655111313, 0.004612088203430176, 0.1444966048002243, 0.06580130755901337, -0.13649459183216095, 0.029934674501419067, 0.10407717525959015, -0.1376057118177414, -0.05220510810613632, 0.1403353065252304, 0.113560751080513, -0.1439550817012787, 0.07687880098819733, -0.03900425136089325, -0.04447680711746216, -0.1568634808063507, -0.12948793172836304, -0.010208308696746826, -0.13353705406188965, -0.04162612557411194, -0.13020792603492737, -0.1617417335510254, 0.1247067004442215, 0.15777482092380524, 0.10364921391010284, 0.13398893177509308, 0.033268705010414124, 0.0627240389585495, -0.13295859098434448, -0.08292637020349503], [-0.03381125628948212, -0.022906005382537842, -0.03321239352226257, 0.1639845222234726, -0.0064750611782073975, 0.001235663890838623, 0.10221128165721893, 0.15200196206569672, 0.17508111894130707, 0.0685172826051712, 0.1470717340707779, -0.08111228048801422, 0.17310063540935516, 0.0017475336790084839, 0.045322269201278687, -0.035117000341415405, -0.14367055892944336, 0.0741593986749649, 0.052370667457580566, 0.09363798797130585, -0.023966684937477112, 0.13530950248241425, -0.15795332193374634, 0.17027749121189117, 0.15370960533618927, -0.057261884212493896, 0.008281603455543518, 0.03591863811016083, -0.00359208881855011, -0.13655321300029755, -0.16644097864627838, -0.027466431260108948, -0.07165427505970001, 0.0010436773300170898, -0.005681902170181274, 0.17545704543590546, 0.13222287595272064, 0.12240912020206451, -0.08687324821949005, -0.15137317776679993, -0.05549521744251251, -0.07422666996717453, 0.13563181459903717, 0.0015228092670440674, 0.10069800913333893, 0.002287134528160095, -0.09841234236955643, 0.036931514739990234, -0.04154680669307709, -0.08354794979095459, 0.12687696516513824, 0.16911645233631134, 0.01776459813117981, 0.14939294755458832, -0.08614103496074677, 0.13993637263774872, 0.05740126967430115, 0.1153646856546402, -0.1091235801577568, -0.006337836384773254, 0.14198236167430878, -0.06328479945659637, -0.14614887535572052, -0.1344568282365799], [0.1636665016412735, -0.10589538514614105, -0.029107287526130676, -0.1528742015361786, 0.037334144115448, -0.15104110538959503, 0.06645920872688293, -0.07060755789279938, 0.13509349524974823, 0.041699886322021484, -0.02304825186729431, -0.00033587217330932617, -0.11452625691890717, 0.11065508425235748, -0.09879301488399506, 0.03391355276107788, 0.005428686738014221, -0.0507332980632782, 0.07978789508342743, 0.1251194030046463, 0.01527191698551178, 0.06561367213726044, 0.04642336070537567, -0.02115367352962494, 0.09452711045742035, 0.0464424192905426, -0.06618930399417877, -0.1761920303106308, 0.0772913247346878, 0.04802346229553223, -0.07578201591968536, 0.07196658849716187, -0.1438172161579132, 0.10295026004314423, -0.055024102330207825, 0.06061103940010071, -0.008908241987228394, 0.03392079472541809, -0.05458687245845795, 0.0936003178358078, -0.021575525403022766, 0.15208275616168976, 0.1654519885778427, -0.1420188546180725, -0.10929541289806366, 0.04194091260433197, -0.13732433319091797, 0.13309623301029205, -0.019807085394859314, -0.09272782504558563, -0.10786882787942886, 0.15598590672016144, 0.11682070791721344, -0.06532398611307144, 0.15722016990184784, 0.07819981873035431, 0.04842579364776611, -0.1366855949163437, 0.13502298295497894, -0.07845897227525711, -0.14638973772525787, -0.07297874242067337, -0.03044220805168152, -0.015072092413902283], [-0.15807314217090607, -0.10975738614797592, 0.06522856652736664, -0.08493508398532867, -0.12261192500591278, 0.17364560067653656, -0.04593968391418457, -0.06465394049882889, -0.013592943549156189, 0.08037559688091278, 0.12407337129116058, -0.09929114580154419, -0.01300947368144989, 0.08201102912425995, -0.13415248692035675, -0.05862685292959213, -0.054843246936798096, -0.17479486763477325, 0.07549305260181427, -0.08852852880954742, 0.1677754670381546, -0.12257517129182816, -0.16452325880527496, 0.07312789559364319, 0.046824902296066284, -0.033481165766716, -0.04558826982975006, 0.047509610652923584, 0.037821605801582336, 0.04077112674713135, -0.17337076365947723, -0.06539914011955261, 0.11841873824596405, 0.04316882789134979, 0.02034825086593628, 0.14529721438884735, -0.12158636748790741, -0.15553712844848633, -0.07267026603221893, 0.019262000918388367, -0.16646672785282135, -0.0865553766489029, -0.15865999460220337, -0.1571931540966034, 0.13729418814182281, -0.04370054602622986, 0.11440478265285492, -0.0348772257566452, 0.07191967964172363, 0.1530105024576187, 0.13787086308002472, -0.13007773458957672, 0.16953115165233612, 0.021909788250923157, -0.014919310808181763, 0.009284570813179016, -0.14462850987911224, 0.016045480966567993, 0.1387873739004135, 0.07847969233989716, 0.04573969542980194, -0.14235472679138184, -0.10223628580570221, 0.08305560052394867], [0.15218760073184967, 0.0032944977283477783, -0.05400288105010986, 0.012165263295173645, 0.12319950759410858, -0.15609586238861084, 0.15127016603946686, -0.11965532600879669, 0.00911763310432434, 0.16106097400188446, 0.08005820214748383, 0.011425212025642395, 0.1416296809911728, 0.08080200850963593, 0.12222345173358917, -0.08679599314928055, -0.03673312067985535, -0.13500571250915527, 0.1619921773672104, 0.1084405928850174, 0.09726430475711823, 0.06632168591022491, 0.16433484852313995, -0.05586472153663635, 0.11148782074451447, -0.0036355406045913696, -0.03161430358886719, -0.024581387639045715, -0.07638327777385712, -0.09843572974205017, 0.17582182586193085, 0.03522452712059021, -0.02530677616596222, -0.07458622008562088, -0.0952247753739357, 0.1197497695684433, 0.15791074931621552, -0.08967070281505585, 0.13447968661785126, -0.16279953718185425, -0.02407415211200714, 0.04729314148426056, 0.07924138009548187, -0.006963372230529785, 0.00889471173286438, -0.12638157606124878, 0.0033956021070480347, -0.08005789667367935, -0.05172024667263031, -0.14246490597724915, -0.015257671475410461, -0.05908208340406418, -0.0153837651014328, -0.021231472492218018, -0.0349414199590683, -0.046770110726356506, -0.16544824838638306, -0.130647212266922, 0.05808652937412262, -0.04867441952228546, 0.057424187660217285, 0.0638422816991806, 0.09221099317073822, -0.04906955361366272], [-0.14638060331344604, -0.03991939127445221, 0.14881743490695953, -0.12874214351177216, -0.10476209968328476, -0.05718833953142166, -0.055368565022945404, -0.15202726423740387, 0.0659448504447937, 0.06129661202430725, -0.1290093958377838, 0.02721409499645233, -0.14836473762989044, 0.04314407706260681, -0.12970156967639923, -0.03872962296009064, -0.06694170832633972, 0.05304864048957825, -0.05853649228811264, -0.16161061823368073, 0.12040705978870392, 0.03571777045726776, -0.038637831807136536, -0.009060144424438477, 0.056187182664871216, -0.05590817332267761, -0.039477020502090454, 0.14986608922481537, -0.05663482844829559, -0.1484009474515915, 0.030714556574821472, -0.012306958436965942, -0.015412554144859314, -0.1368720978498459, -0.022077277302742004, 0.050305381417274475, -0.14703324437141418, -0.08281943947076797, 0.0317004919052124, 0.06990715861320496, 0.07275144755840302, 0.039768368005752563, 0.16714255511760712, 0.05538226664066315, -0.05694730579853058, -0.04332152009010315, -0.03879958391189575, 0.09958995878696442, 0.14080865681171417, 0.005699977278709412, -0.06347357481718063, -0.02076663076877594, -0.11416586488485336, -0.1485033631324768, 0.08152113854885101, 0.06341342628002167, -0.14369264245033264, 0.06041666865348816, -0.15239499509334564, 0.04760637879371643, 0.12772910296916962, -0.006588011980056763, 0.07122665643692017, 0.10827402770519257], [-0.1311437487602234, 0.05377541482448578, 0.14061953127384186, -0.14580680429935455, 0.03706292808055878, -0.17121011018753052, -0.1117510199546814, 0.10621561110019684, 0.14812757074832916, -0.12238403409719467, 0.10043551027774811, -0.10930051654577255, 0.04549279808998108, 0.0738305002450943, -0.0743640661239624, 0.029328733682632446, 0.10493461787700653, 0.12060408294200897, -0.10465867072343826, -0.1544119268655777, -0.05444648116827011, -0.09484187513589859, -0.16383975744247437, -0.13169074058532715, -0.16380107402801514, 0.05435565114021301, -0.07187150418758392, -0.015425533056259155, 0.09656007587909698, -0.0016957372426986694, 0.07422183454036713, 0.05382363498210907, 0.02818477153778076, 0.13751934468746185, 0.042685359716415405, 0.0013246387243270874, -0.1266857534646988, -0.11541998386383057, 0.13080646097660065, -0.09000746160745621, -0.08351153135299683, -0.14799296855926514, -0.00501386821269989, -0.08452554792165756, 0.14115290343761444, -0.11084941029548645, 0.03514014184474945, -0.07670924067497253, 0.0769110769033432, -0.10370825976133347, 0.1347063034772873, 0.0035886764526367188, 0.028386741876602173, 0.1270885020494461, -0.17044399678707123, -0.01991388201713562, -0.033810585737228394, -0.16504035890102386, -0.04918524622917175, 0.14183329045772552, -0.08273042738437653, -0.05946553498506546, 0.05514097213745117, -0.036635175347328186], [-0.09794345498085022, -0.09728938341140747, -0.006892189383506775, -0.12960931658744812, 0.008133754134178162, 0.04150310158729553, -0.004768192768096924, -0.115318663418293, 0.160521999001503, -0.0331592857837677, 0.062127530574798584, 0.13238869607448578, -0.017340436577796936, -0.1723363995552063, 0.04944634437561035, 0.06628219783306122, 0.0907028466463089, -0.08474357426166534, 0.0656929463148117, 0.15670324862003326, -0.05092734098434448, -0.06341578811407089, 0.015027254819869995, -0.09951052069664001, 0.05856780707836151, -0.058673009276390076, -0.1296338438987732, -0.1385042369365692, -0.02963598072528839, 0.15468092262744904, -0.13577143847942352, -0.021598950028419495, 0.14197887480258942, 0.004466012120246887, -0.03372354805469513, 0.05800619721412659, 0.09948469698429108, 0.13784413039684296, 0.07933621108531952, -0.10614296048879623, -0.04392780363559723, -0.04641914367675781, -0.13289132714271545, -0.018007919192314148, -0.06495726853609085, 0.12429611384868622, -0.011623591184616089, 0.10624726116657257, -0.10165145248174667, -0.05584309995174408, -0.14545956254005432, 0.14316432178020477, -0.08661366999149323, 0.04200127720832825, 0.09596849977970123, -0.08689229935407639, -0.15586945414543152, 0.1129307895898819, -0.019089028239250183, -0.04974815249443054, 0.09871099889278412, 0.17221800982952118, 0.17031709849834442, -0.08579909801483154], [-0.06546256691217422, -0.004225477576255798, -0.0913422480225563, -0.03894646465778351, 0.12207497656345367, 0.10263045132160187, 0.1276666671037674, -0.014347583055496216, 0.05980363488197327, -0.08936434239149094, -0.09892825782299042, 0.17637251317501068, -0.09572594612836838, -0.1603507548570633, -0.16047905385494232, 0.05612708628177643, 0.02526918053627014, -0.12540684640407562, -0.0034752637147903442, -0.009444355964660645, 0.08889554440975189, -0.05613180249929428, 0.040587618947029114, 0.12532775104045868, -0.06952152401208878, -0.12481919676065445, -0.061445802450180054, -0.07528918981552124, 0.08728377521038055, -0.04627521336078644, 0.1462225466966629, 0.07735420763492584, 0.06905503571033478, 0.13087253272533417, 0.15712274610996246, -0.10152745991945267, -0.13399624824523926, 0.16331376135349274, -0.03179153800010681, 0.042528361082077026, -0.10533542186021805, -0.0908217802643776, -0.0042828768491744995, 0.10244987905025482, -0.00406666100025177, -0.14389684796333313, -0.08211415261030197, -0.04201720654964447, -0.13555407524108887, -0.0422707200050354, -0.002378895878791809, 0.11198167502880096, -0.008244514465332031, 0.05035136640071869, 0.04510273039340973, -0.08656284213066101, -0.01526479423046112, 0.03765416145324707, 0.15618272125720978, -0.033140525221824646, -0.07746358960866928, -0.1702030897140503, 0.046666041016578674, -0.024499714374542236], [-0.019665002822875977, 0.00847037136554718, 0.013547345995903015, 0.0229673832654953, 0.05564311146736145, -0.1719628870487213, 0.14378102123737335, 0.1286860555410385, -0.01852189004421234, 0.09355457127094269, 0.1584453135728836, 0.11678187549114227, -0.007586225867271423, 0.1596211940050125, 0.03506360948085785, 0.17373736202716827, 0.17606760561466217, -0.10821498185396194, -0.05121566355228424, -0.05189933627843857, -0.1699846386909485, -0.06731799989938736, 0.07652084529399872, -0.11058317124843597, -0.1015283390879631, 0.11444707214832306, -0.12931057810783386, -0.012580081820487976, 0.14803911745548248, -0.14849497377872467, 0.10983364284038544, -0.07091321051120758, 0.13355518877506256, 0.09346450865268707, 0.11409203708171844, -0.03505943715572357, -0.041902437806129456, -0.06155151128768921, -0.13686788082122803, 0.015309751033782959, 0.033660873770713806, 0.17605282366275787, -0.07114948332309723, 0.12446574866771698, -0.15556582808494568, -0.05190519243478775, -0.08879531919956207, 0.0917251855134964, -0.0002876967191696167, -0.14506417512893677, 0.10500849783420563, 0.07190273702144623, 0.0787028819322586, -0.1674095094203949, 0.14661948382854462, 0.03466135263442993, 0.11121527850627899, -0.030189961194992065, -0.12300418317317963, -0.06668820232152939, -0.17106369137763977, -0.025708183646202087, 0.12113715708255768, 0.09834633767604828], [-0.07846255600452423, -0.0015904605388641357, 0.13781805336475372, -0.07639171183109283, 0.17078463733196259, 0.13490815460681915, 0.10151742398738861, 0.12167440354824066, -0.08848936855792999, -0.02596384286880493, 0.16833709180355072, -0.0476435124874115, 0.005344554781913757, -0.15167170763015747, 0.022800356149673462, 0.048620596528053284, -0.07559424638748169, 0.021938279271125793, -0.10129927098751068, 0.073460653424263, 0.09801523387432098, 0.07179580628871918, 0.12631402909755707, -0.1624728888273239, 0.09352760016918182, -0.1339690238237381, -0.05483018606901169, -0.04255938529968262, 0.08372358977794647, -0.04968367516994476, 0.010743185877799988, -0.03488464653491974, 0.12758024036884308, -0.13222511112689972, -0.14364977180957794, -0.17192964255809784, -0.07862409949302673, 0.08556948602199554, 0.1469947248697281, -0.09458852559328079, 0.024341285228729248, -0.05094192922115326, -0.07313907146453857, -0.08465493470430374, 0.08725045621395111, 0.15663601458072662, -0.1315268725156784, -0.07635917514562607, -0.08956205099821091, 0.0821862667798996, -0.16912075877189636, -0.07019321620464325, -0.13578644394874573, -0.053186751902103424, -0.042224690318107605, 0.10971789062023163, 0.12419338524341583, -0.13051526248455048, -0.11040716618299484, 0.03175567090511322, 0.010904699563980103, 0.1601572185754776, -0.015191540122032166, -0.03750854730606079], [0.08357690274715424, 0.04229727387428284, 0.11089350283145905, 0.12592549622058868, -0.0076411813497543335, -0.058657072484493256, 0.005092442035675049, 0.05651925504207611, -0.0890168845653534, -0.06301463395357132, -0.07441806048154831, 0.058168381452560425, 0.05362394452095032, -0.007048428058624268, -0.0627606213092804, 0.04758535325527191, -0.11277973651885986, 0.16103310883045197, 0.12275455892086029, -0.08331125229597092, -0.062375061213970184, -0.13483257591724396, 0.11104036867618561, 0.054811254143714905, 0.1306784600019455, 0.1342841535806656, -0.03136298060417175, 0.0957314521074295, -0.06151328235864639, 0.03529958426952362, -0.06783615052700043, 0.07675109803676605, 0.12630052864551544, 0.04647533595561981, 0.051293179392814636, -0.08553770184516907, -0.011744052171707153, 0.14960290491580963, 0.13309647142887115, 0.14594082534313202, -0.12020209431648254, 0.042925044894218445, -0.07233701646327972, -0.02091887593269348, 0.01965269446372986, 0.10381315648555756, 0.06939305365085602, 0.10830919444561005, 0.007122978568077087, -0.12038403749465942, -0.06321993470191956, -0.05474065989255905, 0.10154278576374054, -0.014897018671035767, -0.039903461933135986, -0.03312943875789642, -0.0667002946138382, 0.16714252531528473, 0.02637435495853424, 0.06223630905151367, 0.13312019407749176, 0.0024426132440567017, -0.08897010236978531, 0.04105810821056366], [0.027721628546714783, 0.11571206152439117, 0.17365007102489471, 0.0829843133687973, 0.12437011301517487, -0.07203047722578049, 7.160007953643799e-05, -0.11377529054880142, 0.14275698363780975, 0.16186489164829254, 0.13523192703723907, 0.16742371022701263, -0.12251612544059753, -0.06792331486940384, -0.07444397360086441, -0.10096698999404907, 0.003004729747772217, 0.02511492371559143, 0.06274713575839996, -0.1295902580022812, 0.07796518504619598, -0.01010875403881073, -0.13474060595035553, 0.08923430740833282, -6.355345249176025e-05, -0.08166301250457764, -0.052362821996212006, -0.06133656203746796, -0.102900430560112, 0.15913940966129303, 0.05960765480995178, -0.020133838057518005, 0.07288336753845215, 0.10857315361499786, 0.042892083525657654, 0.06251798570156097, -0.17228898406028748, 0.03652513027191162, -0.1687648743391037, -0.08158150315284729, -0.0018704384565353394, 0.051455020904541016, 0.09838183224201202, 0.10410813987255096, -0.168827623128891, 0.17027850449085236, -0.09036975353956223, 0.05318206548690796, -0.12701095640659332, -0.1178460419178009, -0.02386300265789032, 0.06743769347667694, -0.013854771852493286, 0.09074486792087555, -0.06004214286804199, -0.05013895034790039, 0.14857430756092072, 0.1414446383714676, 0.04064136743545532, -0.1488143652677536, -0.04513990879058838, -0.047834768891334534, -0.10238156467676163, 0.10083965957164764], [0.028284281492233276, 0.14833106100559235, 0.02856805920600891, -0.09049864113330841, -0.08750490844249725, 0.13048802316188812, -0.17297719419002533, 0.11744485795497894, -0.1380821317434311, -0.03167003393173218, -0.09413831681013107, -0.07500558346509933, -0.12995900213718414, -0.043027251958847046, -0.013933703303337097, 0.025496020913124084, 0.005557522177696228, 0.048880815505981445, 0.056115031242370605, -0.04059100151062012, -0.1221022829413414, -0.01007300615310669, -0.09486252069473267, 0.14816458523273468, -0.13885751366615295, 0.10913507640361786, -0.0038840919733047485, -0.08598597347736359, 0.11685638129711151, 0.13147033751010895, 0.10418303310871124, 0.09737654030323029, 0.07209588587284088, 0.13051526248455048, -0.1727622002363205, -0.14363914728164673, -0.17273004353046417, -0.02085728943347931, -0.0604247972369194, 0.047440022230148315, 0.07105891406536102, -0.06123759597539902, -0.14382758736610413, 0.003989621996879578, 0.02057221531867981, -0.06153717637062073, 0.11429391801357269, -0.06038994342088699, -0.15124627947807312, -0.07741554081439972, -0.14672556519508362, 0.05855692923069, 0.0710299164056778, -0.02768576145172119, 0.013863995671272278, 0.0029795318841934204, 0.042557016015052795, -0.0045036375522613525, 0.09188254177570343, -0.054016031324863434, 0.16682948172092438, -0.15930067002773285, 0.1430017203092575, -0.15294648706912994], [-0.06569218635559082, 0.16352872550487518, 0.10264404118061066, -0.06882976740598679, 0.12211008369922638, -0.06372713297605515, 0.058908611536026, -0.15216714143753052, -0.057889752089977264, 0.025506213307380676, 0.06004691123962402, 0.14623405039310455, -0.015329867601394653, 0.065940722823143, 0.07127352058887482, 0.027755603194236755, -0.09389845281839371, -0.00689147412776947, -0.1651521623134613, 0.08868230879306793, 0.05264933407306671, 0.11298371851444244, 0.135147824883461, 0.04068055748939514, -0.039966851472854614, -0.08226942270994186, -0.0865660011768341, 0.05257503688335419, -0.16433767974376678, 0.09198929369449615, -0.0690871998667717, 0.1306634098291397, -0.0700027123093605, -0.1615351289510727, 0.15998788177967072, -0.15705664455890656, 0.04048234224319458, -0.11876632273197174, 0.09099315106868744, -0.05094006657600403, 0.10972367227077484, 0.07722108066082001, 0.02845914661884308, -0.16860716044902802, -0.17055843770503998, 0.07534883916378021, -0.011649474501609802, -0.17467474937438965, 0.0480898916721344, -0.13763010501861572, -0.14285458624362946, -0.0684257447719574, -0.11493892222642899, -0.09203354269266129, 0.12740777432918549, 0.0400899201631546, -0.10577522963285446, -0.08368745446205139, 0.059701308608055115, -0.14538538455963135, 0.0270574688911438, -0.07973669469356537, -0.033594369888305664, -0.05313718318939209], [-0.1736300140619278, -0.03971788287162781, -0.026498273015022278, 0.050263747572898865, 0.040311768651008606, 0.13218586146831512, -0.13835136592388153, 0.005915433168411255, 0.07281799614429474, -0.06321121007204056, 0.12435175478458405, -0.13894660770893097, -0.12999555468559265, -0.10588189959526062, -0.037714555859565735, 0.025439754128456116, 0.06700564920902252, -0.047186896204948425, 0.15972141921520233, 0.13409404456615448, -0.026802822947502136, 0.08326901495456696, -0.1639954149723053, 0.12962330877780914, 0.1653982549905777, 0.05852299928665161, 0.1120835691690445, -0.1456594616174698, -0.1747966706752777, 0.008845239877700806, -0.03717140853404999, 0.08358116447925568, 0.11973981559276581, -0.025781527161598206, 0.15172244608402252, -0.08091655373573303, 0.07656104862689972, 0.006949558854103088, -0.10108335316181183, 0.0757874995470047, 0.02804464101791382, -0.14855806529521942, -0.026620924472808838, 0.17668695747852325, -0.0331631600856781, 0.11346425116062164, -0.16484037041664124, -0.1611766666173935, -0.03028339147567749, 0.08073122799396515, 0.06537608802318573, -0.04100066423416138, 0.08620880544185638, 0.04748201370239258, 0.07072147727012634, -0.026102468371391296, 0.143838033080101, 0.13046960532665253, -0.11885377764701843, -0.07294788956642151, 0.08613787591457367, -0.10445038229227066, -0.03870189189910889, -0.03167895972728729], [-0.11728287488222122, -0.018752142786979675, -0.049142301082611084, -0.16075153648853302, 0.01696936786174774, 0.04429203271865845, -0.06936806440353394, 0.07063575088977814, -0.08581018447875977, -0.012772142887115479, 0.08135901391506195, 0.07781799137592316, -0.1146664023399353, -0.17361947894096375, 0.1195618063211441, -0.12232216447591782, -0.14092540740966797, 0.00775890052318573, 0.005197763442993164, 0.1295716017484665, -0.0046571046113967896, 0.1732441931962967, -0.12304823100566864, 0.06130090355873108, -0.11993643641471863, -0.03688924014568329, 0.08003179728984833, -0.17566683888435364, 0.03337474167346954, 0.007773399353027344, 0.06621931493282318, -0.056413933634757996, -0.01207384467124939, -0.12641921639442444, 0.0557328462600708, 0.00992545485496521, -0.11727356165647507, 0.0036681294441223145, -0.1490282565355301, 0.02546525001525879, -0.035795316100120544, -0.09356511384248734, -0.13740259408950806, 0.12773214280605316, -0.09771481156349182, 0.14586754143238068, -0.013141006231307983, 0.14872969686985016, 0.16091202199459076, 0.019997283816337585, 0.05979570746421814, -0.1669301837682724, -0.02785615622997284, -0.14783255755901337, 0.11916206777095795, 0.0934075266122818, -0.01504717767238617, 0.03342476487159729, 0.001604616641998291, 0.1611124724149704, 0.05719512701034546, -0.02339276671409607, -0.01869089901447296, 0.005051851272583008], [0.013396844267845154, -0.0993659570813179, 0.14875240623950958, -0.0023598819971084595, 0.11533202230930328, -0.11307679116725922, 0.04640556871891022, 0.10114054381847382, -0.16691508889198303, -0.13618780672550201, -0.01999656856060028, -0.09450849145650864, -0.09039053320884705, 0.0530141144990921, -0.010926827788352966, 0.04412618279457092, 0.1524920016527176, -0.14026682078838348, 0.07199224829673767, 0.1029876321554184, 0.08790741860866547, 0.11162184178829193, -0.11901380121707916, 0.042395979166030884, -0.07487969100475311, -0.1251075267791748, 0.06376910209655762, 0.0010131746530532837, 0.13009260594844818, -0.026470661163330078, 0.0015262216329574585, 0.1672690063714981, 0.14025194942951202, 0.04896831512451172, 0.08224387466907501, 0.007665619254112244, 0.11650855839252472, -0.1542586386203766, -0.12511490285396576, -0.05270788073539734, -0.08098293095827103, 0.13787363469600677, -0.01747913658618927, -0.07254614681005478, -0.04369671642780304, -0.03890296816825867, -0.08905468881130219, 0.09687520563602448, -0.04430025815963745, 0.0006246566772460938, 0.15687866508960724, -0.05451218783855438, 0.10674144327640533, 0.020010441541671753, 0.16843177378177643, -0.057499051094055176, 0.16583950817584991, -0.1656949818134308, 0.13669617474079132, -0.07196059823036194, -0.0976448506116867, 0.07921727001667023, -0.16982436180114746, -0.05119998753070831], [-0.059717364609241486, 0.0017284899950027466, 0.15768639743328094, -0.17203012108802795, -0.0019022971391677856, -0.1007368266582489, -0.15570828318595886, 0.02004098892211914, 0.056706398725509644, -0.06577850133180618, -0.11754907667636871, -0.07298886030912399, -0.11896777898073196, -0.09134827554225922, 0.12659166753292084, 0.13304971158504486, -0.16443605720996857, 0.07365961372852325, -0.1015951856970787, 0.11493365466594696, -0.14379248023033142, -0.04851679503917694, 0.10927323997020721, -0.16839469969272614, 0.08883146941661835, 0.08897258341312408, -0.11093438416719437, 0.012008443474769592, -0.11822519451379776, -0.034118637442588806, 0.12155432999134064, 0.16574014723300934, 0.06278923153877258, 0.09375356137752533, 0.12239201366901398, -0.16598141193389893, -0.15719075500965118, -0.16371913254261017, -0.06908344477415085, 0.17195166647434235, 0.15537528693675995, -0.023706167936325073, -0.04317961633205414, -0.054411619901657104, -0.07085399329662323, 0.14333878457546234, 0.14710037410259247, -0.17505204677581787, 0.09465186297893524, -0.06658801436424255, -0.1213124543428421, 0.011731535196304321, 0.04893729090690613, 0.1268475204706192, 0.11788405478000641, 0.15108196437358856, 0.07930384576320648, 0.09745253622531891, -0.150620236992836, 0.10629676282405853, -0.14255088567733765, 0.10088013112545013, -0.11871085315942764, 0.1422543078660965], [-0.12668941915035248, 0.1474141925573349, 0.11282117664813995, 0.06491634249687195, -0.14428526163101196, -0.14430423080921173, 0.0662943422794342, 0.0842665582895279, -0.10638134181499481, 0.04775971174240112, -0.12258553504943848, 0.1537444144487381, -0.12276381999254227, -0.05488337576389313, 0.17261148989200592, -0.015137508511543274, 0.12266124784946442, -0.06014607846736908, -0.17041310667991638, 0.05672135949134827, 0.13853715360164642, -0.1683868169784546, 0.0220029354095459, -0.06915046274662018, 0.012579187750816345, -0.13425827026367188, -0.11417943239212036, 0.04141050577163696, -0.16098974645137787, 0.024922698736190796, -0.14169791340827942, -0.1520240604877472, 0.07948361337184906, 0.015074074268341064, -0.09109564870595932, -0.019151270389556885, 0.06442955136299133, 0.01808103919029236, -0.07231219112873077, 0.1365782469511032, -0.1634877473115921, 0.025006309151649475, -0.05005338788032532, -0.09671403467655182, 0.12044085562229156, 0.06289704144001007, -0.010397002100944519, 0.1211254745721817, 0.1272554248571396, 0.13133548200130463, -0.07785335928201675, -0.14308036863803864, 0.14305199682712555, -0.03443983197212219, -0.14309237897396088, 0.08462025225162506, -0.14724485576152802, 0.07574935257434845, 0.04445864260196686, -0.06047967076301575, 0.04183091223239899, 0.00505480170249939, 0.04225654900074005, -0.128388449549675], [-0.02306772768497467, -0.14192934334278107, -0.02642582356929779, 0.004561811685562134, 0.11742399632930756, 0.08507104218006134, 0.07334555685520172, -0.09314453601837158, -0.1282223016023636, -0.15429851412773132, 0.15544967353343964, -0.10308849066495895, 0.15404562652111053, 0.010209277272224426, 0.006705686450004578, -0.024428144097328186, 0.01901058852672577, -0.006379351019859314, 0.11870051920413971, -0.12405789643526077, 0.07704214751720428, 0.040900230407714844, 0.04205441474914551, 0.04912261664867401, -0.11313293129205704, 0.03997372090816498, -0.1700272113084793, -0.17099633812904358, -0.0924278274178505, 0.10740046203136444, -0.03702592849731445, 0.1295260339975357, 0.08660872280597687, 0.050764188170433044, -0.0012531876564025879, 0.05300694704055786, -0.08611638098955154, 0.0768587738275528, -0.052733421325683594, 0.05633436143398285, -0.02408316731452942, -0.11787887662649155, 0.14923827350139618, -0.1262684166431427, -0.06961946934461594, 0.021181270480155945, -0.041343480348587036, 0.10355024039745331, -0.10328603535890579, 0.030691877007484436, -0.14237099885940552, -0.0531490296125412, 0.0922020822763443, -0.008123427629470825, -0.08836191892623901, 0.13050030171871185, -0.06075131148099899, 0.09275956451892853, -0.16932348906993866, 0.032536014914512634, -0.17157413065433502, 0.08741457760334015, -0.12283787131309509, -0.12253837287425995], [0.12438420951366425, 0.14641253650188446, -0.15886639058589935, 0.14119358360767365, -0.029967382550239563, -0.02629731595516205, -0.059366241097450256, 0.022130131721496582, 0.06266807019710541, -0.17380815744400024, -0.08388925343751907, -0.1081652045249939, 0.13622282445430756, 0.02246612310409546, 0.14460651576519012, 0.01829110085964203, -0.07282406091690063, 0.03819313645362854, 0.07608433067798615, -0.007788106799125671, -0.1123177632689476, -0.05443926900625229, 0.13146163523197174, -0.08774872869253159, -0.07284117490053177, 0.167173370718956, -0.17383973300457, 0.06203678250312805, 0.020172029733657837, -0.033496588468551636, 0.03185269236564636, 0.10120828449726105, 0.09339584410190582, -0.0910845622420311, -0.09889227151870728, 0.16833443939685822, -0.0678911954164505, -0.17563822865486145, 0.06884856522083282, -0.05123257637023926, 0.12191574275493622, -0.07618366926908493, 0.042292386293411255, 0.14769847691059113, 0.11702798306941986, -0.1034148782491684, -0.12173020839691162, 0.15891022980213165, -0.12756460905075073, 0.0406351238489151, -0.06808444112539291, 0.04209066927433014, 0.13047946989536285, 0.08548100292682648, 0.07512827217578888, -0.05080081522464752, 0.043656423687934875, 0.0958418995141983, 0.013565391302108765, 0.13873638212680817, -0.16861402988433838, 0.014918595552444458, -0.017670825123786926, 0.10159985721111298], [0.1238616555929184, 0.08006425201892853, 0.1572476476430893, 0.009311079978942871, 0.08268187940120697, -0.004335567355155945, 0.16991211473941803, 0.007564261555671692, 0.15848393738269806, -0.07288100570440292, 0.0731009691953659, -0.04796251654624939, -0.04450331628322601, -0.04943002760410309, 0.0013204962015151978, 0.14598627388477325, -0.1557784080505371, -0.14087921380996704, -0.005012601613998413, -0.00013183057308197021, -0.17510013282299042, 0.15708531439304352, 0.02956482768058777, 0.16096745431423187, 0.057545870542526245, -0.0430365651845932, -0.06836909800767899, 0.17666302621364594, 0.09807823598384857, 0.028819337487220764, 0.07123664021492004, -0.08425850421190262, 0.012457385659217834, -0.0916798859834671, -0.11766161024570465, 0.10718028247356415, 0.09555642306804657, -0.16666802763938904, -0.1707794964313507, -0.1763666421175003, 0.14199386537075043, -0.10363825410604477, 0.06143999099731445, -0.008348912000656128, -0.07278065383434296, 0.13515348732471466, -0.09258655458688736, 0.020293578505516052, -0.09291934221982956, -0.15340061485767365, 0.14453069865703583, 0.022316381335258484, -0.1483772248029709, -0.1694464236497879, 0.14801396429538727, -0.0402335524559021, -0.02556990087032318, -0.09916769713163376, -0.14075276255607605, -0.09192813187837601, 0.14948593080043793, -0.1724630892276764, 0.013782814145088196, -0.17382970452308655], [0.01999707520008087, -0.10887331515550613, -0.15816089510917664, 0.12403373420238495, -0.16700595617294312, 0.11137010157108307, -0.16498063504695892, -0.027319326996803284, 0.0816008597612381, -0.03650440275669098, -0.1463681161403656, 0.12516550719738007, 0.04668720066547394, -0.13075794279575348, -0.11914175748825073, 0.11979563534259796, -0.09410400688648224, -0.14506316184997559, -0.12345708906650543, -0.14798200130462646, 0.1733577698469162, -0.11915242671966553, 0.027331218123435974, 0.12295390665531158, -0.13743075728416443, 0.06709423661231995, -0.10249342024326324, 0.053517892956733704, 0.04626649618148804, -0.015428736805915833, 0.10370902717113495, 0.046129047870635986, -0.13650710880756378, 0.023367851972579956, -0.03995053470134735, 0.0264350026845932, -0.049530088901519775, 0.019952282309532166, -0.11520162224769592, 0.07160678505897522, -0.08179864287376404, -0.15011316537857056, -0.08215676248073578, -0.027979135513305664, -0.010032638907432556, 0.05992375314235687, -0.051622211933135986, -0.07124844193458557, -0.08720596134662628, -0.09496039152145386, 0.10438071191310883, 0.026815220713615417, -0.16375327110290527, -0.05646215379238129, 0.0020744651556015015, 0.1223796159029007, 0.08094580471515656, 0.1697593778371811, -0.13963183760643005, -0.0024073421955108643, 0.011777803301811218, -0.1583542674779892, -0.12840168178081512, -0.15952502191066742], [0.07721315324306488, -0.1595398485660553, 0.17096905410289764, 0.07147085666656494, 0.12835223972797394, -0.09046845883131027, -0.07679378986358643, -0.07678510993719101, -0.13016889989376068, 0.09670098125934601, 0.11229364573955536, -0.0009002536535263062, -0.15504607558250427, 0.004445403814315796, 0.08709199726581573, 0.006752222776412964, 0.07624013721942902, 0.056013286113739014, 0.13660775125026703, -0.13277503848075867, -0.0808592364192009, 0.024752676486968994, 0.08087916672229767, 0.09819577634334564, -0.1312028467655182, -0.15580707788467407, 0.012487262487411499, -0.08875417709350586, -0.08957663178443909, -0.11015681177377701, -0.04438391327857971, -0.009847313165664673, 0.026181966066360474, 0.11328183114528656, -0.11832167208194733, 0.13501204550266266, -0.1745745688676834, 0.01916547119617462, 0.16449670493602753, 0.15115945041179657, -0.13183040916919708, 0.07596294581890106, -0.02395053207874298, -0.11681079119443893, -0.03434516489505768, 0.15508483350276947, 0.013402491807937622, 0.01361575722694397, 0.1494310051202774, 0.016880318522453308, 0.16152475774288177, 0.08251433074474335, -0.029292941093444824, 0.16269539296627045, 0.14487464725971222, 0.15602020919322968, 0.16812743246555328, 0.028239235281944275, -0.044794127345085144, 0.10156066715717316, -0.007730960845947266, -0.027236387133598328, 0.15762503445148468, 0.11166949570178986], [0.02163827419281006, 0.1230635792016983, 0.15323381125926971, -0.15256167948246002, 0.11766456067562103, 0.004633963108062744, -0.07221950590610504, -0.07461892813444138, -0.058193378150463104, 0.10942547023296356, -0.12795954942703247, 0.024113312363624573, -0.06955131888389587, -0.0034904778003692627, -0.1190176010131836, -0.0012586712837219238, -0.04504895210266113, 0.046713247895240784, 0.09405820071697235, 0.017997413873672485, 0.08704061806201935, 0.08292917907238007, -0.04505021870136261, -0.0705907866358757, 0.13322891294956207, 0.04801769554615021, 0.11565445363521576, 0.11549146473407745, 0.025406330823898315, -0.1367732286453247, -0.13612213730812073, -0.1430809646844864, 0.13415972888469696, 0.07847429811954498, 0.0033498257398605347, -0.11060841381549835, 0.11016906797885895, -0.05838177353143692, 0.05669960379600525, -0.05528578907251358, -0.14396697282791138, 0.10245238244533539, -0.11783184111118317, -0.12521937489509583, -0.08854656666517258, 0.16376645863056183, -0.0835578516125679, 0.008088529109954834, -0.15620844066143036, 0.015685871243476868, -0.07947201281785965, 0.11173997819423676, 0.11320360004901886, -0.0042603760957717896, 0.10991235077381134, -0.03387017548084259, -0.14024367928504944, -0.055351622402668, -0.0271633118391037, -0.09453301876783371, 0.0013249218463897705, -0.0430966317653656, -0.09647384285926819, -0.13436394929885864], [-0.14379160106182098, 0.16488967835903168, 0.04998008906841278, -0.02653886377811432, 0.05086429417133331, -0.12496528029441833, -0.09509328007698059, -0.16944849491119385, -0.12025755643844604, -0.16431227326393127, 0.019634902477264404, -0.02499397099018097, -0.15939036011695862, -0.13697797060012817, -0.17611806094646454, -0.14922939240932465, -0.12076226621866226, 0.13613848388195038, -0.10514648258686066, -0.03462933003902435, -0.15047428011894226, 0.08826784789562225, 0.1647913008928299, -0.14433500170707703, 0.14743734896183014, -0.04127630591392517, 0.11259205639362335, 0.07608993351459503, -0.07477908581495285, 0.13685102760791779, 0.07657264173030853, -0.04853394627571106, 0.06482450664043427, -0.0078027695417404175, 0.07338102161884308, 0.13561488687992096, -0.06596352905035019, -0.055717967450618744, 0.05184951424598694, -0.05542946606874466, 0.13639383018016815, 0.12316842377185822, -0.06642347574234009, -0.13191574811935425, 0.022724270820617676, 0.05111396312713623, -0.004843592643737793, -0.09372898191213608, 0.10527874529361725, -0.1278655230998993, 0.03734615445137024, 0.11113567650318146, -0.08956723660230637, -0.02080865204334259, 0.08146359026432037, 0.06021566689014435, -0.003990501165390015, -0.11946325749158859, 0.145171657204628, -0.029285654425621033, 0.004978850483894348, 0.14699198305606842, 0.14040054380893707, -0.016837164759635925], [0.0017746388912200928, 0.17024202644824982, 0.06913043558597565, -0.1239539235830307, 0.15955595672130585, -0.042680636048316956, 0.06545379757881165, 0.14655570685863495, -0.050237104296684265, 0.14991645514965057, 0.12360237538814545, 0.13448776304721832, -0.05914100259542465, -0.08373942226171494, -0.09743799269199371, 0.07775186002254486, 0.1727939397096634, 0.14703352749347687, 0.06867988407611847, -0.1049262210726738, -0.03808726370334625, -0.12377762049436569, -0.015720605850219727, 0.09903053939342499, -0.10340556502342224, 0.14313773810863495, 0.01872226595878601, -0.1738801896572113, -0.12767216563224792, -0.05808623880147934, -0.01689334213733673, 0.16851140558719635, 0.1646546572446823, -0.11622519791126251, 0.048378005623817444, 0.02112463116645813, -0.0575762614607811, -0.14630001783370972, 0.14275790750980377, -0.14278644323349, 0.1072358638048172, -0.07219540327787399, -0.10675884783267975, -0.0809016302227974, 0.10541488230228424, 0.032061606645584106, 0.06565521657466888, -0.02003231644630432, -0.1702190637588501, -0.17090605199337006, -0.14984793961048126, 0.1336250752210617, 0.12150569260120392, 0.01386311650276184, -0.12404347956180573, 0.1059112399816513, 0.1678670197725296, -0.1571369767189026, -0.12467918545007706, -0.17624956369400024, 0.11416615545749664, 0.09270764887332916, -0.08460832387208939, -0.033087506890296936], [-0.008416935801506042, 0.12503577768802643, -0.14256739616394043, -0.08781131356954575, -0.11683338135480881, -0.09329955279827118, 0.11984692513942719, -0.1325131058692932, 0.0665544718503952, -0.06416794657707214, -0.14485344290733337, 0.14273877441883087, -0.11861037462949753, 0.09823240339756012, 0.12803907692432404, -0.08884365856647491, -0.09390195459127426, -0.14781561493873596, -0.12682117521762848, 0.12090303003787994, -0.1322888433933258, 0.16831110417842865, 0.1621539145708084, 0.023975282907485962, 0.10789670050144196, 0.16469351947307587, 0.05185043811798096, -0.16014988720417023, -0.06136319786310196, -0.10482767969369888, 0.11385802924633026, 0.15302212536334991, -0.02647976577281952, -0.15001630783081055, -0.02432893216609955, 0.03597119450569153, 6.739795207977295e-05, 0.09690429270267487, 0.12169583141803741, -0.06624215841293335, 0.08900551497936249, 0.01567263901233673, -0.09240089356899261, -0.06044717878103256, 0.02431628108024597, 0.16751711070537567, 0.043350398540496826, -0.06292343139648438, 0.0888516753911972, 0.0035162270069122314, 0.027042225003242493, -0.0611351802945137, 0.14090879261493683, -0.02507700026035309, 0.17555426061153412, 0.09172864258289337, 0.005923733115196228, 0.04799215495586395, -0.023262828588485718, -0.04144863784313202, -0.021389693021774292, -0.0666613057255745, 0.08199198544025421, 0.09469251334667206], [0.15106914937496185, 0.1732955425977707, 0.16441304981708527, 0.10248591005802155, -0.05356290936470032, -0.06629391759634018, 0.15282569825649261, 0.11413483321666718, -0.14619797468185425, -0.06631170213222504, 0.145228311419487, -0.025119736790657043, 0.06099487841129303, -0.004858344793319702, 0.07928736507892609, -0.07243378460407257, 0.16601504385471344, -0.17238730192184448, -0.12942150235176086, 0.11706767976284027, 0.00032907724380493164, -0.1372273564338684, 0.17505373060703278, 0.12665773928165436, 0.08940891921520233, 0.03189711272716522, -0.16594208776950836, 0.10956405103206635, 0.09177042543888092, -0.10564099252223969, 0.11347375810146332, -0.0012065768241882324, -0.10397939383983612, -0.11107747256755829, 0.009100258350372314, 0.09179146587848663, 0.005744189023971558, 0.14724157750606537, 0.042706310749053955, 0.005995854735374451, -0.13835233449935913, 0.12145249545574188, -0.1444055438041687, -0.05261363834142685, -0.1450895518064499, -0.04634307324886322, -0.0925593227148056, -0.023634091019630432, -0.03297607600688934, 0.11863265931606293, -0.03940849006175995, -0.12460964173078537, -0.06309648603200912, 0.14486272633075714, -0.10226958245038986, -0.0065409839153289795, -0.045427680015563965, 0.16734127700328827, -0.1349686235189438, 0.1611240655183792, 0.055706337094306946, 0.1311182826757431, -0.10071638226509094, -0.108688585460186], [-0.1372992992401123, 0.05310384929180145, 0.010633185505867004, 0.12159352004528046, -0.019589856266975403, -0.10039771348237991, -0.011800780892372131, 0.028554946184158325, -0.0360882431268692, 0.05394396185874939, 0.04620562493801117, -0.12440581619739532, -0.1358719915151596, -0.15025684237480164, 0.1431180089712143, -0.0744776502251625, -0.1381421536207199, 0.06418479979038239, -0.10950323939323425, 0.09596209228038788, 0.0951596051454544, 0.16250835359096527, 0.10423661768436432, -0.12591396272182465, -0.17617423832416534, 0.0772109180688858, 0.1542341262102127, 0.1555703729391098, -0.1756097674369812, -0.12927104532718658, -0.07463034987449646, 0.14177466928958893, -0.11626473069190979, 0.05732250213623047, -0.1361861228942871, -0.10828911513090134, 0.1375991851091385, 0.053572311997413635, -0.011007413268089294, -0.03775443136692047, -0.07420121133327484, 0.03364346921443939, 0.13762696087360382, -0.15356169641017914, -0.157871812582016, 0.04466930031776428, 0.1721506267786026, 0.1121157854795456, -0.00519561767578125, 0.12890507280826569, -0.07227513939142227, -0.10740888118743896, 0.0494978129863739, 0.17352677881717682, -0.09332352876663208, 0.11159597337245941, 0.05416446924209595, -0.08185124397277832, -0.08692951500415802, -0.0026978254318237305, 0.029764771461486816, -0.17494772374629974, -0.11866132915019989, 0.03123486042022705], [-0.11360564827919006, 0.1332494169473648, 0.07808046042919159, 0.1617974489927292, 0.15664111077785492, -0.12185636162757874, 0.018050476908683777, -0.07498952746391296, 0.028742045164108276, 0.08554811775684357, 0.08622114360332489, -0.008666321635246277, -0.12339484691619873, -0.13188448548316956, -0.08250616490840912, 0.1460503190755844, 0.0009606480598449707, -0.059677451848983765, -0.07007916271686554, 0.13212062418460846, -0.11278446018695831, -0.01522858440876007, 0.08255232870578766, -0.07616854459047318, -0.17119072377681732, 0.013971343636512756, 0.0887133926153183, 0.06045366823673248, -0.17079895734786987, -0.1269969642162323, 0.09138916432857513, -0.05451694875955582, 0.05366562306880951, -0.16334091126918793, 0.15387384593486786, -0.09307132661342621, 0.15160803496837616, 0.1275767832994461, 0.1663469821214676, -0.15691974759101868, 0.11477746069431305, -0.17437705397605896, -0.12948106229305267, 0.04854288697242737, -0.002667173743247986, -0.11265966296195984, -0.030208706855773926, 0.0642002671957016, -0.16374492645263672, 0.09283478558063507, 0.11197562515735626, -0.07118244469165802, 0.0815124660730362, 0.11503885686397552, -0.12561269104480743, -0.020286917686462402, 0.02326241135597229, 0.03582267463207245, 0.17317451536655426, 0.16794921457767487, -0.0391063392162323, 0.05485306680202484, -0.019646883010864258, -0.01443086564540863], [0.08519904315471649, 0.09164135158061981, 0.08900730311870575, 0.07672269642353058, -0.176714226603508, -0.04799291491508484, -0.1198909655213356, -0.14120125770568848, -0.051614418625831604, -0.12262760102748871, 0.16581054031848907, -0.02285429835319519, -0.0705806314945221, 0.11301197111606598, 0.09010143578052521, 0.05866718292236328, -0.14440689980983734, 0.07760347425937653, 0.13520587980747223, 0.07555972039699554, -0.06736541539430618, 0.176470085978508, 0.05520431697368622, 0.044326052069664, 0.06630836427211761, 0.15859408676624298, -0.11360223591327667, 0.16616939008235931, 0.0005088448524475098, 0.10359324514865875, -0.15661317110061646, -0.15182766318321228, 0.08898507058620453, -0.16122066974639893, -0.08575636148452759, -0.174015611410141, -0.07327676564455032, 0.0849492996931076, 0.11649055778980255, 0.16691948473453522, 0.1612943857908249, 0.08711491525173187, 0.04703904688358307, 0.03225548565387726, 0.10209600627422333, 0.13658647239208221, 0.12515632808208466, -0.14196208119392395, -0.026602625846862793, 0.05952773988246918, 0.11224211752414703, 0.14710994064807892, -0.020742490887641907, 0.09193243086338043, -0.13086432218551636, -0.11092161387205124, -0.013505414128303528, 0.0750436931848526, 0.06867499649524689, -0.15382389724254608, 0.02599272131919861, -0.09539226442575455, 0.030498087406158447, 0.16595043241977692], [-0.13759192824363708, 0.11562402546405792, -0.09226404130458832, 0.07064498960971832, 0.09735538065433502, 0.16253195703029633, 0.1426975578069687, 0.1322486847639084, -0.11406812816858292, -0.10697633028030396, -0.05550229549407959, -0.07319048792123795, 0.05283099412918091, -0.068911612033844, 0.15989650785923004, 0.16432823240756989, 0.10323874652385712, 0.1251760572195053, -0.034450963139534, -0.09486193209886551, 0.13080056011676788, -0.07381489127874374, -0.11630485951900482, 0.13541094958782196, 0.07888473570346832, -0.11477257311344147, -0.16473115980625153, -0.08249499648809433, 0.11172892153263092, -0.016675397753715515, 0.1556464582681656, 0.08160506188869476, -0.05368151515722275, 0.09872473776340485, 0.052169620990753174, -0.07913694530725479, -0.1375083029270172, 0.1507478803396225, -0.09879212826490402, -0.13516667485237122, 0.11221306025981903, 0.1366720348596573, -0.13543471693992615, 0.017174750566482544, -0.12623967230319977, -0.021191850304603577, 0.02463264763355255, -0.09889079630374908, 0.11950056254863739, -0.028033509850502014, 0.12102900445461273, -0.1421792209148407, -0.030444815754890442, -0.08991469442844391, 0.15437577664852142, -0.09185504913330078, -0.16670548915863037, -0.09293388575315475, -0.17421866953372955, -0.1595447063446045, 0.01899099349975586, -0.06390520185232162, -0.1270204484462738, 0.006600409746170044], [0.14109225571155548, -0.08378101885318756, 0.046621114015579224, -0.07300643622875214, -0.03160861134529114, 0.1022057980298996, 0.16689874231815338, 0.030380085110664368, -0.019526377320289612, -0.11744901537895203, -0.13550835847854614, 0.07458163797855377, -0.03224942088127136, -0.0380510538816452, -0.1729782521724701, 0.07713286578655243, 0.10524852573871613, 0.07297651469707489, 0.034162044525146484, 0.16587673127651215, -0.07273951917886734, -0.08994748443365097, 0.10944874584674835, -0.12869514524936676, 0.03405870497226715, 0.09159697592258453, -0.0872490331530571, -0.008636727929115295, 0.0002125948667526245, 0.09477604925632477, 0.14686904847621918, 0.05157408118247986, 0.11647285521030426, 0.08867375552654266, -0.06725334376096725, -0.15052969753742218, -0.021926134824752808, 0.17061053216457367, -0.032586127519607544, 0.1408458799123764, 0.03433188796043396, 0.10929326713085175, -0.10419775545597076, 0.09203530848026276, 0.0750621110200882, -0.06548182666301727, 0.16638366878032684, -0.08417707681655884, 0.16513867676258087, 0.04835979640483856, -0.054630450904369354, 0.10292689502239227, -0.045942723751068115, -0.04294931888580322, -0.12582270801067352, -0.07601871341466904, -0.0906323716044426, 0.054597243666648865, -0.11631189286708832, -0.10215102136135101, -0.10729975998401642, 0.13651533424854279, -0.0439617782831192, 0.02040240168571472], [0.12156133353710175, -0.13071158528327942, 0.08315049111843109, -0.0951962023973465, -0.10885632783174515, 0.13381193578243256, -0.12129242718219757, 0.14850063621997833, -0.11917939782142639, -0.10129830241203308, -0.02714526653289795, -0.014930054545402527, -0.0376182496547699, -0.06338915228843689, -0.0627933219075203, -0.018134906888008118, -0.05295397341251373, 0.10668925940990448, -0.17590703070163727, 0.16959740221500397, -0.02587825059890747, 0.07019743323326111, -0.06644906103610992, 0.07373033463954926, 0.06464171409606934, -0.12815086543560028, 0.061388492584228516, 0.08169285953044891, 0.13562725484371185, -0.02028915286064148, -0.1302286982536316, -0.14782944321632385, 0.04923379421234131, 0.055814146995544434, 0.0794382244348526, -0.13297149538993835, -0.013393208384513855, 0.04419168829917908, -0.1599922627210617, -0.12054343521595001, -0.16159337759017944, 0.06702840328216553, 0.02930600941181183, -0.06810121238231659, 0.07156985998153687, 0.07602070271968842, -0.1104905754327774, 0.05016624927520752, 0.0913160890340805, 0.165859654545784, 0.012690752744674683, 0.09252031147480011, 0.0252753347158432, 0.04685717821121216, -0.009570792317390442, -0.11761815845966339, 0.05083301663398743, -0.07820238173007965, 0.1635795384645462, 0.011378929018974304, -0.14075209200382233, 0.11251766979694366, -0.059659071266651154, -0.044634148478507996], [0.10130243003368378, -0.012382447719573975, 0.15178541839122772, 0.1298089474439621, 0.17393507063388824, 0.039070963859558105, -0.1475932002067566, -0.11813272535800934, -0.16564355790615082, 0.07387863099575043, 0.10170792043209076, -0.04236158728599548, -0.054491788148880005, 0.14484737813472748, 0.16521377861499786, -0.02378562092781067, 0.16754062473773956, 0.1088312417268753, -0.022939562797546387, 0.04258202016353607, -0.03512582182884216, -0.04671405255794525, -0.12386655062437057, -0.04618203639984131, -0.14184170961380005, -0.006085842847824097, -0.045317769050598145, -0.0433463454246521, 0.01175534725189209, -0.04620128870010376, 0.06115061044692993, -0.16111265122890472, -0.04378914833068848, -0.04542966187000275, 0.06676903367042542, 0.03980647027492523, 0.07488925755023956, -0.015591725707054138, 0.023805007338523865, 0.0191849023103714, 0.028342947363853455, -0.12907995283603668, 0.10249517858028412, -0.11533219367265701, -0.06272643804550171, 0.00607222318649292, -0.13463447988033295, -0.01629161834716797, -0.023593977093696594, -0.05738382041454315, -0.14262603223323822, 0.12131603062152863, 0.04613757133483887, 0.17409266531467438, 0.03622977435588837, -0.16766057908535004, 0.05639585852622986, 0.13850568234920502, -0.08990993350744247, 0.08125604689121246, -0.14547595381736755, 0.08820571005344391, 0.02452141046524048, -0.03005272150039673], [0.008801907300949097, -0.1032419502735138, 0.12821565568447113, -0.016426950693130493, -0.08867570012807846, 0.04474608600139618, -0.11138354241847992, 0.07097849249839783, -0.005486339330673218, 0.022441715002059937, 0.018428325653076172, -0.11975491046905518, 0.060022175312042236, 0.14643175899982452, 0.1288020759820938, -0.011112898588180542, -0.0736093819141388, -0.14137119054794312, 0.11852957308292389, 0.08652471005916595, 0.04526887834072113, -0.12995588779449463, -0.11084683984518051, -0.0038966387510299683, 0.07626409828662872, -0.11197380721569061, -0.16543404757976532, -0.11731600761413574, -0.036225467920303345, 0.0045714229345321655, 0.1522320955991745, 0.10202516615390778, 0.11764200031757355, -0.04715999960899353, 0.1759813278913498, 0.0013798028230667114, 0.02392473816871643, 0.17512007057666779, -0.15081840753555298, -0.1324559450149536, -0.13098739087581635, 0.14109306037425995, -0.01156383752822876, 0.16420365869998932, 0.0964493602514267, -0.12968644499778748, 0.14243759214878082, -0.01738034188747406, -0.09827380627393723, 0.11865206062793732, -0.16494472324848175, 0.15869759023189545, -0.12902161478996277, -0.08026698231697083, -0.15576517581939697, -0.10614645481109619, -0.0187680721282959, 0.09548069536685944, 0.1480226069688797, -0.038322776556015015, 0.07642923295497894, -0.11215571314096451, 0.044375404715538025, 0.16574029624462128], [-0.021810948848724365, 0.02892567217350006, -0.1297915130853653, 0.08581896126270294, 0.17418785393238068, 0.041983529925346375, 0.04909880459308624, 0.02815447747707367, 0.10690371692180634, 0.006585404276847839, -0.04418076574802399, -0.005863383412361145, 0.07098586857318878, -0.0775984600186348, -0.13195465505123138, -0.07483737915754318, -0.07642100006341934, -0.09376443177461624, -0.12975843250751495, -0.11534403264522552, 0.13860173523426056, -0.1407633125782013, 0.11421273648738861, 0.13758058845996857, 0.12553493678569794, -0.08154340088367462, 0.14029072225093842, 0.09275342524051666, -0.16144603490829468, 0.10081122815608978, 0.14764584600925446, 0.06541140377521515, -0.10413971543312073, -0.045481547713279724, -0.13711777329444885, -0.09184632450342178, -0.1648551970720291, 0.033323660492897034, -0.05893001705408096, 0.07550258934497833, 0.17600755393505096, 0.15360645949840546, -0.1330844908952713, -0.15455013513565063, 0.013432323932647705, 0.06511017680168152, 0.0966724306344986, -0.02432948350906372, -0.1614079773426056, -0.1385631561279297, -0.025364860892295837, -0.17262105643749237, 0.05629934370517731, -0.17177714407444, 0.0018688291311264038, 0.15889663994312286, 0.10013963282108307, 0.16940440237522125, 0.13895182311534882, 0.09864921867847443, 0.1420641988515854, 0.12370462715625763, -0.07142677158117294, 0.16658951342105865], [0.0018410980701446533, -0.08264841139316559, -0.00027677416801452637, -0.06157321482896805, -0.025673717260360718, 0.0909462720155716, 0.01567065715789795, 0.03716900944709778, 0.09148795902729034, -0.17051561176776886, 0.015280380845069885, -0.011331185698509216, -0.12115280330181122, -0.05454893410205841, -0.014682143926620483, 0.16707287728786469, 