{"id": "f9b0c1d7-c5fd-42db-bca7-fed47e0aba9f", "population_size": 10, "crossover_prob": 0.5, "mutation_prob": 0.005, "fitness_rounds": 100, "tournament_size": 5, "generational_best_individuals": [{"non_splittable_weights": [[[0.1791028529405594, 0.011198475956916809, 0.06302438676357269, 0.13685159385204315, -0.02848486602306366, 0.10192762315273285, 0.17615221440792084, -0.14083656668663025, -0.18134860694408417, -0.10483469069004059, -0.14561639726161957, -0.1418452262878418, 0.15948598086833954, 0.05125992000102997, 0.08171628415584564, -0.03747567534446716, 0.1823739856481552, 0.01925027370452881, -0.13270573318004608, 0.03608928620815277, 0.015772894024848938, -0.19161757826805115, -0.19844676554203033, -0.18422725796699524, -0.13421377539634705, 0.1476760059595108, 0.04801996052265167, -0.0027374178171157837, 0.18539200723171234, 0.004955917596817017, -0.2040404975414276, -0.07985898852348328, 0.03584027290344238, -0.04944819211959839, 0.18432141840457916, 0.04215697944164276, 0.19125233590602875, 0.06171749532222748, -0.07212772965431213, 0.16353146731853485, -0.18753008544445038, 0.08779449760913849, -0.18306532502174377, 0.06638021767139435, -0.13763293623924255, -0.17749981582164764, -0.20644518733024597, 0.11345674097537994, -0.0066406577825546265, 0.0913085788488388, -0.11523249745368958, 0.07895790040493011, 0.1485695093870163, -0.11969215422868729, -0.15429508686065674, 0.037466391921043396, -0.09274435043334961, -0.04473811388015747, 0.188450887799263, 0.14366604387760162, -0.18298828601837158, -0.04603336751461029, 0.11580167710781097, -0.13123086094856262, -0.005644291639328003, -0.0036635249853134155, -0.10151232033967972, 0.022545188665390015, 0.07029058039188385, -0.032501429319381714, -0.036372363567352295, -0.03322230279445648, -0.0923333466053009, 0.02976946532726288, 0.19677944481372833, -0.1332404613494873, -0.02076520025730133, -0.0849587470293045, 0.02474236488342285, -0.17303837835788727, 0.17251436412334442, 0.010826975107192993, 0.03765355050563812, 0.12883423268795013, -0.16119371354579926, 0.023009777069091797, -0.1420874297618866, -0.1339738965034485, -0.17150002717971802, -0.10138353705406189, -0.0737670511007309, -0.011362224817276001, -0.1764524281024933, 0.17885787785053253, -0.11273998767137527, 0.11945851147174835, 0.06955312192440033, -0.07566797733306885, -0.017884448170661926, 0.04870845377445221, -0.02901710569858551, -0.07517798244953156, -0.06127595901489258, 0.14898182451725006, 0.2103835791349411, -0.1374264359474182, 0.04277177155017853, -0.11389926820993423, -0.09459883719682693, 0.10131664574146271, 0.004592418670654297, 0.05753745138645172, 0.03563214838504791, 0.13072796165943146, -0.025669336318969727, 0.1073380559682846, -0.05371415615081787, -0.05598093569278717, 0.20629854500293732, -0.19899170100688934, 0.05654643476009369, -0.1294090300798416, -0.1139647364616394, -0.03256240487098694, 0.06219594180583954, -0.09079025685787201, -0.007574304938316345, 0.132492795586586], [-0.1396467685699463, 0.008020415902137756, 0.16990046203136444, 0.07492433488368988, 0.03152206540107727, -0.17589707672595978, 0.049414053559303284, 0.07720126211643219, 0.11933161318302155, -0.17858311533927917, -0.0872965008020401, 0.08184181153774261, -0.09792457520961761, -0.03186729550361633, 0.17046646773815155, -0.08326457440853119, 0.19311688840389252, -0.21190829575061798, 0.13199175894260406, 0.10581161081790924, 0.1724018007516861, -0.15759821236133575, 0.17186857759952545, 0.1254267543554306, -0.12740227580070496, -0.2040652483701706, 0.19603361189365387, 0.16578762233257294, -0.05261366069316864, 0.14888931810855865, 0.05665425956249237, -0.11223428696393967, 0.01780545711517334, -0.05601884424686432, -0.13957053422927856, -0.2085716426372528, -0.19760935008525848, 0.18684978783130646, 0.1768387407064438, -0.16061030328273773, -0.19485080242156982, -9.490549564361572e-05, 0.11003609001636505, 0.1089266687631607, 0.038402214646339417, -0.15242788195610046, 0.03171330690383911, 0.064621701836586, -0.09004749357700348, -0.19778043031692505, -0.21320600807666779, 0.005761146545410156, -0.05463571846485138, 0.08063293993473053, 0.0714411586523056, 0.057656899094581604, 0.12514735758304596, 0.05182935297489166, -0.0015681982040405273, -0.10491429269313812, -0.05033153295516968, 0.1514669805765152, 0.009079217910766602, 0.033080607652664185, 0.008808180689811707, -0.09103905409574509, -0.20543652772903442, 0.1430707722902298, -0.1891358345746994, -0.11099464446306229, -0.04281994700431824, 0.15010826289653778, 0.057776644825935364, 0.044135913252830505, -0.1272982954978943, 0.10897712409496307, 0.03486759960651398, -0.09421727806329727, 0.18153224885463715, -0.006827503442764282, -0.16221609711647034, -0.20217522978782654, 0.15337572991847992, -0.20145227015018463, -0.07642896473407745, 0.06956399977207184, 0.17165301740169525, -0.0005784183740615845, -0.19614437222480774, 0.09135036170482635, -0.09406593441963196, 0.08756779134273529, 0.03475329279899597, 0.14537687599658966, 0.11888556182384491, -0.014735564589500427, -0.1602383255958557, 0.18837042152881622, 0.188695028424263, 0.006390631198883057, 0.14125220477581024, -0.09601651132106781, 0.10867251455783844, -0.09231104701757431, 0.029872581362724304, -0.14543643593788147, 0.09441684186458588, 0.20479325950145721, -0.07401712238788605, 0.1715327948331833, 0.12666521966457367, -0.11340168118476868, 0.026076704263687134, -0.08995110541582108, 0.06179095804691315, -0.15484865009784698, -0.20122240483760834, 0.10305030643939972, 0.18609635531902313, -0.14200696349143982, -0.12937790155410767, -0.1113467663526535, 0.06879235804080963, -0.09498479217290878, 0.1874559074640274, -0.053913623094558716, 0.021959632635116577, 0.029163196682929993], [-0.10044024139642715, -0.16998052597045898, -0.15755607187747955, -0.03740948438644409, -0.1923529952764511, 0.12163819372653961, -0.08187119662761688, 0.15897424519062042, -0.07262951135635376, -0.0610949844121933, -0.01358756422996521, 0.10173569619655609, -0.11148932576179504, 0.05300609767436981, -0.01832224428653717, -0.1400461494922638, -0.033968180418014526, 0.17940957844257355, -0.20015838742256165, 0.09260626137256622, -0.022078514099121094, -0.009471908211708069, 0.1720370203256607, 0.10884542763233185, -0.029355764389038086, -0.14858470857143402, 0.10667796432971954, -0.18144381046295166, 0.1452246457338333, -0.20783330500125885, 0.011318132281303406, -0.12250416725873947, -0.04703386127948761, -0.18937024474143982, 0.10821487009525299, -0.0020034760236740112, -0.08339254558086395, -0.012338519096374512, -0.006769746541976929, 0.10736842453479767, -0.018598586320877075, 0.09183137118816376, -0.11660970002412796, -0.04331748187541962, -0.017463549971580505, 0.16085408627986908, -0.19678565859794617, 0.07524217665195465, -0.007941126823425293, 0.1514846831560135, 0.015756309032440186, -0.029859989881515503, -0.06834252178668976, -0.13001760840415955, 0.07109306752681732, -0.2036380171775818, -0.1214374527335167, -0.11131946742534637, 0.003384009003639221, 0.12981589138507843, 0.19099001586437225, -0.12873202562332153, 0.011821955442428589, -0.20001225173473358, -0.10631313174962997, -0.19553132355213165, 0.17434833943843842, 0.1848992556333542, 0.09347383677959442, -0.003567129373550415, 0.08035235106945038, -0.10209670662879944, 0.15975220501422882, -0.0637405514717102, 0.04260618984699249, 0.015859737992286682, 0.20333988964557648, -0.06019413471221924, -0.12651781737804413, 0.08268554508686066, -0.06605494022369385, -0.17687547206878662, 0.0849970132112503, -0.049848079681396484, 0.1847410351037979, -0.1404321938753128, 0.11720137298107147, -0.01810052990913391, 0.0486874133348465, 0.03291100263595581, 0.055412665009498596, -0.0423588752746582, 0.06309549510478973, 0.0925540179014206, 0.1936780959367752, 0.028313323855400085, 0.15939243137836456, 0.1670418530702591, 0.017223939299583435, 0.0017603039741516113, 0.05121012032032013, -0.19917289912700653, 0.020481348037719727, -0.11080840229988098, 0.1547902375459671, 0.1448506861925125, 0.16995586454868317, 0.007940098643302917, -0.16071918606758118, 0.011101990938186646, 0.14761380851268768, -0.18036781251430511, 0.045519545674324036, 0.10098053514957428, -0.19942495226860046, -0.0814504474401474, 0.06367738544940948, -0.15765327215194702, 0.05851645767688751, -0.02298492193222046, 0.07238464057445526, -0.13571211695671082, 0.15232737362384796, -0.1620805710554123, -0.14935287833213806, -0.03921438753604889, -0.1769140511751175, -0.05002094805240631]], [[0.05255408585071564, -0.1149691790342331, 0.06453529000282288, -0.11846661567687988, 0.03204219043254852, -0.1391955316066742, -0.002421334385871887, -0.046999335289001465, -0.00322115421295166, -0.1687304824590683, 0.03760582208633423, 0.13544143736362457, -0.034681499004364014, -0.10805992037057877, 0.10218442976474762, -0.01780177652835846, -0.0712953582406044, -0.0283096581697464, -0.01930135488510132, -0.17341147363185883, -0.1679917722940445, 0.16610954701900482, 0.08867262303829193, -0.10711756348609924, -0.13619792461395264, -0.12017124146223068, -0.027695998549461365, 0.07212531566619873, 0.0783490389585495, -0.15543441474437714, 0.1018812507390976, 0.013108432292938232, 0.032351285219192505, 0.13048453629016876, -0.13409647345542908, -0.13395477831363678, 0.051917076110839844, -0.03359141945838928, 0.14997299015522003, 0.02634367346763611, 0.1433931142091751, -0.14246292412281036, 0.04458975791931152, 0.12951840460300446, 0.02978290617465973, -0.07319727540016174, -0.08081590384244919, -0.04807034134864807, 0.11247409880161285, 0.15753774344921112, 0.1649949699640274, 0.13484491407871246, 0.17545665800571442, -0.12413949519395828, 0.1016560047864914, -0.03678281605243683, 0.08947871625423431, -0.01154397428035736, 0.11561410129070282, -0.08142189681529999, 0.055175408720970154, 0.10610581934452057, 0.09599252045154572, 0.045602768659591675], [0.009854689240455627, 0.00545927882194519, -0.14127594232559204, -0.15066950023174286, 0.021862998604774475, -0.08986610174179077, -0.0003789067268371582, -0.08427468687295914, -0.16174864768981934, 0.1720118671655655, 0.1482519954442978, -0.005709215998649597, -0.07651473581790924, -0.00017537176609039307, 0.11071212589740753, -0.02319096028804779, -0.08245950937271118, 0.018782317638397217, 0.07605890929698944, 0.11487527191638947, -0.03192594647407532, -0.10528876632452011, 0.15840138494968414, 0.17425031960010529, -0.030101701617240906, 0.14648117125034332, -0.04671940207481384, 0.13525082170963287, 0.030097439885139465, 0.1078743189573288, 0.07821409404277802, 0.11196212470531464, -0.0005278885364532471, -0.17314131557941437, 0.17383386194705963, -0.0030355900526046753, -0.1285560578107834, -0.11510422080755234, 0.156809464097023, 0.09062249958515167, 0.11248926818370819, -0.011189565062522888, 0.020409613847732544, 0.16288922727108002, 0.11705528199672699, 0.11399997770786285, 0.05922597646713257, -0.11516529321670532, -0.09621176868677139, -0.07155430316925049, -0.14401830732822418, 0.17207027971744537, -0.08245760947465897, -0.12593039870262146, -0.08041062206029892, -0.01689562201499939, -0.056593187153339386, -0.16733205318450928, 0.024927198886871338, -0.1510424166917801, -0.09107504040002823, -0.06105029582977295, -0.13712692260742188, 0.15869618952274323], [-0.048050060868263245, 0.04300723969936371, 0.07462815940380096, -0.12935596704483032, -0.029291346669197083, 0.0352051705121994, -0.10150086134672165, -0.014481574296951294, -0.026696443557739258, -0.08886321634054184, -0.001056954264640808, -0.0828113928437233, -0.10452122986316681, -0.14230892062187195, -0.040043219923973083, -0.06630735844373703, 0.028191938996315002, 0.08465789258480072, 0.07552869617938995, 0.17271102964878082, 0.08500714600086212, -0.143937349319458, 0.09880320727825165, -0.06998669356107712, 0.13552172482013702, -0.09467383474111557, 0.10789136588573456, -0.11240800470113754, -0.12330317497253418, -0.1094742864370346, -0.03563377261161804, 0.16939614713191986, -0.15597790479660034, 0.14620496332645416, -0.06036145240068436, -0.055504992604255676, -0.13942894339561462, 0.03063182532787323, -0.025970593094825745, -0.04759503901004791, -0.026092559099197388, 0.1690908819437027, -0.0738414004445076, -0.10239117592573166, 0.14482428133487701, -0.14898552000522614, 0.06251469254493713, -0.0676267221570015, 0.0893629640340805, -0.021222293376922607, 0.042318299412727356, 0.10467253625392914, -0.00031293928623199463, -0.14157341420650482, 0.13641320168972015, 0.08173276484012604, -0.039882510900497437, 0.07300858199596405, 0.023248538374900818, 0.037995293736457825, 0.09025435149669647, 0.0392584353685379, 0.14164860546588898, -0.062154628336429596], [0.1540938764810562, 0.009612932801246643, -0.025199055671691895, 0.12243445217609406, 0.15474973618984222, 0.0677366852760315, -0.11760719120502472, -0.03248359262943268, -0.038736745715141296, 0.0487821102142334, -0.09852757304906845, 0.09522493183612823, 0.12007741630077362, 0.07446201145648956, -0.08880412578582764, 0.01312980055809021, 0.05772891640663147, -0.0038311928510665894, -0.06304902583360672, 0.04372626543045044, 0.10096193850040436, -0.15807579457759857, -0.12782160937786102, -0.10415421426296234, -0.027605384588241577, -0.07910967618227005, -0.044685736298561096, 0.11069156229496002, 0.0924769788980484, 0.004946768283843994, 0.16121093928813934, -0.004213258624076843, 0.16741721332073212, -0.1036192923784256, -0.049514710903167725, 0.16710029542446136, -0.1657600998878479, -0.13871139287948608, 0.02202029526233673, -0.07122450321912766, -0.12129083275794983, 0.07870735228061676, 0.07701532542705536, 0.16189156472682953, -0.12165869027376175, 0.07439537346363068, -0.1467667520046234, 0.02120913565158844, -0.02569633722305298, 0.04785694181919098, -0.17455504834651947, 0.11434455215930939, -0.037111178040504456, 0.14763320982456207, -0.12449513375759125, 0.05116391181945801, 0.14853231608867645, -0.14319661259651184, -0.08824053406715393, 0.0795360654592514, -0.1652744859457016, 0.111768439412117, 0.12259994447231293, -0.041828468441963196], [0.11343230307102203, -0.15590691566467285, -0.1269444078207016, 0.10209046304225922, 0.09715308248996735, -0.17354394495487213, 0.12020964920520782, 0.13956274092197418, -0.09768505394458771, 0.07718773186206818, 0.07315361499786377, -0.049772217869758606, 0.10556264221668243, 0.02176728844642639, 0.09862856566905975, -0.07086166739463806, -0.16358283162117004, 0.13518573343753815, 0.07234430313110352, 0.17416568100452423, -0.04698172211647034, 0.149270698428154, -0.10637615621089935, 0.15440808236598969, 0.04411350190639496, 0.12735866010189056, -0.13488774001598358, -0.07091771811246872, 0.1349424570798874, -0.1765812188386917, -0.0837845653295517, -0.08764740824699402, 0.15166278183460236, 0.07098351418972015, 0.03859622776508331, -0.04919785261154175, -0.019338876008987427, 0.10105223953723907, 0.10068292915821075, -0.10608315467834473, 0.012461721897125244, -0.1717158704996109, -0.06007641553878784, 0.018793702125549316, 0.13289259374141693, -0.009257927536964417, -0.09959764033555984, -0.15344023704528809, 0.15881715714931488, -0.16247710585594177, 0.09596659243106842, 0.16159088909626007, -0.11279086768627167, 0.1353922337293625, 0.1074550598859787, -0.12494989484548569, -0.1255839467048645, -0.16518087685108185, 0.05226689577102661, 0.05740037560462952, 0.07045666873455048, -0.13909491896629333, 0.10151620209217072, -0.0569976270198822], [0.0835820883512497, -0.13667291402816772, 0.1342841237783432, 0.10790403187274933, -0.00745902955532074, 0.04345710575580597, 0.16306190192699432, 0.07692120969295502, -0.056666307151317596, 0.07678984105587006, 0.15139003098011017, 0.09865514934062958, 0.11560799181461334, 0.03159657120704651, -0.05459369719028473, -0.0033828765153884888, 0.08310969173908234, -0.005842223763465881, -0.10277007520198822, 0.13686607778072357, -0.16658562421798706, 0.10518811643123627, -0.15523555874824524, 0.04792194068431854, 0.032688841223716736, 0.13190753757953644, -0.009193792939186096, -0.1720854938030243, 0.1147080808877945, -0.005088180303573608, -0.0905814990401268, -0.0557950958609581, 0.11687730252742767, 0.16032640635967255, 0.05043354630470276, 0.03223209083080292, 0.069815993309021, -0.09364207834005356, 0.05531369149684906, 0.06907172501087189, 0.15471841394901276, 0.06993173062801361, -0.15167082846164703, -0.1516854166984558, -0.1168857216835022, -0.1534906029701233, -0.14171817898750305, 0.14048470556735992, 0.0014675110578536987, 0.07630814611911774, 0.03314685821533203, -0.03100748360157013, 0.10214726626873016, -0.1374901384115219, 0.1764248162508011, -0.07701843231916428, 0.15027476847171783, -0.030351802706718445, -0.09623364359140396, 0.04684180021286011, -0.013933956623077393, 0.06036520004272461, -0.12366589158773422, 0.1541692167520523], [0.0572873055934906, -0.058155909180641174, -0.0801699236035347, 0.0171673446893692, 0.061947017908096313, -0.006558805704116821, 0.1395435482263565, -0.16201774775981903, 0.03631672263145447, -0.04657045006752014, -0.1006929948925972, 0.02090698480606079, -0.06711860001087189, 0.016362592577934265, -0.12414982169866562, -0.03820139169692993, 0.026092305779457092, 0.016780555248260498, 0.0013482719659805298, -0.04254235327243805, 0.03870813548564911, 0.13204319775104523, 0.08031658828258514, -0.07745743542909622, -0.14480607211589813, 0.08555035293102264, -0.02711804211139679, -0.11868391931056976, 0.10901938378810883, 0.061548009514808655, -0.09455759078264236, 0.058060988783836365, 0.0076728761196136475, 0.04986406862735748, -0.16487117111682892, -0.02285906672477722, 0.15659670531749725, 0.017932385206222534, 0.06893011927604675, -0.10616888105869293, 0.016893386840820312, 0.12451203167438507, 0.12895090878009796, -0.13425524532794952, 0.016917571425437927, -0.16477979719638824, -0.1216159462928772, -0.15568822622299194, -0.16148729622364044, -0.06990762799978256, 0.026287361979484558, 0.11379961669445038, -0.0052535682916641235, -0.0701715499162674, -0.11071083694696426, -0.09064189344644547, -0.0040321946144104, -0.10563436895608902, 0.1760912984609604, 0.005050197243690491, 0.07863138616085052, 0.06536078453063965, 0.051858916878700256, -0.049066007137298584], [-0.14945858716964722, -0.1326882690191269, -0.004875078797340393, -0.06462544947862625, -0.0734647810459137, -0.12000063061714172, -0.08726167678833008, 0.12460409104824066, -0.055842846632003784, 0.0272475928068161, -0.002149909734725952, 0.0036769360303878784, 0.059194862842559814, -0.017618566751480103, 0.1261778324842453, 0.01876237988471985, -0.12821778655052185, 0.10062463581562042, 0.035433441400527954, -0.04079355299472809, -0.12304890155792236, -0.1691296100616455, 0.09196029603481293, -0.11489129066467285, 0.03250499069690704, -0.045496463775634766, 0.03404778242111206, 0.06641744077205658, 0.03582431375980377, 0.13858772814273834, 0.09931664168834686, -0.01225954294204712, -0.05316774547100067, -0.12957441806793213, -0.12754642963409424, -0.1504976749420166, -0.1328584998846054, 0.08770181238651276, 0.14163519442081451, 0.1543007344007492, 0.01744188368320465, -0.11271361261606216, -0.00014127790927886963, 0.0578925758600235, -0.14428307116031647, -0.10722234100103378, 0.07761408388614655, -0.16320760548114777, -0.08297416567802429, 0.011807188391685486, -0.13302657008171082, 0.09219373762607574, 0.0034286081790924072, 0.16997836530208588, 0.13191305100917816, -0.1740216761827469, -0.04916028678417206, -0.02485087513923645, 0.1424766629934311, -0.029645591974258423, 0.020203590393066406, -0.023116499185562134, 0.11065949499607086, -0.1504996120929718], [-0.13780342042446136, -0.10831069946289062, -0.17497512698173523, 0.14732296764850616, -0.0026883333921432495, -0.1718045473098755, -0.1466437578201294, 0.16941021382808685, 0.04712940752506256, 0.16938568651676178, 0.1677345484495163, -0.0861913189291954, 0.13336502015590668, 0.0887921005487442, -0.1498761773109436, 0.12630386650562286, -0.14006105065345764, -0.007370471954345703, -0.15540924668312073, 0.0019471794366836548, 0.12320251762866974, -0.010355442762374878, 0.01365591585636139, -0.047717735171318054, -0.028866589069366455, -0.14336177706718445, 0.05890852212905884, -0.07216707617044449, -0.06811542063951492, -0.12480823695659637, -0.15565063059329987, 0.02446115016937256, -0.09070377051830292, 0.03918842971324921, -0.029137596487998962, -0.1427408754825592, -0.10572060197591782, -0.07644641399383545, 0.06237080693244934, -0.10382331907749176, 0.08000482618808746, -0.14047771692276, -0.07598789781332016, -0.14176508784294128, -0.07551054656505585, -0.1436896026134491, 0.020374298095703125, -0.04705430567264557, -0.08667874336242676, 0.04475650191307068, 0.1267135590314865, 0.07631070911884308, -0.10017365962266922, -0.13097280263900757, -0.08639796078205109, 0.09366495907306671, -0.12299984693527222, -0.1380193829536438, 0.02991090714931488, 0.0954885333776474, 0.07942746579647064, -0.1058342307806015, 0.16261987388134003, -0.15684621036052704], [-0.174893319606781, -0.11931034922599792, -0.0509195476770401, -0.02589055895805359, -0.1611582487821579, -0.010123714804649353, -0.17329414188861847, 0.16469697654247284, -0.13358135521411896, 0.08428333699703217, -0.03078506886959076, 0.0032124370336532593, -0.10874485224485397, 0.15709583461284637, 0.055915892124176025, -0.16048866510391235, -0.0776212140917778, -0.1026201993227005, -0.07439634948968887, -0.0016680508852005005, -0.04206840693950653, 0.08980350196361542, 0.11069013178348541, -0.03282906115055084, 0.037425607442855835, 0.1687789112329483, 0.003708288073539734, 0.14752192795276642, -0.0957905575633049, 0.029893159866333008, 0.07227712869644165, -0.10126130282878876, 0.1077769547700882, 0.02963206171989441, -0.053154975175857544, 0.16781581938266754, 0.026452451944351196, -0.07851076871156693, 0.1673378199338913, -0.1747627854347229, -0.07685616612434387, -0.1416052281856537, 0.16446824371814728, 0.026876628398895264, 0.01067402958869934, -0.12122415006160736, -0.16041389107704163, -0.08258561044931412, 0.10167489945888519, -0.07269897311925888, 0.0011448413133621216, -0.01241321861743927, 0.10110776126384735, -0.1550963968038559, -0.15977869927883148, -0.03507338464260101, 0.1609875112771988, -0.014045611023902893, -0.11574805527925491, -0.1026921421289444, 0.0036497414112091064, -0.1379958689212799, -0.015519142150878906, -0.07481086254119873], [-0.14840802550315857, -0.10328308492898941, 0.09963835775852203, -0.10752853751182556, 0.009493827819824219, 0.013151675462722778, 0.12072990834712982, -0.12067945301532745, -0.03132160007953644, -0.09821294248104095, -0.10431336611509323, 0.041393131017684937, 0.12634001672267914, -0.15158312022686005, -0.11152274906635284, 0.044732943177223206, -0.12585490942001343, 0.10173992812633514, 0.15781693160533905, -0.13606704771518707, -0.03433877229690552, -0.06183625012636185, 0.0464676171541214, -0.06481865048408508, 0.06451290845870972, -0.16364555060863495, -0.07490468770265579, 0.16906119883060455, 0.10909278690814972, -0.043887048959732056, -0.03022405505180359, -0.13221853971481323, -0.0977073535323143, -0.03608764708042145, 0.09990088641643524, -0.020338386297225952, -0.17668181657791138, 0.14913983643054962, 0.009655296802520752, -0.12923559546470642, 0.17059694230556488, 0.15826816856861115, 0.0629391074180603, -0.10304386168718338, -0.13936668634414673, -0.14684079587459564, 0.11674584448337555, -0.11803220212459564, 0.12442992627620697, -0.006504565477371216, -0.055027686059474945, 0.1266612559556961, -0.16897104680538177, -0.16006655991077423, 0.09440989792346954, 0.09615661203861237, -0.14518475532531738, -0.1385512351989746, 0.07339666783809662, -0.15922164916992188, -0.08276789635419846, -0.0102662593126297, 0.11078868806362152, 0.166394904255867], [0.016689345240592957, 0.12500600516796112, -0.0010106861591339111, -0.17446814477443695, 0.03566984832286835, -0.12169430404901505, 0.14932332932949066, 0.1399104744195938, 0.10286788642406464, -0.14044754207134247, 0.13432858884334564, 0.08000330626964569, 0.12676317989826202, 0.04161533713340759, -0.1496196687221527, -0.01570218801498413, -0.07418578863143921, 0.16706718504428864, -0.05588524788618088, -0.004375472664833069, 0.035955607891082764, -0.04731561243534088, 0.09883634746074677, 0.17465941607952118, -0.014137864112854004, 0.00697779655456543, -0.16652147471904755, 0.17179767787456512, 0.14338336884975433, -0.13477174937725067, 0.029037117958068848, -0.01053321361541748, 0.036514297127723694, -0.111350879073143, -0.12285228818655014, 0.04553671181201935, -0.15007270872592926, 0.11377014219760895, -0.07711124420166016, -0.15377867221832275, 0.06553991138935089, 0.017010554671287537, -0.1159960925579071, 0.12398387491703033, -0.03944309055805206, -0.17010648548603058, 0.06143927574157715, -0.16775287687778473, -0.1505582332611084, 0.14164553582668304, -0.05368838459253311, -0.07823352515697479, 0.08200789988040924, 0.1475648432970047, 0.10729588568210602, -0.13693562150001526, 0.015383139252662659, -0.12680932879447937, -0.12657704949378967, -0.15810605883598328, 0.1153256744146347, -0.08420788496732712, -0.14455541968345642, 0.05553896725177765], [0.07179352641105652, -0.056661926209926605, 0.11388076841831207, -0.010117650032043457, -0.12907488644123077, 0.0984230488538742, -0.12299521267414093, 0.11951033771038055, 0.06921784579753876, -0.0233050137758255, -0.009446829557418823, 0.14637495577335358, -0.17018914222717285, -0.15621307492256165, 0.14828939735889435, -0.15761230885982513, -0.10030903667211533, -0.05087697505950928, 0.16120637953281403, -0.16900043189525604, -0.11623775959014893, 0.12377069890499115, -0.030039623379707336, -0.04621624946594238, 0.0507524311542511, -0.08773093670606613, -0.06624691933393478, 0.16045330464839935, 0.11943058669567108, -0.14744295179843903, -0.025614112615585327, 0.00044527649879455566, 0.10979031026363373, 0.1285376399755478, 0.12109909951686859, -0.1723630279302597, 0.1430595964193344, -0.10787780582904816, -0.0869101732969284, 0.019317835569381714, -0.14563357830047607, -0.09532251209020615, 0.10390676558017731, -0.044184356927871704, -0.002362668514251709, -0.039691075682640076, 0.012416675686836243, 0.002022296190261841, -0.02699151635169983, -0.09238985180854797, -0.03686441481113434, -0.0048580169677734375, -0.07931569218635559, 0.11131854355335236, 0.1638847440481186, 0.0616661012172699, -0.11903487890958786, 0.09873877465724945, -0.10456202924251556, 0.08035822212696075, -0.010756254196166992, 0.10195522010326385, -0.04608345031738281, 0.035711318254470825], [-0.1592639684677124, 0.0323275625705719, -0.08308041095733643, -0.12049396336078644, 0.05794849991798401, 0.04579882323741913, -0.02979685366153717, 0.029947534203529358, -0.07834837585687637, -0.027157023549079895, -0.03711700439453125, 0.11910365521907806, 0.09317703545093536, 0.09891422092914581, -0.06989654153585434, -0.0233241468667984, 0.16133947670459747, -0.02042001485824585, 0.09799213707447052, 0.03927348554134369, -0.15594704449176788, -0.1261143684387207, -0.01920880377292633, -0.01095186173915863, 0.03910018503665924, -0.024159416556358337, -0.028920739889144897, -0.14635244011878967, -0.12057437747716904, 0.08298112452030182, -0.12364810705184937, -0.16620807349681854, 0.10269217193126678, -0.06757041811943054, 0.06685830652713776, 0.12157954275608063, -0.0069007426500320435, -0.09335155785083771, -0.023988470435142517, -0.1593511998653412, 0.09272123873233795, 0.04566964507102966, 0.11834679543972015, -0.00852958858013153, 0.06716234982013702, -0.12192067503929138, -0.07151754945516586, -0.027427613735198975, -0.1650320142507553, -0.049114733934402466, 0.045848309993743896, 0.050776541233062744, 0.09024102985858917, 0.12587733566761017, 0.11398033797740936, -0.1679987609386444, 0.015680521726608276, -0.07206781953573227, 0.0898221880197525, 0.13673587143421173, -0.07293111830949783, -0.14741572737693787, 0.0944543331861496, 0.12120310962200165], [0.1693304032087326, -0.05127193033695221, 0.06983694434165955, -0.14886422455310822, 0.11506713926792145, -0.12792494893074036, 0.04366670548915863, 0.028227299451828003, -0.06659437716007233, -0.05503375083208084, 0.03946162760257721, 0.048548951745033264, -0.07247398793697357, -6.195902824401855e-05, -0.08751021325588226, -0.15422071516513824, -0.014607250690460205, 0.15367229282855988, -0.012033939361572266, 0.13933704793453217, 0.08262167870998383, 0.13392861187458038, -0.014898106455802917, -0.013893112540245056, 0.04899685084819794, -0.12167748808860779, 0.12467963993549347, 0.17164625227451324, 0.09839780628681183, -0.17276215553283691, 0.10157518088817596, -0.050440847873687744, -0.1559179276227951, -0.09593739360570908, -0.020653516054153442, 0.08253021538257599, -0.15458907186985016, 0.0824531763792038, -0.09461090713739395, 0.07389776408672333, 0.05746103823184967, 0.057471901178359985, 0.06945893168449402, 0.1495325118303299, 0.009395495057106018, 0.023529663681983948, 0.0158214271068573, 0.16250209510326385, 0.020164400339126587, 0.14936096966266632, 0.037382736802101135, -0.1299838274717331, -0.0668729692697525, 0.055347368121147156, 0.036932989954948425, -0.1042989045381546, 0.051865145564079285, -0.0493660569190979, -0.04279009997844696, 0.1461499184370041, 0.1084049791097641, -0.15539096295833588, -0.07505780458450317, -0.12372312694787979], [-0.10199137032032013, 0.10197736322879791, -0.1596933901309967, 0.1576550155878067, 0.06036035716533661, 0.12545515596866608, 0.15405507385730743, 0.12415023148059845, -0.0736454650759697, 0.15281857550144196, -0.13225281238555908, -0.14504382014274597, 0.1652001291513443, 0.04297801852226257, -0.16701211035251617, -0.09438326954841614, -0.10101132839918137, -0.0937873125076294, -0.14126762747764587, -0.02968427538871765, -0.13837222754955292, -0.12075038254261017, -0.16347511112689972, 0.16168652474880219, -0.07351194322109222, -0.09289245307445526, 0.14808695018291473, -0.15528520941734314, -0.06193415820598602, -0.06728854030370712, -0.11154032498598099, 0.11121056973934174, 0.0029214471578598022, -0.05178060382604599, 0.034794196486473083, 0.004562735557556152, 0.09638579189777374, -0.0898464173078537, -0.1148490235209465, 0.16890700161457062, 0.045300573110580444, -0.07752073556184769, -0.08289273083209991, 0.16564704477787018, 0.062012434005737305, 0.10055913031101227, -0.16988450288772583, -0.11657371371984482, -0.13451869785785675, -0.1558838188648224, -0.10874662548303604, -0.1180688738822937, 0.10908113420009613, 0.15454889833927155, 0.04862600564956665, 0.008175820112228394, -0.08147066086530685, -0.14386910200119019, -0.11450839042663574, 0.16108541190624237, 0.10853026807308197, -0.01885831356048584, 0.14875729382038116, 0.04076796770095825], [0.13062278926372528, -0.12245286256074905, -0.11383514106273651, 0.1315457969903946, 0.1515888124704361, -0.001540347933769226, -0.07470360398292542, -0.09757429361343384, -0.0543527826666832, 0.08345629274845123, -0.09757737070322037, 0.05395209789276123, -0.08580200374126434, 0.03122006356716156, 0.13951556384563446, 9.381771087646484e-05, 0.04655115306377411, -0.166812926530838, 0.005906835198402405, -0.1312074363231659, 0.0014841556549072266, 0.017297908663749695, 0.1504383236169815, -0.09650418162345886, 0.07247677445411682, -0.07382003217935562, -0.1694500893354416, 0.03758673369884491, -0.13419745862483978, -0.01810401678085327, 0.13962684571743011, 0.1279015690088272, 0.09062616527080536, 0.1247778981924057, 0.09917329251766205, 0.16158156096935272, 0.06325891613960266, -0.06997957080602646, 0.12138234078884125, -0.0591152086853981, -0.13281048834323883, -0.024725452065467834, -0.15035441517829895, 0.14335660636425018, 0.10588093101978302, 0.055486828088760376, 0.14685262739658356, 0.14277894794940948, 0.007319986820220947, 0.16826902329921722, -0.00675588846206665, -0.09844015538692474, 0.09409050643444061, 0.038540810346603394, 0.08478336036205292, 0.02941003441810608, -0.16020961105823517, -0.026949122548103333, 0.15975315868854523, -0.113846056163311, -0.10397020727396011, 0.10443593561649323, 0.008051097393035889, -0.08134227991104126], [0.0168885737657547, -0.14092296361923218, 0.048770055174827576, 0.1483030766248703, -0.16162776947021484, 0.0343928337097168, -0.15445373952388763, -0.07537044584751129, -0.013990134000778198, -0.10777193307876587, 0.041847944259643555, 0.0401371568441391, -0.10534439980983734, -0.12736478447914124, 0.15807591378688812, -0.11636744439601898, 0.17008407413959503, -0.14555852115154266, 0.09305821359157562, -0.11415764689445496, 0.16195295751094818, -0.07029036432504654, -0.16767685115337372, -0.05518914759159088, -0.016611248254776, 0.1037934273481369, -0.02382674813270569, 0.04277534782886505, -0.17389607429504395, -0.14724881947040558, -0.14549513161182404, 0.10792107880115509, -0.005319908261299133, -0.15523159503936768, -0.02780279517173767, 0.009952768683433533, 0.05915479362010956, 0.057083696126937866, -0.11889482289552689, -0.13118720054626465, -0.1351422220468521, -0.144295334815979, -0.14779116213321686, -0.1308392435312271, 0.033287376165390015, 0.1414448767900467, 0.07284745573997498, -0.05779091268777847, 0.008434176445007324, -0.09616262465715408, 0.15001265704631805, 0.17470459640026093, 0.07157191634178162, 0.010917216539382935, -0.17648431658744812, 0.009201496839523315, 0.006962284445762634, -0.13829106092453003, 0.05118882656097412, -0.027186691761016846, -0.1132170557975769, -0.17125363647937775, -0.13713040947914124, -0.05088801681995392], [0.15854527056217194, 0.09439240396022797, 0.06301122903823853, -0.04756908118724823, 0.06917411088943481, 0.09194375574588776, -0.03986485302448273, -0.05101248621940613, 0.047571659088134766, -0.17141671478748322, 0.15048880875110626, -0.1310262382030487, 0.10819520056247711, 0.12760497629642487, -0.04442884027957916, 0.06697939336299896, 0.17307670414447784, 0.05058978497982025, -0.020664766430854797, 0.12016426026821136, 0.054861798882484436, 0.01230594515800476, 0.1546616107225418, 0.1627858430147171, 0.13550128042697906, 0.046952471137046814, -0.05262067914009094, 0.07761280238628387, 0.10576789081096649, -0.024052739143371582, 0.029469743371009827, 0.006254971027374268, 0.16306708753108978, 0.17113475501537323, -0.013032346963882446, -0.04438337683677673, -0.05306052416563034, -0.158101424574852, -0.025405913591384888, -0.058529071509838104, -0.1473543643951416, -0.09007147699594498, -0.10897168517112732, 0.06020171940326691, -0.06423722952604294, 0.06881581246852875, -0.09650730341672897, 0.01592421531677246, -0.15380370616912842, -0.02778679132461548, 0.05958688259124756, -0.014590397477149963, -0.014389097690582275, -0.06894111633300781, 0.06641222536563873, 0.011342734098434448, -0.13129565119743347, -0.013164818286895752, 0.16023169457912445, -0.11087141185998917, -0.17011003196239471, 0.080145463347435, -0.10404219478368759, -0.02971048653125763], [-0.1702873855829239, 0.03866171836853027, -0.15988869965076447, 0.035885632038116455, 0.03309209644794464, -0.09984719008207321, 0.16200478374958038, 0.15400449931621552, 1.0192394256591797e-05, -0.14186853170394897, 0.05634784698486328, -0.10115230828523636, -0.07780978083610535, 0.06372050940990448, 0.10419012606143951, -0.10934295505285263, 0.1277659386396408, -0.06180401146411896, 0.08902592957019806, 0.09981565177440643, -0.09446389973163605, 0.000863879919052124, 0.06160789728164673, -0.12143804877996445, 0.14541472494602203, 0.010885566473007202, -0.14054688811302185, -0.14297986030578613, 0.0011656582355499268, -0.06007148325443268, 0.03813640773296356, 0.015830308198928833, 0.08734415471553802, -0.11760829389095306, 0.12256468832492828, -0.1336357742547989, -0.1259365975856781, 0.08742974698543549, 0.02628353238105774, -0.07565831393003464, 0.08290259540081024, -0.17224544286727905, 0.07506446540355682, -0.05011048913002014, 0.019072875380516052, 0.04887816309928894, -0.11595778167247772, 0.10753004252910614, -0.05834021419286728, -0.17085787653923035, -0.13409946858882904, 0.020758837461471558, -0.12256139516830444, 0.08241967856884003, 0.06854768097400665, 0.022511184215545654, -0.05300746113061905, 0.057154372334480286, 0.1305614858865738, 0.14841274917125702, -0.11678466200828552, -0.03654089570045471, -0.1045534759759903, -0.006180748343467712], [0.093767449259758, -0.13462777435779572, 0.0932864099740982, 0.16834913194179535, 0.03684645891189575, 0.060434490442276, 0.10892714560031891, 0.12245552241802216, 0.14280380308628082, 0.17506591975688934, 0.032949820160865784, 0.09924714267253876, 0.04479771852493286, -0.12250027805566788, -0.03331708908081055, 0.14753369987010956, -0.10997714102268219, -0.0630260556936264, -0.03735795617103577, 0.06883414089679718, 0.05778732895851135, -0.10663595050573349, -0.014106929302215576, 0.011385336518287659, -0.10574669390916824, 0.04132574796676636, -0.10977483540773392, 0.11391855776309967, -0.1263655722141266, -0.014413505792617798, 0.15438319742679596, 0.06936207413673401, -0.0889303982257843, -0.14205718040466309, -0.13831785321235657, 0.0723186731338501, 0.17599348723888397, 0.026568695902824402, 0.08481158316135406, -0.12395627796649933, -0.17619313299655914, -0.05033703148365021, -0.10816769301891327, -0.17633533477783203, 0.08197276294231415, 0.1507432907819748, -0.06575540453195572, 0.07221676409244537, -0.023288071155548096, -0.047232672572135925, 0.040031880140304565, -0.17043417692184448, -0.16230371594429016, 0.029968097805976868, 0.16060788929462433, -0.1203850507736206, 0.07138681411743164, -0.04961581528186798, 0.11878405511379242, -0.15773943066596985, 0.09058819711208344, 0.030103519558906555, -0.007423996925354004, -0.036733806133270264], [-0.08423607796430588, -0.054389916360378265, -0.13379807770252228, -0.1472206711769104, 0.008954524993896484, 0.024977058172225952, 0.09543727338314056, -0.1721380054950714, 0.0069388896226882935, 0.0736863762140274, 0.11308698356151581, 0.13776005804538727, 0.04131309688091278, 0.17604030668735504, 0.11895714700222015, -0.0563206672668457, 0.0023091882467269897, -0.07891571521759033, -0.030167147517204285, 0.05192318558692932, 0.05936262011528015, 0.04622143507003784, 0.07565455138683319, 0.0026239007711410522, 0.145369753241539, -0.17525362968444824, 0.030996263027191162, 0.040171295404434204, 0.033930614590644836, 0.07251790165901184, 0.09556616842746735, -0.09838372468948364, 0.05354875326156616, -0.17592360079288483, 0.17537997663021088, -0.08930251002311707, -0.03638511896133423, -0.15731891989707947, -0.17176619172096252, 0.039834290742874146, 0.16815103590488434, 0.10153134167194366, -0.007466435432434082, -0.07514289766550064, 0.022255942225456238, 0.15299005806446075, -0.007996737957000732, -0.03840626776218414, -0.17322130501270294, 0.17495770752429962, -0.09470788389444351, -0.01949414610862732, -0.02275983989238739, 0.019383087754249573, 0.06009499728679657, -0.08781919628381729, 0.1008370965719223, -0.08737167716026306, -0.1390085220336914, 0.020853370428085327, 0.12962330877780914, -0.12083210051059723, -0.11868223547935486, -0.02143673598766327], [-0.11237302422523499, 0.1269354671239853, 0.1340474933385849, 0.042953118681907654, 0.1362985521554947, -0.05884619057178497, 0.08622224628925323, 0.0950389951467514, -0.12946723401546478, 0.10708127915859222, 0.03117699921131134, -0.12989258766174316, -0.020568087697029114, -0.04430350661277771, 0.05280974507331848, -0.13287346065044403, -0.07430771738290787, -0.07920943945646286, 0.10890181362628937, -0.038893699645996094, 0.09872482717037201, -0.06701483577489853, 0.11662419140338898, -0.15055587887763977, 0.08618377149105072, 0.16736362874507904, 0.13246361911296844, -0.05987090617418289, 0.012362003326416016, -0.0823994055390358, -0.03224402666091919, -0.091742604970932, -0.14993858337402344, 0.1515752524137497, -0.1341239959001541, -0.0341360867023468, -0.1762273907661438, -0.1613408327102661, -0.0024288445711135864, 0.05756218731403351, -0.07208628207445145, -0.10011284053325653, 0.09461100399494171, -0.1730046272277832, -0.044261738657951355, 0.07750119268894196, -0.09635607898235321, 0.08032672107219696, -0.008605629205703735, 0.08284465968608856, 0.07655774056911469, -0.0994759202003479, 0.11545626819133759, 0.09208689630031586, 0.05367957055568695, -0.09264981746673584, 0.06052173674106598, -0.05616214871406555, -0.1712065190076828, -0.12939199805259705, 0.035717010498046875, -0.008100539445877075, -0.024352118372917175, -0.08087137341499329], [-0.13504478335380554, -0.11254379898309708, -0.14528103172779083, -0.11539752036333084, 0.02496156096458435, 0.13981230556964874, 0.1045718640089035, 0.07126577198505402, 0.004036322236061096, -0.07055331766605377, 0.16680942475795746, 0.14697201550006866, 0.021124929189682007, 0.11940698325634003, -0.14335213601589203, -0.07852969318628311, -0.03505408763885498, 0.11877517402172089, -0.024999618530273438, -0.010707318782806396, -0.07690244168043137, -0.016747981309890747, -0.1011667251586914, -0.031553834676742554, 0.11889730393886566, 0.07651840150356293, -0.1744828075170517, -0.027350902557373047, 0.1258501559495926, 0.0017897188663482666, -0.17542049288749695, -0.14437070488929749, -0.04464109241962433, 0.005510404706001282, 0.026914551854133606, 0.0034477412700653076, -0.1364040970802307, 0.09242115914821625, -0.013800978660583496, 0.09527505934238434, 0.16127626597881317, 0.16150645911693573, 0.08087427914142609, 0.027051612734794617, -0.07947664707899094, -0.10418093949556351, -0.036157652735710144, 0.1596471518278122, 0.14291177690029144, 0.04355117678642273, -0.12513138353824615, -0.06343960016965866, -0.0074792057275772095, -0.014046534895896912, -0.16731582581996918, -0.061618901789188385, 0.10352997481822968, 0.0975831001996994, -0.04736138880252838, -0.15304240584373474, -0.14621588587760925, -0.13513459265232086, 0.11309044063091278, -0.1246129721403122], [0.036364808678627014, -0.10218477994203568, -0.1528971791267395, 0.13633517920970917, -0.0225832462310791, 0.055487796664237976, 0.02282121777534485, 0.12498871982097626, 0.06079526245594025, -0.1389530599117279, 0.1552766114473343, -0.09831898659467697, -0.002640664577484131, 0.1556224673986435, -0.09750154614448547, -0.1697087436914444, 0.09497003257274628, 0.1693820208311081, 0.1304723173379898, -0.1702166646718979, 0.029920682311058044, 0.0029647350311279297, -0.08200807124376297, 0.1452237218618393, -0.07885102182626724, 0.12872986495494843, 0.11279504001140594, -0.06122242659330368, -0.1475592702627182, -0.09036490321159363, -0.0700371041893959, 0.11001034080982208, -0.0722450464963913, -0.026032671332359314, -0.06732562929391861, -0.13173726201057434, -0.017721310257911682, 0.07285137474536896, -0.0653686672449112, -0.0854666456580162, -0.17611835896968842, -0.029654979705810547, -0.11751944571733475, 0.03278754651546478, 0.0025369077920913696, 0.13884498178958893, 0.034035682678222656, -0.04343847930431366, 0.07671122252941132, 0.05562621355056763, -0.0769650787115097, -0.043736591935157776, 0.03658342361450195, -0.16329024732112885, -1.837313175201416e-05, 0.08435119688510895, 0.10970528423786163, 0.09525464475154877, -0.03842654824256897, -0.11744889616966248, -0.09578191488981247, 0.0504981130361557, 0.05151166021823883, -0.14384394884109497], [-0.0605853796005249, -0.12403690814971924, 0.09591998159885406, -0.13575200736522675, 0.09027029573917389, 0.14550785720348358, -0.1591387391090393, -0.01682114601135254, 0.15068133175373077, 0.07522378861904144, -0.014584288001060486, 0.047828078269958496, 0.0796397477388382, -0.09912356734275818, 0.1622704714536667, 0.09285695850849152, 0.13084189593791962, 0.02657821774482727, 0.09104619920253754, -0.05378856509923935, -0.03750479221343994, 0.16348101198673248, -0.1025858074426651, 0.009426653385162354, 0.01737305521965027, 0.049284204840660095, -0.133370041847229, -0.11060593277215958, -0.13254939019680023, 0.1716652363538742, -0.06931398808956146, -0.1574137955904007, -0.1120322197675705, 0.0008657872676849365, 0.05503666400909424, 0.17178215086460114, -0.09752072393894196, 0.05608417093753815, -0.04625721275806427, -0.03453049063682556, -0.028033137321472168, 0.038580045104026794, 0.1364767998456955, -0.08629756420850754, -0.1415560096502304, -0.15503153204917908, -0.042695045471191406, 0.16087137162685394, -0.004341334104537964, -0.16775384545326233, -0.05856700986623764, -0.1086428165435791, 0.07024151086807251, -0.14100046455860138, 0.03626757860183716, -0.0902155414223671, -0.0557873398065567, -0.06750454008579254, -0.12445947527885437, 0.16426219046115875, 0.04542136192321777, -0.0743093192577362, 0.0186053067445755, -0.10655342787504196], [0.1049298495054245, 0.05864629149436951, 0.03938715159893036, 0.024179905652999878, -0.0995129644870758, 0.02500934898853302, 0.09645117819309235, 0.1229323297739029, -0.076145701110363, 0.16392703354358673, 0.0014690756797790527, -0.07876609265804291, 0.08678142726421356, 0.04601554572582245, -0.13918642699718475, -0.09723509848117828, -0.14431864023208618, 0.022439733147621155, 0.16275949776172638, -0.14624543488025665, -0.07559867203235626, 0.004977121949195862, 0.17441485822200775, 0.15185482800006866, -0.06785313785076141, 0.048721760511398315, 0.1108950525522232, -0.07919738441705704, 0.14463137090206146, -0.028152242302894592, -0.0893516093492508, -0.058475881814956665, -0.16199827194213867, 0.16264991462230682, 0.07878611981868744, -0.07353293150663376, -0.10005316138267517, 0.06188897788524628, 0.11148802936077118, 0.14516939222812653, 0.06323026120662689, 0.029080018401145935, -0.09968315064907074, -0.15093325078487396, -0.14954553544521332, 0.12871293723583221, -0.13141164183616638, 0.0291757732629776, -0.02830776572227478, 0.10373987257480621, -0.003385111689567566, 0.11288969218730927, 0.17168210446834564, -0.008888095617294312, 0.08580432832241058, 0.11778093874454498, 0.07213753461837769, 0.00033995509147644043, 0.08916734158992767, -0.04873010516166687, 0.013674125075340271, -0.1456591635942459, -0.04325222969055176, 0.11521418392658234], [-0.04131385684013367, -0.04868091642856598, 0.028960779309272766, 0.17170365154743195, -0.16437557339668274, -0.02443540096282959, -0.05249052494764328, 0.004209622740745544, -0.10032331943511963, 0.12264959514141083, -0.171176478266716, -0.1450069546699524, 0.020900622010231018, 0.049615100026130676, -0.08525004982948303, -0.10918081551790237, 0.08667485415935516, -0.1529092639684677, 0.08842991292476654, 0.02849830687046051, -0.019681572914123535, -0.05812922865152359, -0.10219059884548187, 0.013804435729980469, -0.12400968372821808, -0.13630732893943787, -0.16987624764442444, -0.052925609052181244, 0.13852573931217194, 0.05912886559963226, -0.10641206800937653, 0.14965035021305084, 0.16008557379245758, -0.14037403464317322, -0.15796060860157013, -0.15708939731121063, 0.0710163414478302, -0.04481913149356842, -0.07250905781984329, -0.07046321034431458, 0.04226069152355194, -0.15026666224002838, -0.1653009057044983, 0.007355049252510071, 0.11153702437877655, -0.0633295550942421, 0.13891150057315826, -0.01379019021987915, 0.053622931241989136, -0.17545080184936523, -0.010008692741394043, 0.04296496510505676, 0.01149129867553711, 0.12686921656131744, 0.15988175570964813, 0.11171524226665497, 0.04580068588256836, -0.04387785494327545, -0.10988129675388336, -0.002423316240310669, 0.14619813859462738, 0.1456480771303177, -0.11770181357860565, 0.15520457923412323], [-0.08678469806909561, 0.035454511642456055, -0.048120275139808655, -0.0392632931470871, 0.009137898683547974, -0.16761696338653564, 0.07477681338787079, -0.1724744737148285, 0.10580267012119293, 0.1049683541059494, 0.13820187747478485, -0.15420056879520416, 0.12496738135814667, -0.0010734349489212036, -0.16841277480125427, -0.13027802109718323, -0.12557046115398407, 0.0863158255815506, -0.1577611267566681, -0.14664173126220703, -0.09248999506235123, 0.061864614486694336, 0.05005541443824768, -0.10900729894638062, 0.11658404767513275, -0.08203808218240738, 0.005830124020576477, -0.049127206206321716, -0.012389525771141052, -0.17457890510559082, 0.16407586634159088, -0.038097962737083435, 0.041801661252975464, -0.02047625184059143, 0.10309292376041412, 0.059270307421684265, 0.17045958340168, -0.03344137966632843, 0.00018021464347839355, 0.028994247317314148, -0.010431215167045593, 0.10805149376392365, -0.1069546639919281, 0.16477929055690765, -0.06205874681472778, -0.013724610209465027, -0.07951576262712479, 0.0787196010351181, 0.03248295187950134, 0.009478822350502014, 0.15139682590961456, 0.1460162252187729, 0.022201478481292725, -0.01119142770767212, 0.1620676964521408, -0.047670990228652954, -0.13238990306854248, 0.1695501059293747, 0.0759442001581192, -0.08278155326843262, 0.09290964901447296, 0.023996859788894653, -0.03537730872631073, 0.12184818089008331], [0.13094212114810944, 0.0176628977060318, -0.06369172781705856, -0.0827426090836525, -0.1050494983792305, -0.10630716383457184, -0.16440334916114807, -0.023406118154525757, -0.02022606134414673, -0.15315473079681396, -0.16367998719215393, 0.13695098459720612, 0.15724261105060577, 0.15331868827342987, -0.12362994253635406, 0.053860053420066833, 0.15133558213710785, 0.016155347228050232, 0.0056584179401397705, -0.15641804039478302, -0.16866397857666016, 0.03886857628822327, -0.02196153998374939, -0.10291716456413269, 0.16390348970890045, 0.16897736489772797, 0.17263104021549225, -0.004226356744766235, 0.0802033394575119, 0.15214569866657257, 0.16148202121257782, 0.11598147451877594, 0.08119772374629974, -0.17538799345493317, 0.06038306653499603, -0.13058273494243622, -0.06960547715425491, -0.16247627139091492, 0.12261109054088593, -0.005625009536743164, 0.08332078158855438, 0.09112952649593353, -0.13167822360992432, 0.07484020292758942, 0.03753750026226044, 0.13199912011623383, -0.08306334167718887, -0.10602237284183502, 0.03717613220214844, -0.0827745571732521, 0.02005186676979065, 0.10569097101688385, 0.039060771465301514, -0.16220977902412415, 0.15310297906398773, 0.09366269409656525, -0.07512637972831726, 0.09957323968410492, 0.11532200872898102, 0.05410453677177429, -0.048500657081604004, -0.1455012857913971, 0.1638578325510025, -0.09489135444164276], [-0.028104573488235474, 0.0729779452085495, -0.07153196632862091, 0.030559077858924866, -0.16653011739253998, -0.07206499576568604, 0.07950203120708466, -0.03976087272167206, 0.06908154487609863, 0.11454905569553375, 0.16315723955631256, -0.12170226871967316, 0.021018505096435547, -0.14100784063339233, -0.13458648324012756, 0.03656913340091705, 0.12382899224758148, 0.020371556282043457, -0.11178582906723022, -0.11025805026292801, -0.020131856203079224, 0.0005151182413101196, 0.060613274574279785, 0.08774767816066742, 0.0977492481470108, -0.013160526752471924, 0.03258123993873596, -0.004568710923194885, 0.1697152704000473, -0.16690243780612946, -0.08807991445064545, -0.08376884460449219, 0.10139299929141998, -0.05623072385787964, -0.05665353685617447, -0.02704453468322754, -0.029517844319343567, 0.024863898754119873, -0.038152217864990234, -0.10676070302724838, 0.12057076394557953, 0.02126498520374298, 0.15158982574939728, -0.0032186657190322876, 0.04686295986175537, 0.15992216765880585, 0.1447242647409439, 0.008983388543128967, -0.0484016090631485, -0.15877020359039307, 0.0644388198852539, -0.09379477798938751, 0.17200370132923126, 0.11479438841342926, -0.026931285858154297, 0.09000526368618011, -0.15821875631809235, -0.007120877504348755, -0.1593645215034485, -0.11167587339878082, 0.05033424496650696, -0.1147998794913292, -0.06108894944190979, -0.03258305788040161], [0.01105111837387085, -0.11221509426832199, 0.00999896228313446, 0.027993634343147278, -0.1425689160823822, -0.16059529781341553, 0.1517152637243271, -0.04657457768917084, 0.14083106815814972, -0.15479613840579987, 0.16120220720767975, -0.06750268489122391, -0.16853129863739014, -0.13556917011737823, -0.016630515456199646, 0.13601116836071014, 0.14187894761562347, 0.13256506621837616, -0.1392214000225067, 0.14648739993572235, -0.12885020673274994, -0.06928903609514236, -0.10292723774909973, -0.17452533543109894, 0.145000621676445, 0.04895418882369995, 0.15955384075641632, -0.04522061347961426, 0.061145514249801636, 0.02663777768611908, 0.10002689063549042, -0.09523451328277588, 0.1469687968492508, 0.1268465369939804, -0.06609814614057541, 0.03766098618507385, 0.03610982000827789, 0.08849485218524933, -0.05374936759471893, 0.1403021365404129, -0.15881100296974182, -0.008937329053878784, -0.029605373740196228, 0.12471656501293182, 0.08278016746044159, 0.04392443597316742, 0.17374400794506073, 0.09633193910121918, 0.059235453605651855, 0.06151871383190155, 0.15685199201107025, -0.08211575448513031, -0.13554994761943817, -0.17549559473991394, -0.06974835693836212, 0.11345045268535614, -0.05839230865240097, 0.16346324980258942, -0.010167807340621948, -0.1590404510498047, 0.1482672244310379, -0.11310030519962311, 0.016772836446762085, -0.15607336163520813], [-0.07905551791191101, 0.1414732187986374, -0.14243780076503754, -0.03996208310127258, 0.16702817380428314, -0.037478238344192505, 0.01980222761631012, 0.03837710618972778, -0.06473776698112488, -0.16356989741325378, -0.10369940847158432, 0.080940380692482, 0.17156200110912323, 0.16144417226314545, 0.14285577833652496, 0.06422075629234314, 0.16169576346874237, 0.16207750141620636, -0.08363055437803268, 0.0012389123439788818, -0.14801092445850372, 0.0011425167322158813, 0.13140784204006195, -0.1201159879565239, -0.020198076963424683, -0.09894052892923355, -0.1259564459323883, -0.0009134113788604736, -0.15277907252311707, 0.1572200506925583, 0.13308624923229218, -0.0748734101653099, -0.012862592935562134, 0.12631957232952118, -0.15960758924484253, 0.14789460599422455, -0.023958459496498108, 0.0022489577531814575, 0.16893906891345978, 0.07254272699356079, 0.08432571589946747, 0.005304217338562012, -0.05639340728521347, -0.06061011552810669, -0.014932706952095032, 0.09741427004337311, 0.052718326449394226, 0.07480071485042572, 0.10393913090229034, 0.08999772369861603, -0.14678512513637543, 0.04536205530166626, -0.0352557897567749, 0.1708003133535385, -0.16560958325862885, 0.1714060753583908, -0.14502717554569244, 0.14991481602191925, 0.1245817095041275, -0.00484098494052887, -0.1511027216911316, -0.1301407366991043, -0.052052244544029236, -0.06857220828533173], [-0.008428320288658142, -0.04628761112689972, 0.04659704864025116, -0.06369471549987793, 0.05726344883441925, 0.04872517287731171, -0.024797648191452026, 0.12403737008571625, -0.029661104083061218, 0.11530481278896332, -0.1425040066242218, -0.035144269466400146, 0.12683676183223724, -0.09625981748104095, -0.032894477248191833, 0.09109367430210114, 0.06661516427993774, -0.024243876338005066, -0.042565569281578064, -0.11386270076036453, 0.009705707430839539, 0.09151656925678253, 0.02708984911441803, -0.013215228915214539, 0.1544726938009262, -0.1551138013601303, -0.0795915424823761, -0.08220873028039932, -0.03468596935272217, -0.07633135467767715, -0.14370444416999817, -0.024713516235351562, 0.08633382618427277, -0.17192178964614868, -0.1576882153749466, 0.018087655305862427, -0.10393096506595612, -0.010485678911209106, -0.06591522693634033, 0.10740770399570465, -0.12741678953170776, 0.158169224858284, -0.1514383852481842, 0.14804132282733917, 0.14279548823833466, 0.1691923588514328, 0.04464796185493469, 0.13337628543376923, 0.11101336777210236, 0.03310854732990265, 0.13095416128635406, 0.13009114563465118, 0.08483116328716278, 0.06789085268974304, 0.12713231146335602, 0.027710795402526855, 0.03285485506057739, -0.1499689370393753, -0.14391686022281647, -0.07501363754272461, 0.08078266680240631, -0.02881188690662384, 0.027109652757644653, 0.036653220653533936], [-0.009982571005821228, -0.005002573132514954, -0.10733221471309662, 0.14446263015270233, -0.032681047916412354, -0.17602597177028656, 0.11127565801143646, 0.10810823738574982, 0.0711480975151062, 0.10724683105945587, -0.01954205334186554, -0.17022044956684113, -0.04873195290565491, 0.056086376309394836, 0.15197567641735077, -0.03649204969406128, -0.13271819055080414, -0.12077002227306366, -0.13606081902980804, 0.1555025726556778, -0.09198861569166183, -0.14127691090106964, 0.03636527061462402, 0.1679174154996872, -0.11924443393945694, -0.08941563218832016, -0.0614047572016716, 0.15979526937007904, -0.13638821244239807, -0.14720313251018524, 0.01817317306995392, -0.13582095503807068, 0.14062447845935822, -0.07180348038673401, -0.015984997153282166, -0.09243263304233551, -0.15764227509498596, 0.13094733655452728, 0.0879412442445755, 0.07133008539676666, -0.14683493971824646, 0.16049666702747345, -0.01058913767337799, 0.01477457582950592, 0.06252232193946838, -0.050076693296432495, 0.04897034168243408, -0.13556423783302307, -0.12561118602752686, 0.09894706308841705, -0.12606662511825562, -0.17270906269550323, 0.14398805797100067, -0.131057009100914, 0.07234649360179901, 0.05797046422958374, 0.1367308348417282, 0.12554128468036652, 0.04619529843330383, -0.09007670730352402, -0.16146023571491241, -0.004241660237312317, -0.08189629763364792, 0.16349954903125763], [0.017229631543159485, -0.09839801490306854, -0.05471567064523697, -0.10539472848176956, 0.016582638025283813, 0.008580133318901062, -0.0759153664112091, -0.033705294132232666, -0.12387384474277496, -0.05039907991886139, 0.1395939439535141, 0.14285863935947418, -0.09440582245588303, 0.04923054575920105, 0.047974199056625366, 0.0764506608247757, -0.1487443596124649, -0.0735943391919136, -0.16047345101833344, 0.0734901875257492, -0.028747737407684326, -0.13159337639808655, -0.17424139380455017, -0.019042491912841797, -0.1395295411348343, 0.050774946808815, -0.04956217110157013, -0.16991186141967773, -0.022192344069480896, -0.028689950704574585, -0.13743135333061218, 0.09665586054325104, 0.09558446705341339, 0.13480360805988312, 0.10253705084323883, 0.1606626957654953, -0.1429097205400467, 0.06987534463405609, 0.14576302468776703, 0.10792769491672516, -0.08645186573266983, 0.029812529683113098, -0.0011048763990402222, 0.07236588001251221, 0.026754572987556458, -0.1349220871925354, -0.04097756743431091, -0.018414035439491272, 0.10478179156780243, -0.10732854902744293, 0.12663812935352325, 0.07008768618106842, -0.012960612773895264, 0.02080482244491577, 0.14791332185268402, 0.11109994351863861, 0.07645715773105621, -0.04955846071243286, -0.014075145125389099, 0.07038843631744385, -0.05241938680410385, 0.1500040739774704, -0.16432414948940277, -0.17053142189979553], [0.1385011225938797, -0.14109298586845398, -0.02452622354030609, -0.002807900309562683, 0.043168485164642334, 0.01249493658542633, -0.15279428660869598, 0.039931103587150574, 0.08064566552639008, 0.1521771401166916, 0.035498857498168945, -0.03361387550830841, -0.0697365552186966, 0.050899192690849304, 0.08628891408443451, 0.1102190762758255, -0.04307003319263458, -0.035822466015815735, -0.0527188777923584, -0.06217473745346069, -0.07893817871809006, -0.15685506165027618, -0.07806304097175598, 0.06674134731292725, -0.015910357236862183, 0.04992799460887909, 0.169388547539711, -0.002982020378112793, -0.15374499559402466, 0.04936951398849487, -0.0009119361639022827, 0.12225206196308136, -0.13474102318286896, 0.010119795799255371, 0.07490266859531403, 0.15476612746715546, 0.04284316301345825, -0.12505006790161133, -0.005166947841644287, 0.17330820858478546, -0.04461808502674103, -0.16794919967651367, -0.10743210464715958, -0.14833912253379822, 0.012314632534980774, -0.09517925977706909, -0.018929198384284973, 0.061964720487594604, -0.1268220990896225, -0.08972591906785965, -0.07903967052698135, -0.03629311919212341, -0.04961657524108887, -0.1605464071035385, 0.054794058203697205, 0.10645793378353119, 0.15514908730983734, 0.056502699851989746, -0.14702370762825012, -0.11506371945142746, 0.02051064372062683, 0.13181190192699432, -0.07113241404294968, -0.17239686846733093], [-0.02142973244190216, 0.1297871619462967, 0.07158005237579346, 0.13497088849544525, -0.10377118736505508, -0.07574205845594406, -0.10764233022928238, -0.04344475269317627, 0.13759465515613556, -0.1008189246058464, 0.1713787466287613, 0.11092855036258698, -0.10834264755249023, 0.07065029442310333, 0.024681955575942993, 0.06498074531555176, -0.04507352411746979, -0.10351670533418655, 0.10888363420963287, 0.005539610981941223, -0.15077996253967285, -0.15775611996650696, 0.07237106561660767, -0.0363616943359375, -0.15941818058490753, -0.17279933393001556, 0.17483244836330414, 0.029879838228225708, -0.05742090940475464, -0.03484107553958893, -0.03214485943317413, -0.10941224545240402, 0.011749997735023499, -0.1474073827266693, 0.0838833898305893, -0.07260658591985703, 0.11610786616802216, 0.008804261684417725, 0.16913731396198273, 0.03133934736251831, -0.05753617733716965, -0.09995757043361664, -0.09658590704202652, -0.01477360725402832, 0.010278776288032532, 0.15880165994167328, -0.00950343906879425, 0.11207281053066254, -0.12918370962142944, 0.008604243397712708, -0.10892047733068466, -0.08891037851572037, -0.1613391935825348, -0.1596425622701645, -0.010869920253753662, -0.12599125504493713, -0.1766110062599182, -0.045124948024749756, -0.060804031789302826, -0.12455813586711884, -0.07426843792200089, 0.11517371237277985, 0.049071282148361206, 0.10527388751506805], [0.02869538962841034, 0.07515470683574677, -0.08564387261867523, 0.06800693273544312, -0.06510330736637115, -0.0189981609582901, 0.028383031487464905, -0.16163906455039978, 0.1392252892255783, -0.15615272521972656, 0.16605137288570404, -0.1254560351371765, -0.01194395124912262, 0.088956817984581, 0.15519459545612335, 0.15672974288463593, -0.04366371035575867, -0.02574653923511505, 0.025435790419578552, 0.08817760646343231, -0.0989416241645813, 0.1547486037015915, 0.15781031548976898, 0.03697538375854492, 0.12533365190029144, 0.13538296520709991, 0.08667780458927155, -0.039460912346839905, -0.08888222277164459, -0.1760641187429428, 0.10300715267658234, -0.11737155169248581, 0.017140105366706848, 0.10029710829257965, 0.0600510835647583, -0.1446532905101776, 0.1010095626115799, 0.014114558696746826, -0.008806630969047546, 0.12324906885623932, 0.08464531600475311, -0.14525721967220306, -0.0033996105194091797, -0.06442183256149292, 0.05540241301059723, -0.08839976787567139, 0.1148470789194107, 0.1359259933233261, 0.1383000761270523, -0.02751578390598297, 0.022926747798919678, -0.02578839659690857, -0.10732770711183548, -0.12185614556074142, -0.05209055542945862, -0.09572982043027878, -0.061346590518951416, -0.17441090941429138, -0.01071418821811676, -0.1357543170452118, -0.10629721730947495, 0.09495936334133148, -0.10288526117801666, 0.054702818393707275], [-0.01656682789325714, -0.00305059552192688, 0.15119604766368866, 0.16657297313213348, 0.0568055659532547, 0.020507603883743286, -0.07819470763206482, -0.053771667182445526, 0.06483875215053558, -0.1652117222547531, 0.02899247407913208, 0.17366169393062592, 0.05438750982284546, 0.03671988844871521, 0.00359538197517395, -0.0920056402683258, 0.15962974727153778, -0.11859579384326935, 0.02475498616695404, -0.04845833778381348, -0.0979674831032753, -0.08410175889730453, 0.166624054312706, -0.013261005282402039, 0.12828011810779572, 0.14989657700061798, -0.005310416221618652, -0.048258811235427856, -0.1570790708065033, -0.13054223358631134, -0.05389270931482315, 0.15171651542186737, -0.12522992491722107, -0.10617376863956451, 0.1533999890089035, -0.15023353695869446, 0.14364297688007355, -0.16857938468456268, -0.09251692146062851, -0.007344558835029602, 0.04451309144496918, 0.10560719668865204, 0.05909472703933716, 0.1052316278219223, -0.05260807275772095, 0.1495557576417923, 0.08067910373210907, -0.07903718203306198, -0.08007150888442993, 0.10679773986339569, 0.08415324985980988, 0.16135789453983307, -0.037859171628952026, 0.02462087571620941, 0.16307465732097626, -0.05973932147026062, 0.11248071491718292, 0.17475490272045135, 0.17079411447048187, 0.14966987073421478, 0.10121460258960724, 0.06073647737503052, -0.15648092329502106, 0.11099059879779816], [-0.037244319915771484, 0.01062004268169403, -0.008322730660438538, -0.07696495205163956, -0.17496450245380402, -0.1726546436548233, 0.11493267118930817, 0.018487975001335144, -0.05192605406045914, 0.10006289184093475, 0.08942769467830658, -0.03467661142349243, -0.0352155864238739, 0.12165139615535736, 0.0031320154666900635, 0.006112009286880493, -0.0072431862354278564, 0.1186111718416214, 0.05115842819213867, -0.0014041215181350708, -0.050522178411483765, 0.051528483629226685, 0.04053068161010742, 0.05259151756763458, -0.1654960811138153, -0.16552281379699707, -0.13495180010795593, -0.09698398411273956, -0.1338595300912857, 0.06640160083770752, -0.1736675649881363, -0.017725661396980286, 0.13791055977344513, -0.15859104692935944, 0.14640893042087555, -0.021844536066055298, 0.13401593267917633, -0.11853291094303131, 0.15198008716106415, -0.004298940300941467, -0.15484440326690674, -0.11341409385204315, -0.09527084231376648, 0.17518644034862518, -0.0780082494020462, 2.0697712898254395e-05, -0.15231385827064514, -0.05248416215181351, -0.024193137884140015, 0.15462897717952728, -0.09425012767314911, 0.03545333445072174, -0.0045518577098846436, -0.007528558373451233, 0.1065787523984909, 0.11975158751010895, -0.01798263192176819, -0.01541861891746521, -0.16312773525714874, -0.16292887926101685, -0.02167356014251709, -0.07904931902885437, 0.04101689159870148, -0.0413273423910141], [0.13138435781002045, -0.08640116453170776, -0.0746200680732727, 0.05869963765144348, 0.1564628928899765, -0.0712241679430008, 0.16563130915164948, -0.05653245002031326, -0.06281692534685135, -0.17070265114307404, 0.028587281703948975, 0.08913250267505646, -0.11127602308988571, 0.02466757595539093, 0.04683327674865723, 0.11512549221515656, -0.08704040199518204, 0.1589273363351822, 0.06196504831314087, 0.05913923680782318, 0.08169762790203094, -0.1104051023721695, 0.004405781626701355, -0.09052232652902603, 0.15335865318775177, -0.1474160999059677, -0.08931156992912292, -0.10138045251369476, -0.12140938639640808, -0.000822409987449646, 0.024638667702674866, 0.006076186895370483, 0.04324139654636383, -0.022765323519706726, 0.13956741988658905, -0.12347391247749329, 0.014268726110458374, -0.06728170812129974, -0.07122859358787537, 0.00655733048915863, 0.12077786028385162, -0.06356760114431381, 0.13485397398471832, 0.14961151778697968, 0.037826746702194214, 0.1198931485414505, -0.09012429416179657, -0.15437838435173035, -0.03174884617328644, 0.02433095872402191, 0.02535739541053772, 0.016933217644691467, -0.08737332373857498, 0.15566913783550262, 0.054118409752845764, 0.03930020332336426, 0.02319379150867462, -0.01275557279586792, -0.11932021379470825, 0.14564846456050873, 0.08401714265346527, -0.1696389615535736, 0.02755400538444519, -0.0904926136136055], [0.16416792571544647, -0.09466569870710373, -0.12057369947433472, 0.046694621443748474, -0.094899021089077, 0.04099312424659729, -0.05389827489852905, 0.10485731065273285, -0.1622876226902008, 0.024811506271362305, -0.11532553285360336, -0.08267293870449066, -0.03192795813083649, 0.013577938079833984, -0.1568307876586914, 0.04550561308860779, 0.08478562533855438, 0.12535999715328217, 0.16844291985034943, -0.09122774004936218, 0.13747693598270416, -0.17456389963626862, -0.09588171541690826, -0.17066535353660583, 0.08695150911808014, 0.074334517121315, -0.014255702495574951, -0.17422537505626678, -0.1721401959657669, 0.12964223325252533, 0.06181320548057556, -0.14310207962989807, -0.06971278041601181, 0.07441376149654388, 0.06353409588336945, 0.08151592314243317, 0.05542542040348053, -0.13787725567817688, 0.02642190456390381, 0.13127179443836212, -0.15705756843090057, 0.013251259922981262, 0.13350258767604828, -0.02504938840866089, 0.06081782281398773, 0.14775033295154572, 0.11163567006587982, -0.04462336003780365, -0.06882942467927933, -0.04739329218864441, -0.13413521647453308, -0.11371194571256638, 0.16597183048725128, 0.007347583770751953, 0.15985684096813202, 0.144387885928154, -0.018005594611167908, 0.14753668010234833, 0.10124759376049042, 0.06659682095050812, -0.07008114457130432, 0.11732523143291473, 0.13021151721477509, -0.13017480075359344], [0.0024320781230926514, 0.16564376652240753, -0.014626845717430115, -0.1357809603214264, 0.09951271116733551, -0.03546792268753052, -0.05421172082424164, -0.1361381560564041, -0.06088647246360779, -0.07759087532758713, 0.04874531924724579, 0.1141682118177414, 0.11544151604175568, -0.17002661526203156, 0.09762702882289886, 0.07373060286045074, -0.0971386656165123, 0.15596149861812592, -0.05755838751792908, 0.16524378955364227, -0.08012861758470535, -0.1528576761484146, 0.08575908839702606, -0.09398645907640457, 0.12805677950382233, 0.15653972327709198, -0.15015479922294617, -0.15885572135448456, 0.0029169023036956787, -0.06106918305158615, 0.058436810970306396, -0.08767395466566086, 0.029899179935455322, -0.00020997226238250732, -0.15240716934204102, -0.1616547852754593, 0.12329898774623871, -0.017261698842048645, 0.1606869250535965, -0.1597360074520111, 0.09828861057758331, -0.09283323585987091, 0.14942507445812225, -0.17549331486225128, 0.06892825663089752, -0.1396595686674118, -0.05424421280622482, -0.1763363480567932, -0.03826002776622772, 0.08562453091144562, 0.010907009243965149, 0.12069036066532135, 0.05940990149974823, -0.07516999542713165, -0.010831788182258606, 0.05825309455394745, -0.0034640878438949585, -0.09908117353916168, 0.07716037333011627, -0.013622954487800598, 0.1186046153306961, -0.13547897338867188, 0.08965198695659637, -0.15454836189746857], [0.14017565548419952, 0.025738075375556946, 0.013432785868644714, 0.013994738459587097, -0.11274336278438568, -0.03008134663105011, -0.1599680632352829, 0.007400140166282654, 0.16583363711833954, -0.10601559281349182, -0.0877138301730156, 0.07970984280109406, -0.0005030632019042969, 0.010711371898651123, 0.12690158188343048, -0.16629202663898468, -0.1607213169336319, 0.0826893299818039, 0.02244184911251068, -0.08145468682050705, -0.002244025468826294, 0.019302621483802795, -0.04683341085910797, -0.1625635176897049, -0.0029153823852539062, 0.1017472892999649, -0.016192108392715454, -0.017057761549949646, -0.07640216499567032, 0.14097104966640472, -0.10146575421094894, 0.0076856911182403564, -0.011271625757217407, -0.04155084490776062, 0.15587083995342255, 0.057135820388793945, -0.0971100851893425, -0.13800550997257233, -0.08013220131397247, 0.09884823858737946, 0.15687046945095062, -0.07142200320959091, 0.03940831124782562, 0.06423541903495789, 0.039745405316352844, -0.019215717911720276, 0.01212821900844574, 0.07436160743236542, 0.12313227355480194, 0.1360638588666916, 0.0031543970108032227, 0.07723118364810944, -0.08643079549074173, -0.1564488410949707, 0.03746138513088226, 0.05728165805339813, -0.05921526998281479, 0.05053171515464783, -0.04872255027294159, -0.1580967903137207, -0.14867421984672546, -0.10370640456676483, -0.06061255931854248, 0.10108701884746552], [0.077570840716362, 0.09264923632144928, 0.03660419583320618, 0.1765616089105606, -0.043509453535079956, -0.14211022853851318, -0.018289923667907715, 0.008045122027397156, -0.008022814989089966, -0.03164553642272949, 0.04367513954639435, 0.08415873348712921, 0.038659825921058655, -0.14851993322372437, -0.16396678984165192, 0.007173895835876465, 0.00691300630569458, -0.13238674402236938, -0.013011574745178223, -0.11192112416028976, 0.08466000854969025, -0.1153462678194046, -0.11677391082048416, -0.17327049374580383, 0.17572887241840363, 0.08223874866962433, -0.16249962151050568, -0.109296515583992, 0.12656183540821075, -0.14210328459739685, -0.08645468950271606, -0.01994958519935608, 0.16843296587467194, 0.027835294604301453, 0.15194468200206757, 0.13665659725666046, -0.025540903210639954, 0.029657423496246338, -0.12940308451652527, 0.07013994455337524, -0.007253602147102356, -0.13272690773010254, 0.08296261727809906, -0.027569353580474854, -0.09697016328573227, -0.15080109238624573, -0.05447952449321747, -0.09048060327768326, 0.14378638565540314, 0.1665479987859726, 0.04168251156806946, 0.14125026762485504, 0.14973513782024384, -0.1153319776058197, 0.10103793442249298, -0.15088824927806854, 0.08133520185947418, -0.06812667101621628, 0.08628042042255402, -0.0911092609167099, 0.17138265073299408, -0.024649500846862793, 0.014228180050849915, 0.15928517282009125], [0.043410152196884155, 0.15802742540836334, 0.028661921620368958, 0.04114678502082825, -0.09800528734922409, 0.06157970428466797, -0.024547383189201355, -0.16139793395996094, -0.11799317598342896, 0.01629413664340973, 0.13454706966876984, 0.014455363154411316, 0.028105497360229492, -0.10910525172948837, 0.007940888404846191, -0.07819335907697678, -0.15309910476207733, 0.15350879728794098, 0.07783778011798859, 0.09607042372226715, 0.0743032842874527, 0.009219706058502197, 0.008061975240707397, 0.10436837375164032, -0.028470784425735474, -0.04983823001384735, 0.06878773868083954, -0.1296370029449463, -0.15728002786636353, 0.12174807488918304, -0.04011330008506775, 0.13538308441638947, 0.057224079966545105, -0.040750473737716675, 0.11679865419864655, -0.17656397819519043, 0.017749637365341187, 0.1688680499792099, 0.1704862266778946, 0.1038656085729599, -0.03206072747707367, 0.07735447585582733, -0.0626046359539032, 0.092679962515831, 0.011932864785194397, -0.1640024036169052, -0.0946412980556488, 0.014141783118247986, -0.04159936308860779, 0.15408603847026825, 0.12663914263248444, 0.14677105844020844, -0.0324794203042984, -0.07874316722154617, 0.07129274308681488, -0.036631256341934204, -0.04172314703464508, -0.02755741775035858, 0.011113032698631287, -0.07006774097681046, -0.02087406814098358, 0.14746148884296417, -0.06652441620826721, 0.11760522425174713], [0.06154763698577881, -0.06324514001607895, 0.1588238924741745, 0.04258213937282562, -0.16494518518447876, 0.09201963245868683, 0.014683455228805542, 0.13983435928821564, 0.039448097348213196, 0.022297069430351257, -0.15043339133262634, 0.12279357016086578, -0.025954872369766235, 0.1539527028799057, -0.06214940547943115, -0.13560660183429718, -0.029645800590515137, 0.17247556149959564, -0.09582781046628952, -0.07773412764072418, 0.010082408785820007, -0.061395905911922455, -0.12227955460548401, 0.01358194649219513, 0.028790682554244995, 0.000738292932510376, 0.05181500315666199, 0.11166821420192719, -0.09672456979751587, -0.12380994856357574, 0.10861603915691376, 0.15940244495868683, 0.13470105826854706, 0.020503178238868713, 0.14664866030216217, -0.0681193396449089, -0.11884061992168427, 0.05504879355430603, 0.029340818524360657, 0.07762075960636139, -0.03320956230163574, 0.12414513528347015, -0.13216210901737213, -0.08784216642379761, -0.04066652059555054, -0.018088966608047485, 0.03532201051712036, 0.15908943116664886, 0.14162389934062958, -0.01579250395298004, 0.1690339893102646, -0.06779168546199799, -0.023633375763893127, -0.00014072656631469727, -0.141534686088562, 0.06842616200447083, -0.08493803441524506, -0.04857516288757324, 0.11826540529727936, -0.10870034247636795, -0.10667354613542557, 0.10772891342639923, 0.17302508652210236, 0.04252292215824127], [0.024979472160339355, -0.00884072482585907, 0.15028761327266693, -0.11125671863555908, 0.16950909793376923, -0.1302994191646576, 0.10043062269687653, -0.14747469127178192, -0.07539746910333633, 0.14275811612606049, 0.0033391714096069336, 0.09044940769672394, 0.012967735528945923, -0.05668295919895172, 0.1767531782388687, 0.10218040645122528, 0.008012741804122925, -0.11314021795988083, -0.10513421893119812, -0.05019201338291168, 0.1332807093858719, -0.01879994571208954, 0.03948737680912018, 0.13199873268604279, 0.05069957673549652, -0.06483592838048935, -0.03722532093524933, 0.024091854691505432, 0.12788112461566925, 0.08464343845844269, 0.1345117837190628, -0.09836302697658539, -0.012417763471603394, 0.17553184926509857, -0.02649831771850586, -0.02700062096118927, 0.07808880507946014, 0.09474979341030121, 0.008182942867279053, 0.14286167919635773, 0.12303133308887482, -0.04464244842529297, 0.02721843123435974, -0.07286903262138367, -0.059204354882240295, 0.10743425786495209, -0.14283764362335205, 0.14523343741893768, -0.13657057285308838, 0.14391441643238068, -0.04144245386123657, 0.0005481690168380737, -0.164964497089386, -0.05161665380001068, -0.006745681166648865, -0.16572439670562744, -0.06434112787246704, -0.06662830710411072, 0.030347928404808044, 0.16901253163814545, 0.009935185313224792, -0.12021789699792862, -0.088229238986969, 0.10397513210773468], [0.1361684650182724, -0.004806846380233765, -0.17255859076976776, 0.07944650948047638, 0.10932274162769318, 0.17069680988788605, -0.009772047400474548, 0.15869717299938202, -0.17190080881118774, -0.06542952358722687, -0.10114371031522751, -0.0692780390381813, -0.008037954568862915, -0.07284336537122726, 0.013461574912071228, 0.06628498435020447, -0.059102863073349, -0.02478790283203125, -0.06222864240407944, -0.0681191235780716, 0.049039676785469055, 0.03067094087600708, 0.16147153079509735, 0.0006952583789825439, -0.05023449659347534, 0.1588469296693802, -0.012392684817314148, 0.05222146213054657, -0.1313508152961731, -0.09816047549247742, 0.09030763804912567, -0.11077367514371872, 0.06854994595050812, -0.0826314240694046, -0.012253016233444214, 0.1630048006772995, 0.10906319320201874, 0.15183599293231964, -0.0884026363492012, 0.09567756950855255, -0.02536393702030182, 0.11068777740001678, 0.08340831100940704, -0.13117843866348267, -0.03706170618534088, -0.035265907645225525, -0.16304883360862732, -0.13533087074756622, 0.14995945990085602, -0.051629722118377686, -0.14437928795814514, -0.09396926313638687, 0.043638259172439575, 0.06640079617500305, 0.14233221113681793, 0.04853597283363342, -0.16203512251377106, 0.10288853943347931, -0.05807473510503769, -0.029997602105140686, -0.133296400308609, 0.14635737240314484, 0.1757267862558365, 0.17429251968860626], [0.109798863530159, 0.12758533656597137, 0.06817185878753662, -0.012123197317123413, -0.08040530979633331, -0.12564459443092346, -0.013750612735748291, -0.03937721252441406, -0.16212965548038483, 0.12776167690753937, -0.09893669188022614, -0.17627835273742676, 0.03839075565338135, -0.030889049172401428, 0.17233248054981232, -0.046887993812561035, 0.12751127779483795, -0.12083299458026886, -0.10129670053720474, -0.13760237395763397, 0.12077967822551727, 0.11106361448764801, -0.14325013756752014, 0.13292156159877777, -0.06356069445610046, 0.04379832744598389, -0.016344338655471802, -0.03226210176944733, 0.13005869090557098, 0.08571268618106842, -0.003982841968536377, -0.08024890720844269, 0.048790618777275085, 0.032192736864089966, 0.07037630677223206, 0.12221752107143402, -0.014127582311630249, -0.16227872669696808, -0.027291566133499146, -0.16302797198295593, 0.13301695883274078, 0.07811687886714935, -0.07240166515111923, -0.12429404258728027, -0.07394702732563019, -0.04147481918334961, -0.17429065704345703, -0.008557036519050598, -0.11791078001260757, 0.1471966952085495, 0.10265834629535675, 0.11254848539829254, 0.07237237691879272, 0.0010615140199661255, 0.12455315887928009, -0.028604522347450256, -0.02114081382751465, -0.03107967972755432, 0.02318282425403595, -0.020942851901054382, 0.031746476888656616, 0.021823763847351074, -0.01774728298187256, 0.12351275980472565], [0.03719860315322876, 0.00040081143379211426, 0.04778854548931122, -0.0837797150015831, 0.09715382754802704, 0.14907996356487274, 0.04181772470474243, -0.13967561721801758, 0.08777891099452972, -0.07184954732656479, -0.09499359875917435, 0.007522076368331909, -0.11529965698719025, 0.1704144924879074, 0.14489568769931793, -0.0070148855447769165, -0.009297341108322144, -0.07835010439157486, 0.09199340641498566, 0.15685631334781647, 0.10335870087146759, -0.08809399604797363, -0.014809265732765198, 0.08491982519626617, -0.13889101147651672, 0.1429109126329422, 0.03812195360660553, 0.13545937836170197, -0.16271141171455383, -0.030426397919654846, -0.0243566632270813, 0.06756523251533508, 0.13895736634731293, 0.07438884675502777, -0.08258455991744995, 0.04634404182434082, -0.0319252610206604, 0.09701316058635712, 0.0015668123960494995, -0.05564960092306137, -0.0031540989875793457, -0.07666186988353729, 0.026426583528518677, 0.06586650013923645, -0.13901665806770325, 0.0761493593454361, 0.1407855898141861, 0.0672793984413147, -0.07668003439903259, 0.08273328840732574, -0.17169807851314545, 0.02764226496219635, -0.0926576554775238, -0.12235622107982635, 0.03466102480888367, 0.15837882459163666, -0.17157994210720062, -0.09332525730133057, 0.07523255050182343, -0.020117536187171936, 0.14469097554683685, -0.15114891529083252, -0.027018368244171143, 0.10104690492153168], [-0.12895295023918152, -0.08010948449373245, 0.0864185243844986, -0.14576157927513123, -0.09289451688528061, -0.017550498247146606, 0.009815454483032227, 0.01967136561870575, -0.11979204416275024, -0.010877430438995361, 0.12557215988636017, 0.034330084919929504, 0.14499501883983612, -0.08965848386287689, -0.09966785460710526, 0.16753362119197845, -0.07172694057226181, 0.16004647314548492, -0.025360092520713806, -0.11323011666536331, -0.07585277408361435, -0.03577360510826111, -0.14691045880317688, 0.1733233779668808, -0.004428744316101074, 0.006646648049354553, 0.07857654988765717, -0.026233792304992676, 0.09609328210353851, -0.021242976188659668, 0.07671152055263519, 0.061395063996315, 0.04523199796676636, 0.12436644732952118, 0.06159508228302002, 0.1580686718225479, -0.04397934675216675, 0.024111196398735046, 0.01342056691646576, 0.1436912566423416, 0.15932579338550568, 0.0763641744852066, -0.1462552547454834, 0.005349695682525635, -0.028040632605552673, 0.019854962825775146, 0.1387285739183426, -0.06425097584724426, 0.026640981435775757, 0.06068788468837738, -0.14190587401390076, -0.05938343703746796, 0.13567323982715607, 0.012511834502220154, -0.15745703876018524, 0.09933142364025116, 0.1755882054567337, 0.1314561516046524, 0.06705942749977112, -0.02854807674884796, 0.09626205265522003, 0.05048079788684845, -0.0733412504196167, -0.035656869411468506], [-0.12953302264213562, 0.027443379163742065, -0.0769399106502533, -0.13846541941165924, 0.08977003395557404, 0.08122564852237701, -0.08239518851041794, 0.16368167102336884, -0.13781298696994781, -0.13377687335014343, 0.08143360912799835, 0.16008956730365753, 0.12433801591396332, 0.13879193365573883, 0.015150576829910278, -0.14680582284927368, 0.1658458262681961, -0.04411152005195618, 0.08554805815219879, -0.03228473663330078, -0.1252807080745697, -0.00041544437408447266, -0.12952160835266113, 0.09008137881755829, 0.023134738206863403, -0.03905200958251953, 0.018683359026908875, -0.17100965976715088, -0.011041805148124695, 0.10764335095882416, -0.09785722196102142, -0.030060485005378723, 0.08679084479808807, -0.16564473509788513, -0.029422372579574585, -0.16824477910995483, 0.020692676305770874, -0.0342903733253479, 0.13040347397327423, -0.04247488081455231, -0.15013368427753448, 0.042126238346099854, 0.17287318408489227, -0.07604079693555832, 0.13127140700817108, -0.015600278973579407, -0.16327039897441864, 0.09017394483089447, 0.14243201911449432, -0.14739890396595, 0.10896413028240204, 0.09824468195438385, -0.13206428289413452, 0.10695488750934601, -0.12022514641284943, -0.08054018020629883, -0.038995787501335144, 0.15749211609363556, -0.148429736495018, -0.13945527374744415, -0.11282959580421448, 0.11003462970256805, -0.07141538709402084, 0.06466978788375854], [-0.07415720820426941, -0.15608647465705872, 0.09642352163791656, 0.04033191502094269, -0.012511119246482849, 0.10757692158222198, 0.06870496273040771, -0.11091027408838272, 0.10809536278247833, -0.030447348952293396, 0.0787086933851242, 0.0028506070375442505, -0.02448238432407379, -0.0790105015039444, 0.03851640224456787, 0.07266668975353241, 0.16572077572345734, -0.12068492919206619, -0.10042127221822739, 0.1655258983373642, -0.14312335848808289, 0.0038441717624664307, -0.013279631733894348, -0.06110960245132446, -0.15882344543933868, -0.16523073613643646, 0.05560319125652313, 0.10039578378200531, -0.12978261709213257, -0.13978996872901917, 0.16394789516925812, -0.09634120017290115, -0.15091824531555176, 0.08447284996509552, -0.13098204135894775, 0.1692141443490982, 0.04431210458278656, -0.06353144347667694, -0.15169759094715118, 0.07378603518009186, -0.11508399248123169, -0.0467783659696579, -0.02492155134677887, -0.08805496245622635, 0.11180345714092255, -0.019461601972579956, -0.0002796053886413574, -0.024043843150138855, -0.059674039483070374, -0.040945276618003845, 0.07317058742046356, -0.10894070565700531, -0.037848249077796936, 0.053006693720817566, 0.1584130972623825, 0.11831916868686676, 0.06962978839874268, -0.1404184103012085, -0.10072173923254013, -0.14719344675540924, -0.15301068127155304, 0.030596420168876648, 0.09688903391361237, -0.11819300055503845], [0.1626119464635849, -0.02506616711616516, -0.07559914141893387, -0.09764371067285538, 0.0905684381723404, -0.1601385474205017, -0.14411205053329468, -0.10507470369338989, -0.06209924817085266, 0.06116202473640442, -0.010188445448875427, 0.0443393737077713, 0.09069178998470306, 0.05815844237804413, 0.14664320647716522, -0.1033940538764, -0.1087166965007782, -0.1266585737466812, 0.16129623353481293, -0.1691930890083313, 0.14804132282733917, -0.1248173862695694, 0.09335704147815704, 0.08109231293201447, 0.16178323328495026, 0.1680203527212143, 0.016106128692626953, 0.09863938391208649, -0.06964682042598724, 0.16303955018520355, 0.16080893576145172, 0.12648461759090424, -0.09620388597249985, 0.10631914436817169, -0.14419478178024292, 0.04552365839481354, -0.12614087760448456, 0.018326833844184875, -0.10543813556432724, -0.011937379837036133, -0.07525449991226196, 0.15417207777500153, 0.04698614776134491, 0.05993644893169403, -0.06802833825349808, -0.16330361366271973, 0.10918222367763519, 0.16069649159908295, 0.06520445644855499, 0.09006734192371368, 0.04024328291416168, -0.04742738604545593, 0.1494206041097641, -0.054690971970558167, -0.017977192997932434, -0.15553519129753113, -0.010871902108192444, 0.027114495635032654, -0.12590578198432922, -0.104363352060318, -0.17336073517799377, -0.0035512149333953857, -0.11467006802558899, -0.1749946027994156], [-0.05354917049407959, 0.1623440831899643, -0.11405645310878754, 0.11849422752857208, -0.07804901152849197, 0.14148975908756256, -0.09845128655433655, 0.11774365603923798, -0.10607067495584488, -0.11043258011341095, 0.1146506816148758, -0.06947368383407593, 0.09430824220180511, -0.1308872103691101, 0.10312633216381073, 0.0024546384811401367, -0.08826535940170288, -0.1304570585489273, 0.12533845007419586, 0.1588929444551468, -0.03555874526500702, -0.14013317227363586, 0.08181022107601166, -0.013447999954223633, 0.08118562400341034, 0.06718438863754272, 0.02991187572479248, -0.07988256216049194, -0.12421557307243347, -0.17015331983566284, 0.009185820817947388, -0.03163403272628784, -0.11782998591661453, 0.15713082253932953, 0.01206272840499878, 0.10816390812397003, -0.06368675082921982, -0.007771208882331848, 0.11018858850002289, -0.16611425578594208, 0.07934139668941498, -0.05100893974304199, -0.05698785185813904, 0.15770713984966278, -0.037582337856292725, 0.07050742208957672, 0.09782661497592926, 0.1401219218969345, 0.15359444916248322, -0.15791437029838562, -0.0930011048913002, -0.12540394067764282, -0.08249566704034805, -0.05372306704521179, -0.03054305911064148, -0.09512067586183548, 0.13395996391773224, 0.15098653733730316, 0.06302550435066223, 0.13008280098438263, 0.1392071694135666, -0.1293463557958603, 0.1751597672700882, 0.17044295370578766], [-0.115984246134758, -0.1713639795780182, -0.0054422467947006226, 0.15681467950344086, 0.1127377301454544, 0.1176813393831253, 0.08843593299388885, 0.1673717349767685, 0.16313330829143524, 0.1283087581396103, 0.008840054273605347, -0.12002039700746536, 0.10467882454395294, 0.016051799058914185, 0.1570984572172165, -0.13464581966400146, -0.013828545808792114, 0.02601434290409088, 0.13303019106388092, -0.16547417640686035, -0.11218255758285522, -0.060812003910541534, 0.005309537053108215, -0.012173816561698914, 0.08537192642688751, 0.05518202483654022, -0.016372114419937134, 0.044837966561317444, 0.08148078620433807, 0.16039995849132538, 0.14511649310588837, 0.0990762859582901, -0.13738396763801575, -0.11671789735555649, -0.021824434399604797, -0.08848157525062561, 0.08714123070240021, -0.031789422035217285, -0.006343349814414978, -0.07004519551992416, 0.09083797037601471, 0.15800322592258453, -0.04976990818977356, -0.06707767397165298, 0.16022555530071259, 0.10790891945362091, 0.09176929295063019, -0.1215076744556427, 0.10148455202579498, -0.06689804792404175, -0.13822868466377258, -0.05553736537694931, 0.044737741351127625, -0.05424404889345169, -0.16404080390930176, 0.0914822667837143, 0.10725612938404083, -0.05697537213563919, 0.12443284690380096, 0.16957615315914154, -0.040081098675727844, -0.08923347294330597, 0.17493553459644318, 0.1276911348104477], [-0.03608587384223938, 0.11828391253948212, 0.01956072449684143, 0.07791678607463837, 0.09058819711208344, 0.12475807964801788, 0.16260279715061188, -0.015583589673042297, -0.1267823576927185, -0.12064240127801895, -0.1317787766456604, -0.11199074983596802, 0.011280640959739685, 0.14309866726398468, 0.16691480576992035, -0.1417117416858673, -0.0775434598326683, 0.1754431277513504, -0.06247507035732269, -0.16241170465946198, -0.08938587456941605, -0.059280507266521454, 0.15716712176799774, -0.14548298716545105, -0.16767002642154694, -0.03655514121055603, -0.16429056227207184, 0.0971456915140152, 0.04352669417858124, -0.021128550171852112, -0.08027908205986023, 0.07450507581233978, 0.11530180275440216, -0.061870768666267395, -0.10259461402893066, 0.08213283121585846, 0.09145958721637726, -0.03482155501842499, 0.15095795691013336, -0.09494483470916748, -0.11863009631633759, 0.03355023264884949, 0.1072448343038559, -0.04381805658340454, -0.0019950568675994873, 0.15032131969928741, 0.03530809283256531, 0.13137324154376984, 0.025663048028945923, -0.1305929720401764, 0.014597982168197632, -0.08789383620023727, 0.03550121188163757, -0.0798998475074768, 0.03354977071285248, -0.04296432435512543, 0.07684056460857391, 0.11438311636447906, -0.07837952673435211, 0.026145800948143005, -0.08445246517658234, 0.03160764276981354, -0.13322660326957703, -0.12585949897766113], [-0.14508390426635742, -0.036258265376091, 0.04280981421470642, -0.0984426885843277, 0.11097453534603119, -0.035167157649993896, -0.07186779379844666, 0.15846122801303864, 0.11836768686771393, -0.031232967972755432, -0.07684563100337982, -0.11629946529865265, 0.051280245184898376, 0.05381840467453003, -0.12486796081066132, -0.07687555253505707, 0.15396560728549957, -0.04025319218635559, -0.05753689259290695, -0.10178927332162857, -0.07705893367528915, 0.09250907599925995, -0.07281433045864105, -0.03932313621044159, 0.1391775757074356, -0.15832379460334778, -0.03981603682041168, -0.0071977972984313965, -0.06950479000806808, 0.09173612296581268, 0.1632174700498581, -0.16851936280727386, -0.004575550556182861, -0.1739492267370224, 0.05529409646987915, -0.08319058269262314, 0.13207794725894928, 0.07430528104305267, -0.019446685910224915, 0.15464217960834503, -0.15742847323417664, -0.07922153174877167, 0.14248992502689362, -0.06733321398496628, -0.1502576768398285, 0.1111006885766983, -0.06192860007286072, -0.11652225255966187, -0.11387977004051208, -0.13752079010009766, 0.012365296483039856, -0.12708880007266998, -0.05847841501235962, -0.16257649660110474, 0.16437195241451263, -0.14642708003520966, 0.010664418339729309, -0.0880749449133873, -0.13477478921413422, 0.10509787499904633, -0.11794686317443848, 0.008258417248725891, 0.12061838805675507, 0.03434479236602783], [-0.013199970126152039, 0.1482471078634262, 0.018572509288787842, -0.07288172096014023, -0.15922501683235168, 0.1731756180524826, -0.06879428029060364, 0.010689705610275269, -0.15453116595745087, -0.12877050042152405, -0.09629277884960175, -0.14040371775627136, -0.027514055371284485, 0.042408287525177, -0.06051945686340332, 0.03781883418560028, 0.13690932095050812, -0.12552469968795776, 0.020998314023017883, -0.06628746539354324, 0.07076573371887207, 0.06323148310184479, 0.04130643606185913, -0.04824857413768768, -0.0025637447834014893, 0.13240914046764374, -0.11114060878753662, 0.13548420369625092, 0.10912321507930756, -0.00044333934783935547, -0.04237908124923706, -0.008706912398338318, -0.07609137147665024, 0.17070241272449493, 0.06461672484874725, -0.15572118759155273, 0.07623358070850372, -0.15518689155578613, 0.15504316985607147, -0.05771075189113617, -0.09393849223852158, -0.14472629129886627, -0.042582184076309204, -0.14679169654846191, -0.03897660970687866, 0.09609498083591461, -0.13496798276901245, 0.047526806592941284, -0.1176605075597763, -0.1344882696866989, 0.014661237597465515, -0.049002036452293396, -0.040763676166534424, -0.03436088562011719, -0.021219417452812195, 0.008062273263931274, 0.13383932411670685, 0.08077137172222137, -0.1291218400001526, -0.0793011486530304, 0.010611653327941895, -0.16482599079608917, 0.05048172175884247, 0.08598701655864716], [0.005744069814682007, -0.02444736659526825, -0.12039677053689957, -0.05511433631181717, -0.08284725993871689, -0.14693908393383026, 0.10364504158496857, -0.011023387312889099, -0.007217273116111755, 0.07015587389469147, -0.10145285725593567, -0.07706951349973679, 0.12574146687984467, 0.1407797783613205, -0.12966173887252808, 0.07822690904140472, -0.09120897948741913, -0.15176169574260712, -0.10755807906389236, 0.008624553680419922, 0.13726891577243805, 0.11070515215396881, 0.009181052446365356, 0.13609717786312103, 0.013337671756744385, -0.082022525370121, 0.14381043612957, -0.012389451265335083, 0.11862330138683319, -0.14768823981285095, -0.13734014332294464, 0.10935245454311371, 0.16670896112918854, -0.05033724009990692, -0.1633593738079071, -0.14239582419395447, 0.059117063879966736, -0.060690030455589294, 0.018548741936683655, -0.09453491866588593, -0.14745411276817322, 0.07448439300060272, 0.10319875180721283, -0.12798745930194855, 0.11276896297931671, 0.11125938594341278, 0.146776482462883, 0.09204621613025665, 0.03129968047142029, 0.11907629668712616, 0.02520078420639038, 0.04036867618560791, -0.12254945933818817, 0.03245800733566284, 0.07945360243320465, -0.15676431357860565, 0.17458905279636383, -0.16280332207679749, -0.07927392423152924, 0.030455440282821655, 0.08428783714771271, -0.0647970661520958, 0.12708814442157745, 0.04045426845550537], [0.1762341409921646, -0.1281905621290207, -0.10503677278757095, -0.15668365359306335, -0.0454159677028656, -0.03956097364425659, -0.10543510317802429, -0.07522217929363251, -0.15475471317768097, 0.1512683779001236, 0.08028821647167206, 0.007763534784317017, -0.10354629158973694, 0.0017020106315612793, 0.16821227967739105, 0.0841788798570633, -0.14726442098617554, -0.02835269272327423, 0.1544150859117508, 0.0011146515607833862, 0.062466055154800415, 0.17509298026561737, 0.12401385605335236, 0.14593113958835602, -0.02106107771396637, 0.1453147977590561, -0.07567251473665237, -0.1377558410167694, -0.14663469791412354, -0.12341996282339096, 0.05211436748504639, 0.16630391776561737, 0.1386810690164566, 0.13045726716518402, 0.07910309731960297, -0.0285952091217041, 0.13356442749500275, -0.042024120688438416, -0.1529742181301117, 0.013839974999427795, -0.03479272127151489, -0.16254593431949615, -0.09280179440975189, 0.13950003683567047, 0.11206527054309845, 0.1339542716741562, 0.024473324418067932, 0.11385868489742279, -0.07485545426607132, 0.05709114670753479, 0.125508114695549, -0.1349288821220398, 0.1403149515390396, 0.0920649915933609, 0.07428120076656342, 0.05068609118461609, 0.07997621595859528, 0.013810306787490845, -0.1579754501581192, 0.13045494258403778, -0.0961950346827507, -0.10132371634244919, -0.15576210618019104, 0.16543997824192047], [-0.0653252974152565, 0.1603812426328659, -0.04673402011394501, 0.023261308670043945, 0.006163805723190308, 0.12208844721317291, -0.05721051245927811, 0.014822125434875488, -0.12010473012924194, 0.13890333473682404, -0.022900328040122986, -0.1540382206439972, -0.1712321937084198, -0.09488195180892944, 0.08511514961719513, 0.019039884209632874, 0.12812493741512299, -0.09142410010099411, -0.10603489726781845, 0.026206359267234802, -0.10627622902393341, -0.10824958235025406, -0.16735059022903442, 0.05964857339859009, 0.12449710071086884, 0.03690221905708313, -0.14006231725215912, 0.018914952874183655, 0.12278924882411957, -0.0803566724061966, -0.139053076505661, 0.15408246219158173, -0.04106907546520233, -0.1482848823070526, 0.0643141120672226, 0.06651593744754791, 0.007009401917457581, 0.16500599682331085, -0.15346644818782806, -0.011194869875907898, -0.07417803257703781, -0.09596908837556839, -0.10165099054574966, -0.037955135107040405, -0.06121416389942169, 0.02827104926109314, -0.0018916726112365723, 0.03522966802120209, -0.13028348982334137, -0.13648401200771332, -0.01678675413131714, 0.05416536331176758, -0.15218354761600494, 0.13572899997234344, 0.16409577429294586, 0.07803906500339508, -0.037346065044403076, 0.15649710595607758, 0.13357321918010712, -0.06662013381719589, 0.04372099041938782, 0.15368635952472687, -0.02228674292564392, 0.06723593175411224], [0.1578359454870224, 0.11226041615009308, -0.06704775243997574, -0.12794838845729828, 0.08976976573467255, 0.04023224115371704, -0.10206369310617447, -0.029958948493003845, -0.04412299394607544, -0.07255187630653381, -0.00373290479183197, 0.01589888334274292, 0.03492920100688934, 0.12820257246494293, 0.043953388929367065, 0.02730897068977356, 0.07221917808055878, 0.019162356853485107, 0.025624141097068787, -0.09261748939752579, 0.13335324823856354, 0.03823237121105194, 0.0744820386171341, 0.03404103219509125, -0.11447496712207794, 0.06713579595088959, 0.05124896764755249, 0.17089654505252838, -0.17410790920257568, -0.16477584838867188, 0.0862981528043747, 0.15753118693828583, -0.17215098440647125, 0.052547797560691833, 0.04805397987365723, -0.04201231896877289, -0.10529007762670517, 0.06566955149173737, -0.07735543698072433, -0.10735400766134262, 0.059453606605529785, 0.09911729395389557, 0.11153249442577362, 0.08142028748989105, -0.14783790707588196, 0.07157200574874878, 0.1752171665430069, 0.07033774256706238, 0.006764605641365051, -0.07638340443372726, -0.09948126971721649, -0.10723894834518433, 0.07724978029727936, -0.151868999004364, 0.11439143121242523, 0.1293625384569168, 0.0720100849866867, -0.0480918288230896, -0.04290477931499481, 0.044465646147727966, -0.06480646878480911, -0.002417460083961487, -0.14448466897010803, -0.008512571454048157], [0.14040865004062653, -0.11068832874298096, 0.14932142198085785, 0.040975287556648254, 0.1425098329782486, 0.149413600564003, 0.13412775099277496, -0.09183954447507858, 0.07070647180080414, -0.01478932797908783, 0.11231161653995514, -0.02573634684085846, 0.09735529124736786, -0.10382913798093796, 0.03223209083080292, -0.041184037923812866, -0.12894372642040253, -0.11668780446052551, 0.005728214979171753, -0.16873520612716675, -0.037587568163871765, 0.16616939008235931, -0.011094778776168823, 0.047364622354507446, 0.12336994707584381, 0.06709790229797363, -0.09232384711503983, 0.12899746000766754, -0.1596512496471405, -0.16011250019073486, -0.02500741183757782, 0.11436037719249725, 0.10553137958049774, 0.010497435927391052, -0.07044365257024765, -0.05255686491727829, 0.13279728591442108, -0.10817359387874603, -0.07849812507629395, -0.03302323818206787, 0.10149572789669037, -0.0444100946187973, 0.10032446682453156, 0.06225737929344177, -0.026751026511192322, 0.14661656320095062, -0.009731531143188477, 0.11155344545841217, 0.04152800142765045, -0.04428905248641968, 0.03882807493209839, 0.07682271301746368, 0.13005127012729645, -0.015668094158172607, 0.0873209685087204, 0.12177447974681854, -0.02196575701236725, 0.0874381810426712, -0.04962298274040222, 0.12843351066112518, -0.16657762229442596, -0.030176475644111633, -0.1417408138513565, 0.1642785519361496], [-0.14193102717399597, 0.1146225780248642, -0.10461483895778656, 0.1699458807706833, 0.15245188772678375, -0.17025956511497498, -0.1758865863084793, 0.14400072395801544, 0.10895462334156036, -0.012500330805778503, 0.09967385232448578, -0.08754149079322815, -0.13373549282550812, -0.047211840748786926, 