{"id": "45353d95-1e31-43c2-ba4f-83930bac9a57", "population_size": 10, "crossover_prob": 0.5, "mutation_prob": 0.005, "fitness_rounds": 100, "tournament_size": 5, "generational_best_individuals": [{"non_splittable_weights": [[[-0.06616060435771942, -0.16057273745536804, 0.10812030732631683, 0.07651974260807037, -0.1325780153274536, -0.028627589344978333, -0.050408780574798584, -0.16463598608970642, 0.19502536952495575, -0.10915040969848633, -0.05775603652000427, -0.179215669631958, -0.1914241909980774, -0.09042109549045563, -0.056411683559417725, 0.21335209906101227, 0.1578335016965866, -0.18039795756340027, 0.18870733678340912, 0.09309835731983185, 0.02993825078010559, 0.06108646094799042, -0.03336919844150543, 0.1961713582277298, 0.12219588458538055, -0.1776760071516037, 0.012869685888290405, 0.03638271987438202, 0.1088668555021286, 0.10242371261119843, 0.15785543620586395, -0.20600922405719757, -0.08218857645988464, -0.015881940722465515, 0.1693250685930252, -0.08058598637580872, 0.048676714301109314, 0.1412641555070877, 0.0805494636297226, -0.1837528944015503, -0.04488883912563324, -0.1402352899312973, 0.21197925508022308, 0.007643088698387146, 0.007969692349433899, 0.13883890211582184, 0.07184143364429474, 0.16467221081256866, 0.16442851722240448, -0.18000900745391846, 0.03644736111164093, 0.12058155238628387, -0.02278934419155121, -0.1368476152420044, 0.03541933000087738, -0.04583299160003662, 0.021954789757728577, -0.19719262421131134, -0.05112466216087341, -0.013694047927856445, 0.20512868463993073, -0.12151531130075455, -0.027448102831840515, -0.19297289848327637, 0.14630819857120514, 0.073319211602211, -0.06747189164161682, 0.1526138037443161, -0.07633961737155914, -0.18162955343723297, -0.17227724194526672, 0.08795656263828278, 0.21041090786457062, -0.1655811220407486, 0.06216640770435333, 0.06629346311092377, -0.08774030208587646, -0.08358757197856903, -0.019819051027297974, -0.12421589344739914, 0.11421246826648712, 0.12712500989437103, 0.15558655560016632, 0.15393473207950592, -0.16395771503448486, 0.18858195841312408, -0.07627817988395691, 0.004382863640785217, 0.16112948954105377, 0.02600593864917755, -0.19674932956695557, 0.018702521920204163, -0.09805907309055328, -0.18147030472755432, 0.11590422689914703, -0.020261377096176147, 0.11908327043056488, -0.10654876381158829, -0.023310154676437378, 0.08771856129169464, 0.07223229110240936, -0.06679168343544006, 0.13755975663661957, 0.009652748703956604, -0.16138598322868347, -0.09708787500858307, -0.1670743077993393, -0.03481315076351166, -0.14459575712680817, 0.19628919661045074, 0.20766039192676544, -0.10018721222877502, -0.11446559429168701, -0.06612993776798248, -0.15531200170516968, 0.1530553251504898, -0.1272880882024765, -0.12610891461372375, -0.10745827853679657, 0.11944125592708588, -0.0792650580406189, 0.04162846505641937, -0.0026798099279403687, -0.01921047270298004, 0.18240784108638763, 0.14560584723949432, 0.11888335645198822, -0.20138736069202423], [-0.1770624816417694, -0.12599144876003265, -0.039034515619277954, 0.009774327278137207, -0.07510972023010254, -0.06899303197860718, -0.14609098434448242, 0.08545981347560883, 0.0026338398456573486, -0.03566066920757294, -0.08157429099082947, 0.07621230185031891, 0.06531451642513275, -0.13862566649913788, 0.12486256659030914, -0.02122095227241516, -0.02772088348865509, 0.1341085582971573, -0.12398102879524231, 0.09603054821491241, 0.17627768218517303, 0.06790994107723236, -0.10216023027896881, 0.1257072538137436, -0.08476725220680237, -0.12306896597146988, -0.16592809557914734, 0.10635311901569366, -0.06163538992404938, -0.032809674739837646, 0.18473516404628754, -0.14047454297542572, 0.18819625675678253, -0.08682003617286682, -0.03115442395210266, 0.06640191376209259, -0.031056106090545654, 0.06040160357952118, -0.16329368948936462, 0.012921229004859924, 0.1583164781332016, -0.09565959125757217, -0.14864665269851685, -0.1285962164402008, 0.009889602661132812, -0.18226827681064606, 0.03288227319717407, 0.14239920675754547, -0.0562920868396759, 0.08446519076824188, 0.007465720176696777, -0.002586647868156433, -0.0816323459148407, 0.11496098339557648, -0.17058005928993225, 0.21342192590236664, 0.010795995593070984, 0.1943470984697342, -0.187090203166008, 0.13904456794261932, -0.18161587417125702, -0.15489166975021362, -0.01776862144470215, 0.06988285481929779, 0.007475927472114563, 0.14117489755153656, -0.16523919999599457, -0.06039854884147644, -0.21039484441280365, -0.09188728779554367, -0.0642915666103363, 0.1537480503320694, 0.1531829982995987, -0.06678122282028198, 0.027483001351356506, 0.0010829418897628784, 0.18754856288433075, 0.153678759932518, 0.18309272825717926, -0.07647937536239624, -0.08862344920635223, 0.09509195387363434, -0.1918850988149643, -0.07645601034164429, 0.15413783490657806, 0.00679372251033783, -0.050893113017082214, -0.11196646094322205, 0.1991061419248581, -0.06705568730831146, -0.21283724904060364, 0.051870331168174744, -0.11509574949741364, 0.1811271458864212, -0.03566904366016388, -0.0018822550773620605, -0.012981593608856201, 0.1810421496629715, -0.07556736469268799, -0.15221720933914185, 0.059367790818214417, -0.2025601714849472, -0.14943380653858185, -0.017107948660850525, 0.2125350683927536, 0.020937561988830566, 0.17721234261989594, 0.12808458507061005, -0.18095341324806213, -0.10828211903572083, 0.03782595694065094, -0.07015609741210938, 0.1573365181684494, 0.17043010890483856, 0.0663883239030838, -0.039599716663360596, 0.010614052414894104, -0.007151156663894653, 0.11620242893695831, -0.17932191491127014, 0.13996057212352753, -0.012614831328392029, -0.09961313754320145, 0.12791083753108978, -0.08974843472242355, -0.011393338441848755, -0.014420643448829651, -0.09862764179706573], [0.18379564583301544, -0.18405908346176147, -0.05133625864982605, -0.15781919658184052, -0.18415379524230957, 0.05853338539600372, -0.16393598914146423, 0.1836385279893875, 0.10998477041721344, -0.07061265408992767, 0.1421975940465927, -0.15809601545333862, 0.07881896197795868, 0.06458671391010284, 0.020028457045555115, -0.06576578319072723, 0.13647620379924774, -0.013216003775596619, -0.14886248111724854, 0.03605102002620697, -0.06601467728614807, 0.17625610530376434, 0.14614520967006683, 0.21019203960895538, 0.10847245156764984, 0.07847703993320465, -0.17183496057987213, -0.2036658674478531, -0.15997953712940216, -0.0742613822221756, 0.014640510082244873, -0.1567026823759079, -0.15281301736831665, -0.10229606181383133, -0.0979195237159729, 0.1400153785943985, 0.20760144293308258, 0.016355544328689575, 0.10389359295368195, -0.18906113505363464, -0.014650866389274597, 0.05411134660243988, -0.013140887022018433, -0.12444014847278595, 0.16522271931171417, -0.10013893991708755, 0.06433816254138947, 0.1497489959001541, -0.07899054884910583, 0.1858510822057724, -0.11520621925592422, -0.09808081388473511, -0.10288514196872711, 0.17250220477581024, -0.05455780029296875, -0.09015484899282455, 0.08615599572658539, 0.07247848808765411, 0.11222417652606964, -0.012828826904296875, 0.08852972090244293, -0.05515274405479431, -0.05979533493518829, -0.19068995118141174, 0.03988756239414215, -0.18384411931037903, -0.04651688039302826, -0.10661841183900833, 0.13197042047977448, -0.09802693128585815, -0.1366175413131714, -0.08651465177536011, -0.12539824843406677, 0.19397328794002533, -0.07162116467952728, 0.19613702595233917, -0.027757465839385986, 0.02126125991344452, 0.128683403134346, -0.14300429821014404, -0.010338619351387024, -0.18335412442684174, -0.1642407476902008, 0.042643651366233826, 0.04026167094707489, -0.1704808622598648, -0.07491302490234375, -0.1951182782649994, 0.1876949518918991, 0.0116443932056427, 0.07370786368846893, -0.15996503829956055, 0.11712504923343658, -0.19975075125694275, -0.03186723589897156, 0.2022734135389328, -0.0470132976770401, -0.0011924505233764648, 0.04895107448101044, 0.01117001473903656, 0.024315088987350464, 0.1765039712190628, 0.12538067996501923, 0.17505450546741486, 0.16135986149311066, -0.14287489652633667, 0.024188905954360962, 0.12568525969982147, -0.04229249060153961, 0.06664140522480011, -0.1674986332654953, 0.13319818675518036, -0.09108538180589676, 0.11840192973613739, -0.0500844269990921, 0.06141240894794464, -0.16439780592918396, 0.17457063496112823, 0.023797139525413513, -0.20891273021697998, -0.1502930223941803, 0.025579318404197693, -0.09026980400085449, 0.00652100145816803, 0.014619380235671997, -0.14801353216171265, -0.1177658662199974, -0.13812026381492615]], [[0.08040215075016022, -0.06695376336574554, -0.16524556279182434, 0.08888010680675507, 0.025669455528259277, -0.036797866225242615, -0.04272083938121796, 0.17106570303440094, 0.12361456453800201, -0.10780809819698334, -0.02719305455684662, 0.10979945957660675, -0.018320932984352112, 0.013175562024116516, -0.02074122428894043, 0.10223303735256195, 0.07442443072795868, 0.03182832896709442, -0.07583996653556824, 0.028190210461616516, 0.0729241669178009, -0.03921811282634735, -0.1318698525428772, -0.05894067883491516, -0.16602250933647156, -0.11254674941301346, -0.02141687273979187, -0.015660002827644348, -0.15591910481452942, -0.0519770085811615, 0.048943743109703064, 0.11656616628170013, -0.09418294578790665, 0.17002923786640167, -0.16002029180526733, -0.15001432597637177, -0.08748357743024826, 0.05284258723258972, 0.0511583536863327, -0.0280686616897583, -0.12092979997396469, 0.15942390263080597, 0.11979968845844269, 0.02855764329433441, -0.10244309902191162, 0.14817117154598236, -0.10666123777627945, -0.08352615684270859, -0.027949854731559753, -0.06666450947523117, 0.11973313987255096, 0.06016513705253601, -0.10757789015769958, 0.047756388783454895, -0.03668031096458435, 0.1037265807390213, -0.014237746596336365, 0.06734113395214081, 0.05515260994434357, 0.07045044004917145, -0.16803349554538727, -0.07372608780860901, 0.10911934077739716, -0.11873610317707062], [-0.019338443875312805, 0.06316699087619781, 0.06892417371273041, 0.09650717675685883, 0.066932812333107, -0.049949705600738525, -0.07833252847194672, 0.08268584311008453, -0.1654527634382248, -0.08834126591682434, 0.009450122714042664, -0.0874413475394249, -0.12751980125904083, 0.0026115477085113525, 0.0015121400356292725, -0.00545114278793335, 0.12354527413845062, -0.08558966964483261, -0.1404610276222229, 0.04035687446594238, 0.11690466105937958, 0.14994575083255768, -0.04350617527961731, 0.0808631032705307, -0.11227751523256302, 0.07603545486927032, -0.06478746235370636, 0.05522923171520233, 0.12794338166713715, -0.08020009845495224, -0.09891431033611298, -0.13300815224647522, -0.057523153722286224, -0.13581708073616028, 0.11299030482769012, -0.11616058647632599, -0.07136814296245575, -0.018026411533355713, -0.07620027661323547, -0.16324469447135925, 0.09186123311519623, -0.014827638864517212, -0.06517045199871063, 0.10437266528606415, -0.14165109395980835, -0.17609897255897522, 0.14491792023181915, 0.13413234055042267, -0.1623266041278839, 0.11978168785572052, -0.15892572700977325, 0.1420067995786667, 0.020699501037597656, -0.04639542102813721, -0.12867163121700287, 0.04013805091381073, -0.1203794926404953, -0.10424959659576416, -0.08048918098211288, 0.1027085930109024, -0.095489501953125, 0.02445061504840851, -0.1361371874809265, 0.0737604945898056], [-0.0387902706861496, 0.14712511003017426, 0.0875449925661087, 0.1091964989900589, -0.09683124721050262, -0.16664619743824005, -0.07802177965641022, 0.16786731779575348, 0.12062962353229523, 0.15294070541858673, -0.15781967341899872, 0.16595248878002167, -0.025267496705055237, -0.07474275678396225, -0.0752827450633049, 0.019784152507781982, 0.13108231127262115, -0.039037466049194336, -0.08664245158433914, 0.14688526093959808, -0.031621307134628296, 0.06080576777458191, -0.08888567984104156, -0.027210131287574768, -0.11557875573635101, -0.13845539093017578, -0.0966576412320137, -0.1743462085723877, -0.14790090918540955, -0.06510040163993835, -0.1756441295146942, 0.08678989112377167, -0.1464276760816574, -0.07772219926118851, -0.01311977207660675, 0.05770540237426758, 0.0004214644432067871, 0.041446536779403687, -0.13950644433498383, 0.014703601598739624, 0.1453663855791092, -0.025000199675559998, 0.09310798346996307, 0.1578153818845749, -0.07304154336452484, -0.011336997151374817, -0.03142364323139191, -0.10149900615215302, -0.09355542063713074, 0.012651726603507996, 0.030255287885665894, 0.146436408162117, 0.059891343116760254, 0.12965916097164154, 0.11043743789196014, -0.07902993261814117, 0.05276945233345032, 0.11821229755878448, 0.0146055668592453, -0.0908866822719574, -0.16910167038440704, 0.1109527200460434, 0.1440720111131668, -0.09285949170589447], [0.1119183748960495, 0.14551933109760284, -0.14020363986492157, -0.037227123975753784, 0.15587632358074188, -0.07522508502006531, -0.08130135387182236, 0.10488231480121613, 0.08072207868099213, -0.006086260080337524, 0.1252647191286087, -0.14067935943603516, -0.019187897443771362, 0.008967205882072449, -0.12193980813026428, -0.12406206876039505, -0.05573170632123947, -0.01697351038455963, -0.06185610592365265, -0.09853566437959671, 0.0726950466632843, 0.14277835190296173, -0.14669543504714966, 0.041359126567840576, 0.13421086966991425, -0.17265017330646515, -0.009745404124259949, -0.17145366966724396, -0.011946812272071838, -0.014249846339225769, 0.08857901394367218, 0.1707022339105606, 0.1451592594385147, 0.13106949627399445, 0.1691323071718216, -0.05397818237543106, 0.15264926850795746, -0.0451013445854187, 0.12348772585391998, 0.027555391192436218, -0.010306507349014282, 0.006658405065536499, -0.10797234624624252, -0.05178667604923248, -0.007198885083198547, -0.1425122320652008, 0.13423369824886322, 0.05346293747425079, -0.1438591182231903, -0.08474909514188766, -0.003701925277709961, 0.10785727202892303, 0.09827198088169098, -0.17115898430347443, -0.0160873681306839, 0.07636506855487823, -0.09060703963041306, -0.14406046271324158, -0.07726933062076569, -0.022757574915885925, 0.17544783651828766, 0.1581893116235733, -0.010917291045188904, -0.038868874311447144], [0.03889720141887665, 0.06660677492618561, 0.1145457774400711, 0.12952952086925507, 0.09189741313457489, -0.006554514169692993, 0.1598757654428482, 0.03997670114040375, 0.03625725209712982, -0.14977353811264038, 0.08362086117267609, 0.12094481289386749, 0.16049642860889435, 0.07946266233921051, -0.02827155590057373, 0.03232760727405548, -0.05404043197631836, -0.04689262807369232, 0.12905995547771454, 0.16162098944187164, -0.12088184058666229, -0.14143390953540802, 0.017605364322662354, -0.12960666418075562, 0.16233114898204803, 0.15278880298137665, -0.0911884531378746, 0.0674961507320404, 0.040421441197395325, 0.046247318387031555, 0.13325704634189606, -0.1630559116601944, 0.14697407186031342, 0.011012673377990723, -0.03560253977775574, 0.1545015424489975, 0.09424953162670135, 0.1456378549337387, -0.13095910847187042, -0.14537476003170013, 0.06194436550140381, 0.027150198817253113, 0.02516794204711914, -0.16464821994304657, -0.155412495136261, 0.14216391742229462, 0.04454289376735687, 0.08722461760044098, 0.05758360028266907, -0.009140938520431519, 0.13108764588832855, 0.071213498711586, -0.14081446826457977, -0.1753849983215332, -0.10983181744813919, 0.055348753929138184, -0.05418773740530014, 0.010072886943817139, 0.17143084108829498, 0.1485169380903244, -0.11863359808921814, 0.02677758038043976, 0.16168849170207977, -0.006158113479614258], [-0.046760156750679016, -0.1518971174955368, -0.06857077032327652, -0.0759933814406395, 0.060416072607040405, 0.14960356056690216, 0.17486660182476044, -0.022204145789146423, 0.03961263597011566, 0.08009321987628937, -0.13757678866386414, 0.11314435303211212, -0.10809873789548874, 0.012779772281646729, -0.1639445424079895, 0.17049314081668854, 0.16418223083019257, 0.016422435641288757, 0.03818871080875397, -0.1524980068206787, 0.060402289032936096, 0.15716521441936493, 0.10636468231678009, 0.08202458918094635, -0.10112377256155014, 0.11698274314403534, 0.0455927699804306, -0.0037184953689575195, 0.121860072016716, 0.060087963938713074, -0.03828902542591095, -0.08641882240772247, -0.1731593906879425, -0.030750304460525513, -0.17128627002239227, 0.03093641996383667, -0.06070385128259659, -0.03990766406059265, -0.08646337687969208, -0.018055379390716553, 0.1642720252275467, -0.09934020787477493, 0.14338822662830353, 0.027211487293243408, -0.09401056915521622, 0.11421363055706024, 0.10589854419231415, 0.129776731133461, -0.1371299922466278, 0.08735989034175873, -0.0755649134516716, -0.051719531416893005, 0.034014955163002014, -0.14549335837364197, -0.0300905704498291, 0.03836728632450104, -0.008517757058143616, 0.06707940995693207, 0.15049298107624054, 0.024333268404006958, 0.001934155821800232, 0.10434268414974213, 0.017438679933547974, 0.11039648950099945], [0.06007012724876404, 0.05707041919231415, 0.1533471792936325, 0.12260143458843231, 0.06682614982128143, 0.11706088483333588, -0.09491533041000366, 0.015573129057884216, 0.04316069185733795, -0.011208370327949524, -0.013819441199302673, -0.038694560527801514, -0.0874108374118805, -0.11532174050807953, -0.10803775489330292, 0.14684589207172394, 0.045486316084861755, 0.07760249078273773, 0.09157060086727142, 0.008537441492080688, 0.12142308056354523, 0.04591532051563263, 0.025565773248672485, -0.0766633003950119, -0.08249642699956894, 0.0638435035943985, 0.02222643792629242, -0.17563574016094208, 0.15557654201984406, 0.04737183451652527, -0.1576678603887558, -0.16374075412750244, 0.1400396078824997, -0.005049407482147217, -0.04730452597141266, 0.13376112282276154, 0.09945820271968842, -0.03936693072319031, 0.08385364711284637, 0.01912948489189148, -0.11275563389062881, 0.04063579440116882, -0.10541225969791412, 0.1612621396780014, -0.05316673219203949, -0.06879701465368271, 0.07668967545032501, 0.11227495968341827, -0.05353711545467377, 0.11482419073581696, -0.027458161115646362, 0.002995416522026062, 0.07931770384311676, -0.15523779392242432, 0.04250812530517578, 0.09966625273227692, 0.0927579253911972, 0.15295638144016266, 0.03062528371810913, -0.12796127796173096, -0.09399973601102829, 0.12029655277729034, -0.11527761816978455, -0.09973292797803879], [0.053575560450553894, 0.11240185797214508, -0.10374458879232407, -0.09864204376935959, -0.08546647429466248, -0.12756122648715973, 0.11028008162975311, -0.16584843397140503, 0.02817520499229431, 0.030188947916030884, -0.08666791021823883, 0.0252094566822052, -0.14326602220535278, 0.006610274314880371, -0.15798965096473694, 0.08720739185810089, -0.03944194316864014, 0.021910041570663452, -0.09506011009216309, -0.15574322640895844, 0.10355471074581146, -0.09748431295156479, -0.020148590207099915, -0.11931249499320984, 0.0740228146314621, 0.04950155317783356, -0.1140463799238205, -0.09202460944652557, 0.13708509504795074, 0.1304955631494522, 0.08719475567340851, 0.014692187309265137, 0.07864327728748322, -0.047519221901893616, 0.09055827558040619, 0.13647080957889557, 0.08140198886394501, 0.14055214822292328, -0.06840012222528458, 0.0010738968849182129, -0.0864446610212326, 0.03577263653278351, 0.08093805611133575, -0.1535511612892151, 0.10058803856372833, 0.15746508538722992, 0.12180034816265106, -0.1599676012992859, -0.06524842232465744, 0.16462738811969757, 0.12251658737659454, -0.1076468825340271, 0.14150331914424896, 0.021161764860153198, 0.16287226974964142, 0.07102169096469879, -0.04414533078670502, 0.01842828094959259, -0.13250824809074402, -0.12578386068344116, -0.11729320138692856, 0.11343701183795929, 0.1699851006269455, -0.13085032999515533], [0.019813746213912964, 0.1113068014383316, 0.16882182657718658, 0.05311127007007599, 0.17349286377429962, -0.14022496342658997, 0.04129160940647125, 0.05418179929256439, 0.095899298787117, 0.07366089522838593, 0.174552783370018, -0.14498287439346313, 0.010150939226150513, 0.11749501526355743, 0.1715141087770462, -0.06198751926422119, 0.11473537981510162, -0.13906297087669373, -0.1321563720703125, -0.17591828107833862, -0.017851755023002625, -0.08637507259845734, 0.15859420597553253, 0.15782438218593597, 0.04831157624721527, 0.1162015050649643, -0.07007140666246414, -0.07204868644475937, -0.13672715425491333, -0.10142891854047775, 0.03898988664150238, 0.0959724634885788, 0.07540388405323029, -0.14909173548221588, -0.12332762032747269, -0.15317997336387634, -0.08488606661558151, 0.15131263434886932, 0.15984515845775604, -0.016802266240119934, 0.015758663415908813, -0.09250811487436295, 0.10268987715244293, -0.09013714641332626, -0.08253494650125504, -0.15624156594276428, -0.11546048521995544, -0.03970663249492645, -0.07047761976718903, 0.016034096479415894, 0.06914389133453369, -0.01213209331035614, 0.11488939821720123, -0.10210684686899185, 0.0799499899148941, -0.02868252992630005, -0.05116766691207886, -0.07610739022493362, -0.017028629779815674, -0.03264071047306061, 0.05061700940132141, 0.10176275670528412, 0.10047660768032074, 0.1138310581445694], [0.15957526862621307, -0.14299772679805756, 0.11759723722934723, -0.08228877186775208, -0.09264770895242691, -0.1472824513912201, -0.09341797977685928, 0.09305109083652496, 0.03588804602622986, 0.11745412647724152, 0.13845445215702057, 0.10657437145709991, -0.05400460958480835, -0.03194966912269592, 0.04649096727371216, 0.007267385721206665, -0.047479480504989624, -0.14715386927127838, -0.04491424560546875, 0.00759086012840271, 0.14303214848041534, 0.13519708812236786, -0.1203370913863182, 0.1677141636610031, -0.02122199535369873, 0.14966337382793427, -0.12141862511634827, -0.14960157871246338, 0.14790935814380646, 0.01956924796104431, 0.00656534731388092, 0.17341969907283783, 0.1434357613325119, 0.09898166358470917, -0.14702552556991577, 0.04882724583148956, 0.04566892981529236, 0.0791906863451004, -0.009895369410514832, -0.012438163161277771, 0.07158371806144714, 0.10550136864185333, 0.11210550367832184, 0.1341366320848465, 9.925663471221924e-05, 0.008746817708015442, 0.0737273246049881, 0.06845423579216003, 0.15510015189647675, 0.1330830603837967, 0.022319331765174866, -0.07633940875530243, -0.1515180468559265, -0.07139115780591965, 0.06808578968048096, -0.0556592121720314, -0.09264130145311356, -0.15216436982154846, 0.006646975874900818, -0.038340434432029724, 0.043180450797080994, -0.0468575656414032, -0.1376412808895111, -0.05541602522134781], [-0.15382331609725952, -0.033949196338653564, 0.024515435099601746, 0.07882602512836456, 0.049378231167793274, -0.1732611358165741, 0.06957761943340302, 0.0011760294437408447, -0.1278768628835678, 0.14177529513835907, 0.007102757692337036, -0.06553012877702713, 0.06165134906768799, 0.05995123088359833, 0.025134950876235962, -0.16786722838878632, -0.13046295940876007, -0.16782525181770325, -0.16313131153583527, -0.008159041404724121, 0.13018031418323517, -0.1277931183576584, -0.13676977157592773, -0.16682696342468262, 0.009873747825622559, 0.1415889710187912, -0.06533663719892502, 0.16234083473682404, 0.10201732814311981, 0.1686505824327469, 0.07050161063671112, -0.09905027598142624, -0.1532236933708191, 0.03490728139877319, 0.13114355504512787, -0.04829522967338562, -0.16619497537612915, 0.10734225809574127, -0.05564370006322861, 0.05380871891975403, -0.1403866857290268, -0.1125166192650795, 0.05007180571556091, 0.10274802148342133, -0.05016233026981354, -0.026197299361228943, 0.050345078110694885, 0.11303813755512238, -0.00530637800693512, -0.15903662145137787, 0.00988912582397461, -0.002543017268180847, 0.07546015083789825, -0.010118618607521057, 0.15532837808132172, -0.015746697783470154, 0.14635317027568817, 0.13620691001415253, 0.008561879396438599, -0.09824809432029724, -0.11110001802444458, -0.011587977409362793, 0.12243486940860748, -0.06350143253803253], [0.0937439352273941, 0.07062412798404694, -0.1717035174369812, -0.031921982765197754, 0.1501268893480301, 0.06988786160945892, -0.024472147226333618, -0.1061757504940033, -0.10674106329679489, 0.10662902891635895, -0.118219293653965, 0.12617899477481842, -0.017131641507148743, 0.029529809951782227, -0.06695055961608887, -0.04028168320655823, 0.13591186702251434, 0.09071101248264313, 0.07663337886333466, 0.07565708458423615, -0.010466501116752625, -0.06763473153114319, 0.04732757806777954, -0.15760594606399536, 0.16519413888454437, -0.06532647460699081, 0.01829582452774048, 0.1573391705751419, -0.03446364402770996, 0.14603321254253387, 0.0988941639661789, -0.12593141198158264, -0.0398358553647995, 0.01795460283756256, 0.01766374707221985, -0.10546430945396423, 0.009544402360916138, 0.00571170449256897, -0.12191258370876312, -0.07592379301786423, 0.07508550584316254, -0.05808918923139572, 0.12343193590641022, -0.03883098065853119, 0.16257266700267792, -0.1387227177619934, 0.014664918184280396, 0.05210341513156891, -0.17400313913822174, 0.05301356315612793, -0.09179364144802094, -0.170719176530838, -0.1265481412410736, 0.008127212524414062, 0.17342539131641388, 0.08537669479846954, 0.12161271274089813, -0.014798685908317566, 0.17076297104358673, -0.053721845149993896, 0.067999467253685, -0.14508023858070374, 0.16005803644657135, 0.06991462409496307], [-0.1483815610408783, -0.038080260157585144, -0.035902202129364014, -0.05562347173690796, -0.15781238675117493, 0.15072749555110931, -0.0491052120923996, 0.01440882682800293, -0.11336128413677216, -0.09377555549144745, 0.005753427743911743, 0.17083744704723358, 0.04001180827617645, -0.09077052772045135, 0.07696832716464996, -0.01794545352458954, 0.052303820848464966, 0.10569779574871063, 0.04260127246379852, -0.02414436638355255, -0.1348690688610077, -0.023250609636306763, 0.14065198600292206, -0.1065625324845314, 0.025858059525489807, -0.09090788662433624, -0.1390000581741333, 0.0341256707906723, 0.1417556256055832, 0.048856332898139954, -0.16616058349609375, 0.10954834520816803, 0.13047580420970917, -0.15132036805152893, -0.12502507865428925, -0.13932138681411743, 0.16700570285320282, 0.036474600434303284, 0.14569427073001862, -0.029383137822151184, 0.08322088420391083, 0.02894452214241028, -0.15290404856204987, -0.1441129744052887, -0.07111728191375732, 0.14937467873096466, -0.06626251339912415, -0.029860615730285645, 0.1520165652036667, 0.14966662228107452, -0.024025723338127136, -0.09672339260578156, 0.011337503790855408, -0.14929799735546112, 0.08843187987804413, 0.1494438201189041, -0.034538835287094116, -0.16000330448150635, -0.07065308094024658, 0.16678832471370697, 0.12597431242465973, 0.06114432215690613, -0.01076333224773407, 0.1023857444524765], [-0.07854478061199188, 0.11172442138195038, 0.1104428619146347, 0.08174149692058563, -0.10103863477706909, -0.013287767767906189, -0.160328671336174, 0.09470827877521515, -0.04238826036453247, -0.12080492079257965, -0.14536216855049133, -0.08701642602682114, 0.1466578096151352, -0.056393153965473175, -0.08569119870662689, -0.08519003540277481, -0.06968454271554947, 0.171325221657753, -0.027661234140396118, 0.07231998443603516, 0.16562522947788239, 0.10619963705539703, 0.10950763523578644, 0.07430629432201385, -0.13826724886894226, 0.03887030482292175, -0.16957244277000427, -0.06182985007762909, -0.06641905009746552, -0.06692004948854446, 0.09442134201526642, -0.09889867156744003, -0.06241897493600845, -0.10683543235063553, -0.08664274960756302, 0.10911320149898529, -0.15800811350345612, -0.10480846464633942, 0.13844354450702667, -0.14693403244018555, -0.05692235380411148, -0.009021908044815063, 0.16579516232013702, -0.10691113024950027, -0.17568188905715942, -0.00274600088596344, -0.1410791575908661, -0.14648406207561493, 0.020461663603782654, -0.1394708752632141, -0.14074395596981049, -0.08603587746620178, 0.1731024533510208, -0.07226444035768509, -0.1665472686290741, 0.006464317440986633, 0.02282513678073883, -0.03779025375843048, -0.0431600958108902, 0.0984138697385788, -0.01319420337677002, -0.1168508306145668, -0.02599044144153595, 0.10976745188236237], [-0.16485857963562012, 0.08579017221927643, 0.04336017370223999, -0.10152914375066757, -0.11694169789552689, -0.10491745173931122, -0.02938772737979889, -0.032740265130996704, 0.07497404515743256, -0.1674031913280487, -0.1583479344844818, -0.06452737003564835, -0.16290287673473358, 0.0755399614572525, 0.08049069344997406, 0.16470207273960114, 0.11886708438396454, 0.1508457511663437, -0.04044799506664276, 0.09618096053600311, 0.057086095213890076, 0.05071476101875305, 0.007849633693695068, -0.09270346909761429, 0.13192088901996613, 0.0658050924539566, -0.029964134097099304, -0.10655928403139114, 0.06674978137016296, -0.14774982631206512, 0.019631966948509216, -0.1347215473651886, 0.03823409974575043, 0.06734417378902435, -0.02321811020374298, 0.1576511412858963, -0.11165197193622589, 0.04867725074291229, -0.14650164544582367, 0.10112296044826508, -0.017711743712425232, -0.0038913339376449585, -0.03180885314941406, 0.09732790291309357, -0.09173016995191574, 0.15074722468852997, -0.04488685727119446, -0.01569586992263794, 0.06289088726043701, 0.12882478535175323, 0.05750440061092377, 0.007870331406593323, -0.021715492010116577, -0.11034761369228363, 0.15352298319339752, -0.0777534767985344, 0.08883289992809296, -0.01770678162574768, 0.09705235064029694, 0.1304640918970108, -0.07145542651414871, 0.11336220800876617, -0.15342995524406433, 0.1730659157037735], [-0.1152641698718071, 0.10849107801914215, 0.02817322313785553, 0.13152940571308136, 0.08953739702701569, 0.09803648293018341, -0.10219257324934006, 0.10563744604587555, -0.09489738196134567, -0.16334815323352814, -0.1703556627035141, -0.022078335285186768, -0.07708784937858582, -0.06801751255989075, 0.1075611561536789, -0.14310085773468018, -0.1400977224111557, -0.1744236797094345, 0.13952068984508514, -0.1755184382200241, -0.16083069145679474, 0.0910567194223404, -0.17359958589076996, -0.005075663328170776, 0.04506252706050873, -0.007554396986961365, 0.13431189954280853, 0.0380675345659256, -0.12505218386650085, 0.11495177447795868, 0.04011709988117218, 0.14961685240268707, -0.0037304162979125977, -0.02084866166114807, 0.16168199479579926, 0.13249342143535614, 0.017562001943588257, 0.12286712229251862, -0.15328289568424225, -0.0886818990111351, -0.14630578458309174, 0.15827937424182892, 0.09149317443370819, 0.09751971065998077, -0.14915812015533447, -0.15328997373580933, -0.020148634910583496, 0.04073408246040344, -0.12000969052314758, -0.1385401487350464, -0.0083036869764328, 0.15280576050281525, 0.1403077393770218, 0.014399006962776184, 0.05687515437602997, -0.08489180356264114, 0.04268637299537659, -0.054614514112472534, 0.054749518632888794, -0.16131465137004852, 0.16608543694019318, 0.04446740448474884, -0.09729030728340149, 0.0267084538936615], [-0.17478516697883606, -0.011409074068069458, 0.08282960951328278, 0.013005882501602173, 0.06679365038871765, -0.025478780269622803, -0.06871390342712402, 0.16787485778331757, 0.03504122793674469, -0.012010753154754639, 0.14312075078487396, -0.07008945196866989, 0.03096891939640045, 0.14762915670871735, 0.017347514629364014, -0.01668611168861389, 0.143228217959404, -0.05803532153367996, 0.11506535112857819, -0.008961901068687439, 0.11379463970661163, -0.03538438677787781, 0.12758256494998932, 0.11412252485752106, 0.09782640635967255, 0.11324672400951385, 0.07776494324207306, 0.03468829393386841, 0.09148471057415009, -0.1435033529996872, -0.1209714412689209, -0.11529215425252914, 0.09506841003894806, -0.024208351969718933, -0.09664832800626755, -0.03392888605594635, -0.09941189736127853, -0.14546474814414978, 0.024484500288963318, -0.05068959295749664, -0.060930728912353516, -0.07319790869951248, 0.09672929346561432, 0.008683562278747559, -0.09122803062200546, 0.010824024677276611, -0.15235760807991028, 0.0017157495021820068, -0.09291643649339676, 0.02249099314212799, 0.13875265419483185, -0.1088070198893547, 0.02414989471435547, 0.04246045649051666, 0.05852174758911133, 0.10665993392467499, 0.13416893780231476, -0.14916107058525085, 0.1554170399904251, 0.06273145973682404, -0.05752795934677124, -0.025214478373527527, -0.1306954026222229, -0.12137621641159058], [-0.08568121492862701, 0.058234721422195435, 0.09234409034252167, -0.0917898491024971, -0.1669318675994873, 0.13536788523197174, 0.1094779223203659, -0.11593316495418549, -0.15397056937217712, -0.11036847531795502, -0.1275949478149414, 0.15189050137996674, 0.11027170717716217, -0.09262444078922272, 0.05278833210468292, -0.0015079230070114136, 0.02841760218143463, 0.03771054744720459, -0.1103672981262207, -0.004716530442237854, -0.17397253215312958, -0.08235898613929749, -0.08817276358604431, 0.03414371609687805, -0.09566639363765717, 0.061664119362831116, -0.0008042901754379272, 0.11029870808124542, -0.08458004146814346, 0.13556306064128876, -0.0022245049476623535, 0.05275651812553406, -0.09586991369724274, -0.17647576332092285, 0.12699423730373383, 0.11467133462429047, -0.1305682361125946, -0.0419570654630661, -0.10874169319868088, -0.04328320920467377, 0.16852430999279022, 0.14919428527355194, 0.02175101637840271, 0.1336730569601059, -0.1323472112417221, 0.002427533268928528, -0.002140432596206665, 0.06036019325256348, 0.12226356565952301, -0.0044975727796554565, 0.013222262263298035, 0.021382153034210205, -0.01350751519203186, 0.11841203272342682, -0.12482956051826477, 0.12401638925075531, -0.13675236701965332, 0.0022635459899902344, -0.015925347805023193, 0.15347732603549957, 0.09873713552951813, -0.024600356817245483, -0.02259029448032379, -0.04177241027355194], [0.12546278536319733, 0.09062062203884125, -0.15311039984226227, 0.1662992686033249, -0.03412841260433197, 0.09964428842067719, 0.13083620369434357, -0.004823744297027588, -0.057526446878910065, 0.11164559423923492, 0.01162034273147583, 0.04438488185405731, -0.06782485544681549, -0.02236771583557129, -0.0443548858165741, 0.06406249105930328, 0.1274622231721878, -0.14857885241508484, -0.0343991219997406, 0.06419411301612854, -0.13659165799617767, 0.14739827811717987, -0.08706839382648468, 0.04279510676860809, 0.05828879773616791, 0.06967106461524963, 0.12150068581104279, -0.09056780487298965, -0.0831863284111023, 0.13430316746234894, 0.10339532792568207, 0.03505969047546387, -0.08808670192956924, -0.17184318602085114, -0.10678216069936752, 0.16012556850910187, 0.17647825181484222, 0.00375385582447052, 0.13303975760936737, 0.001908913254737854, -0.00020685791969299316, -0.0036180466413497925, -0.15806876122951508, -0.016153573989868164, 0.021728932857513428, -0.03927744925022125, -0.16513215005397797, -0.12122082710266113, -0.08755004405975342, 0.16785524785518646, 0.16073016822338104, -0.17095191776752472, -0.11692437529563904, 0.04545073211193085, 0.07424469292163849, 0.1036650687456131, 0.13432414829730988, 0.061588943004608154, -0.03827637434005737, -0.07624377310276031, -0.13536134362220764, 0.14456839859485626, 0.10774321854114532, 0.036201998591423035], [-0.1572822630405426, -0.13341280817985535, -0.08841767907142639, 0.057255104184150696, 0.13365213572978973, -0.11191332340240479, -0.07735514640808105, -0.020779192447662354, -0.13207527995109558, 0.129525825381279, -0.15488789975643158, -0.13363239169120789, -0.01944562792778015, 0.12162177264690399, -0.024757012724876404, 0.023449242115020752, 0.1590910404920578, 0.09599767625331879, 0.17016856372356415, -0.14442624151706696, -0.08709755539894104, 0.028853103518486023, 0.13779760897159576, -0.056216686964035034, 0.13156147301197052, 0.15792150795459747, 0.12302975356578827, -0.11668847501277924, -0.16907115280628204, -0.16755656898021698, 0.09682925045490265, 0.13481725752353668, 0.1608094424009323, -0.1332303136587143, 0.16773127019405365, -0.05810971558094025, 0.12616221606731415, 0.04381577670574188, 0.10708330571651459, 0.15610601007938385, 0.09694315493106842, 0.0892222672700882, -0.08851630240678787, -0.053338855504989624, 0.04043605923652649, -0.12967796623706818, -0.082546666264534, -0.0686975046992302, -0.12778136134147644, -0.06162168085575104, 0.04212990403175354, -0.03925043344497681, -0.15961019694805145, -0.07086090743541718, -0.024384140968322754, 0.010572284460067749, -0.1729729026556015, -0.11112669855356216, -0.08152396976947784, 0.12411580979824066, 0.06030568480491638, 0.16563217341899872, -0.10968109965324402, -0.17393788695335388], [-0.1301823854446411, 0.06165574491024017, 0.11380387842655182, -0.011614948511123657, -0.06541473418474197, 0.03219024837017059, -0.008725360035896301, -0.14046432077884674, 0.15543808043003082, 0.09464724361896515, -0.08001233637332916, -0.14561736583709717, 0.14750827848911285, 0.03342907130718231, 0.06583556532859802, 0.02133241295814514, -0.12135249376296997, -0.02712292969226837, -0.09007080644369125, 0.151638463139534, 0.04199300706386566, 0.03677666187286377, -0.11629714071750641, 0.0707746297121048, -0.02779686450958252, -0.004413872957229614, -0.04926781356334686, 0.005222633481025696, -0.12318116426467896, 0.09274174273014069, -0.0021207481622695923, 0.13140060007572174, 0.1523170918226242, -0.032256752252578735, 0.016077503561973572, -0.035984352231025696, 0.02749432623386383, 0.15045346319675446, -0.1286989450454712, -0.08438368141651154, 0.12001045048236847, 0.03436599671840668, 0.15222151577472687, 0.10097111761569977, 0.0721244215965271, -0.13777513802051544, -0.09167377650737762, 0.1332636922597885, -0.05885904282331467, 0.1308327168226242, -0.053602784872055054, -0.13831613957881927, -0.12459556758403778, -0.15715421736240387, -0.019400954246520996, 0.10413111746311188, 0.025548160076141357, -0.12670336663722992, 0.13810552656650543, -0.0633031353354454, -0.1372808814048767, 0.03840820491313934, -0.13400253653526306, 0.0459437370300293], [-0.108111172914505, -0.10650862753391266, -0.048889413475990295, 0.060113370418548584, -0.09652432799339294, -0.14989319443702698, 0.10636679828166962, 0.12049771845340729, -0.05167573690414429, -0.11462130397558212, 0.17030741274356842, -0.16865554451942444, -0.05457557737827301, 0.08175735175609589, -0.10336872935295105, -0.11535491049289703, -0.07737638801336288, 0.03745944797992706, 0.010153263807296753, -0.044787853956222534, -0.09659117460250854, 0.08311770856380463, 0.16654111444950104, -0.052570730447769165, -0.05946410447359085, 0.11902140080928802, 0.05765300989151001, -0.034900546073913574, 0.1331050544977188, 0.06256413459777832, 0.15181778371334076, 0.16135667264461517, -0.03452770411968231, 0.1702827364206314, -0.016239270567893982, 0.09489615261554718, -0.16848602890968323, -0.05597097426652908, -0.13701602816581726, 0.15303407609462738, 0.10266830027103424, 0.1760040670633316, -0.13155043125152588, 0.09024210274219513, 0.1707490235567093, 0.10138942301273346, -0.17444871366024017, 0.10492159426212311, 0.10633872449398041, 0.02062945067882538, -0.03157569468021393, -0.03128582239151001, -0.060225650668144226, 0.10864575207233429, -0.1674243062734604, -0.012719616293907166, 0.16170711815357208, -0.1757197380065918, -0.10358123481273651, 0.17438827455043793, -0.08484160155057907, 0.03273625671863556, -0.10861175507307053, -0.1390007734298706], [-0.14118047058582306, 0.028280287981033325, 0.14364124834537506, -0.16938240826129913, 0.027128875255584717, -0.07082107663154602, -0.011647656559944153, -0.11747358739376068, -0.018593251705169678, 0.16349752247333527, -0.09548317641019821, -0.17270885407924652, -0.04433372616767883, 0.0011042952537536621, 0.17009525001049042, -0.12978540360927582, 0.10813377797603607, 0.08627532422542572, -0.017256304621696472, 0.13918764889240265, 0.1147889643907547, 0.04509413242340088, 0.08604975044727325, 0.08415929973125458, 0.10728015005588531, -0.09983492642641068, 0.034161075949668884, -0.1221240758895874, 0.005255460739135742, 0.1463523656129837, 0.08341081440448761, 0.11178933084011078, 0.07782213389873505, -0.01824827492237091, -0.12233640998601913, -0.01917630434036255, -0.0054498761892318726, -0.11519171297550201, 0.14398960769176483, 0.002829030156135559, 0.1621442288160324, 0.06595480442047119, -0.1184733510017395, -0.1305346041917801, 0.1381358653306961, -0.06422062963247299, -0.1508939266204834, -0.033655181527137756, 0.04058215022087097, -0.15119531750679016, -0.1511969268321991, -0.09153696894645691, 0.05455361306667328, -0.006159305572509766, 0.1600581854581833, -0.021603211760520935, -0.00447438657283783, -0.06313753873109818, 0.00747053325176239, 0.025103211402893066, 0.0842471569776535, -0.17250068485736847, -0.12075383961200714, -0.04053455591201782], [-0.02979634702205658, 0.08063210546970367, -0.13237524032592773, 0.008691400289535522, 0.10783503949642181, 0.038329899311065674, -0.14407162368297577, -0.045685455203056335, -0.003718063235282898, 0.11536113917827606, -0.1598849594593048, 0.0149545818567276, -0.10838381946086884, 0.1459590047597885, 0.08705581724643707, 0.011819317936897278, 0.16148801147937775, -0.09397170692682266, -0.16432364284992218, -0.12276782095432281, -0.13360394537448883, -0.02631358802318573, -0.036955997347831726, -0.07213015854358673, 0.12565727531909943, 0.11959479749202728, 0.11206565797328949, -0.1031700074672699, -0.14069540798664093, 0.029692545533180237, -0.15308818221092224, 0.09674568474292755, -0.11820407956838608, 0.05255770683288574, 0.08570714294910431, 0.15116940438747406, 0.072146475315094, 0.141782745718956, 0.008556827902793884, 0.048563867807388306, 0.11479519307613373, -0.14431852102279663, 0.17277632653713226, 0.12078891694545746, -0.07423809170722961, -0.025494500994682312, 0.12346453964710236, 0.16701187193393707, 0.15816359221935272, -0.07791852205991745, 0.08606861531734467, -0.004420608282089233, 0.053631484508514404, -0.0713384747505188, 0.0030368417501449585, -0.10255490988492966, -0.08870870620012283, 0.17329265177249908, 0.16508962213993073, -0.16979250311851501, -0.12176266312599182, -0.17020350694656372, -0.06435798108577728, -0.07147055864334106], [0.12327869236469269, 0.13687433302402496, -0.13997237384319305, 0.13238386809825897, 0.027270153164863586, -0.08349185436964035, 0.007929429411888123, 0.08721859753131866, -0.05395711213350296, -0.14720866084098816, -0.03985869884490967, 0.08471064269542694, -0.08360754698514938, 0.01452869176864624, 0.03025946021080017, 0.16552765667438507, 0.12027542293071747, 0.11017806828022003, -0.1566033512353897, 0.11761142313480377, -0.08441023528575897, 0.06729018688201904, 0.09706376492977142, -0.09435119479894638, 0.11746211349964142, 0.16328446567058563, 0.01972202956676483, -0.14294761419296265, -0.17668557167053223, -0.13294877111911774, -0.014663726091384888, -0.02456633746623993, 0.16003693640232086, -0.09864596277475357, -0.09434159100055695, -0.02675764262676239, 0.08400411903858185, -0.16782356798648834, -0.1526540219783783, -0.02445128560066223, -0.1218378096818924, -0.13279080390930176, -0.16850726306438446, 0.001209944486618042, 0.11841423809528351, -0.11560484021902084, 0.06414176523685455, -0.04095707833766937, 0.019870802760124207, 0.018905267119407654, 0.0735207051038742, -0.0971355065703392, -0.08335044980049133, 0.12552525103092194, -0.07215211540460587, 0.16015173494815826, 0.03555482625961304, -0.10640477389097214, 0.11929075419902802, 0.09157814085483551, 0.14147500693798065, -0.13220109045505524, 0.05056200921535492, 0.06363740563392639], [0.12113533914089203, -0.08984068781137466, 0.16167299449443817, 0.004246845841407776, 0.009527891874313354, -0.005115613341331482, 0.13206617534160614, 0.05722711980342865, -0.004401013255119324, 0.1196301132440567, -0.017285481095314026, -0.13940492272377014, -0.01583191752433777, -6.765127182006836e-05, -0.03142380714416504, -0.17297521233558655, -0.002263575792312622, 0.10817082226276398, -0.00622066855430603, -0.0868314802646637, 0.0573025643825531, -0.03536246716976166, -0.16181106865406036, 0.04293575882911682, -0.012850865721702576, 0.05702674388885498, 0.005846485495567322, 0.1553739756345749, 0.10217900574207306, -0.15455611050128937, -0.15462949872016907, -0.09356625378131866, -0.10385830700397491, 0.15568648278713226, -0.16663536429405212, -0.14148662984371185, -0.0556594654917717, 0.014098450541496277, -0.04889683425426483, 0.07766024768352509, 0.07687146961688995, 0.14776833355426788, -0.07167438417673111, -0.037832483649253845, -0.1247502863407135, -0.004650861024856567, -0.14515593647956848, 0.06253281235694885, 0.11892823874950409, -0.09670838713645935, 0.05695691704750061, -0.0897214487195015, 0.1726902276277542, 0.11415247619152069, -0.024161234498023987, -0.10613082349300385, -0.06724601238965988, -0.025649815797805786, 0.052349552512168884, 0.01521994173526764, -0.12688186764717102, 0.00221426784992218, 0.008864834904670715, 0.16870661079883575], [-0.00896686315536499, -0.08325283974409103, -0.07435694336891174, 0.07498691976070404, -0.1469307839870453, 0.034248605370521545, 0.008040815591812134, 0.16935138404369354, 0.0098649263381958, 0.02969565987586975, -0.11942355334758759, 0.09969975054264069, 0.04828035831451416, -0.061441801488399506, 0.16391350328922272, 0.11480318009853363, 0.1357446163892746, -0.16441906988620758, 0.17526189982891083, 0.14832086861133575, -0.03526705503463745, 0.1115923672914505, 0.0387747585773468, -0.15622247755527496, 0.029127269983291626, 0.057834237813949585, -0.1257871836423874, -0.1659931242465973, -0.01529926061630249, -0.0479656457901001, -0.1426815390586853, 0.0013580173254013062, 0.16741149127483368, -0.16037465631961823, 0.04221676290035248, -0.047466665506362915, -0.048626676201820374, -0.006189391016960144, 0.04707963764667511, 0.07475851476192474, 0.12265636026859283, 0.07865162193775177, 0.020716696977615356, -0.11277729272842407, -0.12596812844276428, -0.11398302763700485, 0.07879836857318878, -0.04088522493839264, -0.13760755956172943, 0.1286504715681076, 0.12272651493549347, 0.10335706174373627, -0.006354346871376038, 0.08506692945957184, -0.08708503842353821, 0.1269463449716568, -0.133150115609169, 0.1393212527036667, -0.06604234129190445, 0.12335126101970673, 0.05746646225452423, 0.06660622358322144, 0.09306357800960541, 0.1746566742658615], [-0.07286696881055832, 0.1067621260881424, -0.12984567880630493, 0.15274952352046967, -0.0743543729186058, -0.168795645236969, 0.0998443216085434, -0.0007088631391525269, -0.08079879730939865, -0.1442481279373169, -0.15624025464057922, 0.00262334942817688, 0.04688900709152222, 0.1053774505853653, -0.09920874983072281, -0.031528040766716, 0.11519046127796173, 0.0661180317401886, -0.0027266889810562134, -0.1111193597316742, 0.004948928952217102, -0.11933404207229614, -0.0532122477889061, -0.15953530371189117, 2.2798776626586914e-06, 0.08728231489658356, -0.1438131332397461, -0.1649240255355835, 0.1450263410806656, 0.10573990643024445, 0.008172646164894104, 0.07152767479419708, -0.10488495975732803, 0.061127424240112305, -0.07642336189746857, -0.12411046028137207, -0.09061361849308014, -0.03666636347770691, 0.07944916188716888, -0.07553204149007797, -0.09364637732505798, -0.0659850612282753, 0.07239669561386108, 0.09545443952083588, 0.08031152188777924, 0.1500750333070755, -0.003960281610488892, 0.028249263763427734, -0.04542440176010132, 0.021449580788612366, 0.04197147488594055, -0.16772565245628357, -0.0470125675201416, 0.07279404997825623, 0.055101603269577026, -0.08185381442308426, 0.11187835037708282, -0.13884541392326355, -0.1287500262260437, 0.17001111805438995, -0.06412900239229202, 0.11638648808002472, 0.09991739690303802, -0.010600566864013672], [0.028573036193847656, 0.12143342196941376, -0.014455944299697876, 0.17411144077777863, 0.05994023382663727, 0.010861530900001526, -0.013388529419898987, -0.15316076576709747, 0.14949114620685577, -0.08926040679216385, -0.09909798949956894, 0.11143146455287933, -0.14550158381462097, -0.11970008164644241, 0.043832167983055115, -0.008486524224281311, -0.07598356157541275, 0.16981647908687592, -0.023493334650993347, -0.0624496191740036, -0.13847039639949799, 0.03343087434768677, -0.0824509933590889, 0.03773714601993561, 0.046346575021743774, 0.10197781026363373, -0.1591746062040329, -0.13829728960990906, 0.025285914540290833, 0.10514889657497406, 0.07671792805194855, -0.026942670345306396, -0.07041347771883011, 0.12129698693752289, 0.05287806689739227, -0.13859505951404572, -0.14596882462501526, 0.11834551393985748, -0.07106304168701172, -0.003964424133300781, 0.05256180465221405, -0.05485121160745621, -0.12000316381454468, 0.027503639459609985, -0.01980791985988617, 0.13256792724132538, 0.1473473459482193, 0.12745235860347748, 0.07092791795730591, -0.019816935062408447, -0.08259256184101105, 0.16068701446056366, -0.09994307160377502, 0.12462954223155975, -0.05003038048744202, 0.12767811119556427, 0.170613095164299, -0.06055469065904617, -0.0742846205830574, -0.023291483521461487, 0.12406237423419952, -0.12240093946456909, -0.04890049993991852, 0.09011079370975494], [0.17380301654338837, 0.168004110455513, -0.11634628474712372, -0.0988362580537796, 0.14879648387432098, 0.06535820662975311, -0.12849026918411255, -0.08598631620407104, 0.038735270500183105, 0.14429660141468048, 0.17486481368541718, 0.02751050889492035, -0.020248234272003174, -0.06327012926340103, -0.14501652121543884, -0.15692248940467834, -0.1104670986533165, 0.14201851189136505, 0.05893094837665558, -0.17423754930496216, -0.10950691252946854, 0.1755162626504898, -0.00870564579963684, -0.17345333099365234, -0.008669108152389526, 0.0055120885372161865, 0.005109548568725586, -0.002594977617263794, 0.1618204265832901, -0.03406476974487305, 0.12003140151500702, 0.11030943691730499, -0.08178098499774933, -0.12025856971740723, -0.11696909368038177, 0.08118550479412079, -0.09120645374059677, 0.09906448423862457, 0.04697321355342865, 0.014730826020240784, 0.17251382768154144, -0.03786388039588928, 0.08356420695781708, 0.0676940381526947, -0.034332647919654846, 0.04564023017883301, -0.1491021066904068, 0.1257259100675583, 0.031245991587638855, -0.040356531739234924, 0.15874581038951874, 0.13457976281642914, 0.10560183227062225, 0.09914855659008026, 0.05765220522880554, -0.09689673781394958, -0.09481927752494812, -0.10713417083024979, -0.16667692363262177, 0.16867835819721222, -0.12466519325971603, 0.08708958327770233, -0.12074381113052368, -0.10951010882854462], [0.14476604759693146, 0.16969875991344452, 0.02141304314136505, 0.1743544191122055, 0.021420374512672424, 0.16655321419239044, 0.008666947484016418, 0.03075750172138214, -0.0978650227189064, -0.13964299857616425, -0.08805762231349945, 0.07118083536624908, -0.0873965471982956, 0.15612591803073883, 0.1130262166261673, -0.127499520778656, 0.007294774055480957, 0.0603255033493042, -0.1422855257987976, 0.15776877105236053, -0.06714241206645966, 0.01675918698310852, 0.153442844748497, -0.0762169286608696, -0.019507169723510742, 0.03411079943180084, 0.12724794447422028, 0.1355307251214981, 0.13497750461101532, 0.08302624523639679, -0.1431676596403122, 0.06777508556842804, -0.06356140971183777, -0.013189643621444702, -0.02072785794734955, 0.05173264443874359, 0.08331237733364105, 0.05989113450050354, -0.04751516878604889, 0.1501402109861374, -0.043332263827323914, -0.028015300631523132, -0.02828049659729004, -0.0012362897396087646, -0.08832259476184845, -0.11227170377969742, -0.12512674927711487, 0.17391078174114227, -0.023793071508407593, -0.02653522789478302, 0.06013549864292145, 0.13201679289340973, -0.13721147179603577, 0.1028633862733841, 0.014350533485412598, 0.022294506430625916, -0.0160597562789917, -0.08171413838863373, -0.17386873066425323, -0.07770808041095734, 0.06795352697372437, -0.14950169622898102, -0.1175544261932373, 0.1256953924894333], [0.10841114819049835, -0.040731728076934814, -0.025172248482704163, 0.09925590455532074, -0.1424904763698578, 0.026464462280273438, -0.00012189149856567383, 0.13184590637683868, -0.019317209720611572, 0.05764786899089813, 0.0994737297296524, -0.09972028434276581, 0.10893134772777557, 0.11285276710987091, -0.10889434814453125, -0.14674116671085358, -0.01983705163002014, -0.08819814026355743, 0.022587507963180542, -0.021957874298095703, -0.03613831102848053, 0.08596096932888031, -0.15758731961250305, 0.160358265042305, 0.04894745349884033, 0.15379466116428375, 0.06819182634353638, -0.04426351189613342, 0.034068092703819275, 0.04677136242389679, -0.05478984862565994, 0.06527683138847351, -0.14350035786628723, -0.07972940057516098, -0.05971209704875946, 0.11056689918041229, 0.06363625824451447, -0.046781688928604126, 0.12313754856586456, -0.0011159181594848633, -0.12236878275871277, -0.09415656328201294, -0.003729403018951416, -0.031541138887405396, 0.14166070520877838, 0.0450960248708725, 0.15961648523807526, -0.031778812408447266, 0.08653031289577484, -0.1357809156179428, 0.06509779393672943, -0.14960655570030212, -0.10344851016998291, -0.026670187711715698, 0.08356784284114838, 0.08829553425312042, -0.0690937265753746, 0.13868166506290436, -0.11294116079807281, -0.14870086312294006, -0.15040570497512817, 0.11105872690677643, -0.025467902421951294, 0.0946720689535141], [0.12836362421512604, 0.019770458340644836, -0.07540256530046463, 0.08104728162288666, 0.06812940537929535, 0.037467360496520996, 0.026577547192573547, -0.11956681311130524, 0.08224897086620331, -0.03907151520252228, 0.04134739935398102, 0.15247558057308197, 0.16441227495670319, -0.08255353569984436, 0.0562761127948761, 0.018511146306991577, 0.14606086909770966, 0.019672632217407227, 0.021676331758499146, -0.08183257281780243, 0.06036245822906494, -0.13665449619293213, 0.12081824243068695, 0.07177464663982391, -0.040568068623542786, 0.11638729274272919, 0.038269251585006714, -0.12545931339263916, -0.169806569814682, 0.017641782760620117, 0.08032901585102081, -0.17454686760902405, 0.16700883209705353, -0.059821926057338715, 0.08494700491428375, -0.15394608676433563, -0.015180036425590515, -0.038645535707473755, 0.003884419798851013, -0.09701361507177353, 0.10052676498889923, 0.025143921375274658, 0.04500743746757507, 0.1640481799840927, 0.005882471799850464, 0.13068510591983795, -0.08412595093250275, -0.011526241898536682, -0.09942626953125, 0.11147226393222809, 0.00024440884590148926, -0.12515556812286377, -0.14803743362426758, 0.06327801942825317, -0.01082010567188263, -0.05434199422597885, -0.07668201625347137, 0.14505819976329803, -0.12564852833747864, 0.018707841634750366, -0.16027523577213287, 0.029577180743217468, 0.008441925048828125, 0.17669202387332916], [-0.1756136119365692, 0.04110383987426758, 0.002733096480369568, 0.10546468198299408, 0.14611293375492096, 0.14566849172115326, -0.029166460037231445, 0.03574933111667633, -0.14673185348510742, 0.08185498416423798, 0.07756491005420685, 0.17461220920085907, 0.1539178341627121, -0.17410829663276672, 0.11435632407665253, 0.16366927325725555, -0.05027461051940918, -0.12239612638950348, -0.15888506174087524, -0.1615816205739975, 0.03085048496723175, -0.042966052889823914, -0.09710671752691269, 0.10093532502651215, 0.005385741591453552, 0.09006814658641815, 0.1625133603811264, -0.09123077243566513, -0.03255528211593628, -0.07663468271493912, -0.16157874464988708, 0.16382543742656708, 0.020546287298202515, -0.055755726993083954, 0.17096303403377533, -0.04697839915752411, -0.1268613338470459, 0.07431058585643768, 0.17462243139743805, -0.15944494307041168, -0.06447173655033112, -0.15947246551513672, 0.09002099931240082, 0.013364002108573914, 0.12851165235042572, 0.08357061445713043, -0.05788629502058029, -0.1214076578617096, -0.168443962931633, -0.12538543343544006, 0.15761400759220123, -0.14288021624088287, -0.11510713398456573, 0.10712368786334991, -0.13254353404045105, 0.1146165281534195, 0.08289574086666107, -0.08962661772966385, 0.15911303460597992, -0.17610596120357513, -0.17554473876953125, -0.02128078043460846, -0.023223161697387695, 0.1299501210451126], [0.07757101953029633, 0.04842309653759003, -0.004467815160751343, -0.04888772964477539, 0.15987299382686615, 0.09411947429180145, -0.1340000480413437, -0.00870901346206665, 0.05534467101097107, 0.15256808698177338, 0.17001523077487946, -0.04845564067363739, 0.054348111152648926, 0.09577150642871857, 0.14448364078998566, -0.030504703521728516, -0.04350055754184723, -0.16032952070236206, 0.019089743494987488, 0.03219255805015564, 0.07805730402469635, -0.04482831060886383, -0.12598606944084167, -0.08114313334226608, -0.15376147627830505, 0.009069755673408508, 0.06229688227176666, -0.16461244225502014, -0.1259353756904602, 0.14034904539585114, 0.05339150130748749, 0.12106989324092865, -0.09762200713157654, -0.026206105947494507, -0.16675131022930145, -0.11816766858100891, 0.11534608900547028, -0.15290319919586182, 0.16163130104541779, -0.15611934661865234, -0.08262522518634796, 0.06500101089477539, -0.050803765654563904, 0.016011923551559448, -0.019105717539787292, -0.01763807237148285, 0.1451939195394516, -0.06591775268316269, -0.017842739820480347, 0.024222850799560547, 0.13584254682064056, 0.14412181079387665, 0.05930154025554657, 0.02953287959098816, -0.11802967637777328, 0.07307083904743195, 0.10832269489765167, 0.02687409520149231, -0.02885061502456665, 0.09049995243549347, 0.05796843767166138, 0.036686718463897705, 0.14301647245883942, -0.059580303728580475], [0.006316423416137695, -0.10300862044095993, -0.16652460396289825, 0.10586987435817719, 0.12211193144321442, 0.14022783935070038, -0.01951196789741516, -0.1665647178888321, 0.017380133271217346, -0.05748753994703293, 0.16539819538593292, 0.10517896711826324, 0.12682391703128815, -0.06796646863222122, 0.008641108870506287, -0.0620356947183609, -0.014836445450782776, -0.023290395736694336, -0.04376600682735443, -0.10720417648553848, 0.010242491960525513, -0.015673279762268066, 0.060375064611434937, 0.036141425371170044, 0.12611816823482513, 0.049483269453048706, -0.061245352029800415, 0.06369674205780029, -0.053581878542900085, -0.15300017595291138, -0.09478404372930527, 0.00900733470916748, 0.09778966009616852, -0.1324760615825653, -0.030163869261741638, -0.03661970794200897, 0.00023530423641204834, 0.08466778695583344, 0.005867600440979004, -0.09875765442848206, 0.027365773916244507, 0.08518557250499725, 0.07460232079029083, -0.03638647496700287, -0.045961812138557434, 0.15929998457431793, -0.05594808608293533, -0.07186092436313629, 0.018749281764030457, 0.13564355671405792, 0.015086039900779724, 0.006471306085586548, -0.001728743314743042, 0.05435509979724884, 0.0327887237071991, 0.04390934109687805, 0.08479590713977814, 0.0034727752208709717, 0.15886284410953522, 0.095473513007164, 0.059936314821243286, -0.17271563410758972, 0.053858786821365356, 0.17315582931041718], [0.16845394670963287, -0.1712111234664917, 0.08357472717761993, -0.015103280544281006, -0.167444109916687, 0.14507080614566803, -0.01142449676990509, -0.12804245948791504, -0.1623421162366867, -0.04571133852005005, 0.13860784471035004, -0.10761826485395432, -0.034583210945129395, 0.05254940688610077, 0.09492574632167816, -0.0026914626359939575, -0.06567145138978958, 0.1263767033815384, -0.12676802277565002, 0.07499922811985016, -0.043389976024627686, -0.14494933187961578, -0.13203971087932587, -0.16004645824432373, -0.009225264191627502, 0.005850449204444885, -0.15242795646190643, -0.1335892379283905, -0.09119347482919693, 0.12610451877117157, 0.047040849924087524, -0.028933852910995483, -0.1566966325044632, -0.17334386706352234, -0.13028226792812347, -0.0548345223069191, -0.1669832468032837, -0.0516899973154068, -0.00974506139755249, 0.14384685456752777, 0.034985512495040894, 0.1565120369195938, 0.020384281873703003, -0.143744096159935, -0.13909956812858582, 0.08599449694156647, 0.07742486894130707, -0.03856225311756134, -0.03881813585758209, 0.14943759143352509, 0.10524822771549225, -0.005364373326301575, 0.05781102180480957, 0.07348446547985077, 0.07652874290943146, 0.16874919831752777, -0.0024235695600509644, 0.07893644273281097, 0.1601942628622055, -0.07086078077554703, -0.0958748459815979, -0.13275878131389618, 0.011734187602996826, 0.11868591606616974], [0.019175052642822266, 0.09363625943660736, 0.0230724960565567, 0.019850492477416992, -0.11419730633497238, 0.11188934743404388, 0.17114879190921783, 0.06694997847080231, 0.12334059178829193, 0.16846127808094025, 0.14621929824352264, -0.017010048031806946, 0.06656551361083984, 0.13875676691532135, -0.13767507672309875, 0.14695607125759125, -0.09276921302080154, 0.1368766576051712, 0.1176367849111557, 0.174228236079216, 0.16336123645305634, -0.12575334310531616, -0.021837592124938965, 0.040398970246315, 0.044980213046073914, -0.06483280658721924, 0.12230299413204193, -0.14428429305553436, 0.055790290236473083, -0.005808725953102112, -0.1750665009021759, 0.16414393484592438, 0.07066665589809418, 0.038926154375076294, 0.16888178884983063, 0.07793714106082916, -0.07172331213951111, -0.11057044565677643, 0.0691915899515152, -0.05196937918663025, 0.1596420258283615, 0.07921360433101654, -0.04340016841888428, 0.042388901114463806, 0.06360511481761932, -0.013631179928779602, -0.1010439470410347, -0.05757499486207962, 0.012552335858345032, 0.057965025305747986, 0.14828668534755707, -0.0037905126810073853, -0.10498042404651642, 0.15367470681667328, 0.08339883387088776, -0.06680342555046082, 0.07397837936878204, 0.03532588481903076, -0.10051096230745316, -0.11172159761190414, 0.0509033203125, -0.026950716972351074, 0.1387157291173935, -0.05124977231025696], [0.10972069203853607, -0.046944037079811096, -0.10399962216615677, 0.17284013330936432, -0.14224636554718018, -0.08247169107198715, 0.047823190689086914, 0.13779212534427643, 0.04417748749256134, -0.1541263908147812, 0.16383372247219086, 0.0006560981273651123, 0.005067646503448486, 0.07656513154506683, -0.03604996204376221, -0.08943961560726166, -0.04666714370250702, -0.11852262914180756, 0.12081946432590485, -0.059479400515556335, 0.12205483019351959, -0.15277662873268127, 0.000642821192741394, 0.12934239208698273, -0.028782248497009277, 0.1541665941476822, 0.11750094592571259, -0.02960120141506195, 0.06059178709983826, -0.0717761218547821, 0.008475273847579956, -0.08207423985004425, 0.14766408503055573, 0.1745349019765854, 0.038088783621788025, -0.06166817247867584, -0.09978801757097244, 0.13487307727336884, 0.10705159604549408, 0.1172267347574234, 0.16912420094013214, -0.020898014307022095, 0.09199468791484833, -0.03503157198429108, -0.06753450632095337, 0.1508796066045761, 0.1477029174566269, -0.12876653671264648, -0.009288191795349121, 0.06841765344142914, -0.08903200924396515, 0.15848036110401154, -0.11992873251438141, -0.05822557210922241, 0.03526864945888519, 0.0936320573091507, -0.1346498727798462, 0.10691104829311371, -0.14749783277511597, 0.030794769525527954, -0.15465089678764343, -0.12448813021183014, -0.17196887731552124, 0.1426488608121872], [0.11753679811954498, -0.09927550703287125, -0.17218855023384094, -0.11627034097909927, -0.07390601187944412, -0.095754474401474, 0.011494576930999756, -0.005516186356544495, -0.17565174400806427, -0.05552244186401367, -0.0110558420419693, -0.06343235820531845, -0.09780247509479523, -0.07246509939432144, -0.08919752389192581, 0.0422697514295578, 0.05235700309276581, 0.15537254512310028, 0.14235730469226837, 0.05902114510536194, 0.048243433237075806, -0.0878579244017601, -0.16252903640270233, 0.008192971348762512, -0.15178753435611725, 0.1002577394247055, -0.04219721257686615, 0.06478160619735718, -0.09274190664291382, -0.05166955292224884, -0.09655720740556717, -0.055304378271102905, -0.006312340497970581, 0.08300881087779999, -0.07674890756607056, -0.14722491800785065, 0.010876372456550598, 0.1277252584695816, 0.1347067505121231, 0.006597161293029785, -0.15946993231773376, -0.14477930963039398, -0.02799651026725769, 0.05700285732746124, 0.05336570739746094, -0.05615970492362976, 0.15680427849292755, -0.17558667063713074, -0.13700203597545624, -0.1430646926164627, -0.059036605060100555, -0.13793285191059113, -0.15794172883033752, -0.05863376706838608, -0.15417484939098358, -0.08848284184932709, 0.04071760177612305, 0.07437153160572052, -0.016959592700004578, -0.04189501702785492, 0.17253588140010834, -0.16014495491981506, -0.15572787821292877, -0.13145972788333893], [0.05281214416027069, 0.015378117561340332, 0.09840105473995209, -0.008839622139930725, -0.12027597427368164, -0.09569563716650009, -0.09485477209091187, -0.02162344753742218, -0.01016177237033844, -0.1221577525138855, 0.07517458498477936, 0.12142421305179596, -0.02195248007774353, -0.08072474598884583, 0.10563971102237701, 0.008793562650680542, 0.04983413219451904, -0.038726046681404114, -0.16915178298950195, 0.04476293921470642, 0.07292146980762482, -0.0693499818444252, 0.014459609985351562, 0.12302176654338837, -0.05085253715515137, 0.04116365313529968, -0.1563904732465744, -0.046111688017845154, -0.014517530798912048, -0.11715281009674072, -0.15209364891052246, 0.05729539692401886, 0.10411910712718964, -0.014063313603401184, 0.15937639772891998, -0.0665314570069313, -0.10471376031637192, -0.0439438670873642, 0.0918722003698349, 0.17399634420871735, -0.024029597640037537, 0.029917389154434204, -0.07109258323907852, -0.06369585543870926, -0.15186622738838196, -0.13428714871406555, 0.09868814051151276, -0.0502723753452301, 0.1345611959695816, 0.04029630124568939, 0.01201125979423523, -0.08180741220712662, -0.1580352485179901, 0.024003684520721436, 0.16188253462314606, -0.1728452742099762, 0.039979442954063416, -0.1607896387577057, 0.04804724454879761, -0.12232974916696548, -0.15808607637882233, -0.16399048268795013, -0.06213507801294327, 0.15835393965244293], [0.06814293563365936, 0.010158449411392212, -0.07448633760213852, 0.034374549984931946, 0.17520378530025482, -0.08475794643163681, 0.09895877540111542, 0.10568101704120636, -0.14335870742797852, -0.053164198994636536, 0.0919257253408432, -0.03463059663772583, 0.15057282149791718, 0.11708135902881622, 0.16222317516803741, -0.08633638173341751, 0.00025081634521484375, 0.05159735679626465, 0.13334773480892181, 0.025503233075141907, 0.15513010323047638, 0.1187915951013565, 0.060622334480285645, 0.15078459680080414, -0.06458017975091934, -0.04170528054237366, 0.09620954096317291, 0.08364762365818024, 0.06721195578575134, -0.1395120471715927, -0.10004489868879318, -0.10715511441230774, -0.11405623704195023, -0.06900046020746231, -0.13398414850234985, 0.10909716784954071, 0.15574730932712555, 0.16978131234645844, 0.05059918761253357, -0.05722483992576599, 0.08461894094944, 0.12838329374790192, -0.09376543760299683, 0.12369193136692047, 0.09162934124469757, -0.06526616215705872, 0.07007621228694916, 0.13258032500743866, 0.08450151979923248, 0.1314472109079361, 0.049730703234672546, -0.022318318486213684, 0.033182501792907715, -0.047140613198280334, 0.17029450833797455, 0.05511192977428436, -0.05581376701593399, 0.14423952996730804, 0.10139532387256622, -0.12463286519050598, -0.12630082666873932, 0.1582098752260208, -0.08961068838834763, 0.016104429960250854], [-0.1273379772901535, 0.09851481020450592, -0.09186837077140808, -0.10869456827640533, -0.1561233103275299, 0.052221328020095825, -0.0892106294631958, 0.16225196421146393, 0.12756521999835968, -0.0900355726480484, 0.001834779977798462, -0.10198689997196198, 0.05870912969112396, -0.08432728797197342, 0.10307563841342926, -0.1593237668275833, 0.038317084312438965, -0.1250815987586975, 0.07393734157085419, -0.16455596685409546, 0.1713344305753708, 0.15752355754375458, -0.05375025421380997, 0.13793377578258514, -0.13217630982398987, -0.11184593290090561, 0.023583099246025085, -0.06492747366428375, -0.17358280718326569, 0.10436023771762848, -0.030682697892189026, -0.08527521044015884, 0.13684605062007904, -0.08253338932991028, 0.027617350220680237, -0.01825152337551117, -0.011185944080352783, -0.14194241166114807, 0.10608460009098053, -0.06736444681882858, -0.16843165457248688, 0.12806235253810883, 0.12517453730106354, -0.05802002549171448, -0.15767519176006317, 0.12862993776798248, 0.08049868047237396, -0.10750455409288406, 0.04832330346107483, 0.10450933873653412, 0.04128819704055786, 0.14017821848392487, 0.018267661333084106, 0.1492086797952652, 0.037053659558296204, 0.0910911113023758, 0.03587952256202698, 0.04149328172206879, -0.11209455877542496, 0.16169528663158417, -0.173733651638031, 0.056815966963768005, -0.12978029251098633, 0.07440106570720673], [-0.1087348610162735, -0.0911654457449913, 0.13396881520748138, -0.13983860611915588, -0.16674140095710754, -0.14178422093391418, -0.03812001645565033, -0.09733962267637253, 0.08610020577907562, 0.13335435092449188, -0.03006933629512787, 0.12840797007083893, -0.006231755018234253, 0.013115465641021729, -0.06786898523569107, 0.01906365156173706, 0.15617723762989044, 0.0015570372343063354, -0.11645793914794922, 0.09920428693294525, -0.10537786781787872, -0.09816915541887283, 0.12098805606365204, 0.14581342041492462, -0.15784019231796265, 0.05972030758857727, -0.1387646198272705, 0.16006137430667877, -0.07386466860771179, 0.13531284034252167, 0.027994856238365173, -0.1258396953344345, -0.15245568752288818, -0.1128910481929779, 0.1473831981420517, -0.09036001563072205, 0.1603194922208786, -0.10535173863172531, -0.16012591123580933, 0.06117290258407593, 0.1335531622171402, 0.15740527212619781, -0.1340450644493103, 0.07378228008747101, 0.10837896168231964, 0.06962856650352478, -0.04477301239967346, 0.023025408387184143, 0.06450322270393372, -0.13354641199111938, 0.135785773396492, -0.024312615394592285, 0.10000301897525787, 0.03565521538257599, -0.11780490726232529, 0.1455007940530777, 0.04129977524280548, 0.10170741379261017, 0.1600901335477829, 0.14549465477466583, 0.1084216982126236, 0.027546048164367676, 0.005343794822692871, -0.14873121678829193], [0.17232219874858856, 0.1040724664926529, 0.11655251681804657, 0.03797005116939545, -0.15988242626190186, 0.06927382946014404, -0.04891352355480194, 0.010686337947845459, 0.14424355328083038, 0.15421198308467865, -0.10769902169704437, -0.1707291305065155, -0.07118750363588333, 0.03395000100135803, -0.17560631036758423, -0.022255390882492065, 0.12505312263965607, -0.05778387933969498, 0.03950226306915283, -0.11398614943027496, -0.06541351228952408, -0.17033745348453522, -0.06524858623743057, -0.08369870483875275, 0.17538993060588837, -0.03986872732639313, -0.05284038931131363, -0.1682591438293457, -0.1332089900970459, 0.164864644408226, -0.07547012716531754, 0.050857290625572205, -0.147446408867836, -0.03649525344371796, -0.06860794872045517, -0.1596699208021164, 0.1448158472776413, 0.018204495310783386, 0.1656242460012436, 0.10603396594524384, 0.1486196368932724, 0.14576376974582672, -0.0012668073177337646, -0.08127813041210175, 0.07434715330600739, 0.10016568005084991, 0.0846451073884964, -0.10701489448547363, 0.10404692590236664, 0.12252534925937653, -0.15933838486671448, 0.002208113670349121, -0.011859789490699768, 0.010077401995658875, 0.046360939741134644, 0.13209496438503265, -0.013472780585289001, -0.1012795940041542, -0.126030832529068, 0.05129250884056091, 0.03234420716762543, 0.09507529437541962, 0.11586050689220428, -0.027038082480430603], [0.06337428092956543, 0.11163283884525299, 0.12624137103557587, 0.0782177597284317, -0.018469050526618958, -0.1542930006980896, -0.11011424660682678, 0.13199888169765472, -0.15907813608646393, 0.15574078261852264, 0.16535459458827972, -0.1317279040813446, -0.11026939004659653, -0.16935645043849945, 0.15500755608081818, -0.14067892730236053, 0.04300259053707123, 0.11223410069942474, -0.07527751475572586, 0.17280106246471405, -0.022211894392967224, 0.03407315909862518, 0.0643530935049057, -0.07857563346624374, -0.13497018814086914, -0.09967156499624252, 0.14427505433559418, -0.16725264489650726, -0.004498541355133057, -0.02103734016418457, 0.12824659049510956, 0.02765803039073944, -0.1375676989555359, -0.15626133978366852, -0.12341975420713425, -0.0346369594335556, -0.15514081716537476, 0.023030176758766174, -0.0032370835542678833, 0.04078647494316101, 0.08512400090694427, -0.17497718334197998, -0.12137264013290405, -0.09193424135446548, -0.09486543387174606, -0.16272063553333282, 0.11322353780269623, 0.04366232454776764, 0.03173287212848663, 0.032530322670936584, 0.028050869703292847, -0.09234083443880081, 0.16167311370372772, 0.05399520695209503, -0.13261909782886505, 0.16731621325016022, 0.04194475710391998, 0.010686621069908142, 0.06358496844768524, -0.004205197095870972, 0.12828968465328217, 0.05748485028743744, 0.08781115710735321, -0.13358654081821442], [0.09917561709880829, 0.1428399533033371, 0.07095009088516235, 0.13148312270641327, 0.01805393397808075, 0.07562173902988434, 0.010141462087631226, 0.025118380784988403, -0.16508540511131287, 0.1226835697889328, 0.12626998126506805, 0.017467588186264038, -0.09705508500337601, -0.15424224734306335, -0.08587799221277237, -0.023271888494491577, 0.164146289229393, 0.12130074203014374, -0.0812232568860054, -0.039039865136146545, -0.1427178680896759, 0.13960088789463043, 0.10501860082149506, 0.06443902850151062, 0.15858425199985504, 0.09075386822223663, 0.038889482617378235, 0.12996725738048553, 0.12914817035198212, -0.13864104449748993, 0.0834750384092331, -0.0570797324180603, -0.06067919731140137, 0.1106792539358139, 0.040150389075279236, -0.13705521821975708, 0.09753517806529999, 0.11427982151508331, -0.1719662994146347, 0.035559967160224915, 0.01857513189315796, -0.027363672852516174, 0.12932415306568146, -0.0901927798986435, -0.051685139536857605, 0.009434744715690613, -0.005618557333946228, 0.06057484447956085, -0.1190212219953537, 0.08202232420444489, -0.08755341917276382, -0.03184974193572998, 0.0008340924978256226, -0.14794011414051056, 0.13007552921772003, 0.014265239238739014, 0.14137019217014313, -0.13201504945755005, -0.1662766933441162, -0.06676498800516129, 0.1548868864774704, 0.09802643954753876, 0.16263626515865326, 0.05491834878921509], [-0.019109755754470825, -0.058778077363967896, 0.15965180099010468, -0.1147647276520729, 0.017058774828910828, -0.029709860682487488, 0.09137023985385895, 0.17342115938663483, 0.1736760288476944, -0.15062351524829865, 0.13967202603816986, -0.09080032259225845, -0.06890507787466049, -0.023332923650741577, -0.020588994026184082, 0.032132506370544434, 0.07250833511352539, -0.02685883641242981, -0.007158130407333374, 0.017331674695014954, 0.16577623784542084, -0.009444311261177063, -0.1023380234837532, -0.09072087705135345, 0.10418005287647247, 0.07324303686618805, -0.011583805084228516, -0.05484417825937271, -0.07029630243778229, 0.020830616354942322, -0.06993649899959564, 0.17380516231060028, 0.03254398703575134, -0.0911238044500351, 0.11620964109897614, 0.1233355849981308, 0.11899693310260773, 0.1666329950094223, 0.011800482869148254, -0.042126744985580444, 0.1328987032175064, -0.10215557366609573, -0.07559656351804733, -0.13063976168632507, 0.11816476285457611, 0.04868757724761963, -0.017766281962394714, -0.1592465490102768, -0.13964354991912842, -0.14222238957881927, 0.036050647497177124, 0.03575645387172699, 0.09346945583820343, -0.06739538162946701, -0.0648292675614357, 0.035212934017181396, -0.15030956268310547, 0.0705437958240509, -0.15710507333278656, 0.09513016045093536, -0.1725134551525116, 0.04793870449066162, 0.11927689611911774, 0.024370193481445312], [0.04745882749557495, -0.14464148879051208, -0.053550563752651215, 0.0850868970155716, -0.04512195289134979, 0.06677375733852386, 0.032566577196121216, -0.029925912618637085, -0.09269558638334274, -0.0007501691579818726, -0.16144873201847076, -0.021914467215538025, -0.16654719412326813, 0.08976317942142487, 0.047624796628952026, -0.12347251921892166, 0.1070416122674942, -0.17067930102348328, 0.14856649935245514, 0.1054079681634903, 0.12875841557979584, -0.13926300406455994, -0.03890529274940491, 0.12418337166309357, -0.11256083101034164, -0.04808428883552551, -0.16819614171981812, 0.036301031708717346, -0.14994731545448303, -0.011106833815574646, -0.12920807301998138, 0.11377285420894623, -0.08639480173587799, -0.17342092096805573, 0.1373114436864853, -0.07934780418872833, -0.13214120268821716, 0.09247086942195892, 0.15569867193698883, 0.07438047230243683, -0.04600042104721069, 0.012750387191772461, -0.09256631880998611, 0.12466926872730255, -0.022898882627487183, 0.004786744713783264, 0.02285635471343994, 0.023713454604148865, 0.05604034662246704, -0.15942715108394623, 0.09684760868549347, 0.09438474476337433, 0.16282303631305695, -0.08606698364019394, 0.02136942744255066, 0.027903959155082703, 0.032272934913635254, 0.11671875417232513, 0.12159998714923859, 0.03788074851036072, 0.12320475280284882, 0.03151509165763855, 0.013908043503761292, -0.0106717050075531], [0.1388702243566513, -0.10682506114244461, -0.0036232322454452515, 0.06901200115680695, 0.1735527664422989, -0.037666842341423035, -0.1344541758298874, 0.07939057052135468, 0.13542293012142181, -0.09975775331258774, -0.02848242223262787, -0.10603009164333344, -0.04814894497394562, 0.06775438785552979, -0.12088065594434738, 0.09013496339321136, 0.11625324189662933, 0.1575799137353897, -0.03443393111228943, -0.11015348136425018, -0.16827912628650665, 0.15064112842082977, -0.07658684998750687, -0.1470704972743988, -0.09110597521066666, 0.11700646579265594, -0.14583955705165863, -0.13281875848770142, -0.08305854350328445, -0.09493674337863922, -0.03815335035324097, 0.16064052283763885, 0.10008712112903595, 0.013771653175354004, 0.15548183023929596, 0.03594468533992767, -0.07105368375778198, 0.08968918025493622, -0.06946361064910889, -0.14324958622455597, 0.11180205643177032, 0.02407841384410858, 0.0967690497636795, 0.0013408660888671875, 0.06337755918502808, 0.013672560453414917, -0.10340716689825058, -0.0752456933259964, 0.0839071124792099, 0.09491343796253204, -0.06099525839090347, 0.10420067608356476, -0.04230852425098419, 0.004730314016342163, -0.03910987079143524, -0.0013958215713500977, 0.11377854645252228, -0.15479150414466858, 0.11667083203792572, -0.003267437219619751, -0.07733575999736786, -0.09189454466104507, -0.11121014505624771, 0.023156151175498962], [0.1336698681116104, -0.03314635157585144, -0.06503131985664368, -0.031572625041007996, 0.004324093461036682, 0.15313638746738434, 0.07663671672344208, 0.1532452553510666, -0.14800283312797546, -0.13185696303844452, -0.01683640480041504, -0.0009046792984008789, 0.04861229658126831, -0.12947528064250946, -0.04548318684101105, 0.0537598580121994, -0.05518771708011627, -0.17014631628990173, -0.052315324544906616, 0.14607147872447968, 0.015157699584960938, -0.16692133247852325, 0.06333908438682556, 0.01705165207386017, 0.1280735284090042, -0.06419799476861954, 0.08356873691082001, -0.09574853628873825, 0.11101315915584564, -0.0671435073018074, 0.04367804527282715, -0.15674437582492828, 0.09592680633068085, 0.07585097849369049, -0.09560143947601318, 0.09218056499958038, -0.03626967966556549, -0.036934882402420044, 0.10650305449962616, -0.15996363759040833, 0.027441471815109253, -0.050793230533599854, 0.02350546419620514, -0.13312464952468872, -0.019247829914093018, -0.12854716181755066, 0.10668028891086578, 0.03921814262866974, -0.05949213355779648, -0.05310186743736267, -0.1310976892709732, 0.039790078997612, 0.027715638279914856, -0.1296505331993103, -0.10820330679416656, 0.173275426030159, -0.16290700435638428, 0.07382403314113617, 0.030197083950042725, 0.12282635271549225, 0.03945247828960419, -0.06157726049423218, -0.11719091236591339, 0.009024441242218018], [-0.10999172180891037, 0.08755509555339813, 0.13872893154621124, -0.10005320608615875, 0.15089558064937592, 0.07305553555488586, 0.1370943933725357, 0.1650051325559616, 0.027439743280410767, -0.10181351006031036, 0.10322053730487823, 0.07980622351169586, 0.0007172524929046631, 0.005273580551147461, -0.12412963062524796, -0.04615476727485657, -0.11167245358228683, -0.06930577009916306, 0.082013800740242, -0.1063341349363327, 0.060328781604766846, 0.17014913260936737, -0.1007302924990654, -0.0634269192814827, 0.004916593432426453, -0.16823087632656097, -0.11858951300382614, 0.00037425756454467773, 0.16198642551898956, 0.16416124999523163, -0.08964752405881882, 0.07918675243854523, -0.11338197439908981, 0.031858891248703, -0.08787314593791962, -0.013821303844451904, 0.07442046701908112, 0.12189681828022003, -0.13520130515098572, 0.023020699620246887, 0.07458646595478058, 0.15885604918003082, 0.11856777966022491, -0.002529323101043701, -0.055055879056453705, -0.017783865332603455, -0.16227197647094727, -0.06614420562982559, -0.05995001643896103, 0.1549808830022812, 0.046659842133522034, -0.17533990740776062, 0.03923159837722778, -0.07992947101593018, 0.009261265397071838, 0.07865433394908905, 0.05802491307258606, -0.08377373218536377, -0.12481363117694855, -0.006118163466453552, 0.12952645123004913, 0.09472785890102386, 0.11674116551876068, 0.14328183233737946], [-0.14494313299655914, 0.051961421966552734, 0.010578185319900513, 0.007624834775924683, 0.05064879357814789, -0.004303112626075745, -0.06572788208723068, 0.031216531991958618, 0.1134643703699112, -0.16050957143306732, -0.0756901353597641, -0.002684757113456726, -0.11766009032726288, 0.09189100563526154, -0.02201966941356659, 0.10251979529857635, 0.08000271022319794, 0.06368295848369598, -0.13246968388557434, 0.0337875634431839, 0.1482710987329483, -0.04985646903514862, 0.06078562140464783, 0.020435914397239685, -0.08883737772703171, -0.04114067554473877, 0.11966611444950104, -0.1641157865524292, -0.0955173596739769, 0.08591808378696442, -0.15257184207439423, -0.15788179636001587, -0.06666771322488785, -0.0871075913310051, 0.13366122543811798, 0.0412820428609848, 0.10965366661548615, 0.004450410604476929, -0.16926316916942596, -0.029588773846626282, 0.03705419600009918, 0.1358685940504074, 0.14757095277309418, 0.1708715707063675, 0.10766686499118805, -0.0323294997215271, 0.053100988268852234, 0.06619031727313995, 0.026957720518112183, -0.01062057912349701, 0.014360561966896057, -0.17377819120883942, -0.1165737509727478, -0.09244173765182495, 0.1309843808412552, 0.1513894945383072, -0.057499803602695465, -0.17256930470466614, -0.031482428312301636, -0.06515548378229141, 0.1500614434480667, -0.04519730806350708, -0.15473076701164246, 0.044904857873916626], [0.07045161724090576, -0.09443338215351105, 0.10039083659648895, 0.02471756935119629, 0.06199447810649872, 0.011666029691696167, 0.0849938839673996, 0.06828463077545166, -0.1124102771282196, -0.17227183282375336, -0.06496354937553406, 0.058953702449798584, 0.10659085214138031, -0.1694602519273758, -0.14224691689014435, 0.07037287950515747, -0.10698610544204712, -0.14308631420135498, 0.1184857040643692, -0.1648227572441101, 0.1268220990896225, -0.12231862545013428, -0.042776480317115784, 0.01124979555606842, -0.013562604784965515, -0.09186605364084244, 0.033876121044158936, -0.0573008731007576, -0.043602511286735535, 0.015138939023017883, -0.04025277495384216, -0.10113460570573807, 0.08518163859844208, 0.003015860915184021, -0.04577159881591797, 0.1676463931798935, 0.08749045431613922, -0.01718500256538391, 0.034630924463272095, 0.06382516026496887, -0.024005159735679626, 0.11101163923740387, -0.06951718032360077, 0.07610519230365753, 0.08014892041683197, 0.06194630265235901, 0.15754298865795135, -0.05757061392068863, -0.10165351629257202, -0.07340632379055023, 0.03782708942890167, -0.09755237400531769, -0.010527223348617554, -0.06778363883495331, 0.1445881873369217, -0.06711464375257492, -0.0799119845032692, 0.06912453472614288, -0.061749979853630066, 0.12275989353656769, -0.148178830742836, -0.03884001076221466, 0.13920564949512482, -0.1414703130722046], [0.15635453164577484, 0.13722334802150726, 0.14805449545383453, -0.16425086557865143, 0.03362412750720978, -0.015485391020774841, -0.049228236079216, 0.09025920927524567, -0.059462666511535645, -0.09794143587350845, -0.018333882093429565, -0.08537358045578003, 0.1268940418958664, 0.1655362993478775, -0.008476614952087402, 0.09083037078380585, 0.02697448432445526, -0.03196513652801514, 0.1524226814508438, 0.15344123542308807, 0.12225671112537384, -0.1222364753484726, 0.049861401319503784, 0.17170946300029755, -0.018293753266334534, 0.08688931167125702, 0.10398070514202118, -0.06605856865644455, -0.13007810711860657, 0.07025499641895294, 0.14577461779117584, -0.061164893209934235, -0.1306471824645996, -0.0276930034160614, -0.06460205465555191, 0.1393975466489792, -0.021733775734901428, -0.17641617357730865, -0.14234280586242676, 0.00686761736869812, -0.12650203704833984, -0.06540697813034058, 0.12862806022167206, -0.16541562974452972, -0.016561567783355713, 0.09000442922115326, 0.08077679574489594, -0.03689253330230713, 0.06576493382453918, 0.14808692038059235, 0.1124584823846817, 0.14630435407161713, 0.0760008841753006, -0.09668360650539398, -0.09737835079431534, -0.1699863225221634, -0.06501678377389908, 0.049403056502342224, -0.04267098009586334, 0.08221252262592316, 0.12984217703342438, -0.05711045116186142, 0.041068434715270996, -0.14021429419517517], [-0.03183870017528534, 0.10509420931339264, -0.017237424850463867, -0.12544667720794678, -0.0126095712184906, -0.10645678639411926, 0.0985676497220993, 0.15242071449756622, -0.07916703820228577, 0.15456639230251312, -0.16966529190540314, 0.16382308304309845, 0.024534478783607483, 0.05875670909881592, 0.17160771787166595, -0.16298653185367584, -0.1351456344127655, -0.07552129030227661, -0.040785595774650574, 0.09092141687870026, 0.02186262607574463, -0.10216677933931351, -0.10600923001766205, 0.041696250438690186, -0.023946240544319153, 0.02623876929283142, 0.020878374576568604, 0.004857555031776428, 0.10995294153690338, -0.09090422093868256, -0.17630767822265625, 0.1252966672182083, 0.01164938509464264, 0.020861640572547913, -0.10685169696807861, 0.12743820250034332, -0.10714069753885269, -0.02281084656715393, -0.07997579127550125, -0.1358477622270584, 0.13778288662433624, -0.16378247737884521, -0.10283257812261581, -0.024209871888160706, 0.1536017805337906, 0.086107537150383, -0.050765588879585266, 0.0727943480014801, 0.060322850942611694, 0.11491535604000092, -0.14740249514579773, 0.07853473722934723, 0.13890303671360016, -0.17632943391799927, -0.047460854053497314, 0.08965839445590973, 0.08249010145664215, -0.1379537135362625, 0.09252847731113434, -0.05653274804353714, -0.09390052407979965, 0.1683848649263382, 0.025834128260612488, 0.05516411364078522], [0.15593035519123077, 0.17640496790409088, -0.04764305055141449, -0.056870847940444946, 0.12289319932460785, 0.08401821553707123, -0.026242569088935852, 0.09157459437847137, -0.02026990056037903, -0.13819517195224762, 0.1754501909017563, 0.14442987740039825, -0.10377586632966995, -0.08068398386240005, -0.1096336841583252, 0.14013691246509552, 0.11080814898014069, 0.00807259976863861, -0.005087539553642273, 0.1283760517835617, 0.1370055228471756, -0.13169533014297485, -0.0031713396310806274, -0.04216846823692322, -0.10981167107820511, -0.16316743195056915, 0.015321776270866394, 0.06309488415718079, 0.05046170949935913, -0.10786352306604385, -0.04958450794219971, -0.08908836543560028, -0.1312388777732849, -0.14505264163017273, -0.14370490610599518, -0.032987698912620544, 0.030713841319084167, -0.12269187718629837, -0.14311763644218445, -0.031032010912895203, 0.1146550327539444, -0.08583964407444, -0.050549790263175964, 0.12354598939418793, 0.10256414115428925, -0.020941585302352905, 0.011571213603019714, -0.020190492272377014, 0.17440088093280792, 0.07031375169754028, 0.08880995213985443, -0.07686611264944077, -0.09638132899999619, 0.09877265989780426, -0.09643182158470154, -0.02202320098876953, 0.10706977546215057, 0.08395646512508392, 0.09568499028682709, -0.015364125370979309, -0.05878891050815582, -0.07837619632482529, 0.17160768806934357, 0.1461656540632248], [-0.09058162569999695, -0.07859712839126587, 0.019984349608421326, 0.009652718901634216, -0.009868636727333069, -0.16502496600151062, -0.17092497646808624, 0.07187609374523163, -0.035502687096595764, 0.15004278719425201, 0.06429092586040497, 0.10908536612987518, -0.047578275203704834, -0.08997997641563416, 0.013034582138061523, 0.1499892920255661, -0.1519881933927536, -0.10867362469434738, 0.11069445312023163, 0.09592960774898529, 0.13788928091526031, 0.16104651987552643, 0.17065195739269257, -0.09659964591264725, -0.08441756665706635, -0.0930994376540184, 0.051489368081092834, 0.04712982475757599, -0.03963266313076019, -0.07836068421602249, -0.17629264295101166, -0.07689730077981949, 0.08067990839481354, -0.08926592767238617, -0.1189364641904831, 0.09631924331188202, 0.009959131479263306, -0.042680591344833374, -0.16454622149467468, 0.04190559685230255, 0.16780538856983185, -0.06977613270282745, 0.033902719616889954, -0.02770717442035675, 0.06201554834842682, 0.08649866282939911, 0.09141369163990021, -0.023925378918647766, 0.022698819637298584, 0.009377926588058472, 0.018591687083244324, -0.045340269804000854, 0.12111161649227142, 0.0035154223442077637, -0.14840027689933777, -0.11000517010688782, 0.09267137944698334, 0.04374215006828308, -0.053842052817344666, 0.059954941272735596, 0.16082815825939178, 0.08478669822216034, -0.0021352916955947876, 0.06070902943611145], [0.022326499223709106, -0.008753612637519836, 0.139047309756279, 0.0572972446680069, -0.04299488663673401, -0.07448212057352066, 0.016001254320144653, 0.1451445072889328, -0.008756384253501892, 0.114649698138237, -0.16738514602184296, -0.04554244875907898, 0.11730201542377472, -0.03861384093761444, -0.11596836149692535, -0.004299357533454895, 0.018525898456573486, 0.07971246540546417, -0.12519940733909607, -0.16863662004470825, -0.0986228659749031, -0.04912750422954559, 0.07915861904621124, 0.1761741191148758, 0.12262575328350067, -0.1387827843427658, 0.08432750403881073, 0.09304438531398773, -0.13214343786239624, 0.003369852900505066, 0.023121803998947144, 0.11299033463001251, 0.16940142214298248, -0.12331527471542358, -0.0469956248998642, -0.08760416507720947, -0.02879805862903595, 0.10662104189395905, 0.1016758531332016, -0.04235875606536865, 0.10381890833377838, -0.12147438526153564, -0.0529540553689003, 0.13823433220386505, -0.06403669714927673, -0.06433400511741638, 0.15330640971660614, -0.0807931050658226, 0.15843336284160614, 0.017195120453834534, 0.15678299963474274, 0.01922839879989624, -0.10131549835205078, -0.11321688443422318, 0.12945114076137543, 0.07833810150623322, -0.06813720613718033, 0.07651056349277496, 0.11209703981876373, 0.055111050605773926, 0.0035418570041656494, 0.08858723938465118, -0.09232974797487259, -0.07332788407802582], [0.08835525810718536, -0.15047895908355713, 0.14701144397258759, 0.13692836463451385, 0.028871729969978333, 0.15424521267414093, -0.14118625223636627, 0.1375456601381302, -0.008702948689460754, -0.15649685263633728, 0.01837719976902008, 0.02850884199142456, 0.13418440520763397, -0.13029757142066956, 0.061076730489730835, -0.15467555820941925, 0.12585391104221344, 0.11984620988368988, -0.05913565307855606, -0.008990094065666199, 0.025165125727653503, 0.017186760902404785, 0.08358658850193024, -0.16908569633960724, -0.0019279718399047852, -0.04729638993740082, -0.07143975049257278, 0.1678713709115982, 0.10496808588504791, -0.011989131569862366, -0.11193414777517319, 0.12818790972232819, -0.14032691717147827, 0.12386520206928253, 0.08988405764102936, 0.1499854177236557, 0.01291745901107788, -0.1560203731060028, 0.040773823857307434, -0.026899680495262146, -0.16870102286338806, -0.001089543104171753, 0.10606695711612701, 0.1412511020898819, -0.07961294800043106, 0.07374037802219391, 0.046370938420295715, 0.13304220139980316, 0.03924195468425751, 0.13629509508609772, 0.15039385855197906, -0.1438557505607605, -0.07318593561649323, 0.14904500544071198, 0.009780973196029663, -0.013053134083747864, -0.005807921290397644, 0.10697336494922638, -0.17675431072711945, -0.17301222681999207, -0.046572983264923096, 0.07659073173999786, -0.049650758504867554, -0.014933168888092041], [-0.10979650169610977, 0.08054967224597931, -0.13228386640548706, -0.08940219134092331, -0.010172814130783081, 0.11212767660617828, 0.10513986647129059, -0.01535642147064209, -0.08469535410404205, -0.06284327059984207, -0.020773932337760925, 0.11896254122257233, -0.008851855993270874, -0.001971215009689331, 0.08992551267147064, 0.1632937341928482, -0.11927418410778046, 0.16506023705005646, -0.06376051157712936, -0.015035420656204224, -0.14506569504737854, 0.045042797923088074, 0.0214034765958786, 0.12452875077724457, -0.029807016253471375, -0.06968100368976593, -0.1251886934041977, 0.17385418713092804, 0.16243226826190948, -0.024115964770317078, 0.0023779720067977905, 0.09527163207530975, -0.018772795796394348, -0.018502086400985718, -0.17144322395324707, 0.16129161417484283, -0.09758327156305313, -0.1494678556919098, -0.16549932956695557, 0.07881410419940948, 0.07713644206523895, -0.08436134457588196, -0.123725026845932, 0.08107398450374603, -0.039117708802223206, 0.16646547615528107, -0.14006024599075317, -0.07860774546861649, 0.15977899730205536, 0.14776621758937836, -0.1503491848707199, 0.14702780544757843, -0.12732352316379547, -0.09364485740661621, 0.07658912241458893, 0.09723661839962006, -0.03613540530204773, 0.0919063538312912, -0.13355079293251038, 0.028831392526626587, 0.02852313220500946, 0.1490723043680191, 0.10928358137607574, -0.16076548397541046], [0.10517530143260956, -0.09205714613199234, 0.10433788597583771, 0.009002014994621277, -0.14999355375766754, -0.010692238807678223, -0.07496684789657593, -0.026201561093330383, -0.00764155387878418, 0.05637195706367493, 0.023168161511421204, 0.11994077265262604, 0.05019015073776245, -0.030851036310195923, -0.10767107456922531, -0.007165133953094482, -0.12305618822574615, 0.037222281098365784, -0.035210952162742615, 0.09749753773212433, 0.1086343377828598, 0.1481444090604782, 0.15405292809009552, -0.11129266768693924, -0.01554901897907257, -0.11078593879938126, 0.015704885125160217, 0.008412003517150879, 0.05450008809566498, -0.008327886462211609, -0.018287524580955505, -0.12996001541614532, 0.0854557603597641, 0.036326661705970764, -0.034861549735069275, 0.07021103799343109, -0.010769233107566833, -0.07386576384305954, -0.12758563458919525, 0.019107982516288757, -0.032209500670433044, 0.16656698286533356, -0.038004323840141296, 0.1392587572336197, -0.05916460603475571, -0.13523325324058533, -0.17356151342391968, -0.11388925462961197, 0.02073165774345398, 0.0679255872964859, 0.13241730630397797, -0.04811817407608032, 0.0172872394323349, -0.13477858901023865, -0.06781747937202454, -0.17647214233875275, 0.06907114386558533, -0.00036178529262542725, -0.15902140736579895, -0.10216231644153595, 0.0001585632562637329, 0.09133689105510712, 0.14907033741474152, -0.051629260182380676], [0.09756378829479218, 0.15266291797161102, 0.0221949964761734, -0.04642082750797272, -0.13876377046108246, 0.06553652882575989, 0.10932956635951996, -0.04280690848827362, 0.052700966596603394, 0.060875847935676575, -0.03649359941482544, 0.05759324133396149, -0.11780671775341034, 0.10324589908123016, 0.16233865916728973, 0.03718364238739014, -0.10092184692621231, -0.01900683343410492, -0.15966300666332245, 0.006801411509513855, 0.08372341096401215, 0.14009468257427216, -0.1384497880935669, 0.16311021149158478, 0.0793934017419815, -0.02044340968132019, -0.14427511394023895, -0.01483328640460968, -0.1439501941204071, 0.0899544507265091, -0.12815162539482117, 0.02989053726196289, -0.012853056192398071, -0.1413985788822174, 0.039097100496292114, -0.034104809165000916, 0.00011274218559265137, 0.060675784945487976, -0.14420068264007568, -0.019931122660636902, 0.06476908922195435, 0.1491737812757492, -0.07965657114982605, 0.004980191588401794, 0.05795525014400482, 0.05716995894908905, 0.15398229658603668, 0.02859373390674591, -0.17571893334388733, 0.08314748108386993, -0.09142009168863297, -0.12511084973812103, 0.015379518270492554, -0.1295364797115326, -0.03219594061374664, -0.11972309648990631, 0.13392691314220428, 0.00046171247959136963, 0.08804135024547577, -0.04611968994140625, -0.0035989582538604736, -0.16526052355766296, 0.06590738892555237, 0.174232617020607], [-0.06027926504611969, -0.15651792287826538, -0.015248134732246399, 0.0929386168718338, 0.13144375383853912, 0.13268695771694183, 0.07949168980121613, 0.0998506098985672, -0.14910252392292023, -0.16581715643405914, 0.10368816554546356, 0.048179835081100464, -0.11137013882398605, -0.1481086164712906, 0.03371967375278473, 0.16089440882205963, 0.10379989445209503, 0.1276048868894577, -0.1163158118724823, 0.04646079242229462, -0.14908692240715027, 0.051886558532714844, 0.05127139389514923, 0.1423996239900589, 0.1570505052804947, 0.012937232851982117, -0.04375217854976654, 0.07630331814289093, 0.06410898268222809, 0.11386050283908844, 0.030167698860168457, -0.06553042680025101, -0.10713939368724823, 0.16340236365795135, 0.14520929753780365, 0.09193874895572662, 0.15734989941120148, 0.14920438826084137, -0.06841541826725006, 0.0178585946559906, 0.0634983628988266, 0.08885250985622406, -0.07781774550676346, 0.020598098635673523, 0.11573086678981781, 0.09972412884235382, 0.11194764077663422, 0.0719171017408371, 0.10871554911136627, 0.06659555435180664, 0.05841068923473358, 0.12230981886386871, 0.04558202624320984, -0.11407136917114258, 0.15034766495227814, 0.08162374794483185, -0.13870666921138763, -0.08255138993263245, -0.07489372789859772, 0.146005317568779, -0.10048031806945801, -0.14280898869037628, -0.01810552179813385, -0.020970582962036133], [-0.1442234367132187, -0.1311674416065216, -0.12193411588668823, -0.002604544162750244, 0.03664019703865051, -0.012824103236198425, 0.042575642466545105, 0.09286274015903473, 0.06343361735343933, 0.05809807777404785, 0.08327825367450714, 0.1037941426038742, 0.030893176794052124, -0.10076392441987991, 0.08833806216716766, -0.07478444278240204, 0.11549033224582672, 0.13794131577014923, 0.010239362716674805, -0.1027635857462883, 0.09892193973064423, 0.10937000811100006, -0.062402620911598206, 0.009762227535247803, 0.07220159471035004, -0.1132967546582222, -0.1548250913619995, -0.036574989557266235, 0.05827328562736511, 0.169099822640419, -0.12583425641059875, 0.0864381343126297, 0.0617583692073822, 0.11287592351436615, -0.11701102554798126, 0.0721154510974884, 0.13803814351558685, 0.1676139384508133, -0.007843777537345886, -0.16014820337295532, 0.0643666684627533, -0.09330334514379501, -0.020771309733390808, -0.05475153774023056, -0.11143466085195541, -0.12761440873146057, 0.048999711871147156, -0.13334503769874573, 0.11757688224315643, -0.03304266929626465, 0.15419571101665497, -0.03871217370033264, -0.04261632263660431, 0.10189126431941986, -0.14009325206279755, -0.03094176948070526, 0.15725712478160858, 0.06792125105857849, 0.031454578042030334, 0.16534258425235748, -0.037918299436569214, -0.17662711441516876, -0.08005764335393906, -0.04317574203014374], [-0.17073187232017517, -0.1418783813714981, -0.13540172576904297, -0.09121795743703842, -0.026366934180259705, 0.13714762032032013, 0.08701200783252716, 0.043070584535598755, 0.01714719831943512, -0.0466797798871994, -0.1380271315574646, 0.0605245977640152, -0.07042455673217773, 0.16204093396663666, -0.00954785943031311, 0.08814887702465057, -0.0616266131401062, 0.011010617017745972, -0.13503897190093994, -0.1739468276500702, 0.06600192189216614, -0.07242219150066376, -0.03355368971824646, 0.0518881231546402, 0.006370037794113159, 0.146132692694664, 0.14243920147418976, 0.03529389202594757, -0.05776546150445938, 0.0004197359085083008, -0.12521453201770782, 0.09772197902202606, -0.04432441294193268, -0.0493297278881073, 0.06487917900085449, -0.1141064390540123, 0.16020913422107697, -0.09697989374399185, -0.11785493791103363, 0.04652717709541321, -0.13125789165496826, -0.06964223086833954, -0.017220020294189453, 0.013284057378768921, 0.030923306941986084, 0.0016696453094482422, 0.05667085945606232, -0.018637120723724365, -0.05423536151647568, 0.013681963086128235, -0.02472856640815735, 0.0793372243642807, -0.12574423849582672, -0.10685916244983673, -0.0850752666592598, -0.08324192464351654, 0.14351074397563934, -0.07454774528741837, -0.020228803157806396, -0.0517081618309021, 0.13702310621738434, -0.12029443681240082, -0.17562811076641083, -0.01935674250125885], [0.07598765194416046, -0.14346614480018616, 0.06875613331794739, -0.1720436066389084, 0.1318007856607437, 0.12668664753437042, -0.117505744099617, -0.14443480968475342, -0.06121622771024704, 0.020985081791877747, -0.07001813501119614, -0.13396966457366943, -0.0006662607192993164, 0.11248297989368439, 0.1266004592180252, 0.09084151685237885, 0.12897415459156036, -0.17363181710243225, -0.12030307948589325, 0.1086515337228775,