{"id": "fce6cc73-9590-476e-86ac-3361a60c33a9", "population_size": 10, "crossover_prob": 0.5, "mutation_prob": 0.005, "fitness_rounds": 100, "tournament_size": 5, "generational_best_individuals": [{"non_splittable_weights": [[[0.16435597836971283, 0.1306810826063156, -0.15134453773498535, -0.06670606136322021, 0.131082221865654, 0.16693423688411713, 0.09340573847293854, -0.09139902889728546, -0.0023264139890670776, -0.16538064181804657, -0.07494302093982697, 0.06517015397548676, -0.18651969730854034, -0.10618352890014648, -0.10711661726236343, -0.08291077613830566, -0.14326626062393188, -0.21188828349113464, -0.04767075181007385, -0.06709159910678864, -0.01342417299747467, -0.0013972073793411255, -0.1887253373861313, 0.00899156928062439, 0.07839901745319366, 0.2061149924993515, 0.10690899193286896, 0.013520151376724243, -0.17790071666240692, 0.18808920681476593, -0.12839847803115845, 0.14740319550037384, -0.041193023324012756, 0.1820419877767563, 0.20978157222270966, -0.1370355784893036, -0.012344196438789368, 0.02075892686843872, -0.0003837496042251587, 0.16174156963825226, -0.08693335950374603, -0.18076130747795105, 0.1968057006597519, 0.1103077381849289, -0.025325730443000793, 0.057320788502693176, 0.10851280391216278, 0.10124178230762482, 0.10189802944660187, 0.16127289831638336, -0.036060601472854614, -0.11395855993032455, 0.15270917117595673, -0.14860209822654724, 0.016986623406410217, -0.1852193921804428, 0.16407747566699982, 0.1617691069841385, -0.12736573815345764, -0.08719959855079651, -0.17009307444095612, -0.14466458559036255, -0.08604787290096283, -0.16758771240711212, 0.0353190153837204, 0.06081230938434601, -0.027241289615631104, 0.15015055239200592, -0.1752130389213562, -0.18579091131687164, -0.13823910057544708, -0.1377674788236618, -0.0009259432554244995, -0.20542080700397491, 0.19246993958950043, 0.14305199682712555, 0.006391242146492004, 0.12035806477069855, 0.06072668731212616, -0.1173461377620697, -0.13797923922538757, -0.20710702240467072, 0.12228278815746307, -0.031109213829040527, -0.2078801989555359, -0.12038450688123703, -0.19966651499271393, -0.012137740850448608, -0.09174201637506485, 0.21184073388576508, -0.024590060114860535, -0.07589825987815857, 0.11929686367511749, -0.1369737982749939, 0.1539265662431717, -0.06596793234348297, 0.0765358954668045, 0.1604665070772171, -0.03512251377105713, -0.11817876249551773, -0.036222293972969055, -0.07863026857376099, -0.14245088398456573, -0.04276968538761139, -0.15438660979270935, 0.08293257653713226, -0.08293001353740692, 0.009956702589988708, -0.13945823907852173, -0.1614721566438675, 0.15469010174274445, -0.11275764554738998, 0.09497110545635223, 0.03879369795322418, -0.1476288139820099, 0.13765044510364532, -0.030603662133216858, 0.13332028687000275, -0.11761238425970078, 0.03924156725406647, -0.08722873032093048, 0.06323657929897308, 0.029258400201797485, 0.07675077021121979, -0.18718194961547852, -0.1764790117740631, 0.030909046530723572, 0.19516806304454803], [-0.1462884545326233, -0.09706496447324753, -0.10461707413196564, -0.1251634657382965, -0.06174305081367493, 0.043965891003608704, -0.1905951350927353, -0.13135617971420288, -0.14895713329315186, -0.06507061421871185, 0.08006574213504791, 0.052327707409858704, -0.13478493690490723, 0.14399759471416473, -0.10634160041809082, 0.010833650827407837, 0.1435224860906601, 0.08077175915241241, 0.004057377576828003, 0.03247642517089844, 0.10875634849071503, 0.07662071287631989, -0.180375874042511, 0.06366871297359467, 0.018092676997184753, -0.08790874481201172, -0.024512499570846558, -0.09932081401348114, -0.06885628402233124, 0.1844237595796585, -0.17424602806568146, 0.019914716482162476, -0.2006489336490631, 0.18000589311122894, 0.16338033974170685, -0.030138373374938965, -0.18960663676261902, 0.04629547894001007, 0.1935046762228012, 0.006347715854644775, 0.0555623322725296, 0.20788224041461945, -0.13665182888507843, 0.041019752621650696, 0.14853154122829437, 0.06845594942569733, 0.1443140059709549, 0.11029167473316193, 0.07889895141124725, -0.07631884515285492, -0.18926182389259338, 0.1923580914735794, 0.1671699732542038, -0.1367267370223999, 0.1929476410150528, -0.01818259060382843, 0.07340376079082489, 0.08347751200199127, -0.04684099555015564, 0.07282917201519012, -0.17464835941791534, -0.20944803953170776, 0.20774473249912262, -0.14217473566532135, 0.19510270655155182, 0.04095824062824249, -0.11938881129026413, 0.00987929105758667, 0.09966365993022919, 0.12914417684078217, -0.1872505247592926, 0.09896011650562286, -0.11369159817695618, 0.04324053227901459, 0.0036666840314865112, 0.05825735628604889, 0.036587998270988464, 0.024234622716903687, -0.05116547644138336, -0.02916957437992096, 0.07356561720371246, -0.044185519218444824, -0.04085947573184967, -0.17066827416419983, -0.18765795230865479, 0.2065393179655075, 0.10928918421268463, -0.1429479718208313, -0.1152186170220375, 0.08605130016803741, 0.0968003123998642, -0.0305355042219162, -0.19077153503894806, -0.13648416101932526, 0.010047107934951782, 0.09010426700115204, -0.18538133800029755, 0.0782967060804367, -0.18101245164871216, 0.03448791801929474, 0.025896340608596802, -0.10250812023878098, -0.17586392164230347, 0.04589147865772247, -0.026792123913764954, 0.1392187625169754, -0.1750738024711609, 0.026821061968803406, -0.07416106760501862, -0.0976361334323883, 0.1445106416940689, 0.1716151386499405, 0.11983855068683624, -0.11692804098129272, -0.01751875877380371, -0.15045113861560822, -0.0012252479791641235, -0.18035301566123962, 0.027108535170555115, -0.05088545382022858, 0.17103229463100433, 0.08631835877895355, 0.20587916672229767, 0.14341191947460175, 0.005155384540557861, 0.016146287322044373, -0.04643090069293976, 0.07361708581447601], [0.12542803585529327, 0.19121183454990387, -0.0383724719285965, -0.16254939138889313, -0.05750381946563721, 0.1706247180700302, -0.08331596851348877, 0.07110969722270966, 0.1443888396024704, 0.1572612076997757, -0.21284331381320953, 0.1480923742055893, 0.0183611661195755, 0.17554010450839996, -0.17628420889377594, 0.18068762123584747, -0.09063279628753662, 0.21318645775318146, 0.09002406895160675, 0.11101575195789337, 0.19029875099658966, -0.20890645682811737, -0.18911047279834747, 0.13333077728748322, -0.08501763641834259, 0.021199718117713928, 0.05637912452220917, 0.1706192046403885, 0.005955904722213745, -0.11570054292678833, 0.10633949935436249, -0.09095756709575653, 0.19632358849048615, -0.059873297810554504, -0.01875630021095276, -0.1628628373146057, 0.023479506373405457, -0.06816266477108002, 0.08544985949993134, 0.13971789181232452, 0.011276289820671082, -0.21344010531902313, 0.06760479509830475, 0.08138395845890045, 0.06873969733715057, -0.08895081281661987, 0.11208023130893707, 0.1942041665315628, -0.12143643200397491, -0.11232969909906387, -0.11874497681856155, 0.16993264853954315, 0.18584014475345612, -0.1580430418252945, 0.07832829654216766, 0.08221389353275299, -0.1559753268957138, 0.05880023539066315, -0.0640907883644104, -0.14932414889335632, 0.14140181243419647, -0.09165869653224945, 0.1401408463716507, -0.055794790387153625, -0.059591129422187805, 0.17940272390842438, 0.06490658223628998, 0.06237129867076874, -0.1381841003894806, -0.006945684552192688, -0.12545213103294373, -0.1547967493534088, 0.14681895077228546, 0.07378359138965607, 0.009672746062278748, -0.07687802612781525, 0.014070972800254822, 0.056332096457481384, 0.018504798412322998, -0.09924249351024628, -0.1421433985233307, 0.1474834829568863, -0.2073317915201187, -0.0832405537366867, 0.05542390048503876, 0.0039393603801727295, 0.08347056806087494, -0.0016426891088485718, 0.1714671105146408, -0.18721960484981537, 0.051230594515800476, -0.09045425802469254, 0.11902306973934174, 0.09621278941631317, 0.20592151582241058, -0.18420951068401337, 0.008047908544540405, 0.01696130633354187, 0.10264848172664642, 0.19140322506427765, 0.057884201407432556, -0.07555362582206726, 0.059559956192970276, -0.03366576135158539, -0.06225854158401489, -0.19639991223812103, 0.022437483072280884, -0.08033376932144165, -0.15848445892333984, 0.13724245131015778, -0.0005549490451812744, 0.14623482525348663, -0.047158509492874146, 0.1330782026052475, 0.20487122237682343, -0.14724117517471313, 0.15973062813282013, 0.025526300072669983, 0.003349006175994873, 0.18248696625232697, -0.15127575397491455, -0.1832464635372162, 0.0031759291887283325, -0.1461767554283142, 0.038949981331825256, 0.09055851399898529, -0.004320204257965088, 0.018865853548049927]], [[-0.007489368319511414, -0.10355880856513977, 0.14557529985904694, -0.1212579607963562, -0.026214882731437683, 0.0677114874124527, -0.15169104933738708, -0.037843361496925354, 0.11682040989398956, 0.15101279318332672, -0.11153510212898254, -0.0077527910470962524, 0.1434815376996994, 0.05478128790855408, -0.034669190645217896, -0.15463611483573914, -0.14172391593456268, 0.08088015019893646, -0.08616754412651062, 0.01724383234977722, -0.04259578883647919, -0.12589561939239502, 0.07076919078826904, -0.10800053924322128, 0.07956688106060028, -0.043885692954063416, 0.10622532665729523, 0.10812385380268097, 0.05689007043838501, -0.09074435383081436, 0.04773370921611786, -0.17320482432842255, -0.04117894172668457, 0.05335471034049988, 0.05043552815914154, -0.11664557456970215, -0.13762585818767548, 0.014614373445510864, -0.08092532306909561, 0.12159042060375214, 0.12568633258342743, -0.07024821639060974, -0.1234096810221672, -0.1263124644756317, -0.08001667261123657, 0.14946411550045013, 0.0121956467628479, 0.065005362033844, 0.10443384945392609, 0.0735337883234024, -0.012812390923500061, 0.1262623518705368, -0.06894145160913467, 0.04516701400279999, -0.14006307721138, -0.1562449038028717, 0.04973779618740082, -0.17424644529819489, -0.03481009602546692, 0.1742968112230301, 0.1260017603635788, 0.12229768931865692, 0.0002915710210800171, -0.05034470558166504], [-0.05697735399007797, -0.005971625447273254, 0.09465460479259491, -0.14192718267440796, 0.03909057378768921, -0.15541380643844604, -0.06433986127376556, -0.112510085105896, 0.1262691468000412, -0.07318463176488876, 0.08044366538524628, -0.07426219433546066, -0.15425561368465424, -0.05430106818675995, 0.10351167619228363, 0.008698225021362305, -0.16827499866485596, -0.08920393139123917, 0.11707063019275665, -0.049754440784454346, -0.1696707308292389, -0.08370625227689743, -0.1303006112575531, 0.09014351665973663, -0.10174687206745148, 0.039876654744148254, -0.03434652090072632, 0.12423424422740936, 0.09203590452671051, -0.15641382336616516, 0.12023214995861053, -0.14188960194587708, -0.15706191956996918, -0.00841929018497467, 0.08297459781169891, -0.04010272026062012, -0.08369744569063187, 0.01322200894355774, -0.04834677278995514, 0.05121052265167236, 0.005107656121253967, -0.09002840518951416, -0.17539756000041962, 0.08670179545879364, 0.07210157811641693, -0.15009739995002747, 0.08579935133457184, 0.015917807817459106, 0.17233826220035553, 0.0403781533241272, 0.08828406035900116, -0.1127549558877945, -0.07573404908180237, -0.05495830625295639, -0.06624696403741837, 0.04094022512435913, 0.13999943435192108, -0.1367398500442505, 0.0012129396200180054, 0.17629899084568024, -0.15212512016296387, -0.038136571645736694, -0.03576025366783142, -0.009602904319763184], [-0.06250663846731186, 0.13918493688106537, 0.08531035482883453, -0.10957392305135727, -0.01989150047302246, -0.14315935969352722, 0.15101028978824615, 0.1469268649816513, 0.01535557210445404, 0.14339317381381989, -0.04650627076625824, 0.16148881614208221, 0.1708565205335617, -0.05968710035085678, 0.006038963794708252, 0.04186783730983734, -0.14260222017765045, -0.13831757009029388, 0.07742579281330109, -0.16535046696662903, -0.16844716668128967, 0.06562158465385437, -0.1131734773516655, -0.134253591299057, 0.004372015595436096, 0.15087135136127472, 0.07761581242084503, 0.016866281628608704, 0.09179528057575226, -0.05386245250701904, 0.11678214371204376, -0.055668823421001434, -0.17197254300117493, 0.11039026081562042, 0.02080567181110382, 0.13733933866024017, -0.15468521416187286, -0.1449471414089203, -0.010922059416770935, -0.00675538182258606, 0.11629597842693329, -0.07759533822536469, 0.15065227448940277, -0.05243325233459473, -0.0223110169172287, 0.08447395265102386, -0.14964377880096436, -0.17104598879814148, 0.1202387660741806, 0.13651780784130096, 0.0839528888463974, -0.11967626959085464, -0.15491579473018646, -0.10155784338712692, -0.03224112093448639, -0.043313175439834595, -0.13454167544841766, 0.049909114837646484, 0.1466549187898636, -0.09628944844007492, -0.1154337227344513, 0.15034686028957367, 0.060306236147880554, -0.042853981256484985], [0.02695763111114502, 0.15015791356563568, 0.1626591831445694, -0.10817115008831024, -0.14002838730812073, 0.11523179709911346, -0.1689845472574234, -0.05895286053419113, -0.011830195784568787, -0.04734182357788086, 0.017618611454963684, -0.1207866296172142, 0.029293909668922424, -0.07104533910751343, -0.00802437961101532, 0.08668787777423859, -0.03188005089759827, 0.0018835365772247314, 0.016044974327087402, 0.022302135825157166, -0.05161800980567932, 0.12954317033290863, 0.005577161908149719, 0.023078426718711853, -0.02525573968887329, 0.03073631227016449, 0.007051423192024231, -0.0801413431763649, -0.03420010209083557, 0.014137566089630127, -0.08839007467031479, -0.02706468105316162, 0.1540462225675583, 0.08773772418498993, -0.1641836315393448, -0.05908680707216263, 0.08930201828479767, 0.07887627184391022, 0.09365276992321014, 0.019894063472747803, -0.07304714620113373, 0.07639943063259125, -0.03234390914440155, 0.1144668310880661, 0.10590200126171112, -0.153631791472435, -0.13381940126419067, 0.004114627838134766, 0.009851574897766113, -0.15183709561824799, 0.17115671932697296, 0.065715491771698, -0.13171134889125824, -0.15961222350597382, 0.006405100226402283, 0.019379541277885437, 0.08401547372341156, 0.15023471415042877, -0.132528156042099, 0.14104785025119781, 0.06895211338996887, -0.11713473498821259, 0.0909537822008133, -0.043551355600357056], [0.08762376010417938, -0.020458295941352844, 0.13788412511348724, 0.003084227442741394, 0.06415298581123352, -0.05934246629476547, 0.0011791884899139404, -0.13969135284423828, -0.05213291198015213, -0.10750944167375565, 0.12138219177722931, -0.16831794381141663, -0.16064570844173431, 0.17381168901920319, 0.05638118088245392, 0.13837163150310516, -0.027101904153823853, -0.11270391941070557, 0.1635672003030777, 0.10660924017429352, -0.10798388719558716, -0.002453923225402832, -0.022981584072113037, 0.16952742636203766, 0.1413344293832779, -0.07604572921991348, -0.02790568768978119, -0.08412068337202072, -0.1350705772638321, -0.04412113130092621, 0.1100911945104599, -0.06989135593175888, -0.06068990379571915, 0.03875347971916199, 0.0224217027425766, 0.11060573160648346, 0.04319247603416443, 0.048657357692718506, 0.08859272301197052, 0.0460251122713089, -0.012376084923744202, -0.01666410267353058, -0.16941751539707184, 0.048408105969429016, -0.15914329886436462, 0.04672037065029144, 0.10944192111492157, -0.111659474670887, 0.07825256884098053, -0.0027761310338974, -0.1026749461889267, 0.12195886671543121, -0.00040212273597717285, -0.11195391416549683, -0.06679145991802216, 0.08121789991855621, 0.12801583111286163, -0.07536640018224716, -0.17525923252105713, -0.09915535151958466, -0.13521404564380646, 0.1095697432756424, -0.1280178427696228, 0.01579001545906067], [-0.00382937490940094, -0.15569829940795898, 0.1371908038854599, 0.09734068810939789, 0.0013422966003417969, -0.10282545536756516, 0.1737099140882492, -0.037518277764320374, 0.12861381471157074, 0.08891816437244415, -0.17068618535995483, -0.15554378926753998, -0.1521477997303009, 0.1642230898141861, 0.09061039984226227, -0.10728088021278381, 0.15776433050632477, 0.14279578626155853, 0.12487836182117462, 0.12305431067943573, 0.022662565112113953, 0.08532913029193878, 0.05438591539859772, 0.06690049171447754, -0.16098642349243164, 0.045866936445236206, 0.055714502930641174, 0.15025411546230316, 0.17001192271709442, -0.06509142369031906, 0.05312761664390564, -0.04911814630031586, -0.08578147739171982, 0.031062528491020203, 0.14018918573856354, -0.12216778099536896, 0.12180717289447784, 0.1115914136171341, 0.12648193538188934, -0.048639655113220215, -0.022127389907836914, 0.07115893065929413, 0.05658344924449921, 0.018258482217788696, 0.012010589241981506, 0.1180603951215744, 0.04001885652542114, 0.07820238173007965, -0.019298195838928223, 0.16800867021083832, -0.16871556639671326, -0.1616273820400238, -0.14849114418029785, -0.05827745795249939, -0.08450392633676529, 0.12551043927669525, -0.06693075597286224, 0.15971492230892181, 0.011931732296943665, 0.12489919364452362, -0.005212381482124329, 0.14577777683734894, 0.09323973953723907, 0.05396595597267151], [0.09712381660938263, -0.16983485221862793, 0.15632934868335724, -0.10092943906784058, 0.16744361817836761, 0.13697417080402374, 0.04494312405586243, -0.03643253445625305, -0.14426301419734955, 0.0865275114774704, 0.07456977665424347, 0.001682877540588379, -0.14995978772640228, 0.16679032146930695, -0.0656690001487732, -0.15687844157218933, -0.06198570877313614, -0.06953977048397064, 0.13875307142734528, 0.03053303062915802, 0.0914672464132309, -0.1322663426399231, -0.04591746628284454, -0.02921152114868164, 0.13390488922595978, 0.08221946656703949, -0.009389057755470276, -0.15786544978618622, -0.11607342958450317, 0.015446603298187256, 0.1613202542066574, -0.1102294772863388, 0.1681237369775772, 0.16258706152439117, 0.027726128697395325, 0.015168607234954834, 0.06015375256538391, -0.0990523025393486, -0.15402784943580627, 0.05681130290031433, 0.002674981951713562, 0.010560601949691772, -0.003247871994972229, 0.12408064305782318, 0.16319970786571503, -0.13556444644927979, -0.11133928596973419, 0.1732112020254135, 0.02399955689907074, -0.10571533441543579, -0.13027650117874146, 0.11489368975162506, -0.011692047119140625, -0.085658960044384, 0.0677662342786789, 0.0820365697145462, -0.035899803042411804, 0.17283086478710175, 0.13440768420696259, 0.14385886490345, -0.05643947422504425, 0.13177578151226044, 0.17288069427013397, 0.03107479214668274], [0.0935303121805191, -0.10848408937454224, -0.10319609194993973, -0.12473161518573761, -0.04682759940624237, 0.10346044600009918, -0.04686206579208374, -0.08082707226276398, -0.11463364958763123, -0.040700286626815796, -0.02503758668899536, 0.033792123198509216, -0.028516605496406555, 0.014348089694976807, 0.1073179692029953, -0.09821517765522003, 0.05091258883476257, 0.08560143411159515, -0.024594828486442566, -0.10392304509878159, 0.004095494747161865, -0.15093426406383514, 0.08627332746982574, -0.10741659253835678, -0.014085561037063599, 0.09360034763813019, 0.046974942088127136, 0.09123118221759796, 0.15381239354610443, 0.15620596706867218, -0.10184907913208008, -0.0424344539642334, -0.13595741987228394, -0.13605251908302307, -0.03609152138233185, -0.09724947065114975, -0.13710373640060425, 0.12290631234645844, -0.12044987082481384, -0.0851733461022377, 0.0421157032251358, 0.0004235804080963135, -0.052970074117183685, 0.09029136598110199, -0.08241133391857147, 0.002197161316871643, 0.06277722120285034, -0.05026702582836151, 0.13952325284481049, -0.07075962424278259, -0.019108489155769348, -0.0953594371676445, -0.13136067986488342, -0.16388848423957825, -0.080598384141922, 0.10101895034313202, 0.16660825908184052, 0.13795964419841766, 0.13533078134059906, -0.11225893348455429, -0.16578082740306854, 0.13573794066905975, 0.11560691893100739, -0.06205330789089203], [0.07981039583683014, -0.10676871240139008, -0.06599032878875732, -0.07612888514995575, 0.1644713431596756, -0.06691806763410568, 0.11665843427181244, -0.011725634336471558, 0.00813998281955719, -0.11422941833734512, -0.04095679521560669, -0.03422476351261139, -0.019142046570777893, 0.12698225677013397, -0.08894948661327362, -0.06447283178567886, 0.1343797892332077, -0.13867589831352234, 0.10914544761180878, 0.03557455539703369, 0.13990367949008942, 0.09134195744991302, 0.04821890592575073, 0.16422699391841888, 0.05234980583190918, 0.0005971789360046387, -0.024900108575820923, 0.16324098408222198, 0.11741863191127777, -0.042081475257873535, 0.09899957478046417, -0.045897915959358215, -0.16835634410381317, -0.11610874533653259, 0.13772083818912506, -0.009201958775520325, 0.13904045522212982, -0.14854757487773895, 0.12751983106136322, 0.03528568148612976, -0.11105268448591232, -0.02020372450351715, 0.008565634489059448, -0.1714925765991211, -0.06581133604049683, -0.06525242328643799, -0.09963923692703247, -0.11452150344848633, 0.05539950728416443, 0.1662604659795761, 0.16376595199108124, 0.0014232993125915527, 0.037480100989341736, -0.000280529260635376, 0.12122200429439545, -0.029123425483703613, 0.1303640455007553, 0.12195859849452972, -0.1372883915901184, 0.03716963529586792, 0.12875814735889435, 0.16838334500789642, -0.04701754450798035, -0.05300004035234451], [-0.07334756851196289, -0.11523596942424774, 0.04687437415122986, 0.003244459629058838, -0.07137256860733032, 0.07190889120101929, -0.03981822729110718, 0.148694708943367, 0.015943437814712524, -0.03918902575969696, -0.1330561637878418, 0.15925882756710052, 0.15917010605335236, -0.1536550521850586, -0.06493093073368073, -0.07433435320854187, 0.0018516778945922852, -0.11752117425203323, 0.14641110599040985, -0.007231801748275757, 0.04095417261123657, 0.0009794533252716064, -0.10311458259820938, -0.10062842071056366, -0.05646350234746933, -0.044181570410728455, 0.04140177369117737, -0.10422860831022263, -0.004028350114822388, 0.06402650475502014, 0.147164985537529, 0.022145181894302368, 0.11459566652774811, -0.07248815149068832, -0.05581873655319214, -0.0727967917919159, 0.002053990960121155, -0.14084793627262115, 0.012149587273597717, -0.14037445187568665, 0.10126332938671112, 0.1175544410943985, 0.028537794947624207, -0.054282233119010925, 0.003667786717414856, 0.03371676802635193, -0.0863889828324318, 0.005555927753448486, 0.1286344677209854, -0.1594078093767166, -0.16008195281028748, 0.08476151525974274, -0.022825047373771667, 0.023572146892547607, 0.053313449025154114, -0.023335441946983337, 0.036333441734313965, -0.02966265380382538, -0.006939694285392761, -0.0038552135229110718, 0.15001241862773895, 0.12396998703479767, -0.10832595825195312, -0.06523122638463974], [-0.1440989375114441, -0.08034348487854004, -0.0669594556093216, 0.11568887531757355, -0.0901450663805008, 0.13141782581806183, -0.09977777302265167, -0.007249802350997925, 0.17336668074131012, 0.17164523899555206, -0.14108867943286896, 0.02672848105430603, 0.05168767273426056, -0.12540428340435028, -0.12014468759298325, 0.08494223654270172, -0.0953773483633995, -0.05389726161956787, -0.10349857807159424, 0.05847710371017456, -0.1297990083694458, -0.06215699017047882, -0.018523111939430237, 0.0010844022035598755, 0.005164042115211487, -0.13844873011112213, 0.10471446812152863, 0.039210349321365356, 0.06144930422306061, 0.0758480578660965, 0.0884561687707901, 0.11772717535495758, 0.0768299251794815, 0.05899117887020111, -0.09844517707824707, -0.14087119698524475, -0.12056565284729004, -0.05422474443912506, 0.15421836078166962, -0.12214311957359314, 0.157374307513237, 0.08793480694293976, 0.039646655321121216, -0.12446781992912292, 0.12109728157520294, -0.15114867687225342, -0.12574709951877594, -0.09522482007741928, 0.17617754638195038, 0.029068976640701294, 0.13914014399051666, 0.02858053147792816, -0.09954524785280228, 0.1686485856771469, -0.08568399399518967, -0.10165546089410782, -0.0576421394944191, -0.11441203951835632, 0.17084135115146637, 0.12133018672466278, 0.07738368213176727, 0.0013452023267745972, 0.0842152088880539, 0.024547412991523743], [-0.048225775361061096, 0.003583163022994995, -0.07892060279846191, -0.150466188788414, 0.14919449388980865, 0.10011263191699982, 0.0479072630405426, 0.037008136510849, -0.16998055577278137, 0.006134301424026489, -0.04039134085178375, -0.1560373306274414, 0.02577228844165802, 0.02672143280506134, -0.13855557143688202, -0.12139590084552765, 0.07721038162708282, -0.04413866996765137, 0.026455238461494446, 0.07314875721931458, 0.03809270262718201, -0.01367788016796112, -0.08060862869024277, -0.08989062905311584, 0.017892688512802124, -0.11222892254590988, 0.14392317831516266, 0.12542574107646942, -0.1342395693063736, -0.029107749462127686, -0.1641470044851303, 0.06662581861019135, -0.06526974588632584, 0.05260002613067627, -0.17017856240272522, -0.06200189143419266, 0.08091242611408234, -0.12740489840507507, 0.0673394501209259, -0.06993182003498077, 0.13638930022716522, -0.17383138835430145, 0.06444501876831055, 0.07308296859264374, 0.024879366159439087, -0.013133764266967773, -0.08870604634284973, 0.10345874726772308, -0.07250446081161499, 0.09236933290958405, -0.014806866645812988, -0.056303299963474274, -0.14402711391448975, -0.06269752234220505, 0.10464631021022797, 0.06400290131568909, -0.04577337205410004, -0.15055418014526367, -0.10998603701591492, 0.16245539486408234, -0.027676954865455627, -0.1408064216375351, -0.10154309123754501, -0.17067871987819672], [0.13957776129245758, 0.1499031037092209, -0.05003038048744202, -0.05178166180849075, 0.12961111962795258, 0.05421382188796997, -0.053781867027282715, 0.006355404853820801, 0.17053140699863434, -0.0118132084608078, -0.1463969498872757, 0.17361204326152802, 0.11343304812908173, -0.15885046124458313, 0.015567868947982788, -0.006067916750907898, -0.06023067235946655, 0.017860442399978638, 0.16338403522968292, 0.038076892495155334, 0.01012168824672699, 0.1570272594690323, 0.14239291846752167, 0.10810728371143341, -0.11966244876384735, -0.09115275740623474, -0.1689634621143341, -0.0750245526432991, 0.017657965421676636, 0.004326716065406799, -0.019482970237731934, 0.13087792694568634, 0.11926816403865814, 0.12113593518733978, 0.14927692711353302, -0.05703197419643402, 0.12170569598674774, -0.07960624992847443, -0.17211073637008667, 0.09129779040813446, 0.1139228492975235, -0.14885057508945465, -0.1437891572713852, 0.06078709661960602, 0.15868856012821198, -0.1663152575492859, -0.12937472760677338, -0.09236089885234833, 0.0931311696767807, -0.07217580080032349, -0.014218538999557495, 0.05925184488296509, -0.15838667750358582, -0.05954877287149429, 0.14171768724918365, 0.07607163488864899, 0.10790605843067169, 0.14833427965641022, -0.16078558564186096, -0.060742080211639404, 0.1726517528295517, -0.15278877317905426, -0.03596179187297821, -0.15505783259868622], [-0.14248302578926086, 0.03033675253391266, -0.02278277277946472, -0.021676167845726013, 0.13587959110736847, 0.09178294241428375, 0.031032010912895203, 0.061283499002456665, -0.1190277561545372, -0.031991735100746155, 0.14954324066638947, -0.0009514689445495605, -0.11323387175798416, -0.05027852952480316, -0.15557147562503815, -0.1744215190410614, 0.0035741329193115234, 0.013845622539520264, 0.10408316552639008, 0.13029174506664276, -0.07501789182424545, -0.1230667307972908, 0.0007694810628890991, 0.11291287839412689, -0.13884899020195007, -0.16656582057476044, 0.12813438475131989, -0.028888419270515442, -0.1495577096939087, 0.11661218106746674, -0.10008363425731659, -0.035132259130477905, -0.11865699291229248, 0.06016188859939575, -0.09647097438573837, -0.1625179946422577, -0.15409456193447113, -0.15400007367134094, -0.014134407043457031, 0.10898281633853912, 0.09210409224033356, -0.06070730835199356, 0.07351557910442352, -0.12272155284881592, 0.006277725100517273, 0.06657452881336212, -0.0014048367738723755, 0.11642463505268097, 0.15380911529064178, 0.15407423675060272, -0.08231658488512039, -0.08032704144716263, -0.07586386054754257, 0.03835661709308624, 0.14737407863140106, 0.14443843066692352, -0.08611844480037689, 0.048817768692970276, 0.0763772577047348, 0.050565898418426514, -0.03919656574726105, 0.0902295857667923, 0.02914278209209442, -0.14292901754379272], [-0.11533910036087036, 0.041297465562820435, -0.10561283677816391, 0.06333525478839874, -0.14430280029773712, -0.10377131402492523, 0.02675911784172058, -0.07918823510408401, -0.06837335973978043, -0.07003950327634811, -0.1565999835729599, -0.004107460379600525, 0.09662012755870819, -0.01636776328086853, 0.06707602739334106, 0.10380692780017853, 0.17374573647975922, 0.03988069295883179, -0.1702212542295456, 0.04357212781906128, 0.041615039110183716, -0.008468866348266602, 0.15944840013980865, -0.003513023257255554, 0.16537980735301971, -0.039688289165496826, -0.01899009943008423, 0.04762345552444458, -0.10981711000204086, 0.01515302062034607, 0.1554771512746811, 0.09679032862186432, -0.1263154149055481, 0.09579746425151825, 0.05609416961669922, 0.10693906247615814, 0.1702580600976944, -0.032707005739212036, -0.020965740084648132, -0.04632449150085449, -0.028247371315956116, 0.08786351978778839, -0.056930653750896454, 0.12908171117305756, -0.17426596581935883, -0.08257271349430084, -0.07686438411474228, 0.1106899231672287, 0.08383543789386749, -0.03901815414428711, -0.0703786164522171, -0.07753140479326248, 0.08923740684986115, 0.041752442717552185, -0.15272247791290283, -0.1558067351579666, 0.019586101174354553, -0.013237610459327698, -0.029724866151809692, 0.06347382068634033, 0.08537279069423676, 0.013715222477912903, 0.035841166973114014, -0.004888907074928284], [0.0718097984790802, 0.1095571368932724, 0.0466214120388031, -0.16614599525928497, 0.04658886790275574, 0.05046507716178894, -0.14798828959465027, 0.11167488992214203, -0.10264860838651657, -0.033819690346717834, -0.04025141894817352, 0.03831636905670166, 0.008268624544143677, -0.1732315570116043, -0.12202216684818268, 0.10445670783519745, 0.049490854144096375, 0.13235940039157867, -0.02382490038871765, -0.1339564174413681, -0.15965145826339722, 0.030268222093582153, -0.0874372199177742, 0.11816586554050446, -0.15857094526290894, -0.005277380347251892, 0.16599203646183014, 0.1369054764509201, 0.10404999554157257, -0.020491033792495728, -0.14968153834342957, -0.044321030378341675, 0.06245340406894684, 0.06426407396793365, -0.017884641885757446, 0.032821014523506165, -0.03792427480220795, 0.17553092539310455, -0.07668602466583252, 0.13082583248615265, -0.07309156656265259, -0.16649572551250458, -0.11010025441646576, -0.16910545527935028, -0.07050371170043945, 0.02875371277332306, 0.07768876850605011, 0.17527811229228973, 0.048406749963760376, 0.12944556772708893, -0.002537667751312256, -0.10242278128862381, -0.07146204262971878, 0.10425563156604767, -0.008242234587669373, 0.09014813601970673, 0.09269781410694122, -0.07591637969017029, -0.16177865862846375, -0.10862869769334793, 0.16290368139743805, -0.0554385706782341, -0.13833025097846985, -0.12858518958091736], [-0.0025805681943893433, 0.11179573833942413, -0.15925143659114838, 0.15311573445796967, -0.10696402192115784, -0.07975401729345322, -0.07533736526966095, -0.09479319304227829, -0.0660039409995079, -0.16798637807369232, -0.07641813904047012, -0.12239263206720352, 0.0684618204832077, 0.16067220270633698, 0.11681322753429413, 0.11900012195110321, -0.05979723483324051, -0.14027562737464905, 0.17192526161670685, -0.10537693649530411, 0.03703059256076813, 0.15801699459552765, 0.1124974936246872, 0.11053921282291412, 0.007704183459281921, -0.1288003921508789, 0.1138211041688919, -0.12299482524394989, 0.12854014337062836, 0.11100991070270538, -0.0713680163025856, -0.02244749665260315, -0.10792969167232513, -0.021924331784248352, -0.07820520550012589, 0.1565885692834854, 0.11384756863117218, -0.05670453608036041, 0.09116114675998688, 0.062017396092414856, 0.17415432631969452, -0.15752430260181427, -0.08322708308696747, -0.13614940643310547, -0.14446839690208435, 0.04943256080150604, 0.1728849858045578, 0.029254674911499023, -0.12709474563598633, -0.040611013770103455, 0.1357751041650772, -0.05951366573572159, 0.023791268467903137, 0.08196668326854706, -0.03450398147106171, -0.03025612235069275, -0.0736551582813263, -0.012371569871902466, 0.1541210263967514, -0.07806313037872314, 0.07062281668186188, -0.1299721598625183, -0.031933605670928955, -0.17003463208675385], [-0.00809025764465332, -0.027698233723640442, -0.17414575815200806, 0.07956288754940033, 0.04824638366699219, 0.0622195303440094, -0.1763749122619629, 0.10825856029987335, 0.08508820831775665, -0.055131614208221436, 0.13714344799518585, 0.11654581129550934, -0.0455518513917923, 0.0244559645652771, -0.09218046814203262, -0.07007630169391632, -0.05438502877950668, -0.0012498199939727783, 0.019697323441505432, 0.09443746507167816, -0.0708959698677063, 0.16162477433681488, 0.16283805668354034, -0.10123908519744873, -0.09577082842588425, -0.002493739128112793, 0.049660876393318176, -0.10090941935777664, -0.10047876089811325, 0.13546781241893768, 0.15863223373889923, 0.04091110825538635, -0.11706653237342834, 0.11266051232814789, -0.14730706810951233, 0.11949761211872101, -0.0984245240688324, -0.011534109711647034, 0.016396760940551758, -0.13106182217597961, -0.11328507959842682, -0.11132638901472092, 0.06957992911338806, 0.07485966384410858, -0.17411558330059052, -0.061417356133461, 0.14791087806224823, 0.1664057821035385, -0.14771968126296997, -0.022662103176116943, 0.12418754398822784, 0.09170867502689362, -0.029916584491729736, 0.12680931389331818, 0.09735642373561859, 0.12834320962429047, -0.012508630752563477, 0.02294445037841797, 0.15344791114330292, 0.1240340918302536, 0.07530359923839569, 0.147915318608284, 0.044102758169174194, -0.15688417851924896], [-0.049794599413871765, 0.1370430439710617, -0.11929500848054886, 0.08311699330806732, 0.029590502381324768, -0.02935709059238434, 0.024916157126426697, 0.16274096071720123, 0.07059356570243835, 0.06615576148033142, -0.009948551654815674, -0.11906898021697998, -0.07203713804483414, -0.16176187992095947, 0.05994917452335358, 0.1135409027338028, 0.12780706584453583, -0.08339002728462219, -0.05073343217372894, 0.0678437352180481, -0.04334154725074768, -0.10743151605129242, -0.03805893659591675, 0.08849163353443146, 0.09743304550647736, 0.05896538496017456, -0.07601386308670044, 0.11888740956783295, 0.010079294443130493, -0.08121427893638611, -0.1317204087972641, -0.03407016396522522, -0.117059625685215, 0.07311850786209106, -0.005364701151847839, 0.14149825274944305, 0.17553193867206573, -0.019414067268371582, 0.13993175327777863, 0.14264680445194244, -0.0930088609457016, -0.15279926359653473, -0.0411047637462616, 0.08410914242267609, 0.001644238829612732, -0.04693898558616638, 0.16408146917819977, -0.11686734855175018, -0.07996273040771484, -0.1636059731245041, 0.1294492930173874, -0.02206994593143463, 0.14319880306720734, 0.11434073746204376, -0.05859322100877762, 0.052688613533973694, -0.03831839561462402, -0.06991419941186905, 0.08827801048755646, -0.1173977255821228, -0.16788117587566376, 0.13498492538928986, -0.059274062514305115, 0.12148351967334747], [-0.08805757761001587, -0.08323294669389725, 0.09239526093006134, -0.12939997017383575, 0.07332901656627655, -0.07572802156209946, -0.0010300278663635254, -0.098016157746315, 0.16526462137699127, -0.1523389369249344, -0.12351159006357193, -0.14899766445159912, 0.02794778347015381, -0.04639221727848053, 0.11630590260028839, -0.1045626625418663, -0.10750012844800949, 0.09015785157680511, -0.15331514179706573, 0.09044422209262848, -0.1561281532049179, -0.15789085626602173, 0.14522601664066315, 0.16811104118824005, -0.1217140257358551, 0.08519576489925385, -0.10015208274126053, -0.09178555011749268, 0.1330036073923111, 0.1492799073457718, -0.15224668383598328, -0.03076939284801483, 0.11207278072834015, -0.15726590156555176, -0.1491721123456955, -0.03900560736656189, -0.17510662972927094, -0.03745409846305847, 0.11845935881137848, 0.07269163429737091, -0.11572884023189545, -0.1709764450788498, -0.1424558460712433, 0.026126325130462646, 0.014602914452552795, -0.12132686376571655, 0.16821245849132538, 0.0795498937368393, 0.13509045541286469, 0.08852477371692657, 0.006537437438964844, 0.026495829224586487, 0.10602591931819916, -0.13576452434062958, 0.00765383243560791, 0.010663911700248718, -0.1369493156671524, 0.10907785594463348, 0.12208743393421173, 0.08106710016727448, -0.17415545880794525, -0.09488848596811295, 0.001167386770248413, -0.1438455879688263], [0.025619715452194214, 0.10085327923297882, -0.10488732159137726, -0.06522486358880997, 0.10709546506404877, -0.0722026526927948, 0.028268232941627502, -0.09218797087669373, -0.051764801144599915, 0.15989671647548676, 0.04061329364776611, -0.05039292573928833, 0.12988032400608063, 0.1452108472585678, -0.031920090317726135, -0.13619399070739746, 0.03004656732082367, -0.011080190539360046, 0.12235714495182037, -0.1635598987340927, 0.12899135053157806, 0.15487490594387054, 0.009814485907554626, 0.06372952461242676, 0.1008254736661911, -0.05315442383289337, -0.10626569390296936, -0.11341691762208939, -0.043033063411712646, -0.08612915128469467, -0.0456337034702301, -0.10170451551675797, 0.030040204524993896, 0.1620626002550125, 0.02891308069229126, -0.14945292472839355, 0.11487658321857452, 0.04734688997268677, -0.056066855788230896, -0.12894347310066223, 0.07589103281497955, 0.12906746566295624, 0.15706093609333038, -0.0014661997556686401, 0.03679466247558594, -0.13576814532279968, 0.14659608900547028, 0.0733308345079422, 0.11921079456806183, -0.07579512149095535, -0.03271573781967163, 0.15611402690410614, 0.07197687029838562, -0.11932037770748138, -0.0800885334610939, 0.10299186408519745, 0.1574067622423172, -0.04329690337181091, -0.1390427052974701, -0.1243545264005661, -0.004613101482391357, -0.11798567324876785, 0.13012252748012543, 0.029960766434669495], [-0.022460684180259705, -0.09628590941429138, 0.007164120674133301, 0.13772179186344147, -0.1099727600812912, 0.052802786231040955, 0.0139218270778656, 0.00913962721824646, -0.15725810825824738, -0.15602532029151917, -0.17533552646636963, 0.062321409583091736, 0.0820530503988266, 0.07985572516918182, 0.11540059745311737, -0.11417960375547409, 0.15818314254283905, -0.13832291960716248, 0.029617682099342346, 0.08296321332454681, -0.07333408296108246, 0.15803994238376617, 0.1331232339143753, 0.15714021027088165, -0.1286858767271042, 0.15170179307460785, 0.027724534273147583, -0.007764369249343872, 0.08146007359027863, 0.031271904706954956, -0.05861130356788635, 0.1283222883939743, 0.0056523531675338745, -0.06024777889251709, 0.03936132788658142, 0.14964111149311066, -0.14412865042686462, 0.12207441031932831, -0.11422908306121826, 0.16027049720287323, 0.12637664377689362, -0.12318520247936249, 0.018486320972442627, -0.04405416548252106, -0.08474049717187881, 0.06691069900989532, -0.16868120431900024, 0.05011610686779022, 0.09282247722148895, 0.004532217979431152, -0.17639648914337158, -0.052413567900657654, -0.11628437042236328, 0.08133234083652496, -0.09097692370414734, -0.08589713275432587, 0.0824340432882309, 0.10504059493541718, 0.07153129577636719, -0.12117661535739899, -0.06850776076316833, 0.11467622220516205, -0.08427885919809341, -0.019932925701141357], [0.02296510338783264, -0.14942389726638794, 0.12243510782718658, 0.06173063814640045, 0.1643708199262619, 0.05307266116142273, -0.02901725471019745, -0.01368170976638794, 0.06654924154281616, 0.16788293421268463, -0.12174981087446213, -0.0304872989654541, 0.029191911220550537, -0.11537126451730728, 0.09460897743701935, -0.0029048919677734375, -0.14099477231502533, -0.07818400114774704, -0.0591667965054512, 0.143890842795372, 0.048895448446273804, -0.07697759568691254, 0.03622660040855408, -0.022038504481315613, 0.0037191659212112427, -0.09757041931152344, -0.09743297845125198, -0.14938566088676453, -0.003336802124977112, -0.134979709982872, -0.09585149586200714, 0.03125816583633423, -0.010514840483665466, -0.14980873465538025, -0.15044747292995453, 0.0732841044664383, 0.05768802762031555, -0.03564384579658508, 0.10308192670345306, 0.05325928330421448, 0.0261671245098114, -0.050073400139808655, 0.1419578343629837, 0.13405032455921173, 0.15699081122875214, -0.14412805438041687, 0.12379713356494904, -0.13713577389717102, 0.14352227747440338, 0.05340367555618286, 0.16930963099002838, -0.0522342324256897, 0.005710601806640625, -0.008686795830726624, 0.07643936574459076, 0.03041072189807892, 0.05204516649246216, 0.011661112308502197, 0.04441021382808685, -0.0784694254398346, 0.0578095018863678, 0.014347761869430542, -0.013727307319641113, -0.020325273275375366], [-0.07428714632987976, 0.0521966814994812, 0.14969836175441742, -0.01314079761505127, -0.13964249193668365, -0.13071857392787933, 0.12274535000324249, -0.02249668538570404, -0.0037484169006347656, 0.17169193923473358, -0.15277978777885437, -0.1314324587583542, 0.121829554438591, 0.05126623809337616, 0.04063592851161957, 0.10148851573467255, -0.03352941572666168, 0.012594148516654968, 0.10967637598514557, 0.10924781858921051, 0.02747763693332672, 0.10061691701412201, 0.06964707374572754, 0.0646882951259613, -0.04913340508937836, 0.10450838506221771, 0.1426791399717331, -0.13931721448898315, -0.05340886116027832, 0.02407883107662201, 0.008330106735229492, 0.10905598104000092, -0.11550069600343704, -0.07611261308193207, -0.17518796026706696, -0.1354532241821289, 0.13335050642490387, -0.02341906726360321, 0.1566864401102066, 0.020352035760879517, 0.1290506273508072, 0.014123156666755676, 0.014201924204826355, 0.1142069548368454, -0.03262680768966675, -0.10789327323436737, -0.10155181586742401, 0.09615899622440338, -0.05027204751968384, -0.09560038894414902, 0.05509229004383087, 0.003809615969657898, -0.028956741094589233, -0.08277703821659088, -0.025153443217277527, 0.03794476389884949, 0.013150572776794434, 0.09261254966259003, -0.0452229380607605, -0.11958518624305725, 0.12400542199611664, 0.06725533306598663, 0.05485057830810547, 0.09813390672206879], [-0.06061791628599167, 0.12299676239490509, 0.13086135685443878, -0.11831829696893692, 0.10338915884494781, -0.09787943959236145, -0.04175618290901184, -0.09871984273195267, -0.07448115199804306, -0.13505518436431885, 0.05324681103229523, -0.07822708040475845, 0.06697627902030945, 0.06715211272239685, -0.12894824147224426, 0.1211572140455246, 0.08669392764568329, -0.16147233545780182, -0.09107470512390137, 0.16310898959636688, 0.1508256047964096, -0.06383810192346573, -0.08833325654268265, -0.03610062599182129, -0.01585496962070465, -0.12289413809776306, -0.10461850464344025, 0.014558032155036926, 0.038172364234924316, 0.03375224769115448, 0.051822200417518616, 0.08211939036846161, 0.11365894973278046, -0.14508643746376038, -0.03106248378753662, 0.05844072997570038, -0.1018046960234642, -0.007256165146827698, 0.17323271930217743, -0.016391590237617493, -0.13501539826393127, 0.1575242131948471, 0.009356677532196045, 0.10799829661846161, -0.1594271957874298, -0.09777672588825226, 0.15771488845348358, -0.15528002381324768, 0.004256024956703186, -0.0998220294713974, -0.03426745533943176, -0.17224472761154175, -0.08104906231164932, -0.14513389766216278, -0.038811177015304565, 0.1535698026418686, 0.009062156081199646, -0.11127302795648575, 0.0006107091903686523, -0.0035279840230941772, 0.12593810260295868, 0.022410109639167786, -0.16048382222652435, -0.09051128476858139], [0.12739475071430206, -0.06613000482320786, 0.16740770637989044, -0.16158254444599152, 0.04562872648239136, 0.1466086059808731, 0.11350087821483612, 0.01167193055152893, 0.06643809378147125, -0.12061811983585358, -0.08199150860309601, -0.06011607497930527, 0.05347473919391632, -0.08581317216157913, 0.16651441156864166, 0.04314084351062775, -0.09864199906587601, -0.05803089588880539, -0.1767181009054184, 0.025518357753753662, 0.11963702738285065, -0.08053971827030182, 0.05725501477718353, -0.09542075544595718, 0.00922606885433197, 0.0406695157289505, 0.1128401905298233, 0.09647451341152191, -0.1620800495147705, -0.02597130835056305, -0.08174002170562744, -0.176008939743042, 0.018445059657096863, -0.0922064259648323, 0.1661449819803238, 0.11067025363445282, -0.050915464758872986, 0.015423640608787537, 0.14525489509105682, 0.09407900273799896, -0.005662053823471069, -0.16302599012851715, -0.166993647813797, 0.03523734211921692, 0.15676937997341156, -0.14862921833992004, -0.09774187207221985, -0.09621741622686386, 0.17326734960079193, -0.12799158692359924, 0.16530831158161163, -0.1400425136089325, 0.15644843876361847, -0.12675386667251587, -0.1243625357747078, 0.13206635415554047, -0.0715411975979805, 0.07771743834018707, 0.06982956826686859, 0.08049680292606354, -0.061926573514938354, -0.146248459815979, 0.17200039327144623, -0.0627579614520073], [-0.12483984977006912, -0.1590849608182907, 0.08534343540668488, 0.15994678437709808, -0.027943819761276245, -0.01399773359298706, -0.175431489944458, 0.1592320054769516, 0.1594713181257248, 0.17177943885326385, -0.08717747032642365, -0.17046840488910675, -0.044279515743255615, 0.10480032861232758, 0.024967074394226074, -0.1734420359134674, -0.10852395743131638, -0.07697325199842453, 0.10279498994350433, 0.1287098079919815, -0.08764457702636719, 0.13097192347049713, 0.0748363584280014, -0.16146259009838104, -0.17534981667995453, -0.05066700279712677, 0.15937809646129608, 0.01312689483165741, 0.0779840499162674, -0.1693219691514969, -0.091676726937294, 0.0421341210603714, 0.11934836208820343, 0.10493548214435577, 0.003155529499053955, 0.1506689041852951, -0.08300796151161194, 0.11452393233776093, -0.15861253440380096, -0.05243139714002609, 0.15548895299434662, -0.08881959319114685, -0.015179559588432312, -0.04743307828903198, 0.1176127940416336, 0.03687255084514618, 0.036861419677734375, -0.033536165952682495, 0.04616867005825043, 0.11983285844326019, 0.17453019320964813, 0.10267074406147003, 0.07088746130466461, -0.13787409663200378, 0.1560349315404892, -0.14681880176067352, 0.0788823813199997, -0.01854035258293152, -0.12131713330745697, 0.16951914131641388, 0.033250659704208374, 0.06588445603847504, 0.044439852237701416, -0.175885409116745], [-0.15304461121559143, -0.1530172973871231, 0.15427963435649872, 0.06364287436008453, -0.15089140832424164, 0.1254945546388626, 0.016732633113861084, 0.03622855246067047, -0.16412892937660217, -0.09404019266366959, -0.06419529765844345, 0.14208154380321503, -0.020732924342155457, 0.08892799913883209, -0.14465898275375366, 0.14844326674938202, -0.15251781046390533, 0.060586556792259216, 0.09195978939533234, -0.13868394494056702, 0.014186754822731018, -0.03463412821292877, 0.11308728158473969, -0.04559732973575592, 0.04912455379962921, -0.07886219024658203, -0.05233728140592575, -0.07425149530172348, -0.010438680648803711, -0.07333054393529892, 0.020242199301719666, 0.01757131516933441, 0.03376118838787079, -0.08934082090854645, -0.10409660637378693, -0.07648670673370361, 0.0863463431596756, -0.14685344696044922, 0.02420109510421753, 0.09621985256671906, -0.13727876543998718, 0.08664189279079437, 0.05547279119491577, 0.03212665021419525, 0.042081475257873535, 0.11215697228908539, 0.13000638782978058, -0.012960195541381836, 0.10435394942760468, 0.1343555897474289, -0.06818950921297073, 0.01839335262775421, -0.1650475263595581, 0.15321888029575348, 0.0174199640750885, -0.07009834051132202, 0.07274647057056427, 0.06149068474769592, -0.1683967113494873, 0.009534835815429688, 0.043343231081962585, 0.03950205445289612, 0.04766033589839935, -0.0805993527173996], [0.1610480695962906, -0.14468657970428467, 0.11750464141368866, 0.054044052958488464, -0.027674540877342224, -0.047444239258766174, -0.02782215178012848, 0.007938027381896973, 0.1391938477754593, -0.12038349360227585, 0.1138693243265152, 0.10168008506298065, 0.02392706274986267, 0.033835068345069885, -0.0873490497469902, 0.11921341717243195, -0.042891114950180054, -0.12983150780200958, -0.15258216857910156, -0.09589263796806335, 0.16106097400188446, -0.07711587846279144, 0.01566357910633087, -0.17198817431926727, 0.1028469055891037, 0.12276305258274078, -0.053721971809864044, 0.10339419543743134, 0.009146586060523987, 0.08819805085659027, -0.03623996675014496, -0.06458675861358643, 0.17658032476902008, 0.04301217198371887, -0.13311736285686493, -0.06929295510053635, -0.011677965521812439, 0.17301972210407257, 0.12147681415081024, 0.044037386775016785, -0.15735673904418945, 0.10293532907962799, -0.11206670105457306, 0.034330204129219055, -0.04177945852279663, -0.0903269350528717, 0.10285095870494843, -0.0642155259847641, -0.09590747207403183, 0.09815485775470734, 0.024175256490707397, -0.12762466073036194, 0.10054610669612885, 0.05154930055141449, -0.06430694460868835, 0.025284573435783386, 0.12804464995861053, 0.011161163449287415, 0.07081344723701477, -0.03789801895618439, -0.0010892003774642944, 0.13335101306438446, 0.08030091226100922, -0.011270910501480103], [0.07550008594989777, -0.09758655726909637, -0.045386627316474915, -0.06237522512674332, 0.09756572544574738, 0.1592666655778885, -0.16030730307102203, -0.1719668060541153, 0.04848763346672058, -0.10757165402173996, -0.04059740900993347, -0.17047612369060516, -0.09606054425239563, 0.08902783691883087, -0.015331417322158813, -0.004525810480117798, -0.0766066163778305, -0.08954422175884247, -0.05121810734272003, -0.14526008069515228, -0.10732260346412659, -0.14198341965675354, 0.008683055639266968, -0.06803154200315475, -0.13777142763137817, -0.10560622066259384, 0.07369481027126312, -0.12534506618976593, -0.07687083631753922, -0.03468179702758789, -0.04879020154476166, -0.16457770764827728, 0.06897976994514465, -0.041946396231651306, 0.0454573929309845, 0.12579254806041718, -0.14960706233978271, -0.02742275595664978, -0.12467403709888458, -0.1462952047586441, -0.15496595203876495, 0.16797612607479095, 0.1589418202638626, 0.1424558013677597, 0.1362553983926773, -0.042607009410858154, 0.14549635350704193, -0.0878518596291542, -0.04095013439655304, -0.1707826554775238, -0.08988839387893677, 0.1023164838552475, -0.08286028355360031, 0.0021893978118896484, -0.019644558429718018, 0.03128594160079956, -0.050619497895240784, 0.028351083397865295, 0.1537027209997177, -0.09059970825910568, -0.06438656151294708, -0.17493651807308197, 0.07552297413349152, -0.00026935338973999023], [-0.14772087335586548, -0.17565613985061646, -0.09575940668582916, -0.008174806833267212, -0.1024654358625412, -0.1458805650472641, -0.03684431314468384, -0.0664428174495697, -0.0629933550953865, 0.038677871227264404, 0.11347110569477081, 0.16343139111995697, 0.057794198393821716, -0.10453994572162628, 0.1585276573896408, -0.006872713565826416, 0.17211119830608368, 0.11124058067798615, 0.03255549073219299, -0.032877400517463684, 0.040266767144203186, 0.13424734771251678, 0.09085078537464142, 0.01985757052898407, 0.11218209564685822, 0.09598834812641144, 0.0407278835773468, -0.10922224819660187, 0.11446444690227509, -0.1321999430656433, -0.11308551579713821, 0.021509766578674316, 0.1590258628129959, 0.1585513800382614, -0.013255387544631958, 0.026928380131721497, -0.10111896693706512, -0.00813610851764679, 0.12805475294589996, 0.050966620445251465, 0.17281945049762726, 0.1604328602552414, 0.04969699680805206, -0.1509811282157898, -0.09140285849571228, -0.175281822681427, 0.10309626162052155, -0.070207379758358, -0.027077585458755493, -0.04754725098609924, 0.030079737305641174, -0.17545539140701294, -0.06866037845611572, 0.1307447999715805, -0.10311125218868256, 0.10217465460300446, 0.10005517303943634, 0.15494336187839508, 0.10153321921825409, 0.01284906268119812, -0.06433349847793579, 0.004649639129638672, -0.1369561403989792, -0.048610106110572815], [0.08058084547519684, -0.16940289735794067, -0.06585019081830978, -0.14448052644729614, -0.1076245903968811, 0.0400894433259964, -0.12307216227054596, 0.06583468616008759, 0.06271648406982422, -0.16040503978729248, 0.17278353869915009, -0.15826158225536346, -0.11004491150379181, -0.15439684689044952, -0.08984582871198654, -0.1704186648130417, -0.06525937467813492, 0.11996008455753326, 0.016654327511787415, 0.011963680386543274, -0.022037118673324585, 0.15842898190021515, 0.10273192822933197, 0.061765700578689575, 0.13619543612003326, -0.1636156290769577, -0.06033001095056534, -0.168711856007576, 0.11844317615032196, -0.09596829116344452, 0.0244176983833313, 0.027311116456985474, -0.06892931461334229, -0.0004134625196456909, -0.093898706138134, -0.030188560485839844, 0.10169093310832977, 0.12261976301670074, 0.0874788910150528, -0.08459517359733582, -0.03560042381286621, 0.021938860416412354, 0.023455098271369934, 0.12726615369319916, -0.1654958724975586, 0.08202947676181793, 0.010456383228302002, 0.039973169565200806, -0.15568262338638306, 0.09954525530338287, 0.16462285816669464, 0.03462393581867218, 0.06548482179641724, 0.09367509186267853, 0.016571849584579468, 0.027945294976234436, -0.0412677526473999, 0.16137109696865082, -0.04942460358142853, 0.06662005186080933, -0.09733565896749496, 0.08354221284389496, -0.12339302897453308, 0.006273016333580017], [-0.08437727391719818, -0.10236427932977676, 0.03434912860393524, -0.14130927622318268, -0.09212816506624222, -0.1619296669960022, 0.03200395405292511, -0.06607643514871597, 0.1423431783914566, -0.13480551540851593, 0.07398836314678192, 0.051177531480789185, -0.058454014360904694, -0.1272326558828354, -0.16983473300933838, -0.1527661383152008, 0.14539308845996857, 0.16346512734889984, 0.0236014723777771, 0.1146627813577652, -0.10646188259124756, -0.01921975612640381, 0.07983742654323578, 0.10520987212657928, 0.08215533196926117, 0.07467414438724518, 0.16098208725452423, 0.08873133361339569, 0.02709236741065979, 0.15038685500621796, 0.08564712107181549, -0.06068252772092819, 0.0965418666601181, 0.11190967261791229, 0.1540113240480423, 0.17071573436260223, 0.07810015976428986, -0.1430968940258026, 0.046587780117988586, 0.07367883622646332, 0.12439490854740143, -0.151779443025589, -0.13920475542545319, -0.07217816263437271, 0.16732020676136017, 0.15699274837970734, 0.11501289904117584, 0.015401765704154968, 0.09517256915569305, 0.08957086503505707, 0.012379631400108337, 0.026991769671440125, 0.1427655667066574, 0.07270950078964233, -0.164356991648674, -0.14986495673656464, 0.0015869140625, -0.08721952885389328, -0.06695304811000824, 0.11507408320903778, -0.07864344865083694, 0.043000996112823486, 0.12498842179775238, 0.08385474979877472], [-0.1083444133400917, -0.014475792646408081, -0.10409892350435257, -0.09498891979455948, -0.12669962644577026, 0.1237470954656601, 0.10019706189632416, -0.1100412905216217, 0.05039919912815094, -0.15133057534694672, 0.0172671377658844, -0.01966993510723114, 0.0252973735332489, -0.019841894507408142, -0.09619280695915222, 0.059202417731285095, 0.1250237673521042, 0.1075000911951065, -0.061210207641124725, 0.02429048717021942, 0.15043820440769196, 0.05250333249568939, 0.16865180432796478, -0.16367745399475098, 0.07728828489780426, 0.06536827981472015, -0.010775595903396606, 0.1274835616350174, -0.06950436532497406, 0.17656786739826202, -0.03286290168762207, -0.14917965233325958, 0.09967084228992462, -0.08325111120939255, 0.014214232563972473, 0.074405238032341, -0.15150101482868195, 0.013543009757995605, 0.05281543731689453, -0.15013550221920013, -0.17130282521247864, -0.13209572434425354, 0.010781839489936829, 0.10206209123134613, 0.07674722373485565, 0.015194311738014221, -0.13447554409503937, 0.04700170457363129, -0.15659788250923157, -0.023017361760139465, -0.11150690168142319, 0.008229419589042664, -0.14803478121757507, -0.13479629158973694, -0.14983351528644562, -0.12140243500471115, 0.08831961452960968, 0.0496547669172287, -0.16036289930343628, 0.06052595376968384, 0.12172974646091461, 0.0724252313375473, 0.034712016582489014, -0.16548040509223938], [-0.06940064579248428, -0.07759757339954376, 0.16639907658100128, -0.08753436803817749, -0.006528839468955994, -0.16585054993629456, -0.09709946811199188, -0.07695786654949188, -0.1671767383813858, -0.04673267900943756, -0.13204897940158844, 0.013575494289398193, -0.10437434911727905, -0.13071128726005554, 0.04128250479698181, 0.13048343360424042, -0.035787567496299744, -0.12929460406303406, -0.14167430996894836, -0.027708858251571655, -0.0071020424365997314, -0.11913590133190155, -0.1250188946723938, 0.05010358989238739, -0.03881154954433441, 0.1112445741891861, 0.03308965265750885, 0.10570614039897919, -0.0630812719464302, 0.0959378033876419, 0.1271144300699234, -0.058539487421512604, -0.14567877352237701, 0.03386141359806061, 0.07995574176311493, 0.1551084965467453, -0.011608928442001343, -0.15465852618217468, 0.12010987102985382, -0.04728737473487854, 0.0287303626537323, -0.05227195471525192, 0.12371031939983368, 0.039767831563949585, -0.08606968075037003, 0.15420950949192047, -0.010727420449256897, 0.1755310744047165, -0.015602082014083862, 0.0016219764947891235, -0.0949714332818985, -0.01333792507648468, 0.16452305018901825, -0.1593724936246872, 0.017439737915992737, -0.0037226229906082153, -0.149690642952919, -0.04049043357372284, 0.04619775712490082, 0.03835195302963257, -0.090058833360672, -0.0129326730966568, 0.1692376285791397, 0.12164773046970367], [-0.17374178767204285, -0.03288756310939789, -0.003637447953224182, -0.11014783382415771, -0.1208982765674591, 0.17119340598583221, -0.14972081780433655, -0.030778825283050537, 0.005089566111564636, -0.13256999850273132, -0.08823055028915405, -0.02426120638847351, -0.09588180482387543, 0.13179533183574677, -0.05565124750137329, -0.09799589216709137, -0.12163175642490387, 0.16377399861812592, -0.025935098528862, 0.05761857330799103, -0.13567015528678894, -0.008293017745018005, 0.11195100843906403, -0.008044108748435974, 0.028459906578063965, 0.026955902576446533, -0.03799466788768768, 0.11365421116352081, 0.1429278701543808, -0.05575791746377945, 0.060182660818099976, 0.07788555324077606, 0.04680450260639191, -0.08418900519609451, -0.13073235750198364, 0.05977451801300049, 0.1658519059419632, -0.07510669529438019, 0.004032731056213379, 0.06177686154842377, 0.10893867909908295, 0.08607031404972076, 0.11309470236301422, -0.0008826404809951782, 0.16875694692134857, 0.05619059503078461, -0.051361918449401855, 0.1743035465478897, -0.06814407557249069, -0.018774107098579407, -0.07248924672603607, 0.010809868574142456, -0.05080030858516693, -0.15883684158325195, -0.08391445875167847, -0.034596025943756104, 0.026463747024536133, -0.16880609095096588, 0.13433046638965607, 0.0556250661611557, 0.13317333161830902, 0.04248562455177307, 0.13686062395572662, 0.16453061997890472], [-0.022519350051879883, -0.16979077458381653, 0.10693325102329254, -0.1685171276330948, 0.15416143834590912, -0.09116949141025543, 0.15822730958461761, 0.15430264174938202, -0.10386762022972107, -0.04742448031902313, 0.17404769361019135, 0.17269553244113922, 0.17289729416370392, -0.00975017249584198, 0.08711110055446625, 0.14747755229473114, -0.00037536025047302246, 0.09886173903942108, -0.10969851166009903, 0.09587664902210236, -0.1610720157623291, 0.1682632714509964, -0.12893293797969818, 0.1173001080751419, 0.03800444304943085, 0.11992953717708588, 0.14583589136600494, -0.010883033275604248, -0.11348801851272583, 0.05632998049259186, -0.13792665302753448, -0.05990845710039139, 0.06314744055271149, -0.05040973424911499, -0.11053191870450974, 0.15489836037158966, 0.14240442216396332, 0.05253806710243225, -0.06908660382032394, 0.013674929738044739, 0.0710468590259552, 0.080202117562294, -0.08686856925487518, -0.07654398679733276, -0.14866891503334045, -0.05287592113018036, 0.05890338122844696, 0.07625208795070648, -0.08069157600402832, -0.1742415577173233, 0.005175888538360596, -0.1296396106481552, 0.09656880795955658, -0.024096697568893433, -0.08244244009256363, 0.011012211441993713, 0.0907689779996872, -0.15828590095043182, 0.11484973132610321, 0.11926491558551788, -0.10028180480003357, -0.06819010525941849, -0.041398778557777405, 0.028838053345680237], [0.056834980845451355, -0.16804403066635132, 0.14458121359348297, -0.0118865966796875, 0.024640396237373352, -0.10818666219711304, -0.07973673939704895, -0.08963479846715927, -0.16821497678756714, 0.10983817279338837, -0.16971713304519653, 0.1211385577917099, 0.006977543234825134, -0.04115137457847595, -0.16192485392093658, 0.05919419229030609, -0.13225048780441284, -0.01620045304298401, -0.16882193088531494, 0.007026940584182739, 0.16518361866474152, -0.04915843904018402, -0.12198511511087418, -0.057119809091091156, 0.0030542612075805664, 0.03365956246852875, 0.1714784950017929, 0.1362559050321579, 0.10745875537395477, 0.1213536411523819, -0.004186108708381653, -0.04798831045627594, -0.03933025896549225, -0.1546720266342163, 0.016604766249656677, 0.01824916899204254, 0.10068507492542267, 0.10436241328716278, -0.009400561451911926, -0.09069390594959259, 0.16475261747837067, -0.07061274349689484, 0.01780906319618225, -0.09171246737241745, -0.1128971204161644, 0.16037385165691376, -0.028170868754386902, 0.08615301549434662, 0.15763522684574127, -0.08352240920066833, -0.1174941211938858, 0.14025788009166718, 0.016730189323425293, 0.047815561294555664, 0.11558030545711517, -0.04770159721374512, -0.05020301043987274, 0.14804472029209137, -0.08261574804782867, -0.00045000016689300537, -0.060158342123031616, -0.10305903106927872, 0.13086111843585968, -0.15925607085227966], [-0.1445285826921463, -0.1402990221977234, -0.16757699847221375, 0.0405692458152771, -0.014189794659614563, 0.12552078068256378, 0.017221033573150635, -0.030292630195617676, -0.022449806332588196, -0.09717832505702972, 0.11547036468982697, -0.01789003610610962, 0.11829672753810883, 0.05870811641216278, 0.09855787456035614, -0.008300989866256714, -0.12962427735328674, -0.10356534272432327, -0.14952638745307922, 0.08081455528736115, -0.03250351548194885, -0.08860721439123154, 0.03854657709598541, -0.16482695937156677, -0.1602560132741928, -0.01679791510105133, 0.13431434333324432, -0.14176037907600403, -0.12180076539516449, -0.12794804573059082, 0.17097149789333344, 0.0955972820520401, -0.12239423394203186, -0.10971397906541824, -0.10145736485719681, 0.11798353493213654, -0.10267461091279984, -0.02076120674610138, -0.06509213894605637, -0.059596359729766846, 0.025330469012260437, 0.08452166616916656, 0.17280004918575287, 0.1677326112985611, -0.10479177534580231, -0.05628699064254761, -0.04258833825588226, 0.10589303076267242, 0.16244234144687653, -0.06624801456928253, -0.013855859637260437, -0.150810107588768, -0.008678242564201355, -0.09971708059310913, -0.08366557955741882, -0.10490135103464127, 0.11699770390987396, -0.09833453595638275, 0.05157965421676636, -0.16360369324684143, -0.0012720376253128052, 0.06502997875213623, -0.11471735686063766, -0.015359699726104736], [0.017997249960899353, -0.07585606724023819, -0.17534875869750977, 0.1756749004125595, 0.15753744542598724, -0.14295008778572083, 0.16823987662792206, -0.0878954827785492, -0.1572171449661255, 0.0038181692361831665, 0.07945813238620758, -0.021433815360069275, 0.12703953683376312, 0.07674123346805573, -0.1321873515844345, 0.01757650077342987, -0.1563628613948822, -0.04717656970024109, 0.08693580329418182, 0.03577116131782532, -0.12550197541713715, 0.035240575671195984, -0.019193798303604126, -0.13890518248081207, -0.10014259815216064, 0.08332009613513947, -0.02544674277305603, 0.052846282720565796, 0.0010049045085906982, -0.09472567588090897, -0.06323165446519852, 0.07153192162513733, 0.039107561111450195, 0.07332770526409149, 0.021824941039085388, -0.14521215856075287, -0.06661347299814224, 0.06080116331577301, -0.04485398530960083, 0.17088402807712555, 0.1251848191022873, -0.022796466946601868, 0.09888844192028046, -0.118999183177948, 0.026578813791275024, 0.10038451850414276, 0.1545378714799881, -0.07890989631414413, 0.12846912443637848, 0.04178236424922943, -0.1211293637752533, -0.03840428590774536, -0.06233156472444534, -0.10454900562763214, -0.02719913423061371, -0.15366433560848236, 0.12871448695659637, -0.14613382518291473, 0.14849434792995453, -0.1434076428413391, 0.14975737035274506, -0.15789684653282166, -0.12022000551223755, -0.010602414608001709], [-0.12769420444965363, 0.025990739464759827, 0.07108756899833679, 0.14739678800106049, 0.0667671412229538, 0.14812110364437103, 0.02568197250366211, -0.004213124513626099, -0.09290602803230286, 0.16211600601673126, 0.17165489494800568, 0.1387643665075302, -0.026209473609924316, -0.012104243040084839, -0.10849311202764511, -0.02140381932258606, 0.042783692479133606, 0.015269428491592407, 0.028661832213401794, -0.16070732474327087, -0.0018453598022460938, 0.1562274545431137, 0.0787733942270279, -0.015207558870315552, -0.0862162634730339, -0.03772138059139252, -0.13948166370391846, 0.09698490798473358, 0.17152853310108185, 0.11906270682811737, -0.1324598342180252, -0.013354107737541199, -0.1766882687807083, -0.16203781962394714, 0.004026249051094055, -0.17191071808338165, 0.04693751037120819, 0.1668679267168045, -0.10158208012580872, -0.1215885579586029, 0.0851873904466629, 0.1296834796667099, -0.02715061604976654, 0.019422665238380432, -0.010895207524299622, -0.12432055175304413, -0.0872492864727974, -0.004176706075668335, 0.01682308316230774, -0.09738391637802124, 0.07049195468425751, -0.00931575894355774, -0.10401028394699097, -0.12725932896137238, -0.16154849529266357, 0.08006168901920319, 0.05788351595401764, 0.14277996122837067, -0.11301306635141373, -0.14468330144882202, 0.13074947893619537, 0.030883818864822388, -0.027659878134727478, 0.14910759031772614], [0.1720254272222519, 0.16079582273960114, -0.16156795620918274, 0.024446099996566772, 0.036767810583114624, 0.040823012590408325, -0.06233721226453781, 0.029367968440055847, 0.04306235909461975, -0.08235376328229904, 0.14201490581035614, -0.12140146642923355, -0.014897137880325317, 0.1722743958234787, -0.11452002823352814, 0.14251862466335297, -0.08818532526493073, 0.11008475720882416, -0.005747184157371521, 0.1736980825662613, 0.14277471601963043, 0.16806088387966156, 0.01781623065471649, 0.14781136810779572, 0.031818389892578125, -0.16428908705711365, 0.11682887375354767, 0.10758601129055023, 0.11263622343540192, 0.1535792499780655, -0.0025289803743362427, -0.1180889755487442, -0.10555357486009598, -0.16813258826732635, -0.1409134715795517, 0.10299231112003326, 0.17106343805789948, -0.10773033648729324, 0.1299264281988144, 0.15233208239078522, 0.15859515964984894, 0.1189853698015213, 0.15427841246128082, -0.1670723855495453, -0.026106014847755432, 0.1313977688550949, -0.030900806188583374, -0.07883960008621216, -0.11724169552326202, -0.0020685195922851562, 0.02098676562309265, 0.04422149062156677, 0.1716751903295517, 0.10061810910701752, -0.06903953105211258, 0.032478317618370056, -0.03255906701087952, 0.09072147309780121, -0.1565575897693634, -0.11169121414422989, 0.13954205811023712, -0.1564958393573761, -0.16105322539806366, -0.015613719820976257], [-0.000651627779006958, 0.042420387268066406, -0.13933570683002472, -0.13582012057304382, -0.06542501598596573, 0.08382387459278107, -0.023523926734924316, 0.11294756829738617, 0.05590425431728363, 0.04003798961639404, -0.06285848468542099, 0.052258968353271484, 0.112826868891716, -0.07647242397069931, 0.13787810504436493, 0.0724799782037735, -0.162774920463562, 0.12675108015537262, -0.1598673313856125, -0.1301950216293335, 0.16045941412448883, -0.08718770742416382, -0.04856547713279724, -0.03494589030742645, 0.08699028193950653, 0.09079666435718536, 0.07392476499080658, -0.08604645729064941, -0.1720711588859558, 0.14369796216487885, 0.05695851147174835, -0.06587168574333191, -0.0484279990196228, 0.10545532405376434, -0.018208488821983337, -0.11964849382638931, -0.09866311401128769, -0.04783646762371063, -0.03883060812950134, 0.1198534220457077, -0.135367751121521, 0.04230991005897522, -0.16821995377540588, -0.1741638332605362, 0.09461246430873871, 0.029563695192337036, -0.0523621067404747, -0.12168608605861664, 0.10737963020801544, 0.16589851677417755, 0.0991196483373642, -0.010088145732879639, -0.0257875919342041, -0.16604892909526825, -0.14310136437416077, 0.0887889415025711, -0.09833378344774246, -0.07530862092971802, 0.021539941430091858, -0.05798061937093735, -0.17582932114601135, -0.0899660736322403, -0.1551225632429123, 0.11417244374752045], [0.1061793714761734, -0.07361136376857758, -0.05094142258167267, 0.0500650554895401, -0.16875281929969788, 0.08315195143222809, 0.03544752299785614, 0.10130436718463898, 0.020031213760375977, 0.0462581068277359, 0.14025919139385223, 0.11469303071498871, -0.10081808269023895, -0.08582990616559982, 0.13955272734165192, 0.06037497520446777, -0.11093804985284805, 0.03851775825023651, 0.08594916760921478, 0.1393045336008072, 0.09306637942790985, -0.09859167784452438, 0.04505464434623718, -0.025267839431762695, 0.08536417782306671, -0.05285092443227768, 0.11428298056125641, -0.14083866775035858, 0.11464913189411163, -0.16068270802497864, 0.0006008446216583252, -0.02706122398376465, 0.08536212146282196, 0.11659647524356842, 0.10586006939411163, 0.05962076783180237, 0.043071046471595764, -0.09241543710231781, 0.09827561676502228, -0.07306472212076187, -0.16037806868553162, -0.027485132217407227, 0.10206319391727448, 0.03630365431308746, 0.08146752417087555, -0.1651572287082672, -0.05869690328836441, 0.1336672157049179, -0.04132886230945587, 0.12510766088962555, 0.044077128171920776, -0.15178601443767548, -0.03547465801239014, 0.1352153867483139, -0.11740497499704361, 0.15965153276920319, 0.17051146924495697, 0.11791343986988068, 0.16867907345294952, -0.14462193846702576, -0.10104694217443466, -0.09059785306453705, 0.011227414011955261, 0.06158357858657837], [0.1765003651380539, 0.06658679246902466, -0.05012136697769165, -0.12091884016990662, 0.08223377168178558, 0.07557718455791473, -0.10815951973199844, 0.006200730800628662, 0.1333392709493637, -0.013285830616950989, 0.08339037001132965, -0.018385887145996094, -0.1603783667087555, 0.16668428480625153, -0.07942240685224533, 0.03468453884124756, -0.08922753483057022, 0.15487323701381683, -0.03458064794540405, -0.06919391453266144, -0.09505306929349899, -0.036074504256248474, 0.04437793791294098, 0.048128873109817505, -0.15613923966884613, -0.06988827884197235, 0.07928289473056793, 0.15165533125400543, 0.021776854991912842, 0.17256323993206024, -0.11227987706661224, -0.060263246297836304, 0.020054444670677185, 0.0435153990983963, 0.09213708341121674, -0.08480595052242279, 0.05739954113960266, -0.015880852937698364, 0.11539061367511749, 0.015334293246269226, 0.07629461586475372, 0.12288840115070343, -0.05835585296154022, -0.07912366837263107, 0.15575696527957916, 0.02566288411617279, 0.04508119821548462, -0.022934377193450928, -0.019236326217651367, -0.11775774508714676, 0.08209700882434845, 0.11650817096233368, -0.0627361312508583, 0.09632699191570282, 0.10416166484355927, 0.0051766037940979, -0.06777183711528778, -0.04668222367763519, -0.01494637131690979, 0.14035145938396454, -0.02282083034515381, 0.017154350876808167, -0.16220547258853912, -0.08337472379207611], [0.11374051868915558, 0.04927408695220947, 0.024262934923171997, -0.05489259958267212, 0.0751170963048935, -0.11417673528194427, 0.07500298321247101, 0.14700810611248016, 0.11195485293865204, -0.042991265654563904, -0.0572957769036293, -0.04987931251525879, -0.07679808884859085, 0.018854811787605286, -0.1656382977962494, -0.12921620905399323, 0.04492761194705963, 0.12567497789859772, 0.09085898101329803, -0.06578465551137924, 0.10323967039585114, 0.0976925939321518, 0.005541637539863586, -0.033395349979400635, -0.017873048782348633, -0.11356350034475327, 0.01063297688961029, 0.05627936124801636, -0.05067066848278046, 0.03846704959869385, -0.11244501173496246, 0.11272461712360382, -0.08733256906270981, -0.08660869300365448, -0.03863251209259033, 0.14506439864635468, 0.07700590789318085, -0.0026262104511260986, -0.008961468935012817, -0.04920943081378937, -0.14368459582328796, 0.021486550569534302, 0.14407549798488617, 0.10420720279216766, -0.029962271451950073, -0.09203459322452545, -0.06883157789707184, 0.0004909336566925049, -0.1544162780046463, -0.15307356417179108, -0.024461403489112854, 0.13190384209156036, -0.08853779733181, 0.0007812827825546265, -0.13352049887180328, -0.09215066581964493, -0.049227893352508545, 0.06485278904438019, -0.15897344052791595, 0.013793528079986572, -0.03286409378051758, 0.0960712879896164, -0.07880520820617676, -0.07513004541397095], [-0.08734702318906784, 0.1746417135000229, 0.11169447004795074, 0.005296304821968079, 0.166001096367836, 0.0595615953207016, -0.06706524640321732, 0.06800667941570282, 0.13111703097820282, -0.15822015702724457, -0.13647663593292236, 0.0991431325674057, -0.09985148906707764, -0.04355578124523163, 0.12074540555477142, -0.11722643673419952, 0.0936499685049057, 0.003962352871894836, -0.10685911774635315, 0.0502922385931015, -0.07395650446414948, 0.0201617032289505, -0.14539006352424622, 0.06292781233787537, 0.05575871467590332, 0.03250719606876373, 0.08045567572116852, 0.16692186892032623, -0.07701598852872849, 0.16136498749256134, -0.13171391189098358, -0.0401330292224884, -0.17292675375938416, -0.12983176112174988, 0.09103988111019135, -0.06483609974384308, 0.11861632764339447, 0.03804498910903931, 0.04384811222553253, 0.15326274931430817, -0.12205617129802704, -0.0865403339266777, 0.11678861081600189, 0.020360127091407776, -0.06286235898733139, 0.08276031911373138, -0.12643645703792572, 0.005237668752670288, -0.0074499547481536865, -0.042861998081207275, 0.07098628580570221, -0.09461929649114609, 0.08618225157260895, 0.17626334726810455, 0.10185270011425018, -0.055864930152893066, 0.033425405621528625, -0.022252485156059265, 0.1487526148557663, 0.014950841665267944, -0.09311646223068237, -0.02843567728996277, -0.052024759352207184, -0.021456703543663025], [-0.17179973423480988, 0.11419810354709625, 0.057406023144721985, 0.051177144050598145, -0.01593121886253357, 0.06046454608440399, -0.01939210295677185, 0.17025251686573029, -0.1640821099281311, -0.11978049576282501, 0.16550184786319733, 0.05550102889537811, 0.13688264787197113, -0.16421601176261902, 0.0010957717895507812, 0.12958504259586334, -0.08467955142259598, 0.12220798432826996, -0.1105666533112526, -0.08819320797920227, -0.0817428007721901, 0.0632377564907074, -0.07487303018569946, 0.024863138794898987, -0.05043207108974457, 0.04763332009315491, 0.012761220335960388, 0.1575712114572525, 0.05064176023006439, -0.016681253910064697, -0.12251477688550949, -0.02822139859199524, -0.08636007457971573, -0.10594343394041061, 0.02139626443386078, 0.09768213331699371, -0.08701465278863907, -0.06170222908258438, -0.06811019033193588, 0.03405575454235077, -0.11193005740642548, 0.1421269327402115, 0.07571907341480255, -0.11721856147050858, -0.041394785046577454, -0.1481683850288391, 0.06494377553462982, -0.09828775376081467, 0.038637787103652954, 0.058047592639923096, -0.1549680531024933, 0.1354447454214096, 0.04386959969997406, 0.13708747923374176, 0.0991821140050888, 0.0008122920989990234, 0.03560805320739746, -0.000530540943145752, 0.09279955923557281, 0.15610040724277496, 0.014421507716178894, 0.07990409433841705, -0.07083338499069214, -0.05283103138208389], [-0.07086162269115448, -0.13585084676742554, 0.03964333236217499, 0.1219460517168045, -0.14539267122745514, -0.03853578865528107, 0.11406202614307404, 0.11187185347080231, -0.0598694309592247, 0.1268034726381302, 0.03323535621166229, -0.1736549586057663, -0.1236623078584671, 0.09660102427005768, 0.010026559233665466, 0.11829786002635956, -0.14759236574172974, -0.12890318036079407, 0.10553957521915436, 0.1381157785654068, -0.03852103650569916, 0.12481190264225006, -0.037178024649620056, 0.11840967833995819, -0.055671773850917816, -0.12312687933444977, 0.013633370399475098, -0.15180881321430206, -0.0890016257762909, 0.10615445673465729, -0.13622552156448364, 0.02527567744255066, 0.1105152815580368, 0.02739797532558441, 0.09941808879375458, 0.04090401530265808, -0.1562354564666748, 0.056930482387542725, -0.056426286697387695, -0.04821650683879852, -0.06535277515649796, -0.06557189673185349, -0.06583940237760544, 0.16595663130283356, 0.17601783573627472, -0.10628718882799149, -0.14660853147506714, 0.019805267453193665, 0.06295104324817657, -0.1721401959657669, -0.17276860773563385, 0.07983608543872833, 0.06511746346950531, 0.00644327700138092, -0.054531991481781006, 0.0477372407913208, 0.018244445323944092, 0.035000383853912354, 0.009730696678161621, 0.027956336736679077, 0.007026851177215576, -0.12428266555070877, 0.09253410995006561, 0.15981493890285492], [-0.06300102174282074, 0.16743887960910797, 0.011180669069290161, -0.042343586683273315, -0.12646423280239105, 0.1400471180677414, -0.07413344085216522, 0.0977296382188797, 0.11862193048000336, -0.033566296100616455, -0.1358700543642044, 0.07986895740032196, -0.1635156124830246, -0.06701976805925369, 0.14013789594173431, -0.0055064857006073, 0.09728209674358368, 0.05253840982913971, -0.045762673020362854, 0.03911910951137543, 0.07120035588741302, -0.15716947615146637, 0.06523370742797852, -0.13648198544979095, -0.016441985964775085, -0.041987910866737366, 0.11065907776355743, -0.10172601044178009, 0.17593176662921906, 0.15660344064235687, -0.0594022274017334, 0.1320851892232895, 0.057990312576293945, -0.08225863426923752, -0.020732074975967407, -0.17155903577804565, -0.02126304805278778, 0.1767033487558365, -0.0032010525465011597, 0.07132872939109802, 0.08243350684642792, -0.023145616054534912, 0.08163855969905853, 0.05209261178970337, -0.12137103080749512, -0.148725226521492, -0.07791674882173538, 0.07370279729366302, -0.16447512805461884, 0.08757220208644867, 0.14051927626132965, -0.040179476141929626, -0.1688726842403412, 0.12401945888996124, 0.06993050873279572, -0.009768158197402954, 0.16839788854122162, 0.11318416893482208, -0.08777637034654617, -0.07328135520219803, -0.014992639422416687, -0.1419461965560913, -0.14265625178813934, -0.0061563849449157715], [-0.15655037760734558, -0.08793463557958603, -0.0634855404496193, -0.0612354502081871, -0.0008899718523025513, 0.1497005969285965, -0.011587679386138916, 0.10227666795253754, -0.13663949072360992, -0.1403334140777588, 0.016692638397216797, -0.014104694128036499, 0.06828358769416809, 0.025240987539291382, -0.13958889245986938, -0.12601801753044128, -0.1731245368719101, -0.16313935816287994, 0.059013932943344116, 0.034147292375564575, 0.0960620790719986, -0.008506670594215393, 0.0201893150806427, 0.1651654988527298, -0.14621765911579132, -0.12270797789096832, 0.07905234396457672, 0.06252340972423553, -0.08181630074977875, -0.03518110513687134, 0.1328822821378708, 0.13995523750782013, 0.17468343675136566, 0.13702838122844696, -0.1416126936674118, -0.003828078508377075, -0.07557334750890732, 0.14324648678302765, 0.07651974260807037, -0.03948633372783661, -0.008396416902542114, 0.13346748054027557, -0.17411772906780243, -0.0782768502831459, 0.06219606101512909, -0.02386602759361267, 0.09893272817134857, 0.14332832396030426, -0.17228029668331146, 0.03164069354534149, -0.09319810569286346, 0.12905167043209076, 0.15849389135837555, -0.06270405650138855, 0.05867911875247955, 0.08247862756252289, -0.11267495900392532, -0.06878989189863205, -0.16958804428577423, 0.11739848554134369, 0.06792394816875458, 0.041404858231544495, -0.14195311069488525, -0.06979821622371674], [0.0968489795923233, 0.07642115652561188, -0.03711523115634918, -0.1511765718460083, 0.013155415654182434, -0.10872209072113037, 0.0013876855373382568, 0.13786233961582184, -0.012537464499473572, 0.129362091422081, -0.16024088859558105, 0.149457648396492, 0.11020831763744354, -0.08688652515411377, -0.06038147211074829, 0.10683675110340118, 0.03238041698932648, 0.09772686660289764, -0.0528029203414917, -0.056639038026332855, -0.09649499505758286, -0.0029693692922592163, 0.03463488817214966, 0.032246172428131104, 0.17325453460216522, 0.17531637847423553, 0.16478456556797028, 0.11133025586605072, 0.1024349182844162, 0.13724584877490997, 0.10425017774105072, 0.12590114772319794, -0.17379674315452576, -0.01700398325920105, 0.16940833628177643, 0.08323971927165985, -0.16484546661376953, 0.003973767161369324, -0.03911581635475159, -0.027217596769332886, -0.009232386946678162, -0.07580359280109406, 0.010497182607650757, 0.15038447082042694, -0.1290857195854187, 0.07850481569766998, -0.14606668055057526, 0.059797778725624084, -0.128587543964386, -0.032493412494659424, 0.028480440378189087, 0.16488029062747955, -0.15233999490737915, -0.014992430806159973, 0.08756057918071747, -0.06680267304182053, 0.011067301034927368, -0.17432597279548645, 0.0002789348363876343, -0.07992538809776306, -0.07004586607217789, -0.004182144999504089, 0.07226330041885376, -0.03780315816402435], [-0.0038614124059677124, 0.08657164871692657, 0.031581342220306396, -0.07281976193189621, 0.004125252366065979, -0.027025699615478516, 0.15926556289196014, 0.0769917219877243, 0.16302557289600372, -0.09565459191799164, -0.07638955861330032, 0.08026324212551117, -0.14672473073005676, -0.06280697882175446, -0.14425206184387207, 0.13184259831905365, -0.16417327523231506, 0.05462034046649933, 0.13569746911525726, -0.04297409951686859, 0.07316954433917999, -0.04365672171115875, -0.04979747533798218, -0.11517868936061859, -0.14144200086593628, 0.17665092647075653, -0.10780742019414902, 0.1361526995897293, 0.07486943900585175, 0.09421463310718536, 0.07534913718700409, 0.14380879700183868, 0.008979767560958862, 0.12731529772281647, 0.009750962257385254, -0.018487289547920227, 0.04862566292285919, 0.08374090492725372, -0.1480182558298111, 0.06329402327537537, 0.06205305457115173, -0.09104634076356888, -0.034167274832725525, -0.17052100598812103, 0.06501568853855133, 0.0003136098384857178, -0.10643554478883743, 0.1481611281633377, -0.003152117133140564, 0.04480184614658356, 0.15013070404529572, 0.13296867907047272, 0.15164552628993988, 0.0740886777639389, 0.09856908023357391, 0.1629181057214737, 0.1670743077993393, 0.04685136675834656, -0.15936198830604553, 0.06462620198726654, 0.1158212274312973, -0.14355334639549255, 0.03360743820667267, 0.08476100862026215], [-0.08073169738054276, -0.16103757917881012, 0.04404497146606445, 0.003971368074417114, -0.009326845407485962, -0.09389546513557434, 0.038687899708747864, -0.06870070844888687, 0.0689665675163269, 0.04767133295536041, 0.006809115409851074, -0.06917562335729599, -0.11718522012233734, -0.15521490573883057, -0.14491286873817444, 0.043305546045303345, -0.015388533473014832, 0.04880903661251068, -0.09798046201467514, 0.1743817776441574, 0.07176178693771362, 0.03760628402233124, 0.09918968379497528, 0.04639095067977905, 0.03770861029624939, 0.14881296455860138, 0.1739269345998764, -0.08549682050943375, 0.04394221305847168, 0.07995240390300751, 0.027869775891304016, 0.031038418412208557, 0.07127723097801208, -0.1158437728881836, -0.1266028881072998, 0.009000331163406372, -0.08649814128875732, 0.09831000864505768, 0.0002687722444534302, -0.15796390175819397, -0.1390320360660553, -0.010715499520301819, 0.12998293340206146, -0.07365292310714722, 0.09261526167392731, 0.14199362695217133, -0.009859204292297363, 0.12481780350208282, 0.1253213733434677, -0.006826058030128479, 0.09581716358661652, -0.013870611786842346, -0.06310146301984787, 0.08496896922588348, 0.16684381663799286, -0.05542571842670441, -0.007581755518913269, -0.061712972819805145, -0.05149093270301819, 0.048866063356399536, -0.05912267416715622, -0.012852758169174194, -0.10791987180709839, 0.01354186236858368], [-0.021408110857009888, -0.020562604069709778, 0.1477024108171463, -0.059887297451496124, 0.12153308093547821, -0.01648978888988495, -0.08946241438388824, 0.02918054163455963, 0.17188648879528046, -0.11444912850856781, 0.0564703643321991, 0.10776747763156891, -0.09188544005155563, 0.17040206491947174, 0.04491707682609558, -0.05988198518753052, -0.08640525490045547, -0.09656976908445358, -0.06970646232366562, -0.1436067521572113, -0.09454169869422913, 0.08412827551364899, 0.08509229123592377, 0.02703070640563965, -0.17306628823280334, 0.053264468908309937, 0.01177738606929779, 0.0039331018924713135, -0.05358010530471802, 0.13832013309001923, 0.16786549985408783, -0.01962698996067047, 0.04178918898105621, -0.12479348480701447, -0.023073285818099976, 0.08915193378925323, 0.06527215242385864, -0.13767555356025696, 0.16405929625034332, 0.07318311929702759, -0.14275170862674713, -0.11546057462692261, 0.11316816508769989, -0.09068408608436584, -0.09996764361858368, -0.14899888634681702, 0.11859364807605743, -0.024138927459716797, -0.08579660952091217, -0.10302211344242096, -0.15439772605895996, 0.02387826144695282, -0.171890988945961, 0.14978425204753876, -0.04584203660488129, 0.1547897905111313, -0.1600787490606308, 0.047974780201911926, 0.019380927085876465, -0.09912946820259094, 0.1570420116186142, 0.09291140735149384, -0.01199689507484436, 0.10589803755283356], [-0.04240958392620087, -0.13575537502765656, 0.1579899936914444, -0.06205841153860092, -0.052758872509002686, 0.12841235101222992, 0.15511636435985565, -0.14849266409873962, -0.08480611443519592, 0.09166403114795685, 0.07214970886707306, -0.15049076080322266, 0.031703487038612366, 0.12866033613681793, -0.06934555619955063, -0.12513740360736847, -0.01357761025428772, -0.17519433796405792, 0.014086693525314331, 0.03980879485607147, -0.162312313914299, -0.1413286179304123, 0.011224880814552307, 0.12577612698078156, 0.015163376927375793, -0.11702940613031387, -0.04610802233219147, 0.1614254266023636, -0.04533757269382477, -0.11304446309804916, 0.039145827293395996, -0.12367086112499237, 0.14743126928806305, -0.04291674494743347, 0.040435269474983215, 0.07108201086521149, 0.1103949099779129, 0.030249714851379395, 0.01699073612689972, 0.16138552129268646, 0.15965943038463593, 0.031161054968833923, -0.03777550160884857, -0.08103414624929428, 0.0022690147161483765, 0.028711408376693726, 0.07626964151859283, 0.1674843579530716, -0.08986926078796387, 0.13240735232830048, -0.0699828565120697, 0.0053656697273254395, 0.07225845754146576, 0.04412151873111725, -0.02695244550704956, 0.031251296401023865, 0.06493417918682098, -0.10457758605480194, 0.13340939581394196, -0.1631234735250473, -0.008488714694976807, -0.130813866853714, 0.05603061616420746, -0.09058487415313721], [-0.05852304399013519, 0.10600428283214569, 0.08510307967662811, 0.07502804696559906, 0.05287465453147888, -0.14971719682216644, 0.10654924809932709, 0.11861492693424225, 0.029962152242660522, -0.09396453946828842, -0.17216607928276062, 0.11385254561901093, -0.030815541744232178, 0.1456964761018753, 0.0231969952583313, 0.07622401416301727, 0.06362593173980713, -0.09613936394453049, -0.12046711146831512, -0.17034651339054108, -0.054224491119384766, 0.04207006096839905, 0.00011017918586730957, -0.03601460158824921, -0.15718793869018555, -0.06353320926427841, 0.09583602845668793, -0.0804881751537323, 0.0905059427022934, 0.030176550149917603, 0.012682199478149414, 0.07456062734127045, -0.1751279979944229, -0.10149736702442169, 0.13389889895915985, 0.15160827338695526, -0.07187660038471222, 0.024044141173362732, 0.09288491308689117, -0.01068161427974701, 0.1240328699350357, -0.1497742235660553, -0.01660206913948059, 0.08012740314006805, -0.07493140548467636, -0.11466105282306671, -0.15718674659729004, -0.1736142486333847, 0.17425934970378876, -0.0015617907047271729, 0.09514154493808746, -0.162334606051445, -0.08545644581317902, -0.04358009994029999, 0.08939515054225922, 0.1762659102678299, -0.14679928123950958, 0.0948745459318161, 0.15423791110515594, -0.05832959711551666, -0.1329837143421173, -0.048814937472343445, 0.018062248826026917, -0.032421842217445374], [0.05962012708187103, 0.1269131749868393, -0.06851080060005188, 0.1153544932603836, -0.15992145240306854, 0.11906032264232635, 0.07008451223373413, 0.006922245025634766, -0.039036333560943604, 0.008738264441490173, -0.043210551142692566, 0.1321420818567276, 0.16468630731105804, -0.04577253758907318, 0.1718832403421402, 0.07473255693912506, 0.09249936044216156, -0.09259729832410812, -0.11868366599082947, -0.008435815572738647, 0.007099896669387817, -0.09447363764047623, 0.0833396464586258, 0.03144824504852295, -0.10298775881528854, 0.06131519377231598, -0.014919906854629517, -0.10549406707286835, 0.12228019535541534, -0.11875177919864655, 0.009793370962142944, 0.016434445977211, -0.1692160964012146, 0.09447161853313446, -0.1339486688375473, -0.1471283733844757, -0.16732235252857208, 0.11565785109996796, -0.041602522134780884, 0.004982426762580872, 0.17474745213985443, -0.15300270915031433, -0.047853872179985046, -0.10002606362104416, 0.1325656920671463, -0.04607003927230835, 0.07327423989772797, -0.058217018842697144, 0.046335697174072266, 0.08161686360836029, 0.10904212296009064, -0.03673376142978668, 0.00014178454875946045, -0.044591024518013, -0.019028663635253906, 0.13872204720973969, 0.1017899364233017, 0.1240433007478714, 0.17343007028102875, -0.035221830010414124, -0.05111043155193329, 0.04143987596035004, -0.018066123127937317, -0.15252695977687836], [-0.006739616394042969, 0.09454287588596344, -0.15217743813991547, -0.036337703466415405, 0.10013999044895172, -0.1135229542851448, -0.12293510138988495, 0.0978662520647049, -0.053845591843128204, 0.13190563023090363, 0.00117531418800354, 0.0256863534450531, 0.07191377878189087, -0.14233331382274628, 0.17314325273036957, -0.047975167632102966, 0.05028873682022095, -0.15771345794200897, -0.1243755966424942, 0.040174663066864014, 0.026800885796546936, 0.041381001472473145, -0.050913646817207336, -0.08770708739757538, -0.1363900601863861, 0.0150604248046875, -0.12898072600364685, 0.03873653709888458, -0.13761396706104279, 0.1606682986021042, -0.1673543006181717, 0.1002003401517868, 0.07868923246860504, -0.16125965118408203, -0.16181203722953796, -0.02802129089832306, -0.05980553478002548, -0.08121710270643234, 0.14048753678798676, 0.12490685284137726, 0.1269262582063675, -0.09863808006048203, -0.1565038412809372, 0.13836337625980377, 0.07938604056835175, -0.0696951225399971, -0.15195414423942566, -0.159309521317482, 0.12609051167964935, -0.16713619232177734, -0.0035872459411621094, 0.026809483766555786, -0.15132847428321838, -0.13050919771194458, -0.050295472145080566, 0.0978841632604599, 0.07268068194389343, 0.004865691065788269, -0.1488117128610611, 0.10231353342533112, 0.12282975018024445, 0.16683204472064972, -0.008360669016838074, 0.016601473093032837], [0.08384083211421967, 0.017004147171974182, -0.0029091835021972656, 0.04132017493247986, -0.008046925067901611, -0.04164542257785797, -0.028573334217071533, -0.17083150148391724, -0.020281776785850525, -0.171657532453537, 0.10726304352283478, 0.17585735023021698, -0.15354172885417938, -0.15920314192771912, -0.020696371793746948, -0.027995839715003967, -0.07230072468519211, -0.16886842250823975, 0.08768005669116974, 0.10116209089756012, 0.07225587964057922, 0.07412181794643402, -0.1431967318058014, 0.047783613204956055, 0.06749451160430908, 0.030761301517486572, -0.028655901551246643, 0.1025642603635788, 0.17076317965984344, 0.17385320365428925, 0.1134110540151596, 0.14660586416721344, -0.03527936339378357, 0.020057186484336853, 0.1526269167661667, -0.06456247717142105, -0.16326496005058289, 0.0609944611787796, -0.03036355972290039, 0.029406368732452393, 0.08527998626232147, 0.1273602396249771, 0.17030517756938934, -0.13226309418678284, -0.11747384071350098, 0.05897945165634155, 0.07549308240413666, -0.09943988174200058, -0.07924922555685043, -0.16738127171993256, -0.13926874101161957, -0.06590961664915085, 0.041387274861335754, -0.141384094953537, -0.13881507515907288, -0.027665451169013977, 0.12289570271968842, 0.1365043669939041, -0.011575251817703247, -0.1368069350719452, 0.04144050180912018, 0.04441528022289276, 0.1075550764799118, 0.15222720801830292], [-0.14072629809379578, 0.04638732969760895, -0.03992730379104614, 0.004216492176055908, -0.12987813353538513, 0.07425393164157867, -0.11987364292144775, -0.10655498504638672, -0.006710916757583618, 0.06824274361133575, 0.016568437218666077, -0.01719026267528534, 0.11609996855258942, -0.006986096501350403, 0.0008893013000488281, 0.05102120339870453, -0.004079937934875488, 0.08421634137630463, 0.05334661900997162, -0.04387630522251129, 0.018898218870162964, -0.1323206126689911, 0.05129861831665039, 0.06685370206832886, 0.050567835569381714, -0.16150212287902832, -0.14307425916194916, 0.0004352480173110962, 0.11101754009723663, 0.14368952810764313, -0.12604129314422607, 0.14445827901363373, -0.03660386800765991, 0.06889648735523224, -0.08514396846294403, -0.06609734147787094, -0.06662493944168091, -0.0829339548945427, -0.07120216637849808, -0.024381577968597412, -0.03486765921115875, 0.14695315062999725, -0.052596017718315125, 0.12282328307628632, 0.17346073687076569, 0.0908663421869278, 0.04921048879623413, 0.01238703727722168, -0.15450187027454376, -0.010303810238838196, -0.02476164698600769, -0.076970174908638, 0.11028085649013519, 0.05744290351867676, 0.16487468779087067, 0.11139796674251556, -0.09178534150123596, -0.17023588716983795, 0.054133668541908264, -0.08949381858110428, -0.08007656782865524, 0.014276698231697083, 0.05662509799003601, 0.06011185050010681], [0.09802015125751495, 0.020287305116653442, -0.12298306822776794, -0.1164608895778656, 0.005779087543487549, -0.1109086275100708, -0.11421702802181244, 0.01640304923057556, 0.09757940471172333, 0.16563524305820465, -0.04147025942802429, 0.1186060756444931, 0.14739765226840973, 0.10409139096736908, 0.0015959292650222778, 0.14173449575901031, -0.1652240753173828, -0.08183560520410538, -0.008377701044082642, 0.07249376177787781, 0.08012603223323822, -0.013818562030792236, -0.15526831150054932, 0.022860407829284668, -0.0007184743881225586, -0.01850026845932007, 0.09262464940547943, -0.09438411146402359, -0.030039995908737183, 0.06659340858459473, 0.13156862556934357, -0.1095951646566391, -0.1752164214849472, -0.15337014198303223, 0.12671728432178497, -0.0011082887649536133, -0.04067899286746979, -0.16537386178970337, 0.060012564063072205, -0.09775759279727936, 0.12543849647045135, 0.08888252079486847, -0.13061320781707764, 0.014260724186897278, 0.02868308126926422, -0.13217458128929138, 0.07600711286067963, -0.07728176563978195, -0.06967995315790176, 0.15076757967472076, 0.047708749771118164, -0.11447383463382721, 0.11889351904392242, -0.06637315452098846, 0.04510842263698578, 0.13447032868862152, 0.15417470037937164, -0.1689407080411911, 0.1486247032880783, -0.0999336764216423, 0.11165566742420197, -0.055692508816719055, 0.000789448618888855, 0.06904265284538269], [0.06430754065513611, -0.03312426805496216, -0.047290027141571045, -0.0633167028427124, -0.0668952688574791, -0.0073051005601882935, -0.11308740824460983, 0.13428790867328644, -0.03354252874851227, -0.17154794931411743, 0.10406579077243805, 0.13614200055599213, -0.03648720681667328, -0.006866052746772766, -0.09740157425403595, 0.04003386199474335, 0.1379372626543045, 0.14680413901805878, 0.058529332280159, 0.014873743057250977, -0.11865905672311783, 0.085637167096138, 0.14392171800136566, 0.0779723972082138, -0.021191224455833435, -0.08049453794956207, -0.028953835368156433, -0.03728015720844269, -0.1279587596654892, 0.0800299197435379, -0.15473929047584534, 0.11306144297122955, -0.08664679527282715, 0.07065948843955994, -0.04117296636104584, -0.08338547497987747, 0.1610804945230484, -0.16684077680110931, 0.0225774347782135, -0.020988285541534424, 0.005816936492919922, 0.018351376056671143, -0.012167125940322876, -0.09681257605552673, 0.009661316871643066, -0.06075413525104523, 0.1764402836561203, -0.12444232404232025, 0.11571650207042694, -0.0011421442031860352, -0.04824170470237732, -0.10408766567707062, 0.01888987421989441, -0.0789293721318245, -0.026939675211906433, -0.02579358220100403, 0.14628727734088898, -0.16201935708522797, 0.009202167391777039, 0.100070521235466, 0.08951611816883087, 0.06388209760189056, 0.021912693977355957, -0.09764940291643143], [0.11967982351779938, -0.12735740840435028, 0.0776367336511612, 0.007760882377624512, -0.15993164479732513, 0.044337138533592224, 0.1646883338689804, 0.0735168308019638, 0.01983650028705597, -0.11164337396621704, -0.09925932437181473, -0.1501237004995346, -0.09671639651060104, -0.03135290741920471, 0.13603194057941437, -0.06159837543964386, -0.1247636079788208, 0.07087422907352448, 0.106167271733284, 0.06767734885215759, 0.06594865024089813, 0.05177031457424164, 0.07110944390296936, -0.17509423196315765, -0.08326375484466553, 0.10631583631038666, 0.05145686864852905, 0.13000641763210297, 0.04129412770271301, -0.01450374722480774, 0.055972158908843994, 0.15299440920352936, -0.04001598060131073, 0.15700222551822662, -0.1242704838514328, -0.12092086672782898, -0.15516315400600433, 0.13577644526958466, -0.11258502304553986, -0.07478262484073639, -0.14358697831630707, -0.16159746050834656, 0.011262521147727966, -0.05419372022151947, 0.13403384387493134, -0.027081161737442017, -0.1352740228176117, -0.07894758135080338, -0.10339890420436859, 0.14801208674907684, -0.12835118174552917, 0.11226992309093475, 0.1443171352148056, 0.12542109191417694, -0.09746218472719193, -0.17207150161266327, -0.08246106654405594, 0.021588832139968872, -0.04852071404457092, 0.05435965955257416, 0.13152898848056793, 0.07778070867061615, 0.11742393672466278, -0.09439970552921295], [0.007579520344734192, 0.05561895668506622, 0.11205081641674042, -0.033976808190345764, -0.12760919332504272, -0.011373713612556458, -0.037762269377708435, 0.12958993017673492, 0.01022474467754364, -0.07473192363977432, 0.16059546172618866, 0.03154835104942322, 0.047191232442855835, -0.04528316855430603, 0.04132123291492462, -0.0633891150355339, -0.16468417644500732, -0.11427097767591476, -0.12134519964456558, -0.1540338695049286, -0.03411230444908142, -0.132361501455307, 0.12022189795970917, -0.05746828019618988, -0.16340471804141998, -0.019634485244750977, 0.03351964056491852, 0.04986174404621124, -0.14410322904586792, -0.12115853279829025, 0.025405019521713257, 0.07553692162036896, 0.029871836304664612, -0.1351700872182846, 0.0867881029844284, -0.06923108547925949, -0.14807751774787903, 0.09629841148853302, -0.05801336467266083, 0.17533056437969208, -0.1072063222527504, 0.17644555866718292, -0.08475815504789352, -0.127683624625206, 0.1306208223104477, 0.020168200135231018, -0.11765165627002716, -0.12240266799926758, 0.038679882884025574, 0.1484348028898239, 0.012239739298820496, 0.1284542828798294, 0.000729978084564209, 0.1683283895254135, 0.14408166706562042, 0.10371862351894379, 0.08099223673343658, -0.013483196496963501, 0.007755398750305176, 0.11251585185527802, 0.135251984000206, 0.055220961570739746, -0.15016517043113708, 0.03894263505935669], [-0.17336688935756683, -0.0990881696343422, 0.09375737607479095, 0.0032442957162857056, 0.16863830387592316, -0.027894213795661926, -0.10812660306692123, -0.07823415845632553, -0.1263049989938736, -0.12400289624929428, 0.1451134830713272, 0.06313066184520721, 0.0350012332201004, -0.056183308362960815, -0.043864667415618896, 0.06933426856994629, -0.12870028614997864, -0.1305132806301117, 0.10070483386516571, 0.02277889847755432, 0.025906577706336975, 0.0813940018415451, 0.1506197601556778, 0.15483231842517853, 0.09139586985111237, -0.009382054209709167, 0.0880136638879776, -0.13626210391521454, -0.020256876945495605, 0.13670383393764496, -0.07007958739995956, -0.022346556186676025, 0.08856351673603058, 0.06740465760231018, 0.004808783531188965, -0.17587879300117493, -0.07859160751104355, -0.01663254201412201, -0.0941445529460907, 0.13869242370128632, -0.027642562985420227, -0.03165574371814728, 0.029718711972236633, -0.14711445569992065, -0.006058096885681152, -0.01070357859134674, 0.1256885975599289, 0.17018775641918182, 0.03336930274963379, -0.04573012888431549, -0.1181972473859787, 0.1437859982252121, -0.1522854119539261, 0.14453630149364471, 0.17029376327991486, -0.07099337130784988, 0.08410583436489105, -0.0677514374256134, -0.10770268738269806, 0.021096855401992798, -0.021704822778701782, -0.0048948973417282104, -0.1753934770822525, 0.04967491328716278], [0.025755852460861206, 0.17156775295734406, -0.16006867587566376, -0.17510885000228882, 0.11084608733654022, -0.13582471013069153, 0.09253551065921783, -0.004332989454269409, -0.02714008092880249, 0.08419449627399445, -0.04568633437156677, 0.15008319914340973, -0.025591909885406494, -0.06854299455881119, -0.044172629714012146, -0.06065664440393448, -0.1703711748123169, 0.04502294957637787, 0.08356298506259918, -0.14561372995376587, 