{"id": "f7570998-1ef2-48ba-a5c1-c1d09f9cb4c8", "population_size": 10, "crossover_prob": 0.5, "mutation_prob": 0.005, "fitness_rounds": 1000, "tournament_size": 5, "generational_best_individuals": [{"non_splittable_weights": [[[-0.09503351897001266, 0.09050340950489044, 0.051999643445014954, 0.09472809731960297, -0.1474580317735672, -0.11075380444526672, 0.11944819986820221, -0.1267375946044922, -0.11696544289588928, -0.18588735163211823, -0.1475021243095398, -0.14744487404823303, -0.1498945653438568, 0.04012368619441986, -0.08978144824504852, -0.16194464266300201, 0.18639959394931793, -0.12999087572097778, 0.1327887624502182, 0.12922658026218414, 0.05693070590496063, 0.05734966695308685, 0.02366161346435547, 0.15016503632068634, -0.15411190688610077, -0.09153629094362259, -0.021844059228897095, -0.012088403105735779, -0.10449685901403427, -0.1292155385017395, -0.030932068824768066, -0.11939732730388641, -0.09640276432037354, 0.08697713911533356, 0.20381926000118256, 0.20128203928470612, 0.00607377290725708, 0.025067448616027832, 0.06890900433063507, 0.09236399829387665, 0.016135022044181824, 0.1263389140367508, 0.08849306404590607, -0.20778518915176392, 0.05537252128124237, 0.20263506472110748, -0.040963515639305115, -0.18997228145599365, 0.07003454864025116, -0.13578492403030396, -0.18580816686153412, 0.19371335208415985, 0.1394934505224228, -0.13053907454013824, 0.09746362268924713, -0.17277753353118896, 0.10473500192165375, -0.2088012993335724, -0.0010456442832946777, 0.11441101133823395, 0.21205560863018036, 0.18932212889194489, -0.09377045184373856, -0.11863292753696442, 0.07127566635608673, 0.07522784173488617, -0.13234928250312805, 0.20773698389530182, 0.16233257949352264, -0.04273054003715515, 0.2041567713022232, 0.19575782120227814, -0.09691637754440308, -0.19955889880657196, -0.01187063753604889, 0.12555931508541107, -0.14685726165771484, -0.04184873402118683, -0.15894311666488647, 0.020438075065612793, -0.1279674768447876, -0.05263994634151459, -0.12081494927406311, -0.017416343092918396, 0.10425572097301483, -0.05682702362537384, -0.019358858466148376, 0.04298014938831329, -0.2063046097755432, -0.12281771749258041, -0.15594516694545746, -0.19409482181072235, 0.18160848319530487, -0.2125663012266159, 0.033141329884529114, -0.16913779079914093, 0.1631806641817093, 0.14071767032146454, -0.15179875493049622, 0.041665300726890564, -0.0594794899225235, -0.19636547565460205, -0.15302997827529907, -0.15154504776000977, 0.05831815302371979, -0.06154879927635193, -0.07415315508842468, 0.07224269211292267, 0.019572705030441284, 0.10201461613178253, -0.1799730360507965, 0.14414049685001373, 0.027340903878211975, 0.034384652972221375, -0.1724059283733368, 0.20158173143863678, -0.17313317954540253, -0.0648331493139267, 0.16139955818653107, -0.04337233304977417, -0.0034486502408981323, -0.1517675220966339, -0.2079787254333496, 0.1595243364572525, 0.07944400608539581, 0.021319076418876648, 0.17177139222621918, -0.09921876341104507], [-0.0015665143728256226, 0.17560194432735443, -0.1254604458808899, 0.21211035549640656, 0.0840398520231247, -0.13275936245918274, -0.10749955475330353, -0.19398878514766693, 0.04603050649166107, -0.17004506289958954, 0.18433205783367157, -0.022655755281448364, -0.15745487809181213, -0.007917135953903198, -0.11850720643997192, 0.057624295353889465, -0.1532457023859024, -0.09444474428892136, -0.1613527536392212, -0.014127090573310852, 0.2108190804719925, 0.16171349585056305, -0.000680968165397644, -0.1920078545808792, -0.025422781705856323, -0.15109261870384216, 0.16478224098682404, -0.18766336143016815, -0.1509382128715515, -0.1030731126666069, -0.16476982831954956, 0.18139778077602386, -0.10834845155477524, 0.007915198802947998, 0.11854957044124603, 0.20892171561717987, -0.19997796416282654, -0.18664777278900146, 0.10689972341060638, -0.0396876335144043, 0.2069796770811081, 0.026612624526023865, -0.038943856954574585, 0.19981493055820465, -0.20491045713424683, -0.06873750686645508, -0.07225942611694336, -0.019099444150924683, 0.1116219311952591, 0.14279524981975555, 0.1375562995672226, 0.19912569224834442, 0.06893925368785858, 0.008598476648330688, 0.1281188279390335, -0.20172178745269775, 0.17803765833377838, 0.006045401096343994, -0.1613929122686386, 0.09193570911884308, 0.07389666140079498, -0.16638460755348206, -0.05417603254318237, 0.13254700601100922, -0.10132858157157898, 0.15215061604976654, -0.12358824163675308, 0.1396283060312271, -0.15371768176555634, -0.1237669289112091, 0.09014452993869781, -0.008309364318847656, -0.1717134714126587, 0.16211415827274323, 0.08419327437877655, -0.19984009861946106, 0.21220631897449493, 0.15201331675052643, -0.05968323349952698, 0.044580504298210144, 0.11066235601902008, -0.06066708266735077, -0.0004854947328567505, -0.14354106783866882, 0.16494177281856537, 0.12757490575313568, -0.005063638091087341, 0.17667384445667267, 0.083714559674263, -0.04254359006881714, -0.2101096659898758, -0.12705302238464355, 0.04502369463443756, 0.10182179510593414, 0.09132809937000275, -0.06704261898994446, 0.010290965437889099, -0.11806134879589081, -0.12135086208581924, 0.18382228910923004, 0.0968572348356247, 0.14819364249706268, 0.1665199249982834, 0.07412151992321014, -0.19206026196479797, 0.20479311048984528, 0.11113007366657257, 0.050039783120155334, -0.11641198396682739, -0.09311003983020782, 0.0125398188829422, -0.19612161815166473, -0.03130291402339935, 0.19269536435604095, 0.10178785026073456, -0.08434027433395386, -0.18150484561920166, -0.16328617930412292, -0.13387107849121094, 0.08875502645969391, -0.1200130432844162, 0.02713114023208618, -0.03571547567844391, 0.21335406601428986, 0.1469995230436325, 0.20816676318645477, 0.10142411291599274, 0.16829119622707367], [0.12294553220272064, -0.11992783099412918, -0.19510740041732788, -0.08550558984279633, 0.11651642620563507, 0.20906107127666473, -0.15979130566120148, 0.08325789868831635, 0.1798083335161209, -0.030697762966156006, 0.10351969301700592, 0.14618487656116486, 0.11315815150737762, -0.0353926420211792, 0.11439256370067596, -0.15088710188865662, -0.007554963231086731, 0.07282392680644989, 0.1479673534631729, -0.006541311740875244, -0.050496652722358704, 0.01811879873275757, -0.008227258920669556, -0.11548767238855362, -0.16289156675338745, -0.1254417598247528, 0.1836119443178177, -0.01421847939491272, -0.050403892993927, 0.19952373206615448, 0.12084122002124786, -0.1459941267967224, 0.12450332939624786, 0.08198876678943634, 0.015414044260978699, 0.144938126206398, 0.10852526128292084, 0.21073518693447113, -0.027967378497123718, -0.19096608459949493, -0.20249909162521362, 0.1236981600522995, -0.08982798457145691, -0.04672954976558685, -0.02945917844772339, 0.18925584852695465, 0.04987390339374542, -0.09379734098911285, 0.09411518275737762, 0.1731845587491989, -0.012936592102050781, 0.12785814702510834, -0.03623637557029724, -0.09709169715642929, -0.06396093964576721, 0.19312526285648346, 0.12967033684253693, 0.10411201417446136, -0.17565487325191498, -0.030009493231773376, -0.15499769151210785, 0.14615149796009064, -0.12352420389652252, 0.20896176993846893, 0.10718168318271637, -0.15703848004341125, -0.09512097388505936, 0.04955030977725983, -0.06992556154727936, 0.04495526850223541, -0.10348416864871979, -0.1573793590068817, -0.015803560614585876, -0.19947201013565063, 0.051216498017311096, 0.0333678275346756, -0.07375797629356384, -0.18102388083934784, -0.09545207023620605, 0.19641976058483124, -0.045876264572143555, 0.07427670061588287, -0.1538839191198349, 0.06929953396320343, -0.127966046333313, -0.04171524941921234, 0.06534998118877411, 0.14782662689685822, -0.005347132682800293, -0.19637960195541382, 0.13301511108875275, 0.05569387972354889, -0.11480297148227692, -0.0693134218454361, 0.06425239145755768, 0.010545521974563599, -0.18034648895263672, 0.03289717435836792, 0.14415417611598969, 0.14383701980113983, 0.013899937272071838, -0.06193020939826965, 0.12827791273593903, -0.10340666025876999, 0.040704354643821716, 0.09525536000728607, 0.003314405679702759, -0.0376969575881958, -0.09233875572681427, -0.09216108173131943, 0.049069687724113464, -0.1449171006679535, -0.15508325397968292, -0.05639444291591644, -0.01062251627445221, 0.19002212584018707, -0.17723223567008972, -0.17238178849220276, 0.09344328939914703, 0.18652062118053436, -0.07338595390319824, -0.20745553076267242, -0.01546904444694519, 0.04561053216457367, -0.08452504873275757, 0.07152293622493744, -0.154705211520195, -0.2004116177558899]], [[0.13415072858333588, -0.1330917775630951, 0.14981700479984283, -0.16034802794456482, 0.11980076134204865, -0.15760847926139832, 0.10762880742549896, -0.11510493606328964, 0.07949616014957428, 0.030222028493881226, -0.04592615365982056, -0.11496998369693756, -0.10258682072162628, -0.1365780383348465, -0.05559308081865311, 0.003248468041419983, 0.17459990084171295, -0.1349138766527176, 0.015623241662979126, 0.017296388745307922, 0.004677712917327881, -0.0232333242893219, 0.06373323500156403, 0.0033622682094573975, 0.07123073935508728, -0.02823135256767273, -0.07739577442407608, -0.0534273236989975, 0.14196909964084625, 0.01001325249671936, 0.04584266245365143, 0.04826146364212036, 0.07451091706752777, -0.1691160351037979, -0.007514104247093201, -0.04027792811393738, -0.16595645248889923, -0.03877720236778259, -0.13805384933948517, 0.11511702835559845, -0.07828903198242188, -0.058148108422756195, 0.1268663853406906, 0.1312982589006424, -0.1706414669752121, 0.08023048937320709, -0.07284817099571228, -0.05804312229156494, 0.003090888261795044, -0.042714014649391174, -0.057119935750961304, 0.14825083315372467, -0.13575920462608337, -0.08367843925952911, -0.048600926995277405, 0.14052636921405792, -0.14949452877044678, -0.15084180235862732, -0.1316315233707428, -0.15868781507015228, 0.1237710565328598, -0.1472475528717041, 0.06579047441482544, 0.00882558524608612], [0.08794201910495758, 0.1319229155778885, 0.13226886093616486, 0.00491313636302948, -0.03453567624092102, -0.150682270526886, 0.0029013901948928833, -0.013916850090026855, 0.021610885858535767, -0.11150450259447098, 0.12776155769824982, 0.150695338845253, 0.033918946981430054, 0.04569098353385925, 0.0491463840007782, -0.09118415415287018, -0.019332289695739746, 0.13435129821300507, 0.12159879505634308, -0.0765281394124031, 0.1653243452310562, 0.1307917982339859, 0.14416278898715973, 0.1228848546743393, 0.0637490451335907, 0.05429765582084656, -0.12001854181289673, -0.03323274850845337, -0.11493992805480957, -0.14711011946201324, -0.14343971014022827, -0.15809109807014465, 0.025427281856536865, -0.1167309582233429, 0.14207707345485687, 0.1184409111738205, 0.031678587198257446, -0.08108118176460266, 0.02833077311515808, 0.10300441086292267, 0.15065796673297882, -0.05682157725095749, 0.1241728812456131, 0.03401128947734833, -0.1590528041124344, 0.14992110431194305, 0.1312844306230545, -0.06575957685709, -0.0009774267673492432, -0.08837957680225372, -0.08711989223957062, -0.14833414554595947, -0.12599867582321167, 0.13999725878238678, -0.0802822858095169, 0.11603565514087677, 0.1710161417722702, -0.06688561290502548, -0.13095666468143463, -0.03405250608921051, -0.06779897958040237, 0.09314040839672089, 0.01857319474220276, -0.02925349771976471], [0.08501039445400238, 0.09049172699451447, 0.036611154675483704, -0.06214304268360138, 0.10024501383304596, 0.1559799760580063, -0.14328372478485107, 0.15625639259815216, 0.018650740385055542, -0.08684404194355011, -0.09085612744092941, 0.04148447513580322, 0.14318476617336273, 0.14690448343753815, 0.04317443072795868, 0.07587040960788727, -0.093819260597229, 0.011075258255004883, 0.03857983648777008, 0.09172798693180084, -0.16914823651313782, 0.12350092828273773, 0.1045728474855423, -0.09685926884412766, -0.17502515017986298, 0.06189344823360443, 0.03986400365829468, 0.07201442122459412, -0.14676021039485931, 0.09394915401935577, -0.011825263500213623, 0.10125510394573212, -0.02630499005317688, 0.11350138485431671, 0.17394573986530304, 0.1760033816099167, 0.07436768710613251, -0.03409793972969055, 0.16352684795856476, -0.13146533071994781, -0.0897737517952919, -0.10572735220193863, 0.12357579171657562, 0.08168835937976837, -0.08268111199140549, -0.16553528606891632, -0.14400839805603027, 0.07290591299533844, 0.11094976961612701, -0.062001511454582214, -0.14568652212619781, 0.040259137749671936, 0.0006947070360183716, 0.11698691546916962, -0.13072919845581055, 0.02175295352935791, -0.11720077693462372, -0.08343368768692017, -0.0661446750164032, 0.09935201704502106, 0.1611376851797104, -0.1346588432788849, -0.15004758536815643, -0.10398031771183014], [0.17138172686100006, -0.09410451352596283, 0.020695865154266357, -0.0026144981384277344, 0.016893208026885986, -0.09728529304265976, 0.11148487031459808, 0.0936051458120346, 0.1183590441942215, 0.16862280666828156, -0.13088500499725342, -0.07370366901159286, -0.0891101136803627, 0.08264721930027008, 0.052248015999794006, 0.15113793313503265, -0.15325377881526947, -0.06141237914562225, -0.014999300241470337, -0.14678937196731567, 0.07047750055789948, -0.05090811848640442, -0.017104968428611755, -0.14986711740493774, 0.07128027081489563, -0.04501771926879883, -0.1556447297334671, 0.09627316892147064, 0.017705053091049194, -0.1420632004737854, 0.07310353219509125, 0.015185683965682983, 0.1661476343870163, 0.06511178612709045, 0.12648360431194305, 0.07469378411769867, -0.17029725015163422, -0.11312095820903778, 0.13555236160755157, -0.037415146827697754, 0.1052311509847641, 0.14638985693454742, 0.1615685373544693, -0.04715801775455475, 0.10815264284610748, 0.12401466071605682, 0.03198777139186859, 0.17305918037891388, -0.16316848993301392, -0.08834666013717651, -0.131493479013443, 0.09659366309642792, 0.08737476170063019, 0.16708649694919586, -0.12834376096725464, 0.012377098202705383, 0.04715725779533386, 0.003964543342590332, -0.12367074191570282, 0.15768279135227203, 0.025350823998451233, 0.020237773656845093, -0.14010944962501526, -0.09511536359786987], [-0.16037680208683014, 0.11859942972660065, 0.04255659878253937, -0.035457342863082886, -0.09282779693603516, -0.06378373503684998, 0.09426476061344147, 0.004425749182701111, -0.016830921173095703, 0.16781042516231537, 0.17347441613674164, 0.11621005833148956, 0.06991420686244965, 0.1561616212129593, 0.04925917088985443, 0.12983493506908417, -0.07179681956768036, 0.06502094864845276, 0.05970720946788788, -0.0664614886045456, -0.041643619537353516, 0.0940970629453659, 0.14073826372623444, 0.0990409106016159, -0.05143773555755615, 0.16856695711612701, -0.048955038189888, 0.007523924112319946, -0.0979444682598114, -0.13389956951141357, -0.005289599299430847, -0.17559468746185303, -0.16146031022071838, 0.09707127511501312, 0.06558269262313843, -0.012594655156135559, -0.052503086626529694, 0.02530108392238617, -0.16953818500041962, -0.09629880636930466, -0.17545770108699799, 0.06464757025241852, -0.10609849542379379, 0.09800677001476288, 0.120363250374794, -0.0911024734377861, 0.058441951870918274, 0.0790771096944809, 0.1492709070444107, -0.044991299510002136, 0.11870609223842621, -0.16354802250862122, -0.16252470016479492, 0.15640126168727875, 0.08710624277591705, -0.12781091034412384, 0.04969446361064911, -0.008675172924995422, -0.16039353609085083, 0.05213513970375061, 0.01428474485874176, -0.15720149874687195, 0.16401691734790802, 0.12186901271343231], [0.07452617585659027, -0.17667503654956818, -0.06171398609876633, -0.057634465396404266, 0.15950511395931244, -0.01655419170856476, 0.07982636988162994, -0.03771814703941345, 0.0991959422826767, -0.0881207138299942, -0.0485563725233078, 0.1350359171628952, 0.15548573434352875, -0.1766849011182785, 0.020602524280548096, 0.06795382499694824, 0.08729822933673859, -0.012317374348640442, 0.08422200381755829, 0.05803123116493225, 0.07104845345020294, -0.07851919531822205, 0.0376114696264267, -0.019396185874938965, -0.14778749644756317, 0.10956157743930817, -0.13632018864154816, -0.11287929117679596, -0.0188157856464386, -0.11612792313098907, -0.09338915348052979, -0.009864509105682373, 0.04100571572780609, 0.04991067945957184, 0.12584708631038666, -0.04765485227108002, 0.12460215389728546, 0.17445562779903412, 0.007972031831741333, -0.09685223549604416, 0.1121118813753128, -0.16078858077526093, -0.05843580514192581, -0.1608375608921051, -0.14440546929836273, -0.06044115126132965, -0.02792203426361084, 0.1123422235250473, -0.11013030260801315, -0.06008501350879669, -0.12339408695697784, -0.17581380903720856, -0.15711577236652374, -0.1331542432308197, 0.11910678446292877, 0.11544729769229889, 0.08375953137874603, 0.17341546714305878, -0.10649222880601883, 0.0491299033164978, 0.005681812763214111, -0.05090850591659546, -0.03832791745662689, 0.00997789204120636], [-0.051543235778808594, 0.08315043151378632, -0.04738013446331024, 0.010636597871780396, -0.17329005897045135, -0.16969311237335205, -0.12015901505947113, 0.14657987654209137, 0.013905122876167297, -0.14190447330474854, 0.02537648379802704, 0.039895400404930115, 0.03400373458862305, 0.1678033322095871, 0.14511089026927948, 0.15798498690128326, 0.05024924874305725, 0.11699919402599335, -0.12745842337608337, -0.028883233666419983, 0.1388595849275589, -0.008058980107307434, 0.1702711135149002, -0.03574188053607941, -0.02534542977809906, 0.07049603760242462, -0.06838376820087433, -0.038432568311691284, 0.08091570436954498, 0.03938247263431549, -0.13544850051403046, -0.031584128737449646, -0.17648684978485107, 0.14606676995754242, 0.04329155385494232, -0.13762779533863068, 0.025949090719223022, 0.05579522252082825, -0.042732223868370056, 0.1037721186876297, -0.054649583995342255, -0.08126683533191681, 0.07718242704868317, 0.04364284873008728, -0.10662326216697693, -0.03144361078739166, 0.002381548285484314, -0.15252050757408142, -0.057086601853370667, -0.17489765584468842, 0.0991009920835495, -0.08273755013942719, 0.10851670801639557, 0.09239272773265839, -0.15270650386810303, 0.15698935091495514, -0.100304014980793, 0.034615665674209595, 0.14150889217853546, 0.07517243921756744, 0.09343542158603668, 0.14836882054805756, -0.08270467817783356, 0.03264918923377991], [0.12801165878772736, 0.05037011206150055, -0.09513787180185318, 0.12562857568264008, -0.09730122238397598, -0.018641427159309387, 0.009208664298057556, 0.16898812353610992, 0.1502050906419754, 0.049244463443756104, -0.16484251618385315, -0.12250099331140518, 0.10175685584545135, -0.00664752721786499, -0.02074071764945984, -0.0783848762512207, -0.17532654106616974, -0.01722078025341034, -0.04737958312034607, -0.039487630128860474, 2.0816922187805176e-05, -0.05844958871603012, 0.13523583114147186, 0.07245127856731415, 0.10477791726589203, 0.1255805939435959, -0.14859098196029663, 0.1078929454088211, 0.08058442175388336, 0.09783037006855011, 0.05350878834724426, -0.131973534822464, -0.11719246953725815, -0.07402744144201279, 0.054817914962768555, 0.10509957373142242, 0.15260721743106842, -0.13897809386253357, -0.07909471541643143, -0.14646075665950775, 0.024865925312042236, 0.012215420603752136, -0.07570290565490723, 0.01592068374156952, -0.1353263258934021, -0.028023824095726013, -0.06867727637290955, 0.17496253550052643, 0.006686344742774963, -0.03795921802520752, -0.05523837357759476, 0.15823759138584137, 0.13115893304347992, -0.09562630951404572, -0.15412183105945587, -0.14891986548900604, -0.01693721115589142, 0.09380771219730377, 0.039501041173934937, -0.02416999638080597, 0.1614762395620346, -0.11212220788002014, 0.07025179266929626, -0.11706973612308502], [0.14395542442798615, -0.09362669289112091, 0.005655601620674133, -0.11135298013687134, 0.07486216723918915, 0.16349728405475616, 0.11442376673221588, 0.05316188931465149, 0.17416511476039886, 0.1125376969575882, 0.05017530918121338, 0.05314089357852936, -0.04653598368167877, 0.1604488641023636, 0.07308469712734222, -0.08660367876291275, 0.026305317878723145, -0.01783718168735504, 0.014144226908683777, -0.03055495023727417, -0.08846189081668854, 0.05784288048744202, -0.017692536115646362, -0.12461528927087784, 0.09859113395214081, -0.09461461752653122, -0.013107284903526306, 0.05519251525402069, -0.09424532204866409, -0.1486508846282959, 0.09484626352787018, 0.015436530113220215, 0.15216054022312164, -0.046713411808013916, 0.11539427936077118, 0.10140587389469147, -0.16490156948566437, -0.09254267811775208, 0.1011665016412735, 0.0509772002696991, 0.06891591846942902, 0.15532530844211578, -0.03224824368953705, 0.09115318953990936, -0.12083564698696136, 0.08090753853321075, 0.10523004829883575, -0.08820534497499466, -0.1124376729130745, -0.13743725419044495, 0.02585303783416748, 0.04864703118801117, -0.10033946484327316, 0.15617863833904266, -0.04922191798686981, -0.07739906013011932, 0.14934121072292328, 0.002071693539619446, 0.00026755034923553467, 0.013340532779693604, -0.10295796394348145, 0.13286082446575165, 0.030200153589248657, -0.011974170804023743], [-0.17097580432891846, -0.15387776494026184, -0.0011273473501205444, -0.0707574337720871, 0.13074736297130585, 0.030640974640846252, 0.012397542595863342, -0.1432783007621765, -0.08269059658050537, 0.1646655946969986, 0.09721384942531586, -0.01129654049873352, -0.12981022894382477, -0.10628613084554672, 0.12293298542499542, -0.11148878186941147, -0.06727231293916702, -0.029214173555374146, -0.056601449847221375, 0.17070169746875763, -0.07908788323402405, -0.08171852678060532, 0.0463411808013916, -0.09920933842658997, -0.10740824788808823, 0.1405763477087021, -0.16440966725349426, -0.17545530200004578, -0.06595315784215927, 0.0010032206773757935, 0.13950501382350922, -0.10610882192850113, 0.14192809164524078, -0.08018964529037476, 0.10228811204433441, -0.06487297266721725, -0.09886091202497482, -0.01467868685722351, 0.15968383848667145, -0.1425720751285553, 0.07227678596973419, 0.10859675705432892, -0.16843393445014954, 0.055328309535980225, -0.15172253549098969, 0.16934452950954437, -0.034199222922325134, 0.16932310163974762, -0.1277768909931183, -0.10813991725444794, 0.095330610871315, 0.17394091188907623, 0.11706440150737762, 0.12114305794239044, -0.05669138580560684, -0.10009543597698212, 0.1637296825647354, -0.04523250460624695, -0.12013310194015503, 0.062412187457084656, 0.06137743592262268, -0.13694286346435547, -0.06504464149475098, 0.023500829935073853], [-0.06530527770519257, -0.0331391841173172, -0.134596586227417, -0.04966689646244049, 0.0861104279756546, 0.02419687807559967, 0.01099492609500885, -0.08416569232940674, 0.1760806292295456, -0.002784430980682373, 0.08924110233783722, -0.11590416729450226, -0.08155933767557144, 0.1443788856267929, -0.10029087215662003, -0.014893606305122375, 0.07015444338321686, 0.03869447112083435, -0.1476483792066574, 0.05672578513622284, 0.10502283275127411, -0.14614537358283997, 0.1709446758031845, -0.04208481311798096, 0.09361644089221954, 0.16527743637561798, -0.08056774735450745, -0.15295445919036865, -0.12388788163661957, -0.11435489356517792, 0.010650262236595154, 0.04310467839241028, -0.06060565263032913, -0.01810699701309204, 0.001736283302307129, -0.05307881534099579, 0.03705933690071106, -0.08972065150737762, -0.050362199544906616, 0.1675083488225937, -0.01569165289402008, -0.06460078805685043, -0.1345852017402649, 0.008227735757827759, 0.100843146443367, -0.13048458099365234, 0.06653878092765808, 0.1321713775396347, -0.006361603736877441, -0.09052274376153946, -0.12220369279384613, 0.1221829503774643, -0.16136056184768677, 0.10004617273807526, 0.08024169504642487, 0.027485132217407227, -0.0005951076745986938, -0.1761474460363388, -0.09562618285417557, 0.07286401093006134, -0.14782218635082245, -0.10629236698150635, 0.12673558294773102, -0.13486118614673615], [-0.09832379221916199, 0.036628350615501404, 0.1733061820268631, -0.09536407142877579, 0.0039471834897994995, -0.008536934852600098, -0.06423108279705048, -0.15614964067935944, 0.12162025272846222, 0.0879461020231247, -0.13421612977981567, -0.052532002329826355, -0.0629192590713501, 0.06087900698184967, -0.1689138114452362, -0.10723713040351868, -0.0859978199005127, 0.0697447657585144, 0.10025303065776825, -0.06799348443746567, 0.16714002192020416, -0.06913688778877258, 0.08313588798046112, 0.1346863955259323, 0.11890973150730133, 0.039323002099990845, -0.15789920091629028, 0.09769625961780548, -0.0454876571893692, 0.11633153259754181, 0.07897762954235077, 0.023600637912750244, 0.16628123819828033, -0.13255545496940613, -0.1510460078716278, 0.038598716259002686, 0.039974212646484375, -0.06764134764671326, -0.010400667786598206, 0.1603746861219406, -0.1519026756286621, -0.047143563628196716, 0.17483223974704742, -0.07579861581325531, 0.09968610107898712, 0.10484848916530609, 0.03650131821632385, -0.08584689348936081, 0.05607607960700989, -0.06565016508102417, -0.1662556231021881, -0.10679125785827637, -0.12203893810510635, -0.12590497732162476, 0.11371161043643951, 0.06913301348686218, -0.07133695483207703, -0.11334109306335449, 0.1405065506696701, -0.0447733998298645, 0.16667155921459198, -0.0525628924369812, -0.13891571760177612, 0.06484414637088776], [-0.1699146330356598, -0.09716285765171051, 0.09944073855876923, 0.0027815699577331543, -0.12502913177013397, -0.16096210479736328, -0.16398242115974426, 0.09936977922916412, 0.14866872131824493, 0.14415384829044342, 0.10773862898349762, -0.10446635633707047, -0.010982155799865723, 0.0578715056180954, -0.11774678528308868, -0.15713123977184296, 0.009108096361160278, -0.11757360398769379, -0.12746749818325043, 0.06924900412559509, -0.06465689092874527, 0.0022458434104919434, -0.08588680624961853, -0.019667357206344604, 0.10190863907337189, -0.050122424960136414, 0.10469867289066315, -0.11386801302433014, -0.03675664961338043, 0.02939683198928833, 0.013561218976974487, -0.13735969364643097, 0.09823350608348846, -0.10163173079490662, -0.042867764830589294, -0.027247726917266846, 0.0072340816259384155, -0.005400523543357849, -0.11675211787223816, -0.1705676168203354, -0.04637156426906586, 0.05278286337852478, -0.017979726195335388, -0.07738527655601501, -0.05474238842725754, -0.11568377912044525, 0.004617854952812195, 0.09205789864063263, -0.09597785770893097, 0.17139290273189545, -0.09277144819498062, -0.14524346590042114, -0.11417387425899506, 0.14299370348453522, -0.1319766640663147, -0.01861003041267395, -0.11669741570949554, -0.14149974286556244, -0.17205683887004852, 0.14172662794589996, -0.1513308733701706, 0.05761255323886871, -0.13608121871948242, -0.058620236814022064], [0.04910643398761749, 0.0439714640378952, 0.11916659772396088, -0.1731216311454773, -0.14797049760818481, 0.07828034460544586, 0.04279819130897522, 0.006363168358802795, 0.06963755190372467, -0.14627814292907715, -0.17528991401195526, 0.10263024270534515, 0.12247274816036224, 0.10194195806980133, -0.13183651864528656, -0.09142987430095673, 0.16104577481746674, -0.014298275113105774, 0.09420005977153778, -0.10726157575845718, 0.10428087413311005, 0.02512305974960327, -0.10311196744441986, -0.1416969895362854, -0.12362328171730042, -0.022211045026779175, -0.03413169085979462, 0.14667074382305145, -0.09409520030021667, -0.04423260688781738, 0.17341504991054535, 0.07186518609523773, -0.06566820293664932, 0.16457344591617584, -0.11259180307388306, 0.03557176887989044, 0.0035450905561447144, 0.12841637432575226, 0.020187154412269592, -0.17667748034000397, 0.025699257850646973, 0.049651265144348145, 0.04230022430419922, 0.09342144429683685, 0.11535365879535675, -0.09035377949476242, -0.06049446761608124, -0.04065766930580139, 0.08416454493999481, -0.10989604890346527, -0.06971969455480576, -0.11072305589914322, 0.04159606993198395, 0.14860515296459198, -0.16957387328147888, -0.07983944565057755, 0.16306112706661224, 0.00886470079421997, -0.02061520516872406, 0.14885811507701874, -0.008823826909065247, -0.04681575298309326, -0.0014169365167617798, -0.09198566526174545], [0.014976203441619873, -0.0490858256816864, 0.1497810035943985, -0.02776588499546051, 0.13376443088054657, 0.13732735812664032, 0.11974529922008514, -0.07920016348361969, 0.07223741710186005, -0.0034659504890441895, -0.053727202117443085, 0.028163447976112366, 0.1364431232213974, 0.062100768089294434, -0.08438941091299057, 0.16379736363887787, 0.1756107062101364, -0.12687928974628448, -0.16693590581417084, 0.12857742607593536, 0.12982140481472015, 0.056122735142707825, 0.05213725566864014, -0.14459648728370667, -0.12515351176261902, 0.03988023102283478, 0.10320915281772614, -0.1243876963853836, 0.16878820955753326, 0.09295828640460968, 0.17520810663700104, 0.05087128281593323, -0.0966302901506424, 0.07675080001354218, -0.014362424612045288, 0.1444178968667984, 0.12146349251270294, -0.07376764714717865, 0.0664755254983902, 0.16027159988880157, -0.0011302530765533447, -0.16182665526866913, 0.02117908000946045, -0.02073211967945099, -0.008950307965278625, -0.04108770191669464, 0.11454550921916962, 0.06416107714176178, 0.01129131019115448, -0.13885624706745148, -0.14576895534992218, 0.045301035046577454, 0.1178722232580185, 0.15321706235408783, -0.0635126456618309, 0.02955535054206848, 0.14590491354465485, 0.1328488141298294, -0.03950323164463043, -0.14727739989757538, -0.16459642350673676, -0.08447863906621933, -0.06138334423303604, 0.04979895055294037], [0.16608716547489166, -0.13914251327514648, -0.05918930470943451, -0.10349828749895096, -0.13788147270679474, 0.015210121870040894, -0.016565397381782532, 0.0819065123796463, 0.05484730005264282, -0.03947882354259491, 0.17271752655506134, -0.1498376429080963, -0.05889326333999634, -0.15334072709083557, -0.0824475809931755, 0.16331203281879425, -0.034014150500297546, 0.1749207228422165, -0.16690994799137115, 0.16277174651622772, 0.07902996242046356, 0.13471944630146027, 0.11285774409770966, 0.14674659073352814, 0.010776609182357788, 0.16992314159870148, 0.10749830305576324, 0.02619919180870056, 0.15377260744571686, -0.15573370456695557, 0.13317136466503143, 0.0889744907617569, -0.1349809765815735, 0.1024305671453476, -0.16062475740909576, -0.029232755303382874, 0.09020598232746124, 0.07572422921657562, -0.0666918233036995, 0.005698457360267639, 0.05584453046321869, -0.15856993198394775, 0.09277187287807465, 0.16653628647327423, -0.004506513476371765, -0.04172538220882416, -0.16533681750297546, -0.17355574667453766, 0.1662718504667282, -0.047093912959098816, -0.12980230152606964, 0.13066954910755157, 0.05649025738239288, -0.09446726739406586, 0.16681377589702606, 0.03284613788127899, 0.16940675675868988, 0.05790935456752777, -0.16318222880363464, 0.008044108748435974, 0.14744620025157928, 0.0332854688167572, 0.0015196502208709717, -0.035185620188713074], [0.17485491931438446, -0.04668959975242615, -0.04414810240268707, -0.1335413157939911, 0.1573157161474228, -0.031291380524635315, -0.10033251345157623, -0.037021830677986145, 0.05885116755962372, -0.15358896553516388, 0.035355135798454285, -0.07900843769311905, 0.0932302325963974, -0.1531742513179779, 0.14346952736377716, -0.11842446029186249, -0.1696574091911316, 0.16751842200756073, 0.12280981242656708, -0.0163557231426239, -0.07127229869365692, -0.16105592250823975, 0.12200973927974701, 0.17276208102703094, -0.07712068408727646, 0.1236896961927414, -0.11423258483409882, -0.12991741299629211, -0.0810864046216011, -0.10293356329202652, -0.07477562874555588, 0.05226685106754303, 0.056897491216659546, -0.06553561240434647, -0.16574323177337646, -0.06635751575231552, -0.05348898470401764, 0.06836602091789246, -0.06632611155509949, -0.025703847408294678, 0.16715438663959503, -0.1488846242427826, -0.09113846719264984, -0.13487914204597473, 0.03779914975166321, -0.14731895923614502, 0.12383277714252472, -0.09109485149383545, 0.1249864250421524, 0.06388184428215027, -0.10221002250909805, 0.12383385002613068, -0.051009148359298706, 0.022976189851760864, 0.06905356049537659, -0.030702203512191772, -0.14528098702430725, 0.06699216365814209, -0.13402706384658813, 0.017994940280914307, 0.17263196408748627, 0.10033820569515228, 0.17453472316265106, 0.17203621566295624], [-0.027193531394004822, -0.044163063168525696, 0.11950160562992096, -0.0344020277261734, -0.002100929617881775, 0.13426156342029572, -0.15208479762077332, -0.11734339594841003, -0.04872305691242218, 0.15221278369426727, -0.09740469604730606, 0.06019391119480133, -0.1487000286579132, 0.1643046885728836, -0.15239262580871582, -0.03291277587413788, 0.1110801249742508, 0.13386811316013336, 0.1541507989168167, 3.9637088775634766e-06, 0.04595561325550079, -0.12837180495262146, 0.028264567255973816, 0.1730678528547287, 0.0306643545627594, 0.062427863478660583, -0.04614047706127167, -0.0964830294251442, 0.16914694011211395, -0.1661168336868286, 0.12756730616092682, -0.021050363779067993, 0.11090488731861115, -0.10228513181209564, 0.09277527034282684, -0.05477071553468704, 0.05879206955432892, -0.16421230137348175, -0.07910449057817459, 0.14944224059581757, -0.15206363797187805, 0.1360386461019516, -0.014688849449157715, -0.03746652603149414, -0.11375320702791214, -0.13396480679512024, 0.08778740465641022, -0.08188711106777191, 0.0328407883644104, -0.007051676511764526, 0.11900229752063751, -0.014677852392196655, 0.09483765065670013, 0.09923125803470612, -0.04032905399799347, 0.054716259241104126, 0.04921749234199524, 0.022748038172721863, 0.018266022205352783, -0.16281867027282715, -0.07647393643856049, -0.06320223212242126, -0.016009852290153503, 0.15748320519924164], [0.09168632328510284, 0.11928169429302216, -0.04535691440105438, -0.11992557346820831, 0.07187676429748535, -0.03750850260257721, -0.03687499463558197, 0.1559268683195114, -0.03295689821243286, -0.17206746339797974, -0.15631435811519623, 0.07456447184085846, 0.0012711435556411743, 0.006905466318130493, -0.15591943264007568, -0.15107297897338867, -0.15766583383083344, 0.061381906270980835, -0.1751457005739212, -0.1322067826986313, 0.006043687462806702, 0.13773654401302338, 0.06995411217212677, 0.11416687071323395, -0.054883621633052826, -0.09136956185102463, -0.051709502935409546, 0.12647654116153717, 0.1495531052350998, -0.08577608317136765, -0.05569124221801758, 0.028157681226730347, 0.11007086932659149, 0.1392253190279007, -0.03421497344970703, 0.016928240656852722, 0.004303991794586182, -0.04646247625350952, 0.17415548861026764, -0.11418301612138748, -0.01148994266986847, -0.06987053900957108, 0.1208781749010086, 0.08795316517353058, -0.029149815440177917, -0.15948468446731567, -0.04973088204860687, 0.11966656148433685, -0.15740510821342468, 0.14231161773204803, 0.10979877412319183, 0.0373837947845459, 0.05218905210494995, 0.15051428973674774, -0.15447308123111725, 0.15900419652462006, -0.14251624047756195, -0.06890381872653961, -0.10112348198890686, 0.1523364633321762, 0.07482345402240753, 0.09321366250514984, -0.1583373248577118, 0.119858518242836], [-0.028114229440689087, 0.028517529368400574, -0.08311349898576736, -0.07188532501459122, 0.12296001613140106, 0.06598164141178131, -0.15793022513389587, 0.1742333024740219, -0.12136783450841904, -0.10580169409513474, 0.0770830363035202, 0.061143189668655396, -0.006039053201675415, -0.17441192269325256, 0.046584948897361755, -0.02940821647644043, -0.054971374571323395, 0.17307107150554657, 0.1418202668428421, 0.1641944795846939, -0.04178197681903839, 0.11731837689876556, -0.08643066883087158, 0.07350359857082367, -0.020947322249412537, -0.11616489291191101, 0.15537549555301666, 0.1404842883348465, 0.04245153069496155, 0.16902585327625275, 0.14268921315670013, -0.021559417247772217, 0.04595625400543213, 0.07244519889354706, -0.01801086962223053, -0.06911526620388031, 0.08980958163738251, 0.0931551605463028, -0.14498591423034668, 0.1321548968553543, 0.08689470589160919, -0.05741214007139206, 0.010670572519302368, 0.15346817672252655, -0.04243142902851105, 0.006211817264556885, -0.14085328578948975, -0.14604999125003815, 0.006798878312110901, -0.13638491928577423, 0.15159891545772552, 0.04807788133621216, 0.03563718497753143, -0.10371744632720947, 0.14042671024799347, -0.08075078576803207, 0.011779114603996277, -0.02458648383617401, -0.15324543416500092, -0.17602407932281494, 0.05321654677391052, 0.042741164565086365, -0.12499773502349854, -0.1361311972141266], [-0.03729330003261566, 0.17551974952220917, 0.16179032623767853, -0.16623058915138245, -0.09899350255727768, 0.011600285768508911, -0.14456403255462646, 0.09122778475284576, -0.09337574988603592, 0.07719932496547699, -0.16281108558177948, 0.041747838258743286, 0.02175009250640869, -0.08663313835859299, -0.10880663990974426, 0.14202897250652313, 0.07990123331546783, 0.1331382542848587, 0.13451068103313446, -0.037179380655288696, -0.11234558373689651, 0.1257118135690689, 0.14380954205989838, -0.03821074962615967, 0.04208168387413025, 0.031553104519844055, 0.11322678625583649, -0.0445278137922287, -0.03629660606384277, 0.05888429284095764, 0.12894584238529205, 0.056647300720214844, 0.08155061304569244, 0.08942462503910065, 0.04934653639793396, -0.075259730219841, -0.10213057696819305, 0.14210198819637299, 0.09137924015522003, -0.02750338613986969, 0.1034603863954544, 0.04150170087814331, 0.06688928604125977, -0.10164812207221985, -0.08250519633293152, -0.09511388838291168, -0.023668527603149414, 0.1248021274805069, 0.1728563755750656, 0.07525403797626495, 0.007879436016082764, -0.13606727123260498, 0.11350436508655548, -0.043837741017341614, 0.03913457691669464, -0.10118889063596725, 0.10274787247180939, -0.07714803516864777, -0.06171487271785736, -0.12642866373062134, 0.08926258981227875, -0.13365516066551208, -0.1541154682636261, -0.03683912754058838], [-0.11388356238603592, -0.16672681272029877, 0.009077757596969604, 0.1676301211118698, 0.10482873022556305, -0.03916196525096893, 0.0538400262594223, -0.1336478292942047, -0.11010455340147018, 0.023376956582069397, 0.16341449320316315, -0.11863267421722412, -0.046997398138046265, -0.12359154224395752, -0.05290091037750244, -0.006511598825454712, -0.02845519781112671, 0.0008305013179779053, -0.17020970582962036, 0.15025894343852997, -0.002790674567222595, 0.15744851529598236, -0.16883057355880737, -0.10925684869289398, 0.08160264790058136, 0.1757761389017105, -0.0880315750837326, -0.12432409822940826, -0.16789770126342773, 0.15268419682979584, -0.021425053477287292, -0.1529095619916916, 0.1498550921678543, -0.015460893511772156, -0.004910692572593689, -0.16754771769046783, 0.1747758537530899, -0.11365112662315369, -0.0935036689043045, 0.13456974923610687, -0.15947309136390686, 0.0881698876619339, 0.12751807272434235, 0.12778036296367645, -0.11417526006698608, 0.1635066419839859, -0.07594086229801178, -0.15638376772403717, 0.025918081402778625, -0.07599304616451263, -0.11264040321111679, 0.03206460177898407, -0.023576483130455017, 0.0689651370048523, -0.032892584800720215, -0.13320127129554749, 0.1691047102212906, 0.14837093651294708, -0.14120084047317505, -0.09199177473783493, -0.016730785369873047, 0.1488475352525711, -0.1167149469256401, -0.043292105197906494], [0.09234614670276642, -0.022751718759536743, 0.028390362858772278, -0.008485674858093262, -0.08980464935302734, -0.16599178314208984, -0.12748506665229797, -0.049219340085983276, 0.06838321685791016, -0.09028133004903793, 0.06142890453338623, 0.053529828786849976, 0.11949752271175385, -0.051298364996910095, -0.07720000296831131, 0.0773063451051712, -0.15898549556732178, -0.08739747107028961, -0.14793631434440613, 0.05130207538604736, -0.05768900364637375, 0.06914456188678741, 0.030666127800941467, -0.08631488680839539, -0.11176703125238419, 0.11941559612751007, -0.06738416850566864, 0.0029029101133346558, 0.12057681381702423, -0.05978408455848694, -0.0009526461362838745, -0.03318537771701813, -0.08945073932409286, -0.04481334984302521, 0.029842153191566467, 0.0786762684583664, 0.008770808577537537, -0.06574006378650665, 0.005186885595321655, -0.014345318078994751, -0.04200106859207153, 0.13525263965129852, -0.007985010743141174, 0.07099923491477966, 0.05735945701599121, -0.08648659288883209, -0.06780707091093063, -0.06132496893405914, 0.10099734365940094, -0.03984452784061432, -0.11794428527355194, -0.05322379618883133, 0.15837524831295013, -0.0472215861082077, -0.1593916267156601, 0.12296827137470245, 0.1444617658853531, -0.06055153161287308, -0.09383691847324371, 0.17025749385356903, -0.03790661692619324, -0.1578340083360672, -0.12441547214984894, 0.16822002828121185], [-0.013624683022499084, 0.09454192221164703, -0.05164198577404022, -0.06975273787975311, 0.03828953206539154, 0.15149976313114166, 0.12399603426456451, 0.09288419783115387, -0.14974172413349152, -0.08489786833524704, 0.12342043220996857, 0.10724480450153351, 0.14650125801563263, 0.11850465834140778, -0.14212527871131897, 0.16173101961612701, -0.1180977001786232, -0.1377921998500824, -0.1178603321313858, -0.08243472129106522, -0.022527232766151428, -0.12377585470676422, -0.007392182946205139, -0.17380478978157043, -0.015833690762519836, -0.085433728992939, -0.14310991764068604, 0.11467023193836212, 0.05992084741592407, 0.008090421557426453, 0.11207105219364166, 0.05884142220020294, 0.12975101172924042, -0.05110946297645569, 0.012409761548042297, -0.036568790674209595, 0.1348070651292801, 0.03631170094013214, -0.16110873222351074, -0.13065257668495178, -0.11519286036491394, -0.12279454618692398, -0.15562908351421356, 0.1528576761484146, -0.016157925128936768, -0.06775788217782974, 0.12255842983722687, -0.12039719521999359, -0.004297539591789246, 0.0410752147436142, 0.1762516349554062, -0.14533337950706482, 0.11103151738643646, -0.010529160499572754, 0.10702045261859894, 0.07281368970870972, 0.07701452076435089, -0.031460389494895935, -0.11784085631370544, -0.05516689270734787, -0.05064874887466431, -0.1526196002960205, 0.11308281123638153, 0.07308432459831238], [0.026990294456481934, 0.12941791117191315, 0.0022847354412078857, 0.04890020191669464, 0.07560209929943085, 0.010937482118606567, 0.017407283186912537, -0.13514100015163422, -0.08885655552148819, 0.08148150146007538, 0.05059497058391571, -0.12509441375732422, 0.012287616729736328, -0.010639503598213196, -0.13427016139030457, -0.1087159812450409, 0.04397302865982056, -0.08054203540086746, 0.007230669260025024, -0.01924791932106018, 0.16631387174129486, -0.15775927901268005, 0.16246934235095978, 0.09281136095523834, 0.043828338384628296, 0.06321559846401215, 0.14878173172473907, -0.15057948231697083, -0.044151484966278076, 0.15812282264232635, 0.1333780735731125, -0.14884912967681885, -0.14684012532234192, -0.1573633849620819, -0.09542008489370346, -0.0454990416765213, 0.11356855928897858, 0.12941469252109528, 0.12821759283542633, 0.1418595165014267, -0.06807605177164078, -0.04517720639705658, 0.018661990761756897, -0.0653395801782608, -0.09620532393455505, -0.13780716061592102, 0.0466671884059906, 0.1702534705400467, -0.15712817013263702, 0.07116803526878357, -0.08534955978393555, 0.0485745370388031, 0.14404942095279694, -0.14170630276203156, -0.09163866937160492, -0.039097949862480164, -0.024900615215301514, -0.007758691906929016, -0.05822683870792389, 0.17223422229290009, -0.08375640958547592, -0.10243315249681473, 0.06967602670192719, 0.13760735094547272], [-0.07722743600606918, -0.08105702698230743, -0.09727247804403305, -0.06861279159784317, -0.0645107626914978, -0.032170817255973816, 0.09370903670787811, 0.0893508642911911, -0.062483206391334534, -0.10334495455026627, 0.10653536021709442, -0.05247855931520462, -0.11925707757472992, 0.027059197425842285, -0.025969460606575012, -0.04054172337055206, -0.03901238739490509, -0.036272287368774414, 0.1335075944662094, -0.047719329595565796, -0.09271278232336044, 0.1086844652891159, 0.1249462217092514, 0.17140890657901764, 0.09357284009456635, -0.13583381474018097, 0.05568651854991913, -0.01829029619693756, -0.027709901332855225, 0.08295629918575287, -0.15849900245666504, -0.03716859221458435, -0.15073862671852112, 0.06801705062389374, -0.0063802748918533325, 0.03701290488243103, 0.12303672730922699, 0.09788204729557037, 0.0023581087589263916, -0.1463625580072403, 0.13330917060375214, 0.02777916193008423, -0.14251329004764557, -0.13702227175235748, -0.14910238981246948, 0.1487150341272354, 0.050588905811309814, -0.04804323613643646, -0.07007511705160141, -0.011929750442504883, 0.09647126495838165, 0.12701095640659332, 0.06428322196006775, 0.05610230565071106, 0.07425098121166229, -0.1476217359304428, 0.01066538691520691, -0.08476843684911728, -0.14078602194786072, 2.3245811462402344e-06, -0.14019499719142914, -0.14705802500247955, 0.1320522278547287, -0.07123209536075592], [0.10036073625087738, 0.03319847583770752, -0.16268645226955414, 0.02824336290359497, 0.06044384837150574, -0.008822858333587646, 0.16611362993717194, 0.135124072432518, 0.11689774692058563, -0.12414135038852692, -0.13384906947612762, -0.09369181096553802, -0.0623311847448349, -0.07196886092424393, -0.06855243444442749, -0.07977555692195892, 0.11730857193470001, 0.14496897161006927, 0.11854951083660126, -0.03660677373409271, 0.09996120631694794, 0.13147957623004913, -0.05752302706241608, 0.052343010902404785, 0.05782192945480347, 0.09991075098514557, -0.1124909445643425, -0.11132761090993881, 0.10402058064937592, -0.13677895069122314, -0.1393824964761734, 0.124934121966362, -0.1744728684425354, 0.06404179334640503, -0.1009511798620224, 0.06121893227100372, -0.0607357993721962, 0.04461231827735901, -0.1504247486591339, -0.010385915637016296, -0.15725697576999664, 0.1074899286031723, -0.08447559922933578, -0.04433102905750275, 0.11200888454914093, 0.06902751326560974, -0.08902522921562195, 0.06779834628105164, -0.05695248395204544, -0.06924794614315033, 0.04015195369720459, 0.03965634107589722, 0.1454802006483078, -0.12051785737276077, 0.1360563188791275, 0.15934942662715912, 0.009070128202438354, -0.14699101448059082, 0.06554184854030609, 0.061135560274124146, 0.12675891816616058, 0.020548611879348755, -0.0505513995885849, 0.13034655153751373], [-0.07133349776268005, 0.10992522537708282, -0.06810677796602249, -0.019008740782737732, 0.17457427084445953, 0.02725134789943695, 0.055867716670036316, -0.07585757970809937, -0.15923184156417847, 0.0913383811712265, -0.13746920228004456, 0.14857135713100433, -0.0037377476692199707, 0.0050826966762542725, -0.08853738009929657, 0.09092821180820465, 0.12291373312473297, 0.1664808839559555, 0.14147351682186127, -0.07464248687028885, -0.016075313091278076, 0.1454361230134964, -0.05417593568563461, -0.06757749617099762, -0.11152595281600952, 0.11477641761302948, -0.07874708622694016, 0.17280714213848114, -0.12119705229997635, -0.09829344600439072, -0.04100269079208374, 0.06345503032207489, 0.08959965407848358, -0.07046232372522354, 0.11542172729969025, 0.06464634835720062, 0.06265959143638611, 0.03458477556705475, 0.02777886390686035, -0.17297382652759552, -0.01802995800971985, 0.16106970608234406, 0.07347603142261505, -0.0027812719345092773, -0.15868405997753143, -0.10680635273456573, -0.15450426936149597, -0.1164562925696373, 0.1336282342672348, 0.03474615514278412, -0.13693375885486603, -0.04711827635765076, -0.09059739112854004, 0.06473919749259949, 0.09442673623561859, -0.1572672575712204, 0.007916659116744995, 0.12274880707263947, -0.14871056377887726, -0.17154264450073242, 0.11689494550228119, 0.0547480434179306, -0.047253191471099854, -0.09435292333364487], [0.15292583405971527, 0.12930522859096527, -0.10410979390144348, 0.124214306473732, 0.07363341748714447, 0.12632863223552704, -0.0009408891201019287, -0.13423871994018555, 0.149427130818367, 0.10118965804576874, 0.0746871680021286, 0.07788820564746857, -0.09523358196020126, -0.03769281506538391, -0.15768007934093475, 0.028960824012756348, -0.17281164228916168, -0.10079389065504074, 0.09093384444713593, -0.11763762682676315, -0.025482788681983948, 0.05191062390804291, 0.09989012777805328, 0.11880828440189362, 0.028226539492607117, 0.15645729005336761, 0.1297840029001236, -0.09060826152563095, 0.022150278091430664, 0.09600798785686493, -0.09660251438617706, 0.10211165249347687, -0.09490761905908585, -0.11499354243278503, -0.0811106413602829, -0.050162628293037415, -0.034532517194747925, -0.12550340592861176, 0.051777735352516174, 0.16732551157474518, -0.0971064642071724, 0.06500720977783203, -0.005330443382263184, 0.1441774219274521, 0.019364580512046814, -0.071384958922863, -0.06348120421171188, 0.07145702838897705, 0.061126917600631714, 0.04542279243469238, -0.07615075260400772, 0.10279156267642975, 0.08113895356655121, -0.16319558024406433, 0.12596257030963898, -0.00046563148498535156, -0.10336088389158249, 0.12604890763759613, 0.12047107517719269, 0.050905004143714905, -0.0690360739827156, 0.061458319425582886, 0.15787683427333832, 0.15172754228115082], [0.174104705452919, -0.10432887077331543, 0.12124355137348175, 0.056267186999320984, 0.0579347163438797, 0.09321726858615875, 0.021400824189186096, -0.1079624816775322, -0.16158953309059143, 0.0011500120162963867, 0.002336069941520691, -0.08646796643733978, 0.09284858405590057, -0.10981660336256027, 0.045515015721321106, 0.07464151084423065, 0.12364451587200165, -0.013466045260429382, -0.1755606234073639, -0.12822499871253967, -0.15987420082092285, -0.16058248281478882, -0.10357891023159027, 0.10959018766880035, 0.1488463133573532, -0.006158202886581421, -0.14845573902130127, -0.11747077107429504, 0.15427984297275543, 0.043576717376708984, -0.1302158087491989, 0.133283331990242, 0.01338246464729309, 0.16899283230304718, -0.0672619417309761, 0.1619681566953659, -0.17323248088359833, 0.060139164328575134, 0.03827616572380066, 0.08453865349292755, 0.14703430235385895, 0.07787533104419708, 0.06683233380317688, 0.017315909266471863, 0.14279676973819733, -0.08740413188934326, 0.16042156517505646, 0.11141617596149445, -0.12729313969612122, 0.15000100433826447, -0.16713517904281616, 0.14556460082530975, -0.1753455102443695, 0.11210821568965912, -0.052801698446273804, -0.13751959800720215, -0.0016821175813674927, -0.12793377041816711, 0.03609068691730499, 0.010021045804023743, -0.054758407175540924, -0.11337514966726303, 0.11934815347194672, -0.0075338780879974365], [-0.1424614042043686, -0.047148704528808594, 0.0099526047706604, 0.0172431617975235, 0.002144858241081238, -0.0390443354845047, 0.10123340785503387, -0.1457671970129013, -0.06785456836223602, 0.03739926218986511, -0.06725174188613892, -0.04172596335411072, -0.13926607370376587, -0.06909254938364029, -0.0948752909898758, -0.031006723642349243, 0.09926758706569672, -0.10540994256734848, 0.041564926505088806, 0.021758347749710083, -0.15031808614730835, -0.033851414918899536, -0.0950993075966835, -0.11204402148723602, 0.04600632190704346, -5.735456943511963e-05, -0.1240021362900734, 0.06393660604953766, -0.1740059107542038, 0.004679694771766663, -0.08036396652460098, 0.10617662966251373, 0.1237623542547226, -0.009892627596855164, -0.12956197559833527, 0.08266408741474152, 0.08672712743282318, 0.05430591106414795, -0.0310075581073761, 0.002343282103538513, 0.1357615739107132, 0.1129690557718277, -0.012233242392539978, -0.06413380801677704, -0.07672576606273651, -0.04325999319553375, -0.0008385926485061646, 0.17058928310871124, -0.15680170059204102, -0.03200618922710419, -0.14856047928333282, -0.011546298861503601, -0.16204173862934113, -0.057193271815776825, -0.1112440750002861, 0.12984715402126312, 0.1125359982252121, -0.11470365524291992, 0.14268220961093903, 0.01973825693130493, 0.10248364508152008, 0.02539616823196411, 0.05929572880268097, -0.15576395392417908], [0.032355040311813354, 0.09967796504497528, 0.145934596657753, 0.016339704394340515, 0.17249111831188202, -0.07866249978542328, 0.1469763070344925, -0.09880788624286652, 0.034397006034851074, -0.10134980827569962, -0.010168269276618958, 0.035051509737968445, -0.14026989042758942, 0.033337146043777466, -0.17197701334953308, 0.11177052557468414, 0.17045660316944122, -0.12372611463069916, -0.06388889253139496, -0.05505545437335968, 0.0514063835144043, 0.009318456053733826, -0.006257370114326477, -0.002498343586921692, 0.17357872426509857, 0.1447019726037979, -0.17389599978923798, 0.03977726399898529, -0.12794707715511322, -0.17054350674152374, -0.0032284557819366455, 0.17524848878383636, 0.17290718853473663, 0.16394539177417755, -0.1345316469669342, 0.05487152934074402, -0.1079026311635971, 0.07997794449329376, 0.07244157791137695, 0.12177704274654388, -0.17401733994483948, -0.16646887362003326, -0.13065046072006226, 0.16751275956630707, 0.08576987683773041, -0.04432520270347595, 0.14535097777843475, 0.05698181688785553, -0.16119053959846497, 0.032667264342308044, -0.16741769015789032, -0.024443909525871277, 0.016684412956237793, 0.16306550800800323, 0.09187309443950653, -0.045116767287254333, -0.11856506764888763, -0.0795808807015419, -0.1283797174692154, -0.1394919455051422, 0.0482841432094574, 0.05625361204147339, -0.04168142378330231, 0.1336357146501541], [0.11212612688541412, 0.00410856306552887, -0.1260637491941452, -0.029840514063835144, -0.14223873615264893, -0.08994870632886887, -0.10584523528814316, 0.16645796597003937, 0.02074134349822998, -0.11006017029285431, 0.09335021674633026, 0.013702407479286194, -0.022313475608825684, -0.033047884702682495, 0.12851695716381073, -0.024472489953041077, 0.1479765623807907, -0.10790102928876877, 0.14454947412014008, 0.07366649806499481, -0.13667577505111694, -0.027547016739845276, -0.15126702189445496, 0.04874342679977417, -0.09486716240644455, -0.129659041762352, -0.09139367192983627, -0.1460452824831009, -0.05821727216243744, -0.16175247728824615, 0.05821213126182556, 0.13276009261608124, -0.06454688310623169, 0.13648129999637604, -0.10673604905605316, 0.14105476438999176, 0.09085999429225922, -0.13337218761444092, 0.035814329981803894, -0.06593713909387589, -0.15209929645061493, -0.16185927391052246, -0.17446759343147278, -0.15756821632385254, -0.10971536487340927, 0.07443104684352875, 0.04881212115287781, -0.12461069226264954, 0.034490495920181274, 0.015370279550552368, -0.06851846724748611, 0.0079861581325531, 0.13236857950687408, 0.01879294216632843, -0.059302300214767456, 0.006683900952339172, -0.17288203537464142, -0.056605659425258636, -0.07763680815696716, 0.043455466628074646, -0.11160683631896973, -0.020180583000183105, -0.11498532444238663, 0.14874424040317535], [0.1683121770620346, -0.058070600032806396, 0.03962637484073639, -0.14954915642738342, 0.04126846790313721, -0.09099120646715164, -0.06642094254493713, 0.07818485796451569, 0.020214468240737915, 0.07038615643978119, 0.05277422070503235, -0.00020870566368103027, -0.1431513875722885, -0.0351017564535141, -0.009079650044441223, -0.010850369930267334, 0.04200612008571625, -0.15772058069705963, -0.11889907717704773, -0.07378163933753967, -0.14982011914253235, -0.0726918876171112, -0.05125705897808075, -0.016054794192314148, 0.03562769293785095, -0.09087467193603516, 0.08971239626407623, 0.011603325605392456, 0.03767620027065277, -0.03880515694618225, -0.05565132945775986, 0.14165683090686798, -0.14521653950214386, 0.11889465153217316, -0.12928225100040436, 0.06874988973140717, -0.10002757608890533, 0.10580472648143768, 0.06478901207447052, -0.12079417705535889, -0.15105898678302765, 0.021766528487205505, 0.03340955078601837, -0.07807543128728867, -0.0014024823904037476, -0.0030769258737564087, 0.11240546405315399, -0.08619198948144913, 0.0019836872816085815, 0.15234504640102386, 0.13858936727046967, -0.0962618812918663, -0.1284565031528473, 0.010973647236824036, 0.052037328481674194, 0.06858354806900024, -0.043797239661216736, 0.12062402069568634, -0.013061270117759705, 0.026790142059326172, -0.01542334258556366, -0.15338784456253052, 0.03915572166442871, -0.039061322808265686], [0.012867093086242676, -0.009815290570259094, 0.054055988788604736, -0.12150489538908005, -0.04619923233985901, -0.09112519025802612, -0.1529150903224945, -0.13392139971256256, -0.08520352095365524, 0.06611542403697968, 0.16243205964565277, -0.03806036710739136, -0.11852051317691803, 0.1756601780653, 0.062371134757995605, -0.042412713170051575, -0.11333514750003815, 0.08991150557994843, 0.06332424283027649, -0.14726366102695465, 0.019554033875465393, 0.1632307916879654, 0.013894885778427124, -0.05490183085203171, -0.16867859661579132, 0.16258986294269562, 0.0881015807390213, 0.11393444240093231, -0.0914120003581047, 0.006671801209449768, -0.054933905601501465, -0.16643166542053223, 0.09857149422168732, 0.08755557239055634, -0.027407631278038025, 0.17405475676059723, -0.15903906524181366, 0.04641662538051605, -0.08610571175813675, 0.0409015417098999, -0.08139415830373764, -0.08473328500986099, 0.034497231245040894, 0.0061524659395217896, -0.043763428926467896, -0.0064976513385772705, -0.021064355969429016, -0.1272125095129013, 0.05099835991859436, 0.0387565940618515, 0.020000576972961426, -0.008607104420661926, 0.05047830939292908, -0.013669028878211975, 0.1752275973558426, -0.0907609611749649, 0.02427494525909424, 0.07300525903701782, 0.09017230570316315, -0.15581879019737244, 0.17335520684719086, 0.03391826152801514, -0.1139986664056778, 0.09101615846157074], [0.16171158850193024, -0.15726721286773682, 0.09604521095752716, 0.16791437566280365, -0.041162461042404175, -0.07089955359697342, 0.11906357109546661, -0.03964126110076904, 0.1432264894247055, 0.10469366610050201, 0.1019667536020279, -0.001294746994972229, 0.07691197097301483, -0.05185360461473465, 0.1762784868478775, 0.029482737183570862, -0.0789898931980133, 0.0455123633146286, 0.1766914576292038, 0.13299106061458588, -0.09681354463100433, 0.1353023797273636, 0.15181408822536469, 0.06349709630012512, 0.05472232401371002, 0.0715055763721466, -0.10568103194236755, 0.0015915930271148682, -0.060207150876522064, -0.14338994026184082, 0.017148956656455994, 0.16136808693408966, 0.06786510348320007, -0.10652902722358704, -0.049946799874305725, 0.11122448742389679, 0.03131844103336334, 0.14392401278018951, -0.026513144373893738, -0.0925249308347702, -0.001614302396774292, -0.0722029060125351, 0.090450718998909, 0.00862973928451538, -0.15047414600849152, 0.13387919962406158, -0.1241869106888771, 0.11203192174434662, -0.17564092576503754, 0.05991785228252411, 0.17464162409305573, -0.14692509174346924, -0.06617400795221329, 0.10333184897899628, 0.08815215528011322, 0.04143485426902771, 0.1460435539484024, -0.10240297019481659, 0.07965467870235443, -0.051478832960128784, 0.08322395384311676, 0.14647038280963898, -0.01736631989479065, -0.16094355285167694], [0.13994844257831573, -0.14317473769187927, -0.043417200446128845, -0.04006652534008026, -0.04425048828125, -0.026930108666419983, 0.0017369091510772705, 0.14587853848934174, -0.10982309281826019, -0.06371305137872696, 0.17108936607837677, 0.011136636137962341, -0.07600876688957214, 0.046371012926101685, 0.12560094892978668, 0.14575181901454926, -0.1710260510444641, 0.021540626883506775, 0.021140053868293762, -0.08360256999731064, -0.07897826284170151, -0.1735052913427353, -0.007348939776420593, 0.08401252329349518, -0.08662386983633041, 0.033795952796936035, -0.15143944323062897, 0.04285407066345215, -0.07193737477064133, -0.04380907118320465, 0.06248898804187775, 0.11911545693874359, 0.1332058161497116, -0.048059046268463135, 0.04789289832115173, 0.1700948029756546, -0.07362055778503418, 0.07830594480037689, 0.11560855805873871, -0.16921916604042053, 0.06532572209835052, 0.09726513922214508, -0.12474147975444794, -0.07684988528490067, -0.10329463332891464, 0.13550935685634613, -0.14174765348434448, -0.14676910638809204, 0.011783450841903687, 0.10038255155086517, 0.13004662096500397, 0.16880570352077484, 0.014654204249382019, 0.0470624715089798, 0.13597624003887177, -0.08961541205644608, 0.034446537494659424, 0.024097710847854614, 0.014386281371116638, -0.11528966575860977, 0.12057273089885712, -0.06214185804128647, 0.09272541105747223, -0.1305171549320221], [-0.019223004579544067, 0.17379234731197357, -0.1115560457110405, 0.16866759955883026, 0.17668531835079193, 0.05323489010334015, -0.14265581965446472, -0.008563399314880371, 0.04293903708457947, -0.00413203239440918, 0.07078184187412262, -0.13206811249256134, -0.1633400321006775, -0.04258345067501068, -0.15927845239639282, 0.13849003612995148, 0.08989740908145905, -0.008656084537506104, 0.08534552156925201, 0.12649570405483246, 0.16829918324947357, 0.0668201595544815, -0.0860549733042717, 0.057167306542396545, -0.09911943972110748, -0.17643855512142181, -0.0038536936044692993, 0.001186266541481018, 0.15571726858615875, 0.04639175534248352, -0.13642825186252594, -0.026387512683868408, 0.0577060729265213, -0.11067041754722595, -0.12737679481506348, -0.1458621472120285, 0.13359104096889496, -0.12164170295000076, -0.12942251563072205, 0.010626271367073059, 0.09575460851192474, -0.02311749756336212, 0.011941090226173401, -0.14821027219295502, 0.0798114687204361, 0.011134728789329529, 0.022860780358314514, 0.13203249871730804, 0.13673759996891022, 0.1542421132326126, -0.14573827385902405, 0.11849434673786163, -0.14119884371757507, 0.13922299444675446, -0.028090238571166992, 0.1586439460515976, -0.10378260910511017, -0.11495708674192429, -0.11072583496570587, -0.09537608176469803, 0.11410050094127655, -0.11937373876571655, -0.11412746459245682, -0.0424361377954483], [-0.1156473308801651, -0.06083080172538757, 0.07063841819763184, 0.1691572219133377, 0.172060027718544, -0.012019142508506775, -0.15057019889354706, 0.145673468708992, 0.14017339050769806, -0.11458396166563034, -0.046043530106544495, 0.0779794305562973, 0.10763661563396454, 0.023952215909957886, -0.02089156210422516, -0.16601748764514923, -0.17019082605838776, -0.15211813151836395, -0.0746394544839859, -0.11152136325836182, -0.11892348527908325, -0.01906745135784149, -0.009271755814552307, -0.07312313467264175, 0.006531998515129089, 0.10506944358348846, -0.16270385682582855, 0.11743946373462677, 0.02777498960494995, -0.12613674998283386, 0.006729751825332642, 0.16287167370319366, -0.14185377955436707, -0.015874654054641724, -0.08821626007556915, 0.08236129581928253, 0.1553289145231247, -0.03570359945297241, -0.05187884718179703, -0.06713289022445679, -0.057259149849414825, 0.09566588699817657, -0.06433749943971634, 0.16287927329540253, 0.12514911592006683, 0.037588879466056824, 0.08512167632579803, 0.1010328084230423, -0.12977537512779236, 0.14379991590976715, -0.005477488040924072, -0.06942593306303024, 0.17125572264194489, -0.09526397287845612, -0.02843765914440155, -0.14416000247001648, -0.08192462474107742, 0.03485172986984253, 0.09182853996753693, 0.10396657884120941, 0.09349118173122406, 0.1542646735906601, 0.06978388130664825, -0.03496772050857544], [0.13071055710315704, -0.09255038946866989, 0.14217211306095123, 0.02305087447166443, 0.13508258759975433, -0.10586171597242355, 0.09348975121974945, 0.11593376100063324, 0.05253532528877258, -0.14028245210647583, 0.12980462610721588, 0.1698065847158432, 0.025982484221458435, 0.037251412868499756, 0.06845630705356598, 0.09753669798374176, 0.15678171813488007, 0.006395235657691956, -0.06474809348583221, -0.10951302200555801, -0.1416359543800354, -0.12057273089885712, 0.02268478274345398, 0.1344161480665207, 0.10956202447414398, -0.157003253698349, -0.1030343770980835, 0.014256715774536133, -0.0794563740491867, 0.012476220726966858, -0.09293725341558456, -0.12271033227443695, -0.06275134533643723, -0.17263099551200867, -0.0700230672955513, 0.12468267977237701, -0.17581722140312195, -0.13509738445281982, 0.126198872923851, -0.03538127243518829, 0.09301383793354034, 0.13679943978786469, -0.08319838345050812, 0.0598924458026886, -0.016799479722976685, 0.04984678328037262, 0.06181307137012482, -0.17099422216415405, -0.13361242413520813, 0.15009592473506927, 0.05018909275531769, 0.013631388545036316, -0.08712133020162582, -0.0856456384062767, 0.0727754682302475, 0.10403604805469513, -0.03152023255825043, -0.0210706889629364, -0.0024886876344680786, 0.1536162942647934, -0.15375389158725739, -0.0038050562143325806, 0.03491002321243286, -0.0365169495344162], [-0.002031862735748291, 0.001598075032234192, 0.1564444750547409, -0.045179396867752075, -0.11590846627950668, -0.09156820178031921, -0.06409018486738205, 0.12493054568767548, 0.10731397569179535, 0.019610092043876648, 0.15828843414783478, -0.16967962682247162, 0.17634300887584686, -0.05993593484163284, -0.08077595382928848, 0.09257857501506805, 0.09600971639156342, 0.16541115939617157, -0.09379085898399353, -0.11709877848625183, 0.038588255643844604, -0.03552013635635376, -0.026087462902069092, 0.10962031781673431, -0.07948760688304901, 0.1744590848684311, -0.07314180582761765, -0.09306803345680237, -0.1557636708021164, 0.0540725439786911, -0.16749802231788635, 0.0950113981962204, -0.01870115101337433, 0.06303974986076355, 0.015212193131446838, 0.040528327226638794, -0.09498028457164764, -0.04841572046279907, 0.024269461631774902, 0.08312992751598358, 0.07375811040401459, 0.09900884330272675, 0.17497508227825165, -0.012693703174591064, -0.08464490622282028, -0.08745382726192474, -0.10117978602647781, 0.02360568940639496, -0.1035018265247345, 0.026293188333511353, -0.12578082084655762, -0.10630244016647339, -0.09325778484344482, 0.1534922868013382, -0.05341750383377075, -0.06404175609350204, -0.15963152050971985, 0.041899994015693665, 0.14222924411296844, 0.03294597566127777, 0.026549607515335083, -0.15196993947029114, -0.05725666135549545, 0.15966655313968658], [0.08884592354297638, 0.08335302770137787, -0.1154244989156723, -0.10401593148708344, 0.0701265037059784, 0.022350937128067017, -0.03113020956516266, -0.1610172688961029, 0.17541588842868805, 0.08794225752353668, 0.1479281336069107, -0.17156025767326355, -0.08747346699237823, 0.010162830352783203, -0.021824896335601807, 0.12124226987361908, 0.1288667768239975, 0.15865279734134674, 0.11730699241161346, 0.15013431012630463, -0.13736897706985474, -0.0533105805516243, 0.04385657608509064, 0.02398589253425598, -0.03744974732398987, 0.17560093104839325, 0.05458855628967285, -0.15794982016086578, 0.10194377601146698, -0.1553540825843811, 0.11867891252040863, 0.10033829510211945, -0.15068455040454865, -0.015049204230308533, -0.16820651292800903, 0.07789333164691925, 0.1422778218984604, -0.034251898527145386, 0.17009802162647247, -0.1335843950510025, -0.1275056004524231, 0.010037735104560852, -0.07123689353466034, -0.10828149318695068, -0.0929248183965683, 0.02744273841381073, 0.022703111171722412, 0.014153078198432922, -0.014023393392562866, 0.024502068758010864, 0.08762596547603607, -0.06645870953798294, 0.013859659433364868, -0.1522068977355957, 0.10523296892642975, -0.1374523788690567, 0.08410368859767914, -0.16674596071243286, -0.07900574058294296, -0.11011424660682678, 0.15627963840961456, 0.1237904280424118, -0.023497074842453003, 0.16786856949329376], [-0.09045059233903885, 0.17094053328037262, -0.05268958956003189, -0.15467648208141327, 0.15308530628681183, -0.14458417892456055, -0.15028049051761627, -0.012284502387046814, -0.13083451986312866, 0.17118017375469208, -0.004806727170944214, -0.14125296473503113, -0.10372048616409302, -0.0961713120341301, 0.009493991732597351, -0.06269057095050812, -0.1057002916932106, -0.1320953369140625, -0.019843831658363342, -0.11066063493490219, -0.013439446687698364, -0.04618881642818451, -0.09024731814861298, -0.1018480658531189, 0.05542352795600891, -0.0908001959323883, 0.0750405341386795, 0.007132217288017273, 0.07348020374774933, -0.1052762120962143, -0.04000924527645111, -0.10419345647096634, -0.002855062484741211, 0.08916141092777252, -0.1554660201072693, 0.09386523067951202, 0.07767985761165619, 0.16933633387088776, -0.0846710354089737, 0.1743006557226181, -0.08487532287836075, 0.1691019982099533, -0.17532490193843842, 0.11679907143115997, -0.02147984504699707, 0.08530037105083466, 0.05644078552722931, 0.03850649297237396, -0.030328452587127686, 0.02784907817840576, 0.05089843273162842, 0.0942995697259903, 0.1645721048116684, 0.11417482793331146, 0.16994978487491608, -0.06442841142416, 0.03615179657936096, 0.05197364091873169, -0.13122712075710297, -0.16644994914531708, 0.07756878435611725, 0.13955159485340118, -0.08181347697973251, 0.05325600504875183], [-0.04854360222816467, -0.08195766806602478, -0.12086367607116699, 0.09099610149860382, -0.11794491857290268, -0.02349156141281128, -0.171640545129776, -0.15634368360042572, 0.023552581667900085, -0.03076218068599701, 0.155633345246315, 0.16432996094226837, 0.01644064486026764, 0.09380711615085602, -0.09973225742578506, 0.08356966078281403, -0.1455744504928589, -0.03512278199195862, -0.01892566680908203, -0.058086492121219635, -0.09289957582950592, 0.03581972420215607, 0.16133679449558258, -0.00838904082775116, -0.007219836115837097, 0.11941121518611908, 0.02371080219745636, 0.11255289614200592, 0.014366135001182556, -0.05811527371406555, -0.10665234178304672, 0.005101874470710754, 0.05825816094875336, 0.09907956421375275, 0.15113742649555206, 0.14258892834186554, 0.1122177392244339, 0.020482823252677917, 0.1753639429807663, -0.05277522653341293, -0.06175832450389862, 0.035498008131980896, -0.16217243671417236, 0.1508355289697647, -0.08638607710599899, 0.13047663867473602, -0.14953862130641937, 0.15403695404529572, 0.04503744840621948, -0.13060592114925385, 0.13528479635715485, 0.041793569922447205, 0.04616542160511017, -0.1293935626745224, -0.017709016799926758, -0.061868324875831604, -0.12259814143180847, -0.10191398859024048, -0.05962847173213959, -0.1522802710533142, 0.12733988463878632, -0.024213075637817383, -0.10431302338838577, -0.12528382241725922], [-0.14917147159576416, -0.13511402904987335, -0.1436968445777893, -0.069400854408741, -0.12482252717018127, 0.07019506394863129, -0.07538191229104996, -0.11034128814935684, 0.06866268813610077, 0.09695769846439362, -0.010035499930381775, -0.055803097784519196, -0.1766791194677353, -0.015554174780845642, 0.02447572350502014, 0.09674791991710663, 0.007896974682807922, -0.15446360409259796, -0.16658852994441986, -0.0029574930667877197, -0.059962280094623566, -0.1403227001428604, 0.019110187888145447, 0.08160050213336945, -0.06490344554185867, 0.10994775593280792, -0.12397925555706024, 0.018470019102096558, 0.01042763888835907, 0.12858878076076508, -0.16811028122901917, 0.15886758267879486, 0.01865449547767639, -0.07688196003437042, -0.17074277997016907, 0.003593236207962036, 0.05515049397945404, -0.0006250441074371338, -0.04448743164539337, -0.1508074402809143, -0.04004944860935211, 0.1688285917043686, 0.12016980350017548, 0.15715719759464264, -0.13052242994308472, -0.1580927073955536, -0.01172482967376709, -0.033640056848526, -0.16048790514469147, 0.10805676877498627, -0.1620805859565735, 0.14046920835971832, 0.13878004252910614, 0.1415005475282669, -0.08407773822546005, 0.11823607981204987, -0.038601040840148926, -0.10767946392297745, 0.1533557027578354, 0.11666478216648102, 0.03866960108280182, 0.08226244151592255, 0.03942453861236572, 0.14192144572734833], [-0.020075306296348572, 0.09703265130519867, 0.17188669741153717, -0.12630465626716614, 0.06239743530750275, 0.027634084224700928, -0.04735691845417023, -0.11659533530473709, -0.14514143764972687, 0.14303313195705414, 0.04391048848628998, 0.04473167657852173, -0.11994436383247375, -0.05735119432210922, -0.1580345332622528, 0.12631388008594513, -0.03587965667247772, 0.11675448715686798, -0.0741548091173172, -0.12376661598682404, -0.09859593212604523, 0.006257832050323486, -0.01471775770187378, 0.045501068234443665, 0.1753951460123062, -0.023236989974975586, -0.16833412647247314, 0.02867506444454193, -0.07177283614873886, 0.07364879548549652, -0.0933893620967865, 0.13904915750026703, 0.15261144936084747, 0.055609434843063354, 0.12596534192562103, 0.07081407308578491, 0.004625454545021057, 0.11597149074077606, 0.12059499323368073, 0.05125106871128082, 0.0906464010477066, -0.059970833361148834, -0.14506717026233673, 0.03456467390060425, 0.04814855754375458, -0.0790998563170433, -0.16161882877349854, -0.1351272165775299, 0.0013500452041625977, 0.015810877084732056, -0.049735382199287415, -0.09303823858499527, 0.02086438238620758, 0.09852011501789093, -0.02394290268421173, -0.07829464226961136, -0.14195972681045532, -0.1752929538488388, -0.024219438433647156, -0.08825836330652237, 0.02077510952949524, -0.12550771236419678, 0.10138668119907379, 0.13362635672092438], [0.04730406403541565, 0.03499220311641693, -0.11994866281747818, 0.03808721899986267, 0.13013331592082977, 0.05782236158847809, -0.1427766978740692, -0.15210957825183868, -0.005352988839149475, 0.034203097224235535, 0.006791159510612488, 0.021071061491966248, 0.1039508730173111, 0.16217343509197235, 0.07528750598430634, -0.013941794633865356, -0.12423580139875412, -0.06952657550573349, 0.08206366002559662, 0.02582944929599762, 0.07781775295734406, -0.07399958372116089, 0.1673806756734848, 0.07003626227378845, -0.021224603056907654, -0.0060088783502578735, 0.08688141405582428, -0.17263121902942657, 0.058497458696365356, 0.07445545494556427, 0.00015944242477416992, -0.09348820149898529, -0.05943409353494644, -0.07216079533100128, 0.015189260244369507, -0.0830703005194664, 0.07171757519245148, 0.16496820747852325, 0.1436993032693863, -0.15781167149543762, 0.0640270859003067, -0.02086825668811798, -0.1103224903345108, -0.11693617701530457, -0.08688382804393768, -0.173553466796875, 0.15411792695522308, -0.030767574906349182, -0.05373971909284592, 0.1206149309873581, 0.0334651917219162, 0.006289497017860413, -0.01759512722492218, -0.08096548914909363, -0.17042680084705353, 0.10220323503017426, -0.11998137086629868, 0.03676898777484894, -0.1035926565527916, 0.04468405246734619, 0.13680879771709442, -0.11794900894165039, -0.013874530792236328, -0.11210484057664871], [-0.10998312383890152, 0.02939675748348236, 0.10573388636112213, 0.17537422478199005, 0.10827268660068512, 0.10534347593784332, 0.1391438990831375, -0.1474863588809967, -0.15927137434482574, -0.02081526815891266, -0.05518843233585358, 0.035989195108413696, 0.17040519416332245, -0.02814023196697235, -0.1285136193037033, 0.11530028283596039, 0.0008969753980636597, -0.15321634709835052, -0.16947664320468903, 0.17049147188663483, 0.02285143733024597, -0.1300363391637802, 0.019343510270118713, 0.12105830013751984, 0.033129915595054626, 0.12680254876613617, -0.0027357488870620728, -0.08360084146261215, 0.07716535031795502, 0.02343200147151947, 0.16677583754062653, 0.1462797075510025, -0.14660869538784027, -0.15550728142261505, 0.0982527881860733, -0.05200929194688797, 0.16692988574504852, -0.0838361456990242, 0.14399419724941254, 0.12773509323596954, 0.1605253368616104, -0.05186064541339874, -0.0017864853143692017, -0.14932531118392944, 0.03173990547657013, 0.09554778039455414, -0.06671959906816483, -0.06517086923122406, -0.090164415538311, 0.07833905518054962, 0.15797902643680573, 0.08483223617076874, -0.042567178606987, 0.041544780135154724, 0.008824408054351807, -0.16222494840621948, 0.05161045491695404, 0.1283618062734604, -0.0811510980129242, 0.08380685746669769, -0.049449846148490906, 0.03956438601016998, -0.1665438562631607, -0.006843000650405884], [-0.15944257378578186, -0.0771917849779129, 0.15345369279384613, -0.15220461785793304, -0.01867273449897766, 0.14340569078922272, 0.03791871666908264, 0.0796106606721878, -0.00394769012928009, 0.026693195104599, 0.03125952184200287, -0.005146503448486328, -0.06162092834711075, 0.1240546852350235, 0.01248331367969513, -0.11297138035297394, 0.09650321304798126, -0.12484242022037506, 0.10837648808956146, -0.15671420097351074, -0.13352951407432556, 0.08934621512889862, -0.08430086076259613, -0.13914397358894348, -0.14419367909431458, -0.07330348342657089, -0.10575145483016968, 0.06676562130451202, -0.021815210580825806, 0.0495842844247818, 0.1171114593744278, 0.09203808009624481, 0.055249422788619995, -0.14977717399597168, -0.09157983213663101, 0.12858973443508148, -0.1051582396030426, 0.015147149562835693, 0.14586226642131805, 0.1214442104101181, 0.12361489236354828, -0.10084257274866104, 0.10354359447956085, 0.04848717153072357, -0.012841179966926575, 0.012185826897621155, -0.07075920701026917, 0.042944520711898804, 0.15600551664829254, 0.02517734467983246, -0.007723703980445862, -0.03913933038711548, 0.14036397635936737, -0.06258798390626907, -0.031535789370536804, -0.10383933782577515, -0.1707749366760254, -0.007576733827590942, 0.13147805631160736, 0.1207471638917923, -0.14558696746826172, -0.017782092094421387, -0.09934471547603607, 0.04180078208446503], [-0.04464244842529297, -0.10573919117450714, -0.0337030291557312, -0.02247995138168335, 0.04795193672180176, 0.009508877992630005, 0.06683415174484253, 0.14006485044956207, 0.13957662880420685, -0.17268306016921997, 0.048329874873161316, 0.015435650944709778, -0.12220330536365509, -0.0020673424005508423, -0.012308061122894287, 0.007976710796356201, 0.026080384850502014, 0.03509041666984558, -0.1571749895811081, -0.0798526406288147, -0.05191252380609512, -0.021525412797927856, 0.17173941433429718, -0.12045657634735107, 0.1669803410768509, -0.06701981276273727, 0.0194714218378067, -0.11835876107215881, 0.10426615178585052, -0.1186886876821518, 0.10887686908245087, -0.15548473596572876, 0.05478011071681976, 0.0012601912021636963, 0.023361071944236755, -0.14454248547554016, 0.09763781726360321, -0.031281813979148865, 0.1705666035413742, 0.15680275857448578, -0.005864560604095459, -0.16058817505836487, -0.1347525417804718, -0.023044079542160034, 0.14385776221752167, 0.13181759417057037, 0.14335928857326508, -0.08949112147092819, 0.13408030569553375, 0.004046142101287842, -0.12406362593173981, -0.14870789647102356, 0.15602059662342072, 0.01685662567615509, 0.02855503559112549, -0.005673468112945557, -0.12777087092399597, -0.13197699189186096, 0.143392875790596, -0.10719490051269531, -0.12681539356708527, -0.044797420501708984, -0.1730247437953949, -0.09763625264167786], [-0.04043965041637421, 0.1360139101743698, 0.14510144293308258, 0.1505701094865799, 0.1313306838274002, -0.17659085988998413, -0.07643954455852509, -0.1250738501548767, -0.057073742151260376, -0.1257275491952896, 0.03156052529811859, -0.012679919600486755, -0.018215999007225037, 0.0932299941778183, -0.04142597317695618, -0.011388495564460754, -0.16760966181755066, 0.1249830573797226, -0.1016811653971672, -0.13802413642406464, -0.05831960588693619, -0.08230314403772354, 0.11719511449337006, 0.08225913345813751, 0.1479451209306717, 0.09988193213939667, -0.17215579748153687, 0.09427182376384735, -0.06057968735694885, -0.05290297418832779, -0.14266876876354218, -0.13094182312488556, 0.033543750643730164, 0.08880357444286346, -0.009934186935424805, -0.03498217463493347, 0.1565018743276596, 0.09885407984256744, 0.1622438281774521, -0.019370391964912415, -0.11929041147232056, 0.06866888701915741, 0.12424246966838837, -0.10821953415870667, -0.1590421497821808, -0.07095564901828766, -0.014627143740653992, -0.17250898480415344, 0.02346348762512207, -0.07220914214849472, -0.09423478692770004, 0.0827447921037674, -0.03740343451499939, -0.1252659112215042, 0.02233251929283142, -0.034079477190971375, 0.14360414445400238, -0.021128207445144653, -0.07465622574090958, 0.1521640568971634, 0.06219138205051422, 0.0411955863237381, 0.07332809269428253, 0.023593425750732422], [0.15167124569416046, -0.13617923855781555, 0.05943189561367035, 0.06053602695465088, -0.16790106892585754, -0.12346582114696503, 0.12044097483158112, 0.11031930148601532, 0.09028740227222443, 0.05108872056007385, -0.17501090466976166, 0.09387661516666412, 0.1571483165025711, -0.16910503804683685, -0.03556060791015625, -0.07430341839790344, 0.04894189536571503, -0.032773762941360474, 0.025085508823394775, 0.03754808008670807, -0.1352323293685913, 0.1287737935781479, -0.17522716522216797, -0.1398371309041977, 0.07429124414920807, -0.1576373428106308, 0.14064328372478485, -0.014738664031028748, 0.16659991443157196, -0.11457014083862305, 0.12410144507884979, 0.11078687012195587, -0.13342098891735077, 0.09399531781673431, 0.020455166697502136, 0.0715903788805008, -0.05897713452577591, 0.04348455369472504, -0.09022582322359085, -0.0006606578826904297, -0.08534905314445496, -0.17454151809215546, 0.08251260221004486, -0.04130825400352478, -0.1449386179447174, -0.07249443233013153, -0.1274947226047516, -0.049333468079566956, 0.008134976029396057, 0.14275629818439484, -0.0967491865158081, -0.03338375687599182, -0.062243685126304626, 0.04813823103904724, -0.12269942462444305, 0.08147306740283966, -0.007169470191001892, 0.16657297313213348, 0.03559258580207825, 0.12531249225139618, 0.06453698873519897, -0.07627437263727188, -0.03813046216964722, -0.012611225247383118], [0.027212023735046387, 0.14978550374507904, 0.15459157526493073, -0.1051454246044159, -0.11620000004768372, 0.12240900099277496, -0.17588363587856293, 0.1658240407705307, 0.03954339027404785, -0.03099268674850464, -0.031073227524757385, -0.02233681082725525, -0.12957142293453217, 0.011942893266677856, 0.03110732138156891, 0.1521773785352707, 0.06383717060089111, -0.02209565043449402, 0.0870133489370346, 0.11359940469264984, -0.08549496531486511, 0.03131203353404999, 0.04122336208820343, -0.05475866049528122, 0.09152249991893768, 0.1339462548494339, 0.1534922868013382, -0.04877680540084839, 0.08996962010860443, 0.08887650072574615, 0.02168405055999756, -0.025640204548835754, 0.028759866952896118, -0.055739499628543854, 0.16860522329807281, 0.0680513083934784, 0.12152950465679169, 0.1282167285680771, -0.03632412850856781, 0.12467660009860992, -0.13734591007232666, 0.008082970976829529, -0.040980979800224304, -0.11633671820163727, 0.08101896941661835, -0.08542419970035553, 0.05932168662548065, -0.020615622401237488, 0.06440135836601257, -0.0021005570888519287, 0.007985904812812805, 0.15212680399417877, 0.06974388659000397, 0.13290046155452728, 0.04879172146320343, -0.044801294803619385, 0.0737343579530716, 0.12405355274677277, 0.16313625872135162, -0.17558208107948303, 0.09596709907054901, -0.11452187597751617, 0.01646079123020172, -0.04241266846656799], [-0.1760169118642807, 0.10168080031871796, -0.001908332109451294, 0.0368054062128067, 0.1533593088388443, 0.14999373257160187, 0.1316499263048172, -0.007650032639503479, 0.025592908263206482, 0.03924836218357086, 0.0971468836069107, -0.12384438514709473, 0.140639528632164, 0.04477255046367645, 0.14049981534481049, 0.0359412282705307, 0.06124117970466614, -0.07195284217596054, -0.04370054602622986, -0.12036693096160889, -0.061924174427986145, 0.10162921249866486, -0.04024973511695862, 0.17433251440525055, 0.093448206782341, -0.016361072659492493, -0.1258794367313385, 0.007170230150222778, 0.05971020460128784, 0.08589746057987213, 0.09424208104610443, -0.10269682109355927, 0.16040171682834625, -0.16163860261440277, 0.0813455730676651, -0.03044220805168152, 0.0437888503074646, -0.10417592525482178, 0.06053100526332855, 0.0613674521446228, -0.17447581887245178, 0.14798946678638458, 0.034489527344703674, 0.12208668887615204, -0.02321845293045044, -0.04193611443042755, 0.007670477032661438, -0.02379012107849121, -0.08895543217658997, -0.1185428574681282, -0.1109723150730133, -0.052624888718128204, 0.03782178461551666, -0.13615956902503967, -0.03939954936504364, -0.07489301264286041, -0.03828775882720947, -0.11601611226797104, 0.09332238137722015, 0.16729073226451874, -0.019116118550300598, -0.12046791613101959, -0.019850358366966248, 0.03311477601528168], [0.13774074614048004, 0.10246296226978302, -0.12233101576566696, 0.04724712669849396, -0.0801868662238121, 0.12652088701725006, 0.017943888902664185, 0.018327340483665466, -0.016668066382408142, 0.006118878722190857, -0.11857981979846954, -0.11619464308023453, -0.08161669969558716, -0.1438533365726471, -0.17323298752307892, -0.02986028790473938, 0.09172423183917999, 0.003668159246444702, 0.14498241245746613, 0.15863673388957977, -0.06619293242692947, -0.1536005139350891, 0.03867153823375702, -0.06976517289876938, 0.008075371384620667, -0.09688451886177063, 0.13794590532779694, 0.0943077951669693, -0.06237029284238815, 0.13644059002399445, -0.09296642243862152, 0.1129651814699173, -0.004839390516281128, 0.07131680846214294, -0.09519607573747635, -0.06618934869766235, 0.16872547566890717, -0.11594829708337784, -0.1229780912399292, 0.05320458114147186, 0.15592844784259796, 0.14071719348430634, 0.06229649484157562, 0.08400966227054596, -0.022365227341651917, -0.04056057333946228, -0.06697774678468704, 0.15050528943538666, -0.04953557252883911, 0.10637272894382477, -0.027959495782852173, -0.11934402585029602, 0.17333374917507172, 0.0661890059709549, -0.056408412754535675, -0.08256681263446808, -0.0369877815246582, -0.12757045030593872, 0.026895806193351746, 0.08486016094684601, -0.0180463045835495, 0.1741093546152115, -0.06706883013248444, 0.08884750306606293], [0.05238136649131775, -0.11314784735441208, -0.14102423191070557, -0.08358103781938553, -0.05412860959768295, -0.14316701889038086, -0.14611443877220154, 0.16937507688999176, 0.033918216824531555, -0.13189926743507385, 0.1422785371541977, -0.004081666469573975, -0.02764609456062317, 0.08283285796642303, -0.024122416973114014, 0.010969266295433044, -0.13617035746574402, -0.1477344036102295, -0.03110411763191223, 0.08578367531299591, -0.07920969277620316, -0.028542354702949524, 0.02104058861732483, 0.016690194606781006, -0.16365325450897217, -0.15090623497962952, -0.011927351355552673, 0.029300659894943237, -0.10938986390829086, 0.08220471441745758, 0.16333849728107452, 0.03663070499897003, -0.11708377301692963, -0.06316240131855011, -0.15029063820838928, -0.1220225840806961, -0.054111793637275696, 0.17174844443798065, 0.04754316806793213, -0.07797449082136154, 0.04054559767246246, -0.17334160208702087, -0.14633752405643463, 0.09827814996242523, 0.046250343322753906, 0.021039962768554688, -0.17452660202980042, -0.09245863556861877, 0.15341342985630035, -0.15726232528686523, -0.012892469763755798, -0.16946767270565033, -0.16508346796035767, 0.1321418434381485, -0.02311505377292633, 0.1751316636800766, 0.15387170016765594, 0.03813678026199341, -0.14129044115543365, -0.17383699119091034, -0.12850847840309143, -0.111651211977005, -0.11004862189292908, 0.11854632198810577], [-0.08937849849462509, -0.06628451496362686, 0.12222526967525482, 0.05733707547187805, 0.09279821813106537, 0.04830417037010193, -0.1736713945865631, -0.15997914969921112, -0.013890549540519714, -0.022204607725143433, -0.1170281395316124, -0.10616091638803482, -0.1442306488752365, -0.12474830448627472, 0.004794120788574219, 0.09020726382732391, -0.09784027934074402, -0.13031336665153503, 0.12235592305660248, 0.0247066468000412, -0.1685216873884201, -0.046070635318756104, 0.15057693421840668, 0.07814665138721466, -0.02402395009994507, -0.01043441891670227, 0.11167006194591522, -0.11285227537155151, 0.007195979356765747, -0.005691260099411011, -0.12238563597202301, 0.027436330914497375, 0.08244545757770538, 0.12396644055843353, -0.09678846597671509, -0.1165686547756195, -0.17472869157791138, 0.1753213256597519, -0.17083685100078583, -0.03105674684047699, -0.07067486643791199, -0.08587879687547684, 0.06259956955909729, -0.01657487452030182, 0.15311987698078156, -0.07101082056760788, 0.09159572422504425, 0.12405233085155487, -0.08581548929214478, 0.14322559535503387, 0.04096078872680664, 0.09040556848049164, -0.16807466745376587, -0.03863529860973358, 0.06218864023685455, -0.07295745611190796, -0.0976087674498558, -0.10053447633981705, -0.148032546043396, -0.11350272595882416, -0.17175254225730896, -0.09362825006246567, -0.037496909499168396, 0.1623530238866806], [-0.08937854319810867, 0.0065269023180007935, 0.09010596573352814, -0.02163068950176239, -0.10373148322105408, -0.16985204815864563, -0.06725553423166275, -0.15094855427742004, 0.1650518923997879, 0.07227535545825958, -0.070683553814888, 0.034233108162879944, -0.036713480949401855, -0.04171542823314667, 0.12474949657917023, 0.136325404047966, -0.0640200525522232, -0.026340648531913757, 0.019627660512924194, -0.11027368903160095, -0.06883671879768372, -0.14016738533973694, 0.04248431324958801, -0.1424998790025711, -0.004617348313331604, -0.08268945664167404, -0.009128376841545105, 0.04496672749519348, -0.05085919797420502, 0.12092475593090057, 0.11469809710979462, -0.14158689975738525, -0.12403303384780884, -0.07791358977556229, -0.04502606391906738, 0.086716428399086, -0.026472017168998718, -0.09902646392583847, 0.13297192752361298, -0.015118539333343506, 0.1119234710931778, -0.05887358635663986, 0.029085785150527954, -0.07004797458648682, 0.1549367755651474, 0.10074816644191742, -0.176255002617836, 0.050736501812934875, -0.17430877685546875, 0.060852497816085815, -0.1197362020611763, 0.04546637833118439, -0.02140997350215912, 0.062478989362716675, -0.124906525015831, 0.030745744705200195, 0.11623458564281464, -0.16847266256809235, -0.0543086975812912, 0.04922300577163696, 0.025120243430137634, -0.15617775917053223, 0.01564137637615204, 0.15202967822551727], [0.09641943871974945, -0.16946417093276978, 0.036036401987075806, -0.16852101683616638, -0.12148188054561615, -0.05852802097797394, 0.13516898453235626, 0.1274934560060501, 0.05944366753101349, -0.17386776208877563, 0.03764766454696655, -0.005793541669845581, -0.12378798425197601, -0.15228760242462158, -0.11481741070747375, 0.02257312834262848, 0.03247642517089844, 0.1764652580022812, 0.07516683638095856, -0.0035973191261291504, 0.1182517558336258, -0.06746243685483932, -0.05657657980918884, -0.08515816926956177, -0.03769828379154205, 0.16692550480365753, 0.03088301420211792, 0.028661251068115234, -0.026235774159431458, 0.06750024855136871, -0.11548227816820145, 0.06754997372627258, -0.1562761664390564, -0.10485916584730148, -0.0922417938709259, -0.04044099152088165, 0.011003062129020691, 0.11156760156154633, -0.03154793381690979, 0.010672137141227722, 0.0082550048828125, 0.17659606039524078, -0.08824905008077621, -0.08496467024087906, -0.03172874450683594, -0.11674048751592636, 0.08517663180828094, 0.120113804936409, 0.13597913086414337, 0.1618949919939041, 0.08828993141651154, -0.0864047035574913, -0.07499787211418152, 0.053435832262039185, 0.1516953557729721, -0.10464872419834137, 0.11924700438976288, -0.15267252922058105, -0.06746500730514526, 0.040232881903648376, 0.14074097573757172, -0.01577325165271759, -0.16214106976985931, -0.010465651750564575], [0.10684879124164581, 0.10443912446498871, -0.016867414116859436, 0.08737443387508392, 0.055250510573387146, -0.07159232348203659, 0.031270816922187805, 0.1338443011045456, 0.05369824171066284, -0.10570631921291351, -0.01898398995399475, -0.14277134835720062, 0.1580478996038437, -0.09274468570947647, -0.16743020713329315, -0.09929101914167404, -0.0011467784643173218, -0.17009730637073517, 0.1289612501859665, -0.12779943645000458, 0.1276485174894333, -0.11151394248008728, 0.11746282875537872, 0.016733020544052124, -0.03704079985618591, -0.16276176273822784, -0.10741326212882996, -0.008498400449752808, -0.08908200263977051, -0.057920388877391815, -0.14526298642158508, 0.16819395124912262, 0.04061518609523773, 0.10098831355571747, 0.17623139917850494, 0.050499334931373596, 0.11744062602519989, -0.05587112903594971, 0.0545867383480072, -0.049193888902664185, -0.07552985101938248, 0.06122078001499176, 0.05756179988384247, 0.13982327282428741, 0.11724741756916046, -0.02940104901790619, -0.08434684574604034, -0.15929414331912994, -0.1190004050731659, 0.10298199951648712, 0.151232048869133, -0.12345047295093536, -0.0376773476600647, -0.10224661231040955, -0.08032616227865219, 0.10396982729434967, 0.07841943204402924, -0.04852522909641266, 0.08705233037471771, 0.1552002876996994, 0.03795892000198364, 0.1194472461938858, -0.058262623846530914, -0.05617509037256241], [0.00888754427433014, -0.11288341879844666, 0.054430291056632996, 0.08030660450458527, 0.048765674233436584, -0.10149319469928741, -0.017794355750083923, 0.06225511431694031, 0.011824965476989746, 0.06475074589252472, 0.08933766186237335, -0.09020647406578064, -0.17627893388271332, 0.020196855068206787, 0.09172941744327545, -0.03293463587760925, 0.10372580587863922, -0.03499321639537811, 0.059711962938308716, 0.060264647006988525, 0.17526103556156158, 0.11886511743068695, -0.05172635614871979, -0.1359744518995285, 0.038775861263275146, -0.1176031082868576, 0.07069320976734161, -0.09289494156837463, 0.08202244341373444, 0.16402174532413483, -0.17054131627082825, -0.049408406019210815, 0.1747407764196396, 0.006230354309082031, -0.07079355418682098, 0.021886900067329407, 0.06943444907665253, -0.02108447253704071, -0.060174360871315, -0.02671276032924652, 0.17364703118801117, -0.1100560799241066, -0.17234811186790466, -0.13679218292236328, -0.0849122405052185, -0.1257985234260559, 0.007099762558937073, 0.1600666493177414, 0.024972930550575256, -0.08754532784223557, -0.06927677243947983, -0.017452165484428406, -0.030894607305526733, 0.16410405933856964, -0.10939766466617584, 0.11294342577457428, 0.09325529634952545, -0.1480700522661209, -0.14563514292240143, 0.1258573681116104, -0.1192736029624939, 0.1604323536157608, -0.0863836333155632, -0.05198025703430176], [0.14467574656009674, -0.0972922071814537, 0.03331805765628815, -0.033305078744888306, -0.16615888476371765, 0.01611475646495819, -0.06412491202354431, -0.07403670996427536, 0.09963949024677277, -0.03078177571296692, -0.013621434569358826, -0.01516161859035492, 0.11345915496349335, -0.13835090398788452, 0.14941643178462982, 0.1640429049730301, -0.005904853343963623, -0.1322784274816513, 0.16029255092144012, 0.0998460203409195, -0.10446543246507645, -0.0031133443117141724, -0.13405963778495789, -0.07593875378370285, 0.0687851756811142, -0.038081780076026917, 0.02225033938884735, -0.058272480964660645, 0.12244071066379547, -0.017604529857635498, -0.044351428747177124, -0.15862783789634705, -0.1390625536441803, -0.01883074641227722, 0.15563537180423737, 0.09279783070087433, -0.13636910915374756, 0.12189145386219025, -0.07964514940977097, -0.0638052299618721, 0.09405343234539032, -0.14132116734981537, -0.02560281753540039, -0.0557369738817215, -0.11716216802597046, 0.02796553075313568, -0.038253411650657654, 0.10803966224193573, -0.014592543244361877, 0.17491434514522552, -0.03704261779785156, -0.057977162301540375, -0.12873509526252747, 0.03570739924907684, 0.15979070961475372, -0.1454663872718811, 0.1507001370191574, 0.13511718809604645, 0.06120598316192627, 0.15733219683170319, -0.17451167106628418, 0.13539241254329681, 0.02525557577610016, -0.07968843728303909], [-0.081215500831604, 0.11989934742450714, -0.09587632119655609, -0.07263553887605667, -0.12150050699710846, 0.11997564136981964, 0.04153892397880554, -0.15870042145252228, -0.004413619637489319, 0.04932449758052826, -0.12264075130224228, -0.16642066836357117, -0.12726518511772156, 0.14827470481395721, -0.045442014932632446, -0.058220602571964264, 0.17038415372371674, 0.09822158515453339, -0.041978687047958374, 0.05764167010784149, -0.09262891113758087, -0.14411941170692444, 0.16045139729976654, 0.09139169752597809, 0.00391000509262085, -0.11938777565956116, 0.15284349024295807, -0.05406079441308975, 0.16325537860393524, 0.13066627085208893, -0.1121024414896965, 0.012085184454917908, -0.1649632751941681, -0.046849220991134644, -0.00596289336681366, 0.0346035361289978, 0.16912193596363068, -0.14233285188674927, 0.14858044683933258, -0.004022702574729919, 0.12791864573955536, 0.11101461946964264, 0.10227049887180328, 0.10154275596141815, -0.03206916153430939, 0.009979873895645142, -0.174690842628479, 0.016685009002685547, -0.056880757212638855, 0.14008601009845734, 0.007391214370727539, 0.1540355235338211, 0.07305216789245605, 0.06671686470508575, -0.16348682343959808, 0.15005432069301605, 0.0942213386297226, -0.0689178928732872, -0.015157312154769897, -0.0925549864768982, 0.07673458755016327, 0.0023740828037261963, -0.03686361014842987, 0.11145825684070587], [-0.05534934997558594, -0.0217505544424057, 0.058985739946365356, -0.016576066613197327, -0.16599974036216736, -0.09228954464197159, -0.03138718008995056, -0.12625066936016083, -0.11896242946386337, -0.100559301674366, 0.1760672777891159, 0.1470184475183487, -0.12424439936876297, -0.06450103223323822, 0.1475333422422409, 0.011131450533866882, -0.1695767492055893, 0.056110695004463196, -0.15437698364257812, 0.13238395750522614, -0.05161501467227936, 0.054191574454307556, -0.16141635179519653, -0.08855916559696198, -0.1767398566007614, -0.06768206506967545, 0.05589936673641205, 0.1750350445508957, 0.09776763617992401, 0.11016733944416046, 0.14554093778133392, 0.07645677030086517, -0.06876949220895767, 0.04351408779621124, 0.1688540130853653, 0.12211103737354279, -0.03190326690673828, -0.06372123211622238, 0.04534819722175598, -0.13586926460266113, 0.09220774471759796, 0.09733535349369049, -0.14829979836940765, -0.11445014178752899, 0.011838212609291077, 0.03363129496574402, -0.00951966643333435, 0.059390515089035034, -0.14003008604049683, 0.033736780285835266, 0.1613842397928238, -0.14463800191879272, 0.024766966700553894, -0.16990052163600922, 0.0958535224199295, -0.04796534776687622, -0.1602591723203659, -0.15332239866256714, -0.003158941864967346, -0.02201220393180847, -0.07673592120409012, -0.011781692504882812, 0.06548124551773071, 0.04562683403491974], [-0.09912348538637161, -0.16749228537082672, -0.03830006718635559, 0.07406122982501984, 0.14733843505382538, -0.13024990260601044, -0.05038580298423767, -0.16233111917972565, -0.12088347971439362, -0.06296410411596298, -0.17421855032444, -0.01002568006515503, 0.122001513838768, -0.16852371394634247, 0.0739804357290268, 0.010559603571891785, -0.13156479597091675, -0.10623028874397278, -0.01322251558303833, -0.13381679356098175, 0.006418883800506592, -0.16804993152618408, 0.013410374522209167, 0.15262039005756378, 0.04746295511722565, 0.17163114249706268, 0.1735275536775589, -0.13009168207645416, -0.11867612600326538, 0.12956391274929047, -0.05400857329368591, -0.06599568575620651, 0.08971838653087616, 0.06719058752059937, -0.1037740558385849, -0.15614892542362213, 0.023869872093200684, 0.0009100735187530518, 0.11591435968875885, 0.14505644142627716, 0.015267014503479004, 0.14727039635181427, -0.0452391654253006, 0.09528301656246185, 0.0725773423910141, 0.1210748702287674, -0.07057877629995346, -0.03813880681991577, -0.08604207634925842, -0.09169910848140717, 0.0036795437335968018, -0.11481690406799316, 0.04494105279445648, 0.038509950041770935, -0.07446665316820145, -0.1477413922548294, 0.008161276578903198, -0.1622815877199173, -0.03652559220790863, -0.16380363702774048, -0.0287054181098938, 0.046113744378089905, -0.020103663206100464, -0.08511589467525482], [0.1446750909090042, -0.14776545763015747, 0.07337059080600739, -0.06140942871570587, -0.06598826497793198, 0.01569502055644989, 0.0941079705953598, 0.07357330620288849, 0.03848572075366974, -0.1180877536535263, -0.018430054187774658, -0.1405070573091507, -0.09380893409252167, -0.11951067298650742, -0.1587393581867218, -0.12599176168441772, -0.09809409081935883, -0.09564464539289474, 0.08478908240795135, -0.046441107988357544, 0.07164660096168518, -0.07364917546510696, 0.07921500504016876, -0.13840869069099426, 0.14103738963603973, 0.14208747446537018, 0.15871505439281464, -0.11455652117729187, -0.09319228678941727, 0.09243078529834747, 0.12841393053531647, -0.028187096118927002, 0.023345351219177246, 0.0670202374458313, 0.10390214622020721, 0.032836899161338806, 0.015965983271598816, -0.149871364235878, -0.00983661413192749, -0.003390669822692871, 0.034202754497528076, 0.011131957173347473, -0.1485552042722702, -0.08439164608716965, -0.0430154949426651, -0.15075944364070892, 0.08404253423213959, -0.15373042225837708, -0.08496218919754028, -0.15715628862380981, -0.1505834013223648, -0.05071820318698883, 0.12500818073749542, 0.1603897362947464, 0.06463341414928436, -0.10415998846292496, -0.04363568127155304, 0.045765653252601624, 0.17394037544727325, -0.0581696480512619, -0.06567797809839249, 0.11320437490940094, -0.08659011125564575, 0.033595964312553406], [0.1101853996515274, 0.03590637445449829, 0.12935121357440948, -0.009861096739768982, 0.062318071722984314, -0.10223565250635147, -0.030887022614479065, -0.09116329252719879, -0.018593207001686096, -0.03338368237018585, -0.0734197273850441, -0.10993625968694687, 0.016425296664237976, 0.08500708639621735, 0.0854649692773819, 0.04176554083824158, -0.013929784297943115, 0.08282576501369476, 0.06527957320213318, 