{"id": "dde888a7-e31c-482f-a2e0-ad9b2908e0bc", "population_size": 10, "crossover_prob": 0.5, "mutation_prob": 0.005, "fitness_rounds": 100, "tournament_size": 5, "generational_best_individuals": [{"non_splittable_weights": [[[-0.20022553205490112, 0.17380444705486298, 0.16400031745433807, -0.030596524477005005, -0.12505942583084106, -0.1088574230670929, 0.015576392412185669, 0.1068369597196579, -0.14266186952590942, 0.16022486984729767, -0.0784289687871933, 0.17762716114521027, 0.17988793551921844, -0.08377993106842041, 0.1022166758775711, -0.0050925612449646, -0.08038367331027985, -0.1900753527879715, -0.08650010824203491, -0.07677705585956573, -0.1275433599948883, -0.2039201855659485, -0.046898797154426575, -0.03859928250312805, -0.20773881673812866, -0.035368651151657104, -0.18070635199546814, 0.18636490404605865, 0.010111451148986816, -0.18026867508888245, 0.1986541897058487, 0.18025411665439606, 0.12890858948230743, -0.19796045124530792, 0.06951998174190521, -0.11497344076633453, -0.07842035591602325, -0.18106576800346375, -0.04915608465671539, 0.1506151407957077, -0.011232927441596985, 0.12150178849697113, 0.20115993916988373, -0.18200069665908813, 0.20582537353038788, 0.022040709853172302, -0.07618828117847443, 0.08730761706829071, 0.1356211155653, -0.12906894087791443, -0.0122031569480896, 0.06060345470905304, 0.09123380482196808, -0.1361720860004425, 0.047433629631996155, 0.16518200933933258, -0.10770605504512787, -0.0855555385351181, -0.08140386641025543, 0.11334238946437836, -0.1674533188343048, 0.1381477266550064, 0.19785897433757782, -0.1401304304599762, -0.0585269033908844, -0.20896606147289276, -0.10983403772115707, 0.20654352009296417, 0.12833689153194427, -0.05247707664966583, -0.0851338654756546, -0.15346179902553558, 0.1375875622034073, -0.12688443064689636, 0.01901531219482422, -0.1803780198097229, 0.05946768820285797, -0.20768916606903076, -0.026887744665145874, 0.06540445983409882, -0.011679083108901978, -0.16773879528045654, 0.1911570280790329, 0.1782018095254898, 0.12074090540409088, -0.07720153033733368, 0.12222312390804291, 0.13814808428287506, 0.13858933746814728, 0.14662055671215057, -0.16268020868301392, 0.09005029499530792, 0.17008425295352936, -0.01802109181880951, 0.01143595576286316, -0.03158619999885559, 0.149441197514534, -0.03356871008872986, -0.08016493916511536, -0.1597849279642105, -0.0031724125146865845, 0.003703013062477112, -0.12288471311330795, 0.17687250673770905, 0.19265328347682953, 0.14100877940654755, 0.08523745834827423, -0.1051400750875473, 0.09615267813205719, -0.1225048378109932, -0.1356358826160431, -0.17937971651554108, -0.025646522641181946, 0.12868081033229828, 0.02742844820022583, -0.10999608784914017, 0.1733689159154892, -0.16208547353744507, -0.1553683876991272, 0.19315804541110992, 0.07698692381381989, -0.12046705931425095, 0.20469839870929718, -0.034608229994773865, 0.046045973896980286, 0.16023482382297516, -0.06744907796382904, -0.07940982282161713], [0.18349020183086395, -0.1326814442873001, 0.04872925579547882, -0.010711446404457092, 0.0987037867307663, 0.07775701582431793, -0.17202696204185486, 0.03454889357089996, -0.03614264726638794, 0.03279721736907959, 0.07851772010326385, 0.19403333961963654, 0.03976733982563019, 0.11174292862415314, 0.17151953279972076, 0.05700807273387909, -0.008421361446380615, -0.04770386219024658, 0.022365182638168335, 0.035459116101264954, 0.18043862283229828, -0.11514707654714584, -0.003083929419517517, 0.04817940294742584, -0.05197310447692871, -0.04207742214202881, 0.16469119489192963, -0.05439549684524536, 0.037277236580848694, 0.2051520198583603, -0.19187790155410767, -0.034032270312309265, -0.07854005694389343, 0.069920614361763, 0.06569306552410126, -0.17548882961273193, -0.05999615788459778, -0.12166588753461838, -0.08014033734798431, -0.03653620183467865, -0.19955521821975708, -0.15545032918453217, -0.01298399269580841, 0.033767759799957275, 0.051090314984321594, -0.10842779278755188, -0.18004615604877472, 0.14270152151584625, 0.04052899777889252, 0.0897078663110733, 0.1584075540304184, 0.11324681341648102, 0.0340985506772995, -0.08730803430080414, 0.0269535630941391, 0.04808659851551056, -0.1328708529472351, 0.03972162306308746, 0.06710110604763031, -0.20244883000850677, 0.10190601646900177, 0.21307344734668732, -0.050212547183036804, 0.010220035910606384, -0.012681558728218079, -0.07366408407688141, 0.09363244473934174, 0.16293375194072723, 0.1463719755411148, -0.09432610869407654, -0.11924058198928833, 0.1703946441411972, 0.12193508446216583, 0.011064037680625916, 0.02271081507205963, 0.17430634796619415, -0.11419128626585007, 0.007279947400093079, -0.07943640649318695, -0.08918869495391846, 0.06252928078174591, -0.19195611774921417, 0.17707420885562897, 0.11179451644420624, 0.11733327805995941, 0.12445591390132904, -0.1760704219341278, 0.12907399237155914, 0.15747295320034027, 0.1824471801519394, 0.13622801005840302, -0.03596717119216919, 0.09875287115573883, -0.04522514343261719, 0.12608130276203156, -0.017110154032707214, 0.13111479580402374, 0.01749885082244873, -0.03484198451042175, 0.023941129446029663, 0.10802499949932098, -0.045476287603378296, 0.16965879499912262, -0.13147838413715363, 0.05170701444149017, 0.18558333814144135, -0.13081899285316467, -0.022551268339157104, 0.1870756596326828, -0.10251648724079132, -0.13550913333892822, 0.1991751343011856, 0.07505516707897186, -0.06315377354621887, -0.12442203611135483, -0.04537908732891083, -0.008075103163719177, -0.08322125673294067, 0.15853436291217804, 0.13182432949543, -0.08385646343231201, -0.12489528954029083, -0.052329450845718384, -0.17305433750152588, -0.08206795156002045, -0.022037237882614136, 0.03087940812110901, -0.18658414483070374], [-0.21322467923164368, 0.14563287794589996, 0.1374804824590683, 0.21192900836467743, 0.10519008338451385, 0.13319112360477448, -0.1383933424949646, 0.03217686712741852, 0.09739170968532562, 0.12971313297748566, -0.04824768006801605, 0.07239805161952972, 0.201157346367836, 0.04239781200885773, -0.07649615406990051, -0.028465837240219116, 0.005905702710151672, 0.14355851709842682, -0.017164289951324463, -0.04872670769691467, -0.19673188030719757, -0.03353942930698395, -0.09309565275907516, 0.016110777854919434, 0.20446880161762238, -0.07836432754993439, -0.058410629630088806, 0.021998614072799683, -0.17632710933685303, 0.1967753916978836, -0.20692114531993866, -0.06304550170898438, 0.05176742374897003, 0.028710603713989258, 0.20024313032627106, -0.10016782581806183, 0.03804861009120941, -0.13936838507652283, 0.020893573760986328, 0.030181750655174255, -0.10353723913431168, -0.20500853657722473, 0.13015703856945038, -0.09732998162508011, -0.1460314393043518, 0.006675854325294495, -0.02565065026283264, 0.018472403287887573, -0.08925890177488327, -0.06743362545967102, -0.020045801997184753, -0.19657517969608307, -0.04758191108703613, -0.08175858855247498, 0.02592027187347412, -0.20712070167064667, 0.12246789038181305, -0.1435583233833313, -0.09132642298936844, -0.13789279758930206, 0.19659166038036346, -0.1544560194015503, -0.10950696468353271, 0.09291093051433563, 0.08998708426952362, 0.03386138379573822, -0.15054455399513245, -0.06423763930797577, 0.026599660515785217, 0.1521771401166916, -0.10485765337944031, -0.20930899679660797, -0.016604647040367126, -0.07618317008018494, -0.004628196358680725, 0.071375772356987, 0.05280525982379913, 0.13661856949329376, -0.10928067564964294, 0.07010920345783234, -0.09447000175714493, 0.057086750864982605, 0.04359813034534454, 0.043545499444007874, -0.0807783454656601, -0.07522279024124146, 0.15453575551509857, 0.06980834901332855, -0.0342075377702713, 0.1668543964624405, 0.11466585099697113, -0.13565224409103394, 0.1692192703485489, 0.09736810624599457, 0.09663058817386627, 0.09040506184101105, -0.002323046326637268, 0.14441563189029694, 0.14811070263385773, -0.024305090308189392, 0.10400421917438507, -0.055051013827323914, -0.09254346042871475, 0.12008850276470184, -0.1335906982421875, -0.13654477894306183, 0.12126488983631134, -0.11591582000255585, 0.08430518209934235, 0.19025598466396332, -0.07569308578968048, -0.19345813989639282, -0.030825823545455933, 0.11717848479747772, 0.1430063396692276, -0.005692973732948303, -0.09886220097541809, -0.15218496322631836, 0.0832882970571518, 0.20306412875652313, 0.1304183453321457, 0.03543095290660858, 0.014378085732460022, -0.010246112942695618, 0.18248875439167023, 0.14328844845294952, 0.17109759151935577, 0.05603469908237457]], [[0.018561720848083496, 0.1663380116224289, -0.11451341211795807, -0.0658150389790535, -0.058778755366802216, -0.11749739944934845, 0.017594292759895325, -0.01754489541053772, 0.15599866211414337, -0.010038614273071289, -0.05853952467441559, -0.139565110206604, -0.10055601596832275, 0.03704206645488739, 0.03384041786193848, -0.05360320210456848, -0.06871664524078369, 0.1377662569284439, -0.08525750786066055, -0.11037462949752808, -0.09858004748821259, 0.15715451538562775, 0.12919636070728302, -0.1014319509267807, 0.10218186676502228, 0.045145004987716675, 0.09910593926906586, -0.14378878474235535, 0.07804740965366364, 0.11412106454372406, 0.12013022601604462, -0.17429929971694946, 0.05814802646636963, 0.10239662230014801, -0.15185964107513428, -0.0664995089173317, -0.04665133357048035, -0.15695106983184814, -0.005572915077209473, -0.03580757975578308, 0.04834647476673126, 0.07113440334796906, 0.13240613043308258, 0.1287452131509781, -0.027097895741462708, 0.008056581020355225, -0.0651918575167656, 0.1736021488904953, -0.12631608545780182, 0.12986470758914948, -0.13435205817222595, 0.13659818470478058, 0.11396308243274689, -0.1366412192583084, 0.09509061276912689, 0.13101039826869965, 0.040751874446868896, -0.142034113407135, -0.01312987506389618, -0.0700785368680954, 0.16410942375659943, -0.16041524708271027, 0.01277412474155426, -0.1303613781929016], [0.039417460560798645, -0.07475308328866959, 0.1301368623971939, 0.1641928106546402, 0.11812104284763336, 0.05793510377407074, -0.13820388913154602, -0.07375133782625198, -0.05502300709486008, -8.26120376586914e-05, -0.09391345828771591, 0.035536155104637146, -0.14074817299842834, -0.1660458892583847, -0.032473549246788025, -0.14322948455810547, -0.1006225198507309, -0.1261720210313797, 0.12023685872554779, -0.1063479632139206, -0.07659047096967697, -0.10700085759162903, 0.1013609915971756, 0.14620567858219147, 0.14245294034481049, -0.08652553707361221, -0.17202964425086975, 0.14139939844608307, 0.012550324201583862, -0.0669209361076355, -0.1187594085931778, 0.10565929114818573, 0.0604059100151062, 0.12016402184963226, 0.12178044021129608, 0.06373922526836395, -0.003754943609237671, -0.140293151140213, -0.1417054533958435, -0.06790118664503098, 0.12383969128131866, 0.05043160915374756, 0.12506701052188873, -0.050095826387405396, 0.06536465883255005, 0.1412784308195114, 0.12170968949794769, 0.12814240157604218, 0.03947478532791138, 0.14511896669864655, -0.08856013417243958, -0.04887782037258148, 0.14282117784023285, 0.0025138556957244873, 0.025480881333351135, 0.02487945556640625, -0.019302919507026672, -0.07293031364679337, 0.029844433069229126, 0.06763768196105957, -0.11135479807853699, -0.06716702878475189, -0.08602660894393921, -0.06070545315742493], [0.1093427985906601, 0.14576323330402374, -0.04386639595031738, -0.08228620141744614, -0.12132091820240021, -0.1697431355714798, -0.00845983624458313, -0.15423984825611115, -0.13448165357112885, 0.0582357794046402, 0.059987396001815796, -0.026480406522750854, 0.07469172775745392, -0.1444544792175293, -0.08943536132574081, -0.0004639476537704468, 0.16153337061405182, 0.07518981397151947, 0.15372319519519806, 0.08287839591503143, -0.02953234314918518, 0.052420854568481445, 0.06343202292919159, -0.08836478739976883, -0.13155072927474976, 0.06185723841190338, -0.09820135682821274, 0.14583294093608856, 0.03176376223564148, 0.09625713527202606, 0.03409026563167572, 0.0720575749874115, 0.05443821847438812, -0.08042431622743607, -0.026434168219566345, -0.0038757771253585815, -0.018557801842689514, -0.09475488215684891, 0.1548488587141037, -0.014491811394691467, 0.07160155475139618, -0.0012337267398834229, 0.0728524774312973, -0.07615446299314499, -0.030265942215919495, -0.09663905203342438, 0.007903173565864563, 0.14651985466480255, -0.1514170616865158, 0.10428254306316376, -0.15706351399421692, -0.059920258820056915, 0.005183428525924683, 0.05830894410610199, -0.16932231187820435, -0.08992502093315125, 0.10474489629268646, -0.14348481595516205, -0.17424075305461884, 0.07927568256855011, -0.11469362676143646, -0.12335416674613953, -0.1228792667388916, -0.17193250358104706], [-0.10090777277946472, 0.12085671722888947, -0.06876173615455627, -0.006178811192512512, 0.10511840879917145, 0.1393076330423355, -0.0017139911651611328, -0.017046630382537842, -0.1521020233631134, -0.08666576445102692, -0.06004214286804199, 0.036428019404411316, 0.010344862937927246, 0.1723189800977707, -0.08770114183425903, 0.17169402539730072, 0.11663664877414703, -0.07286785542964935, 0.04686826467514038, -0.088132344186306, -0.11235291510820389, -0.045887500047683716, 0.03811183571815491, 0.04622304439544678, -0.01228436827659607, 0.051381975412368774, -0.12428763508796692, -0.019149884581565857, -0.15006166696548462, -0.12805186212062836, 0.06456783413887024, -0.13694265484809875, -0.04084046185016632, 0.1307782083749771, -0.1475154012441635, 0.14271880686283112, -0.1470673829317093, 0.0016540586948394775, 0.012889772653579712, 0.04515823721885681, -0.06333807110786438, -0.0077533721923828125, 0.07134571671485901, -0.07716835290193558, -0.05412042886018753, 0.04698623716831207, 0.0306413471698761, 0.09929405152797699, 0.147299662232399, 0.1513865441083908, -0.16233456134796143, 0.06640420854091644, -0.0713474452495575, -0.12129546701908112, 0.05886468291282654, 0.050236642360687256, -0.12926965951919556, 0.07396538555622101, 0.01898825168609619, -0.05904722958803177, -0.11167553067207336, -0.1335948407649994, -0.04288989305496216, 0.10374222695827484], [0.05769936740398407, 0.11649279296398163, 0.03898903727531433, -0.015520453453063965, 0.013351693749427795, 0.15993450582027435, 0.109991654753685, 0.05459842085838318, 0.0642518550157547, -0.0823339968919754, -0.15932747721672058, -0.09120050817728043, -0.0058493465185165405, 0.07520498335361481, -0.13453826308250427, -0.12869392335414886, 0.10278297960758209, -0.03507520258426666, -0.11213261634111404, -0.0462946891784668, -0.045478254556655884, -0.16214482486248016, 0.14539848268032074, -0.10219485312700272, -0.08893836289644241, 0.05732734501361847, 0.020614996552467346, -0.1503313183784485, -0.11117368936538696, 0.10471759736537933, -0.0783681869506836, -0.07912185788154602, 0.08899454772472382, 0.07406170666217804, -0.1550024151802063, -0.07650335878133774, 0.047921642661094666, -0.0913708284497261, -0.008665606379508972, 0.008890628814697266, 0.16496588289737701, 0.11266173422336578, -0.06852765381336212, 0.07094672322273254, 0.04103134572505951, -0.11091098934412003, 0.05386851727962494, 0.12005124986171722, -0.1273748129606247, 0.13958273828029633, -0.09364043176174164, -0.10478460788726807, -0.11180496960878372, -0.15969853103160858, -0.15501581132411957, -0.16627846658229828, 0.14467482268810272, 0.1736009567975998, -0.07589728385210037, 0.13573788106441498, -0.132114976644516, -0.05580339580774307, 0.00928187370300293, -0.16631154716014862], [0.025838464498519897, -0.17095035314559937, -0.08623599261045456, -0.1195676177740097, 0.10922516882419586, -0.0348057895898819, 0.02890932559967041, -0.07752461731433868, -0.022082120180130005, 0.15730418264865875, 0.07587780058383942, -0.009553641080856323, 0.06980891525745392, -0.14411894977092743, 0.09835211932659149, -0.0240572988986969, 0.10501350462436676, 0.13502000272274017, 0.0979904979467392, 0.17005537450313568, 0.10308308899402618, -0.1122225970029831, 0.01804003119468689, -0.04973804950714111, -0.0615607425570488, 0.04693451523780823, -0.09187768399715424, -0.17427287995815277, -0.05003303289413452, 0.15350084006786346, -0.09143240004777908, -0.1260511577129364, 0.0546879768371582, 0.014257103204727173, -0.05264149606227875, -0.020549580454826355, 0.04275211691856384, 0.0949849933385849, 0.11465473473072052, -0.049771472811698914, 0.09454603493213654, -0.11228147894144058, -0.17264816164970398, -0.015861421823501587, 0.09533165395259857, 0.1293753832578659, 0.08743734657764435, -0.0729244127869606, 0.07811836898326874, 0.022248566150665283, -0.0757945328950882, 0.14721067249774933, 0.03002411127090454, 0.133455291390419, 0.05984438955783844, -0.049311473965644836, 0.1402759701013565, 0.13753308355808258, 0.15545670688152313, 0.09959788620471954, 0.17550437152385712, 0.17442141473293304, -0.1727069467306137, -0.024101674556732178], [0.14929892122745514, 0.07605715095996857, -0.07068506628274918, -0.15271231532096863, 0.06113539636135101, -0.03277730941772461, 0.010142847895622253, -0.09265238791704178, 0.1016039103269577, -0.12847383320331573, -0.09999091178178787, 0.04171168804168701, -0.11457611620426178, 0.11320431530475616, 0.05647096037864685, -0.0955466479063034, -0.1413259208202362, 0.05261385440826416, -0.11452697962522507, -0.14971007406711578, 0.022977620363235474, -0.11977624148130417, 0.15138091146945953, -0.14418166875839233, -0.11779306828975677, -0.06785604357719421, 0.11955969035625458, 0.08779548108577728, -0.007695719599723816, -0.1615821272134781, 0.020070120692253113, -0.1042395681142807, -0.09460543096065521, -0.1737193614244461, -0.0905613973736763, -0.08312858641147614, -0.15690863132476807, -0.08202977478504181, -0.02110402286052704, -0.0532006174325943, 0.13403086364269257, -0.1457744836807251, 0.12529416382312775, 0.1686028093099594, -0.07359876483678818, 0.04443538188934326, 0.0797715038061142, 0.1693837195634842, 0.06218729913234711, -0.014435380697250366, -0.15279428660869598, -0.09609886258840561, 0.0354144424200058, 0.06545338034629822, -0.11911643296480179, 0.14510147273540497, -0.0792810469865799, 0.05524110794067383, 0.17065267264842987, -0.15150435268878937, 0.04023325443267822, 0.04837219417095184, 0.171158567070961, 0.16188360750675201], [0.14095397293567657, 0.05288544297218323, -0.12466274201869965, 0.1274450570344925, -0.022646337747573853, 0.1610211580991745, -0.10893413424491882, -0.057599104940891266, 0.05812644958496094, 0.09752731025218964, 0.1701314002275467, 0.10796143114566803, -0.16378328204154968, -0.07084155827760696, -0.02394990622997284, -0.13069282472133636, -0.10301616787910461, -0.10536067187786102, -0.11681567877531052, 0.03162458539009094, 0.1542767733335495, 0.16030599176883698, -0.17410504817962646, -0.1407693326473236, -0.1010633334517479, 0.1477573961019516, 0.15719054639339447, 0.003555089235305786, -0.06423904746770859, 0.09431563317775726, -0.15344399213790894, 0.040032804012298584, 0.03651632368564606, 0.1356678456068039, 0.018519654870033264, -0.009870335459709167, 0.0561755895614624, 0.14895333349704742, -0.1027262806892395, 0.00645938515663147, 0.03522418439388275, -0.10389459133148193, 0.17541851103305817, -0.06393019109964371, -0.021726742386817932, 0.03753134608268738, -0.09427453577518463, 0.06560046970844269, 0.08264763653278351, -0.08775791525840759, -0.053825363516807556, -0.1665053367614746, 0.07493819296360016, 0.06860575079917908, -0.1027035266160965, 0.11911003291606903, -0.08312749117612839, 0.032049015164375305, -0.03719164431095123, 0.01016131043434143, -0.08818557858467102, -0.11985497176647186, 0.12358738481998444, 0.17348282039165497], [-0.13701434433460236, -0.16531245410442352, -0.15745235979557037, 0.08494280278682709, -0.14936408400535583, 0.05701620876789093, 0.0022523701190948486, 0.10316537320613861, 0.047044187784194946, 0.04053591191768646, 0.0875907689332962, 0.11164544522762299, -0.04248221218585968, 0.16018499433994293, -0.003305286169052124, 0.07242147624492645, 0.13021104037761688, 0.14587904512882233, 0.13978992402553558, -0.08552046120166779, -0.06059148907661438, -0.10915481299161911, -0.07759765535593033, 0.15342216193675995, -0.06804511696100235, 0.06539817154407501, 0.04157896339893341, 0.13648633658885956, -0.07739366590976715, -0.13369430601596832, -0.03992195427417755, 0.031991735100746155, -0.0063958317041397095, 0.1536300927400589, -0.16785858571529388, 0.05148608982563019, 0.15244115889072418, 0.11941297352313995, -0.1357179880142212, 0.09045316278934479, 0.056651771068573, 0.14481686055660248, -0.06472445279359818, -0.08008600771427155, -0.05869758129119873, -0.14305731654167175, -0.017637059092521667, 0.05195455253124237, 0.09106345474720001, 0.06234559416770935, 0.004096508026123047, -0.1294206976890564, 0.08675603568553925, -0.0693405419588089, -0.15971392393112183, 0.03257550299167633, -0.10164344310760498, -0.10807657241821289, -0.0019451230764389038, 0.14010311663150787, -0.002600044012069702, -0.06693501025438309, -0.09228502959012985, 0.14040116965770721], [-0.1446075141429901, -0.04000788927078247, -0.027285277843475342, 0.09313075244426727, -0.1621507704257965, -0.12224511802196503, 0.10204966366291046, -0.11554069817066193, 0.0071600377559661865, -0.17450156807899475, 0.08976413309574127, -0.05622250586748123, -0.14175450801849365, -0.06640986353158951, -0.08139285445213318, 0.08369730412960052, -0.1101502776145935, -0.08697819709777832, -0.10047117620706558, -0.016523420810699463, -0.17150366306304932, 0.1175914853811264, -0.01356416940689087, 0.02518223226070404, 0.15558697283267975, -0.07443099468946457, -0.12749800086021423, 0.17584963142871857, 0.10564060509204865, -0.0242779403924942, -0.1070111021399498, 0.11164949834346771, -0.056398048996925354, -0.04128178954124451, -0.1658325493335724, -0.13995054364204407, 0.017285943031311035, -0.05000339448451996, -0.12331502139568329, 0.14731569588184357, 0.04410672187805176, 0.14696840941905975, -0.1740986406803131, -0.17588098347187042, 0.05776397883892059, -0.16275633871555328, -0.1755407750606537, -0.09367836266756058, -0.09404449164867401, -0.06852344423532486, 0.04456320405006409, 0.09483690559864044, -0.04061290621757507, -0.030111640691757202, 0.16050563752651215, 0.16911859810352325, -0.029461905360221863, -0.02642194926738739, -0.006941676139831543, 0.13068945705890656, 0.10128684341907501, 0.12525485455989838, 0.17671383917331696, 0.09170432388782501], [-0.1457613706588745, 0.1454824060201645, -0.03674888610839844, 0.10586254298686981, -0.03378836810588837, -0.1010383889079094, -0.1742347776889801, 0.12358070909976959, 0.03463210165500641, -0.002738744020462036, -0.11260680854320526, 0.16862235963344574, 0.039310455322265625, -0.0036888569593429565, -0.17640221118927002, 0.1364455372095108, -0.02679350972175598, 0.07314176857471466, 0.0549565851688385, -0.03327590227127075, 0.02675291895866394, 0.04453185200691223, 0.0036772340536117554, 0.07995475828647614, -0.059386469423770905, -0.09678180515766144, -0.021931111812591553, 0.1650676280260086, 0.05875527858734131, 0.16108815371990204, -0.08849843591451645, -0.03363819420337677, 0.08629439771175385, 0.16700266301631927, 0.003229081630706787, -0.013309434056282043, -0.11269767582416534, 0.13676996529102325, -0.11802748590707779, -0.1728297621011734, -0.175607368350029, 0.1461048573255539, -0.021754473447799683, -0.00848078727722168, 0.0068932026624679565, -0.166222482919693, -0.17147091031074524, -0.16912227869033813, -0.0781359151005745, -0.03498120605945587, 0.08121342957019806, -0.15005993843078613, 0.10382364690303802, -0.11802082508802414, 0.17546512186527252, -0.17571409046649933, 0.10255827009677887, -0.13760258257389069, 0.09258635342121124, -0.026968255639076233, 0.1471358984708786, -0.005981475114822388, -0.1290164738893509, 0.070771723985672], [-0.10931446403265, -0.03375925123691559, -0.03460858762264252, 0.006958112120628357, 0.012058421969413757, 0.04142609238624573, 0.14640174806118011, -0.04392464458942413, 0.07046228647232056, -0.12492279708385468, 0.12066559493541718, -0.0026525110006332397, 0.1695353239774704, 0.10700587928295135, 0.1392367035150528, -0.034629613161087036, 0.0448978990316391, 0.05724869668483734, 0.044587910175323486, -0.09847244620323181, -0.08273699879646301, 0.03366050124168396, -0.06769407540559769, 0.04786200821399689, -0.07484572380781174, 0.11806820333003998, -0.10474756360054016, 0.1662195771932602, 0.14744539558887482, -0.07105090469121933, -0.02825954556465149, 0.04896974563598633, 0.13337145745754242, -0.14846593141555786, -0.051550060510635376, -0.10504802316427231, -0.02301950752735138, -0.024014592170715332, -0.1444498896598816, 0.054681017994880676, 0.07541541755199432, 0.001586616039276123, 0.036213070154190063, 0.040196970105171204, -0.12848787009716034, 0.019501134753227234, -0.0066721439361572266, -0.11749483644962311, -0.13585029542446136, -0.1417853683233261, 0.10060776770114899, -0.08441975712776184, 0.12022973597049713, 0.11172421276569366, 0.07425694167613983, 0.032471150159835815, -0.08945727348327637, -0.1744726151227951, 0.03319190442562103, -0.01166468858718872, -0.12724605202674866, 0.07667379081249237, 0.13909538090229034, -0.024395480751991272], [-0.16738241910934448, 0.11407928168773651, -0.04068562388420105, -0.09756775945425034, -0.036107420921325684, 0.17321862280368805, 0.17454881966114044, -0.06419336050748825, -0.023037925362586975, -0.1053473949432373, 0.1336372345685959, -0.10259786248207092, 0.002082228660583496, -0.15627224743366241, 0.054089248180389404, 0.026044011116027832, -0.05670900642871857, 0.10892777144908905, 0.01043778657913208, -0.03154021501541138, -0.14680695533752441, 0.07602204382419586, -0.12649217247962952, -0.029597491025924683, 0.09069962799549103, -0.1446889042854309, 0.16925688087940216, 0.14734314382076263, -0.007971152663230896, 0.12753690779209137, -0.045031413435935974, 0.11504195630550385, -0.12032917141914368, -0.0842493548989296, -0.027570441365242004, -0.08885343372821808, -0.09144049137830734, 0.14247582852840424, -0.055470727384090424, 0.14141274988651276, 0.034290507435798645, 0.0212753564119339, 0.12468929588794708, 0.017793595790863037, -0.03432033956050873, -0.006411001086235046, -0.08372972905635834, -0.13182955980300903, -0.13964451849460602, -0.14863991737365723, -0.09885972738265991, -0.1361675262451172, -0.12878331542015076, -0.004456862807273865, 0.0973660796880722, -0.1444084644317627, -0.1067461222410202, 0.08655799925327301, -0.047698974609375, 0.09827594459056854, 0.13253049552440643, 0.151356503367424, 0.12305407226085663, -0.024678200483322144], [-0.07132485508918762, -0.11161656677722931, -0.0019819140434265137, 0.06354421377182007, 0.04728299379348755, -0.010990545153617859, -0.14988848567008972, 0.13234128057956696, -0.01892659068107605, 0.1663869470357895, 0.10884036123752594, -0.15412740409374237, 0.122950479388237, -0.13530470430850983, -0.08770561218261719, 0.08348481357097626, -0.15021288394927979, 0.1256880909204483, 0.10656337440013885, 0.0917959064245224, -0.14971159398555756, 0.06958410143852234, -0.07823247462511063, -0.06549227982759476, -0.016441568732261658, -0.11187172681093216, -0.16582925617694855, 0.10264743864536285, -0.03373800218105316, 0.13325165212154388, -0.15919926762580872, -0.14304468035697937, 0.13872335851192474, -0.13441236317157745, 0.12392298877239227, 0.11666159331798553, -0.08726467192173004, 0.11049990355968475, -0.05358263850212097, -0.07784969359636307, 0.05269645154476166, -0.13430911302566528, -0.07920189201831818, 0.10851560533046722, 0.07486017048358917, -0.15986396372318268, -0.048334211111068726, -0.14518839120864868, 0.12642021477222443, -0.1511732041835785, 0.06668916344642639, 0.015380650758743286, 0.017436742782592773, -0.011814475059509277, 0.16476114094257355, -0.04509742558002472, -0.024342715740203857, 0.1599760800600052, -0.11715032160282135, 0.17672692239284515, 0.09242977201938629, -0.13592050969600677, 0.08175970613956451, -0.15179915726184845], [0.1701149195432663, 0.01866869628429413, -0.06298496574163437, 0.02580861747264862, 0.07636497914791107, -0.028158649802207947, 0.11484785377979279, 0.028460755944252014, 0.16921137273311615, -0.14566119015216827, 0.10498996078968048, 0.15346993505954742, 0.07953636348247528, 0.033820778131484985, 0.1316789835691452, 0.06940847635269165, -0.0959586352109909, -0.037310659885406494, -0.014253810048103333, -0.06698617339134216, -0.04609529674053192, 0.1318175047636032, -0.15452589094638824, 0.15068255364894867, 0.019314929842948914, 0.11754070222377777, -0.05126173794269562, 0.14915524423122406, -0.06393179297447205, -0.17135003209114075, 0.04865989089012146, 0.021742001175880432, -0.04032492637634277, 0.1370312124490738, 0.1752648800611496, -0.14762915670871735, 0.13756145536899567, 0.033599093556404114, -0.07569805532693863, 0.11513815820217133, 0.012161090970039368, 0.03808145225048065, 0.03962342441082001, -0.09758171439170837, -0.09672368317842484, -0.038279831409454346, 0.10478805005550385, -0.16168276965618134, 0.03928026556968689, -0.12734366953372955, -0.1704583764076233, -0.022557705640792847, 0.08795799314975739, -0.1529838740825653, -0.10092758387327194, 0.16931603848934174, 0.14348767697811127, -0.15506069362163544, -0.11196145415306091, -0.13735522329807281, -0.0819755345582962, 0.010187521576881409, -0.025321021676063538, -0.14757373929023743], [-0.02792300283908844, 0.012292131781578064, 0.05549466609954834, -0.08269818127155304, -0.07766597718000412, 0.17305319011211395, -0.13262668251991272, 0.14356090128421783, -0.044455140829086304, 0.03380000591278076, 0.030326932668685913, 0.10458703339099884, 0.025308504700660706, -0.10704005509614944, -0.16865289211273193, -0.17551806569099426, -0.06912332028150558, 0.014591619372367859, 0.16225533187389374, 0.12538747489452362, 0.12152184545993805, 0.060738712549209595, 0.15329955518245697, -0.15847837924957275, -0.010499954223632812, -0.054271019995212555, 0.006577521562576294, 0.10816989839076996, -0.08670499920845032, -0.10774702578783035, -0.014724045991897583, -0.003190174698829651, -0.1764550656080246, 0.10757772624492645, 0.16314055025577545, -0.06343749910593033, 0.06790919601917267, -0.15817315876483917, 0.1078050285577774, 0.12495626509189606, -0.041690900921821594, -0.17638851702213287, -0.1612262725830078, -0.15922711789608002, -0.029120221734046936, -0.0517473965883255, -0.038361042737960815, 0.13959245383739471, 0.010831564664840698, -0.07645063102245331, -0.09013748168945312, -0.08002198487520218, -0.02633613348007202, -0.13862991333007812, -0.1578432321548462, 0.1119077056646347, -0.07988020777702332, 0.11754752695560455, -0.07055972516536713, -0.02179780602455139, -0.10743264853954315, -0.1411619782447815, 0.1582629233598709, -0.13336142897605896], [-0.08613757789134979, 0.048788636922836304, 0.1452658623456955, 0.06166374683380127, 0.1504708081483841, 0.05808325111865997, -0.13747091591358185, -0.1766214221715927, -0.09643299877643585, -0.025659337639808655, -0.10730916261672974, 0.07908113300800323, -0.1577756255865097, -0.11012882739305496, -0.119656503200531, 0.09536795318126678, -0.04895702004432678, 0.008910685777664185, 0.1310046762228012, 0.09020499885082245, -0.15929418802261353, -0.05336187034845352, 0.028582900762557983, -0.030039072036743164, -0.1309242844581604, -0.10109132528305054, 0.09691424667835236, 0.08230359852313995, 0.04811049997806549, -0.14106912910938263, -0.13240095973014832, -0.15730783343315125, -0.16602776944637299, 0.0860929936170578, 0.09348945319652557, -0.04419447481632233, -0.1397598683834076, 0.008483365178108215, 0.1699080914258957, 0.05018256604671478, -0.13854533433914185, -0.015908077359199524, -0.10010533779859543, 0.02636474370956421, 0.15329141914844513, 0.010023742914199829, 0.12920136749744415, -0.12026430666446686, 0.05990339815616608, -0.1084294244647026, -0.0884803980588913, -0.08250827342271805, -0.15053227543830872, -0.08874557912349701, 0.10853652656078339, 0.04656282067298889, -0.07569759339094162, 0.03544431924819946, 0.01904413104057312, 0.013387814164161682, -0.15017637610435486, 0.1679566353559494, 0.10454551875591278, -0.13693848252296448], [-0.12352381646633148, 0.08073244988918304, -0.0326680988073349, -0.08818557858467102, 0.14148487150669098, -0.00036153197288513184, -0.07016763091087341, 0.005316868424415588, -0.13744878768920898, 0.10955844819545746, -0.040432438254356384, -0.01070404052734375, -0.06488338857889175, -0.08569330722093582, -0.1420753300189972, -0.06690824776887894, -0.07640565931797028, 0.15320409834384918, -0.004899531602859497, 0.09841664135456085, -0.14164936542510986, 0.14361263811588287, -0.06793548911809921, -0.1394837200641632, 0.08596844971179962, -0.09382693469524384, 0.11236684024333954, -0.0030982941389083862, 0.11159445345401764, -0.007722616195678711, -0.028520435094833374, -0.1433475911617279, -0.11824656277894974, -0.03557750582695007, -0.056086793541908264, -0.0035473257303237915, -0.1697143167257309, -0.01956300437450409, 0.07919920980930328, 0.05436408519744873, -0.04741200804710388, -0.11390261352062225, -0.021708324551582336, -0.1361689567565918, -0.09831021726131439, -0.10814931988716125, 0.1486351639032364, -0.004216581583023071, -0.11548244953155518, 0.15457256138324738, -0.01296699047088623, -0.06135856360197067, -0.019280165433883667, 0.08110536634922028, 0.12589575350284576, 0.1341608315706253, -0.005139976739883423, -0.02140916883945465, -0.09329921007156372, -0.10340455174446106, 0.09896235167980194, -0.11550870537757874, 0.08561499416828156, -0.17004023492336273], [0.10202400386333466, 0.013584986329078674, -0.15951372683048248, 0.056117087602615356, 0.012487262487411499, 0.10484631359577179, 0.07192131876945496, 0.03941328823566437, 0.040889397263526917, -0.06855315715074539, -0.05986146628856659, -0.09062743932008743, 0.05032093822956085, -0.06550189107656479, 0.13866107165813446, -0.14175447821617126, 0.09164862334728241, -0.054580628871917725, 0.08220364153385162, 0.10899238288402557, -0.045820534229278564, -0.010789722204208374, 0.02458152174949646, -0.10232677310705185, -0.17200423777103424, 0.005022898316383362, 0.07351045310497284, 0.08564935624599457, 0.128257617354393, -0.16048511862754822, 0.03949475288391113, -0.029141008853912354, 0.0512208491563797, 0.06410661339759827, -0.020961686968803406, 0.0899338573217392, 0.07595427334308624, -0.13258454203605652, 0.01621001958847046, 0.10903279483318329, -0.11539950221776962, 0.17065401375293732, 0.10080818831920624, -0.1714814007282257, 0.15875180065631866, 0.04519385099411011, -0.05001300573348999, -0.040271222591400146, -0.040825411677360535, -0.13058623671531677, 0.1676122099161148, 0.05283890664577484, 0.13938604295253754, 0.02342483401298523, -0.15905916690826416, 0.0817536860704422, -0.04616972804069519, 0.15848125517368317, 0.06643763184547424, -0.02745850384235382, 0.06578022241592407, -0.015910640358924866, 0.11272032558917999, 0.10243783891201019], [-0.06877278536558151, -0.1502833515405655, -0.01535797119140625, 0.17527450621128082, -0.008288383483886719, 0.009837374091148376, -0.16766276955604553, 0.11484064161777496, 0.11823485791683197, 0.12175028026103973, 0.07605378329753876, 0.06651796400547028, 0.15416456758975983, -0.08117499947547913, -0.15974131226539612, 0.06796090304851532, 0.053684890270233154, 0.15239010751247406, 0.04788556694984436, 0.04693903028964996, 0.05735166370868683, 0.10735134780406952, 0.13186369836330414, 0.11883391439914703, 0.003939926624298096, -0.07482464611530304, 0.13867272436618805, 0.09447990357875824, 0.039899200201034546, 0.12341274321079254, 0.1458430141210556, -0.08327016234397888, 0.14270715415477753, -0.12421265989542007, -0.16423910856246948, 0.06389246881008148, 0.02250950038433075, 0.1397504061460495, -0.09838292002677917, 0.08934180438518524, 0.15877096354961395, -0.12973549962043762, -0.15528546273708344, 0.09663783013820648, 0.06709234416484833, 0.013551101088523865, -0.020645424723625183, 0.0280618816614151, -0.13551223278045654, 0.14476020634174347, -0.05997762084007263, -0.14396485686302185, -0.07729900628328323, 0.10689203441143036, -0.05436374247074127, 0.1012142151594162, 0.11174754798412323, -0.15223273634910583, 0.08257173001766205, 0.16793130338191986, 0.10141651332378387, -0.1235186755657196, -0.12629151344299316, -0.08259914070367813], [0.14740072190761566, -0.13931214809417725, 0.07526962459087372, 0.09193189442157745, -0.1316893845796585, -0.015305578708648682, -0.06866762787103653, 0.1019059270620346, 0.17264707386493683, 0.07138209044933319, 0.07367537915706635, -0.019732311367988586, 0.15369795262813568, 0.07182244956493378, -0.03760556876659393, 0.16096757352352142, 0.0033547133207321167, 0.07811670005321503, 0.07305966317653656, 0.0790308266878128, 0.09535066783428192, 0.16211266815662384, -0.06807992607355118, -0.13180255889892578, -0.1666739284992218, -0.057175613939762115, -0.03803803026676178, -0.026135429739952087, -0.100916787981987, 0.017916202545166016, 0.08626322448253632, -0.017053797841072083, -0.0731753557920456, -0.09868911653757095, 0.12402994930744171, 0.01830846071243286, -0.11725636571645737, 0.16979630291461945, -0.051931656897068024, -0.002782493829727173, -0.15673469007015228, 0.03800123929977417, -0.09603875875473022, -0.051082953810691833, -0.04621481895446777, -0.037095680832862854, 0.08852119743824005, 0.12561987340450287, -0.018307998776435852, 0.15952207148075104, -0.08924055844545364, 0.021736308932304382, -0.03991664946079254, -0.09999191761016846, 0.1720244139432907, -0.14766928553581238, 0.13101516664028168, -0.1405390501022339, 0.024218976497650146, 0.01215691864490509, 0.1570698469877243, 0.04940204322338104, -0.13730043172836304, 0.10362266004085541], [0.02717578411102295, -0.11192436516284943, 0.05369478464126587, 0.11178435385227203, -0.11063408106565475, 0.11246870458126068, 0.005580320954322815, 0.06515134871006012, 0.11556358635425568, 0.06819823384284973, -0.09666603058576584, -0.12079484760761261, 0.16293422877788544, -0.08950536698102951, -0.04915975034236908, 0.04936268925666809, 0.17214976251125336, -0.12323114275932312, 0.03708775341510773, 0.11273898184299469, 0.0886785238981247, -0.1104777604341507, -0.021951600909233093, -0.17506422102451324, 0.07923798263072968, 0.14806310832500458, 0.06773878633975983, -0.04495859146118164, -0.16630598902702332, 0.1517111212015152, 0.0087042897939682, 0.12808044254779816, 0.10248036682605743, 0.1094283014535904, -0.14873778820037842, 0.047896355390548706, 0.04252259433269501, 0.09827031195163727, 0.05506105720996857, -0.01941579580307007, 0.07936765253543854, -0.022948235273361206, -0.016881033778190613, -0.17450042068958282, -0.01838727295398712, -0.06479988992214203, -0.10526765137910843, 0.06655484437942505, 0.025667890906333923, 0.021538808941841125, -0.08698544651269913, 0.08234457671642303, -0.14784680306911469, -0.1760733425617218, 0.17150269448757172, 0.05358310043811798, -0.05015470087528229, -0.025315582752227783, -0.06286121904850006, 0.019210070371627808, 0.05822195112705231, -0.135685533285141, -0.1592855453491211, -0.059272922575473785], [0.012658968567848206, 0.06909377872943878, -0.16394062340259552, 0.15017245709896088, 0.012247875332832336, 0.080030158162117, 0.1607370227575302, -0.0832357257604599, 0.11097706854343414, 0.09375862777233124, 0.16003723442554474, -0.11109104007482529, 0.002237573266029358, -0.10092909634113312, 0.134809210896492, 0.0913429707288742, -0.06634293496608734, 0.16586251556873322, 0.13881777226924896, -0.022022023797035217, 0.07142537832260132, 0.08142240345478058, 0.17659781873226166, -0.030692309141159058, 0.00564025342464447, -0.014958754181861877, 0.08743838965892792, -0.04430477321147919, -0.10771672427654266, -0.06812924146652222, 0.06612519919872284, -0.020119428634643555, 0.1168910413980484, 0.12857140600681305, -0.13138073682785034, 0.029831111431121826, -0.036466047167778015, 0.1383836418390274, -0.06878896802663803, 0.0001280456781387329, 0.02052740752696991, -0.03001314401626587, -0.06316539645195007, 0.1691436916589737, 0.019472986459732056, 0.04519343376159668, 0.013443157076835632, 0.16931264102458954, -0.010434374213218689, -0.050843000411987305, -0.1018851175904274, 0.013820797204971313, -0.15729869902133942, 0.1580384224653244, -0.0020502805709838867, 0.07669301331043243, -0.01107509434223175, -0.16727839410305023, 0.08166985213756561, -0.15871275961399078, -0.057718463242053986, 0.03103846311569214, -0.03531774878501892, 0.07411746680736542], [-0.1270330399274826, -0.09760615974664688, -0.06958158314228058, 0.03347542881965637, -0.17254245281219482, 0.026460930705070496, 0.08140040934085846, 0.02109450101852417, 0.014141276478767395, -0.14811253547668457, 0.06127987802028656, 0.1417674571275711, -0.10039589554071426, 0.16683609783649445, 0.03782236576080322, -0.15257041156291962, -0.010104924440383911, -0.03153270483016968, -0.014003962278366089, -0.11119560897350311, 0.046732932329177856, -0.01755596697330475, -0.16640987992286682, -0.005087122321128845, 0.0016931593418121338, -0.0727090835571289, 0.09664811193943024, -0.07973504811525345, 0.12069787085056305, -0.0003791898488998413, 0.14403580129146576, 0.13648758828639984, -0.046196356415748596, -0.08650779724121094, -0.15959595143795013, -0.09393558651208878, -0.030035987496376038, 0.08347953855991364, 0.0041563063859939575, 0.08153088390827179, 0.0037225335836410522, -0.0997113510966301, 0.13196127116680145, 0.05892546474933624, -0.025874629616737366, -0.0027324706315994263, -0.038363873958587646, -0.13235993683338165, 0.012762695550918579, 0.012931838631629944, -0.02233441174030304, 0.04633283615112305, -0.10581695288419724, 0.002448052167892456, -0.16413284838199615, -0.12321681529283524, 0.148227259516716, 0.17296694219112396, 0.12438912689685822, 0.01661592721939087, 0.06120109558105469, -0.0198432058095932, -0.09118440747261047, -0.16073282063007355], [-0.0073530226945877075, -0.008274853229522705, -0.0904000997543335, 0.08154748380184174, 0.02549189329147339, -0.019757986068725586, -0.057228341698646545, 0.03608137369155884, -0.03525230288505554, -0.014136016368865967, 0.0114116370677948, -0.02007189393043518, -0.016672581434249878, 0.07072557508945465, -0.0014345943927764893, -0.08720975369215012, -0.05582716315984726, -0.06315094232559204, 0.06664225459098816, 0.086677685379982, -0.04886429011821747, 0.1312314122915268, -0.11390451341867447, -0.11605791747570038, 0.056910380721092224, 0.03148841857910156, -0.07754223048686981, -0.07668134570121765, -0.06912698596715927, -0.10314656794071198, -0.11333763599395752, 0.11680234968662262, -0.007277920842170715, 0.05912579596042633, -0.029086515307426453, 0.1000405102968216, 0.12841390073299408, -0.15813501179218292, 0.1409524530172348, 0.05537228286266327, 0.018107756972312927, -0.1109599620103836, 0.11915989220142365, -0.13318762183189392, 0.06232941150665283, -0.10463245958089828, -0.1503419727087021, 0.1439361721277237, -0.1487307846546173, -0.0812467709183693, 0.008595392107963562, 0.007986664772033691, -0.0052118003368377686, 0.1087089329957962, 0.059544891119003296, 0.000716671347618103, -0.08405434340238571, 0.14701540768146515, 0.050134941935539246, 0.11653764545917511, -0.15382423996925354, -0.04417702555656433, -0.06003919988870621, -0.1488458514213562], [0.17055244743824005, -0.12766435742378235, -0.028782591223716736, 0.09959439933300018, -0.10947845876216888, 0.15494580566883087, -0.17231616377830505, 0.13214470446109772, 0.0491030216217041, 0.04499673843383789, 0.07170973718166351, 0.15469776093959808, -0.0899362713098526, 0.06997261941432953, -0.11969616264104843, -0.15132185816764832, 0.14921127259731293, -0.07863699644804001, 0.05821840465068817, -0.15891996026039124, 0.0017127245664596558, 0.04278726875782013, -0.1393166184425354, -0.1513565331697464, 0.06718616187572479, 0.07872791588306427, 0.10453738272190094, 0.09374074637889862, -0.11861918866634369, -0.0714685395359993, -0.09528344124555588, -0.08848448097705841, -0.16241097450256348, -0.17120972275733948, 0.014689400792121887, 0.008648663759231567, 0.1015433818101883, 0.11671917140483856, -0.17677243053913116, -0.05220726132392883, -0.0767953097820282, -0.03007674217224121, -0.005707606673240662, 0.1737053245306015, 0.008197814226150513, 0.15162654221057892, 0.1728018969297409, -0.09137587994337082, 0.02530096471309662, 0.051675960421562195, 0.14145822823047638, 0.031422197818756104, -0.17228366434574127, -0.10268114507198334, 0.014279738068580627, -0.05561698228120804, -0.1578889638185501, 0.11156304180622101, 0.061299845576286316, -0.07517703622579575, -0.12153814733028412, -0.14750908315181732, 0.02047485113143921, -0.039259955286979675], [0.1572883278131485, 0.06155812740325928, -0.06202621012926102, 0.04764793813228607, 0.06338869035243988, 0.13391734659671783, -0.009851068258285522, 0.031507596373558044, -0.11290078610181808, -0.10301768779754639, -0.02948644757270813, -0.002232775092124939, 0.1591426581144333, -0.13541150093078613, -0.12354623526334763, -0.1505890041589737, 0.16702021658420563, 0.12618117034435272, 0.054547205567359924, -0.13615387678146362, 0.14053140580654144, -0.0995958223938942, 0.0017476677894592285, 0.05841974914073944, -0.09689817577600479, 0.16938219964504242, -0.050362154841423035, -0.0061643123626708984, 0.04604741930961609, 0.1406709998846054, 0.08280746638774872, -0.10881355404853821, -0.021391376852989197, -0.15553109347820282, -0.15282514691352844, -0.12573672831058502, -0.14059370756149292, 0.07750256359577179, 0.13594870269298553, -0.13414308428764343, -0.12358008325099945, -0.05641502887010574, 0.010565757751464844, 0.12158985435962677, -0.00764051079750061, -0.05090302228927612, -0.0835597962141037, 0.06362268328666687, -0.10307083278894424, 0.08770163357257843, 0.009054958820343018, -0.16189636290073395, -0.10157192498445511, 0.17370183765888214, 0.02864477038383484, 0.026779934763908386, -0.14839015901088715, 0.028386443853378296, 0.08537982404232025, 0.012029215693473816, 0.07024872303009033, 0.06431563198566437, 0.11941836774349213, 0.022358611226081848], [-0.17267656326293945, -0.04754197597503662, -0.16782338917255402, -0.1540086716413498, -0.06334514915943146, -0.15710461139678955, -0.016174107789993286, 0.11629797518253326, 0.06270338594913483, 0.02904440462589264, 0.07693211734294891, 0.06349202990531921, 0.08575700223445892, -0.0683157816529274, 0.05180180072784424, 0.14299233257770538, -0.16916543245315552, -0.12564009428024292, -0.008313462138175964, -0.1434832513332367, 0.133025661110878, -0.07954319566488266, 0.046237245202064514, -0.11301744729280472, -0.002033710479736328, -0.07561781257390976, -0.12735837697982788, 0.10477529466152191, -0.10715612769126892, -0.17542049288749695, -0.05574257671833038, -0.05277438461780548, -0.022701680660247803, 0.03284865617752075, 0.09770195186138153, -0.05568218231201172, 0.00035975873470306396, -0.13865292072296143, 0.09650196135044098, -0.08961229026317596, 0.06250517070293427, 0.16873405873775482, 0.15362150967121124, 0.018916428089141846, 0.13189180195331573, -0.13591936230659485, 0.11768989264965057, 0.05477556586265564, -0.10617043823003769, 0.11787967383861542, -0.06580964475870132, -0.10859700292348862, 0.10278473794460297, -0.10484138131141663, 0.14739419519901276, 0.16664980351924896, 0.019414022564888, 0.13980327546596527, -0.17513270676136017, 0.032517269253730774, -0.022037237882614136, 0.03293392062187195, -0.05672215670347214, 0.06936131417751312], [0.0321786105632782, 0.12516047060489655, 0.04199837148189545, 0.03895270824432373, 0.13910673558712006, -0.147155299782753, -0.13819369673728943, 0.08508671820163727, -0.03942061960697174, -0.15279172360897064, 0.016725510358810425, 0.07666106522083282, 0.05997753143310547, -0.10402335226535797, -0.04694885015487671, 0.08899219334125519, -0.163008451461792, -0.03828349709510803, -0.09441378712654114, 0.047855302691459656, -0.07555972784757614, -0.09251675754785538, -0.07693278789520264, 0.06319211423397064, -0.15461701154708862, -0.11780469119548798, -0.04898901283740997, -0.10886172205209732, -0.04057186841964722, 0.12719155848026276, 0.11849893629550934, 0.1638273149728775, 0.0951930433511734, 0.08593569695949554, 0.13590197265148163, 0.09860782325267792, 0.008098393678665161, -0.0008529722690582275, -0.16457602381706238, -0.07019983232021332, 0.007767915725708008, -0.07965737581253052, -0.17304100096225739, 0.00954398512840271, 0.1012057512998581, -0.06847003847360611, 0.1735219806432724, -0.02916094660758972, 0.012400820851325989, -0.07461602240800858, -0.011063680052757263, -0.04989323019981384, 0.05969919264316559, -0.13824401795864105, 0.09751878678798676, -0.17065604031085968, -0.17115949094295502, 0.046688586473464966, -0.130329430103302, -0.018032491207122803, -0.17627358436584473, 0.08035410940647125, -0.038405641913414, -0.1322188675403595], [0.11278976500034332, 0.11059816181659698, -0.15387965738773346, -0.08975120633840561, -0.15582026541233063, 0.11997635662555695, 0.11489762365818024, 0.12307645380496979, -0.14235615730285645, -0.009422138333320618, 0.1301688402891159, 0.08625279366970062, 0.13900060951709747, -0.14431321620941162, 0.05913923680782318, 0.10891182720661163, -0.15434888005256653, -0.14846964180469513, 0.02194325625896454, -0.03734426200389862, 0.0830676406621933, 0.07218186557292938, -0.06838283687829971, 0.13089154660701752, 0.021399974822998047, 0.08699624240398407, 0.12208066880702972, -0.0194208025932312, 0.17224781215190887, 0.04322698712348938, 0.04371151328086853, 0.020442351698875427, 0.03012445569038391, -0.13156765699386597, 0.06096541881561279, -0.1713157743215561, 0.06530565023422241, -0.11386366933584213, -0.0018728375434875488, -0.10303639620542526, -0.04534617066383362, 0.16123579442501068, 0.02742178738117218, 0.05892626941204071, -0.11827290058135986, 0.07815922796726227, 0.038801565766334534, 0.08320347964763641, -0.08134505897760391, -0.1475684642791748, 0.09043465554714203, 0.15801648795604706, 0.1380261927843094, -0.0023623257875442505, 0.0827549546957016, -0.1456526815891266, 0.10822652280330658, -0.14809222519397736, 0.01140110194683075, 0.07036824524402618, -0.0030468404293060303, 0.13922928273677826, -0.17304547131061554, -0.08551915735006332], [-0.16698884963989258, -0.08485736697912216, 0.09609954059123993, 0.04079641401767731, 0.023854151368141174, 0.13081739842891693, -0.09486521780490875, 0.016802474856376648, 0.08276967704296112, -0.11766856163740158, -0.07782723009586334, -0.008907139301300049, -0.11929332464933395, 0.15478424727916718, -0.06586810201406479, -0.13211911916732788, -0.05218580365180969, -0.07553494721651077, -0.10792480409145355, 0.14623261988162994, -0.15970633924007416, -0.12525655329227448, 0.17258445918560028, -0.07941258698701859, -0.02283567190170288, -0.1438927948474884, 0.051879480481147766, 0.08353345096111298, 0.009179115295410156, -0.16658887267112732, -0.11423839628696442, -0.0547923743724823, 0.028095051646232605, -0.029929697513580322, 0.13443036377429962, 0.037179216742515564, 0.1370619684457779, 0.04823458194732666, 0.025996729731559753, -0.06582056730985641, 0.0783194750547409, 0.09290961921215057, -0.002364903688430786, 0.01000182330608368, -0.03678956627845764, 0.16953839361667633, 0.09936921298503876, -0.033593907952308655, 0.15242315828800201, -0.018582254648208618, -0.12133663892745972, 0.1653890460729599, 0.030667811632156372, 0.13239236176013947, 0.16196860373020172, -0.11112530529499054, 0.15235184133052826, 0.16438476741313934, 0.08578033745288849, -0.02696812152862549, 0.09009720385074615, -0.11329161375761032, 0.084688201546669, 0.028022974729537964], [-0.11674246937036514, -0.061285436153411865, 0.12560196220874786, 0.08086545765399933, 0.15593571960926056, -0.07238923758268356, -0.09277739375829697, 0.0310601145029068, 0.08014373481273651, 0.062086865305900574, 0.04394108057022095, 0.03487512469291687, -0.01687374711036682, -0.04581168293952942, 0.1243257075548172, -0.0741698145866394, 0.11780576407909393, -0.08597978204488754, 0.12609221041202545, -0.0373501181602478, -0.04055500030517578, 0.09942807257175446, 0.002900168299674988, 0.13458727300167084, -0.04853883385658264, 0.08768133819103241, 0.08236096799373627, -0.045258715748786926, -0.07294333726167679, -0.05356539785861969, -0.06062697619199753, -0.11896824836730957, 0.12365357577800751, -0.10561047494411469, -0.020784303545951843, 0.17239274084568024, -0.050057172775268555, 0.0922350138425827, 0.16988955438137054, 0.09212251007556915, 0.07808496057987213, -0.036161527037620544, 0.09092114865779877, -0.06671201437711716, 0.10283146798610687, 0.042619988322257996, 0.04862600564956665, -0.1457195281982422, -0.026520907878875732, -0.07536467164754868, -0.1495048999786377, -0.03584374487400055, -0.004676997661590576, 0.02551785111427307, -0.0948868840932846, 0.1696445196866989, -0.15266308188438416, -0.06002427637577057, 0.028170987963676453, -0.15194398164749146, 0.10712756216526031, 0.10574428737163544, -0.13612326979637146, -0.08807093650102615], [-0.043829649686813354, 0.033243194222450256, 0.1717863231897354, -0.07545718550682068, -0.05863882601261139, 0.11213763058185577, 0.06090717017650604, 0.020358696579933167, -0.032905638217926025, -0.08165041357278824, 0.06364697217941284, 0.01593698561191559, -0.04778331518173218, -0.12566091120243073, -0.09048780798912048, -0.006030663847923279, 0.13262151181697845, 0.036458536982536316, 0.1154487282037735, -0.12550213932991028, 0.039153069257736206, -0.09900850802659988, 0.12195749580860138, 0.05980013310909271, 0.11815132200717926, 0.0475238561630249, 0.03163488209247589, 0.09530051052570343, -0.10110995173454285, -0.026170283555984497, 0.13554708659648895, 0.044148147106170654, -0.1538492739200592, -0.10864816606044769, 0.14321793615818024, 0.006076142191886902, 0.07527516782283783, -0.035840198397636414, -0.08993450552225113, 0.013239547610282898, -0.07923826575279236, 0.16929472982883453, -0.16792112588882446, -0.1437179297208786, 0.04223927855491638, -0.0011691153049468994, 0.07172524929046631, 0.09611032903194427, -0.06123405694961548, 0.021521449089050293, 0.1137281209230423, 0.0031924545764923096, 0.01801036298274994, -0.03355585038661957, 0.06880755722522736, -0.03485135734081268, 0.13081659376621246, -0.03352782130241394, -0.11072170734405518, 0.12738929688930511, -0.13864639401435852, 0.01038464903831482, -0.0025283843278884888, -0.026994839310646057], [0.008783578872680664, 0.1566007286310196, -0.06461209058761597, -0.0032581686973571777, -0.07579023391008377, -0.08958590775728226, 0.005646750330924988, 0.06664799153804779, 0.002370670437812805, 0.08944208920001984, 0.034497737884521484, 0.02516651153564453, -0.030466824769973755, 0.00722464919090271, -0.14586412906646729, -0.09958259016275406, 0.13958774507045746, -0.04335351288318634, 0.0033739805221557617, 0.017305701971054077, 0.10256300866603851, 0.15304051339626312, 0.06842860579490662, -0.17351073026657104, 0.007403343915939331, 0.067425936460495, -0.0037874430418014526, -0.09976188093423843, 0.06895582377910614, -0.12924785912036896, 0.11129118502140045, 0.14092855155467987, 0.027490362524986267, 0.0969601422548294, -0.15713045001029968, -0.11732662469148636, 0.09931625425815582, -0.07539957016706467, -0.12944266200065613, 0.1606854349374771, 0.14494545757770538, 0.16574381291866302, 0.13705532252788544, -0.0847649797797203, 0.007231593132019043, -0.10166658461093903, 0.009670376777648926, 0.04548092186450958, -0.025922581553459167, 0.01667514443397522, 0.0744514912366867, 0.10869373381137848, 0.02893756330013275, 0.11080734431743622, 0.04353626072406769, 0.11190368235111237, -0.09062626212835312, -0.15017853677272797, -0.07564284652471542, -0.011409953236579895, 0.11373017728328705, 0.13908632099628448, 0.1587875634431839, 0.04751931130886078], [0.04454176127910614, -0.14053677022457123, -0.030884280800819397, -0.004816830158233643, 0.09507788717746735, -0.03764067590236664, 0.020215898752212524, 0.1663774996995926, -0.02001473307609558, 0.15159766376018524, 0.011119052767753601, 0.07057982683181763, -0.12011952698230743, 0.07015262544155121, -0.09661950170993805, 0.16725490987300873, -0.1396377682685852, -0.16265955567359924, -0.1400916576385498, 0.01951436698436737, 0.013259395956993103, -0.01286347210407257, -0.061816275119781494, -0.1740960329771042, 0.15622366964817047, -0.1361725926399231, 0.005862414836883545, 0.020507097244262695, 0.1321251541376114, 0.10698668658733368, -0.16648198664188385, -0.03605751693248749, -0.05709309130907059, -0.01072084903717041, 0.051391974091529846, -0.08651673048734665, -0.08061014860868454, 0.03740882873535156, 0.10797099769115448, 0.07211793959140778, 0.08573533594608307, 0.04829986393451691, -0.1594090312719345, 0.014567166566848755, -0.01819850504398346, 0.05073864758014679, -0.16896270215511322, 0.10723735392093658, 0.161589577794075, 0.13719038665294647, 0.08291275799274445, 0.09201504290103912, -0.03025519847869873, 0.15623001754283905, 0.10053952038288116, -0.13281062245368958, 0.007225111126899719, 0.09407956898212433, 0.08236737549304962, 0.08150796592235565, 0.113276407122612, 0.1101943701505661, -0.101405568420887, 0.024644821882247925], [0.15969382226467133, -0.12340331077575684, 0.06796179711818695, 0.023259878158569336, 0.1699468046426773, 0.08860485255718231, 0.14608286321163177, 0.17414213716983795, -0.1004595011472702, -0.06366977095603943, 0.1672639697790146, 0.08010576665401459, 0.048801958560943604, -0.05922672897577286, -0.05754262953996658, 0.004944458603858948, 0.016517773270606995, -0.13908274471759796, -0.042105332016944885, 0.13888351619243622, -0.15379948914051056, 0.17236365377902985, 0.15333907306194305, -0.06176181882619858, 0.17232118546962738, 0.07342858612537384, 0.08602012693881989, -0.0021695494651794434, -0.10717901587486267, 0.003913164138793945, -0.09516551345586777, 0.043277472257614136, 0.0857599526643753, -0.07228568196296692, 0.136411651968956, -0.11608881503343582, 0.021948352456092834, -0.16547982394695282, 0.17065073549747467, 0.16094304621219635, -0.11800889670848846, -0.07463482022285461, 0.12863869965076447, -0.11287031322717667, -0.11516432464122772, -0.13018879294395447, -0.04306282103061676, 0.07713671028614044, -0.1639184057712555, 0.1335517317056656, 0.1583666056394577, 0.06539012491703033, 0.15971054136753082, -0.01627272367477417, -0.04342091083526611, -0.15829125046730042, 0.12366558611392975, 0.028546392917633057, -0.05874065309762955, 0.05430793762207031, 0.038991525769233704, -0.14737370610237122, 0.13143672049045563, 0.052910178899765015], [-0.024004444479942322, 0.16506396234035492, 0.11765538156032562, 0.05649249255657196, -0.16445747017860413, 0.010075166821479797, -0.04412205517292023, 0.07955406606197357, -0.00998985767364502, -0.1669786423444748, -0.14072461426258087, 0.0831688791513443, -0.009391069412231445, -0.0026390254497528076, -0.02492615580558777, -0.10519646853208542, 0.027858853340148926, -0.04958218336105347, 0.030038058757781982, -0.1738201379776001, -0.16693802177906036, 0.013249486684799194, -0.1676006019115448, 0.10513375699520111, 0.008974239230155945, -0.008023113012313843, 0.0177956223487854, -0.0946745052933693, 0.010272324085235596, -0.021635621786117554, 0.05624973773956299, 0.02026386559009552, -0.14071151614189148, -0.14144474267959595, -0.09703687578439713, -0.14142215251922607, 0.14431987702846527, 0.06277962028980255, 0.09364043176174164, -0.16301923990249634, 0.14238663017749786, 0.0522741824388504, -0.07410823553800583, 0.035786256194114685, -0.020637542009353638, 0.08616362512111664, 0.17444352805614471, -0.07956621050834656, -0.15694867074489594, -0.030645817518234253, -0.01234881579875946, 0.06914417445659637, 0.11404089629650116, -0.08796519041061401, -0.05707167834043503, -0.11422474682331085, 0.050510674715042114, -0.07257240265607834, -0.06699039041996002, -0.08137372136116028, -0.16232065856456757, 0.07274040579795837, 0.02132643759250641, -0.14856253564357758], [-0.1674700379371643, -0.13621865212917328, 0.09047625958919525, -0.08108033239841461, -0.17309217154979706, -0.08982757478952408, -0.14708925783634186, 0.030922725796699524, 0.052579671144485474, 0.1222134381532669, -0.10732825100421906, 0.14983586966991425, -0.07973580807447433, 0.022368013858795166, 0.15059225261211395, 0.047633096575737, 0.134987011551857, -0.15269486606121063, -0.15310892462730408, -0.1445639431476593, 0.14900390803813934, 0.083451047539711, 0.015425994992256165, -0.16564512252807617, -0.17392338812351227, 0.09337516129016876, 0.02240079641342163, 0.1500721424818039, -0.09305021166801453, -0.09694887697696686, 0.012438550591468811, 0.044087618589401245, 0.057567745447158813, -0.018712744116783142, 0.06747913360595703, -0.15537773072719574, 0.002920776605606079, -0.08398564159870148, 0.1619541198015213, -0.16005265712738037, -0.12527665495872498, 0.16682450473308563, 0.10292486846446991, 0.05096198618412018, 0.10950194299221039, 0.04827284812927246, 0.01857861876487732, -0.10648329555988312, -0.0857950896024704, 0.07727636396884918, -0.13287712633609772, 0.03460437059402466, -0.040077224373817444, 0.0021584630012512207, -0.10687214136123657, 0.1571374386548996, 0.09632109105587006, 0.08758987486362457, 0.11318819224834442, 0.014349952340126038, -0.09894107282161713, -0.11749980598688126, 0.13707999885082245, -0.10684230178594589], [-0.10076025873422623, 0.08615081012248993, 0.11641789972782135, 0.1195731908082962, 0.09689889848232269, 0.04991169273853302, -0.032645851373672485, 0.08380387723445892, 0.040758952498435974, 0.0036448240280151367, 0.1699811965227127, -0.06602969765663147, -0.13278132677078247, 0.15107505023479462, -0.15395450592041016, -0.012720122933387756, -0.13301688432693481, -0.12077435851097107, -0.1227940022945404, 0.12841661274433136, 0.07791350781917572, -0.00429864227771759, -0.08220253884792328, 0.0952676385641098, -0.08964461833238602, 0.13846828043460846, 0.11611400544643402, 0.0016850680112838745, 0.1486106663942337, 0.10081566870212555, 0.04969757795333862, -0.02913181483745575, -0.09405890852212906, -0.12698356807231903, -0.08990415930747986, 0.053334563970565796, -0.15391384065151215, -0.00354669988155365, -0.10442623496055603, -0.004530578851699829, 0.1665588766336441, -0.0674598217010498, -0.16742119193077087, 0.10210241377353668, -0.034509286284446716, 0.16532443463802338, -0.1654442846775055, -0.03533579409122467, -0.04045027494430542, 0.10168315470218658, 0.052699074149131775, -0.13261577486991882, 0.08938027918338776, -0.0921381488442421, 0.09349451959133148, 0.1070542186498642, 0.1649855226278305, 0.09152184426784515, 0.12752549350261688, -0.012143775820732117, -0.08424379676580429, 0.08441998064517975, -0.17193356156349182, 0.11839862167835236], [0.07529933750629425, -0.015128061175346375, 0.16923846304416656, -0.003144189715385437, 0.035829126834869385, -0.1613481193780899, -0.044097110629081726, 0.1031753271818161, -0.13394668698310852, 0.08149336278438568, 0.17366500198841095, -0.11916498839855194, 0.1047317236661911, 0.08249638974666595, -0.026630058884620667, -0.15418978035449982, 0.05644714832305908, -0.10599784553050995, -0.1381162405014038, 0.00842440128326416, -0.14775040745735168, 0.14527781307697296, -0.001746147871017456, 0.14032910764217377, 0.11248095333576202, -0.06410809606313705, -0.031881555914878845, 0.006208151578903198, 0.16640831530094147, 0.07639901340007782, -0.17372049391269684, -0.1452924907207489, -0.09933177381753922, -0.1184476912021637, 0.03288751840591431, -0.08803945779800415, -0.14955024421215057, 0.005164593458175659, -0.10076826810836792, 0.008284255862236023, -0.16770222783088684, -0.0842251256108284, 0.1393803507089615, 0.0018412619829177856, -0.11464810371398926, 0.09379242360591888, 0.10992588102817535, 0.03820894658565521, 0.005859300494194031, 0.03318777680397034, 0.04216425120830536, -0.01041761040687561, 0.06717820465564728, -0.0827208161354065, -0.13141897320747375, -0.156864196062088, 0.04137420654296875, 0.10950000584125519, 0.08836980164051056, -0.08430419117212296, 0.06368881464004517, -0.07715777307748795, -0.1316790133714676, 0.0072106122970581055], [-0.009329453110694885, -0.06014961749315262, 0.06350691616535187, 0.12746475636959076, -0.08560872077941895, -0.1284683495759964, 0.1420099288225174, 0.10850773751735687, -0.005743354558944702, -0.15308161079883575, 0.049785539507865906, -0.0875149816274643, 0.17151401937007904, 0.14587514102458954, -0.04828612506389618, 0.12395067512989044, 0.03693050146102905, -0.07513918727636337, -0.17670419812202454, 0.08544732630252838, -0.12724824249744415, 0.022548437118530273, -0.050606608390808105, -0.174003005027771, -0.14304551482200623, -0.12851698696613312, -0.12234184145927429, 0.08212877810001373, -0.09359828382730484, 0.14889748394489288, -0.026094257831573486, -0.03566622734069824, -0.027362316846847534, 0.07985170185565948, 0.11689718067646027, 0.11584736406803131, 0.1615399271249771, -0.09502246975898743, 0.12272392213344574, -0.011533021926879883, -0.1532730758190155, 0.05362284183502197, 0.09903021156787872, 0.0974603146314621, -0.012692898511886597, -0.06618622690439224, -0.014167368412017822, 0.05016233026981354, -0.09177931398153305, -0.11670778691768646, -0.15278123319149017, -0.0138779878616333, 0.06257909536361694, 0.07294127345085144, 0.01765388250350952, 0.014996781945228577, -0.06660795211791992, 0.06650975346565247, 0.12289001047611237, 0.1228950172662735, -0.0700283795595169, 0.06157578527927399, -0.14285653829574585, 0.13898150622844696], [-0.08803713321685791, -0.02770097553730011, -0.1372750699520111, 0.07681284844875336, -0.10611240565776825, 0.09005005657672882, 0.03440055251121521, 0.09001906216144562, -0.03836590051651001, -0.0855003148317337, -0.10291939973831177, -0.10066062211990356, -0.08648958802223206, 0.11466120183467865, -0.07550907135009766, 0.007284119725227356, -0.07661610096693039, -0.16374897956848145, 0.02462366223335266, -0.1499897539615631, -0.022322654724121094, 0.12037603557109833, -0.13228896260261536, -0.11820846796035767, 0.13744314014911652, -0.05186258256435394, -0.02524520456790924, 0.12292920053005219, -0.052417486906051636, 0.024530306458473206, -0.005745038390159607, -0.01888364553451538, -0.13513459265232086, 0.13301853835582733, -0.0326785147190094, 0.12491752207279205, 0.1757015734910965, -0.002109318971633911, -0.005398288369178772, -0.17115303874015808, 0.13121114671230316, 0.005030900239944458, -0.14791664481163025, 0.1135922521352768, -0.15035773813724518, 0.09419356286525726, -0.10276438295841217, 0.00555574893951416, 0.06698516011238098, -0.009354233741760254, 0.06324462592601776, -0.06390178948640823, -0.1443776935338974, 0.1365804523229599, -0.11355616897344589, 0.06994223594665527, -0.01861545443534851, 0.11521877348423004, -0.02813883125782013, -0.13746897876262665, 0.16575689613819122, -0.07463667541742325, 0.07323895394802094, 0.08997644484043121], [-0.0764569565653801, -0.06580201536417007, -0.02676190435886383, 0.07671995460987091, 0.06484352052211761, 0.10617335140705109, -0.12178204953670502, -0.0062826573848724365, 0.0023115873336791992, 0.11406256258487701, -0.10156218707561493, -0.02191758155822754, 0.10562606155872345, -0.11629094928503036, -0.1086675152182579, 0.11492325365543365, -0.05030083656311035, 0.05648680031299591, 0.118928924202919, 0.1384708136320114, 0.12595711648464203, 0.07897864282131195, 0.004837483167648315, 0.1539514809846878, 0.04074959456920624, 0.12679816782474518, -0.1143478974699974, 0.11919878423213959, -0.014855042099952698, -0.07734645903110504, -0.06155749410390854, 0.030692175030708313, 0.12335653603076935, 0.07349802553653717, -0.035591572523117065, -0.14952707290649414, -0.09147442132234573, 0.0982719212770462, 0.14977623522281647, 0.05697499215602875, -0.1188192144036293, 0.1491914540529251, -0.16315028071403503, 0.1549404114484787, 0.09411774575710297, 0.0781986266374588, 0.15789009630680084, 0.14133907854557037, -0.15168233215808868, -0.0008552819490432739, -0.0008180737495422363, -0.15494020283222198, -0.16081218421459198, -0.11630633473396301, 0.03951731324195862, -0.13235513865947723, -0.08616484701633453, 0.09299300611019135, 0.03087092936038971, -0.08041715621948242, -0.032374054193496704, -0.11611941456794739, 0.07095514237880707, 0.1711331158876419], [-0.14093610644340515, 0.16759394109249115, -0.0315733402967453, -0.07217061519622803, -0.042515456676483154, 0.14614711701869965, -0.048160359263420105, 0.1114431768655777, -0.0613531693816185, -0.039421334862709045, -0.09007055312395096, -0.09412980079650879, -0.0731859803199768, -0.02638670802116394, -0.059065476059913635, -0.08032026141881943, -0.03141520917415619, 0.06756936013698578, 0.09416346251964569, -0.17617619037628174, 0.005964875221252441, 0.036726757884025574, -0.018371522426605225, -0.11998820304870605, -0.08817432075738907, 0.08757756650447845, -0.05183152109384537, -0.00507684051990509, -0.05334868282079697, -0.05777599662542343, 0.06289161741733551, -0.007173389196395874, -0.09055440127849579, -0.1637042611837387, 0.07832299172878265, -0.0051257312297821045, -0.09014679491519928, -0.08541737496852875, -0.16234366595745087, -0.15145322680473328, -0.11309609562158585, -0.06302513182163239, -0.10713766515254974, -0.01310257613658905, 0.05934356153011322, 0.026660963892936707, -0.16106724739074707, -0.08839264512062073, 0.02764192223548889, 0.1617807298898697, 0.17236833274364471, -0.00440409779548645, -0.0130644291639328, -0.17448988556861877, -0.026196792721748352, 0.05588710308074951, -0.12866875529289246, 0.11163009703159332, 0.042603716254234314, -0.09532815963029861, 0.06889872252941132, 0.01746991276741028, 0.1398134082555771, 0.08416174352169037], [0.1597634106874466, -0.08366764336824417, -0.11176151037216187, 0.03537170588970184, -0.04422640800476074, 0.16985444724559784, -0.1379922330379486, 0.10218773782253265, -0.09499292820692062, -0.05887307971715927, 0.16938595473766327, -0.17187345027923584, 0.010347217321395874, -0.023847490549087524, -0.1512821912765503, -0.096186563372612, -0.03230433166027069, -0.06507658958435059, 0.08946497738361359, 0.04942531883716583, 0.08887986838817596, -0.0405644029378891, -0.04462170600891113, -0.015606805682182312, -0.10438868403434753, 0.027322575449943542, 0.05596250295639038, 0.054277896881103516, -0.11243248730897903, -0.10193813592195511, -0.0264415442943573, -0.05533645302057266, -0.032063424587249756, 0.03445702791213989, -0.15135551989078522, 0.16583152115345, 0.05933648347854614, 0.059700459241867065, -0.17392605543136597, -0.13767166435718536, -0.08717864751815796, 0.17442457377910614, -0.15317201614379883, -0.0435640811920166, -0.026591673493385315, 0.06243397295475006, -0.033234089612960815, -0.16757452487945557, 0.07431407272815704, 0.14454711973667145, -0.118077851831913, -0.010249316692352295, -0.006729200482368469, 0.13053153455257416, 0.1352483481168747, -0.16491425037384033, 0.11833082139492035, 0.09691466391086578, -0.011392086744308472, 0.12439052760601044, 0.08786703646183014, -0.14523251354694366, -0.011621817946434021, 0.13462869822978973], [0.016398966312408447, 0.16696150600910187, 0.02426975965499878, -0.060609906911849976, -0.11817234754562378, -0.05466551333665848, 0.0782242864370346, -0.11048424988985062, -0.07993941754102707, 0.11178179085254669, -0.1372424066066742, 0.12069950997829437, -0.04367901384830475, -0.13413158059120178, 0.014211952686309814, 0.16992737352848053, -0.02531149983406067, 0.14200742542743683, -0.034886837005615234, 0.14931975305080414, 0.1442326158285141, 0.015080809593200684, -0.1730034500360489, 0.15794230997562408, -0.07065969705581665, -0.11485909670591354, 0.13984383642673492, 0.05600671470165253, 0.13492123782634735, 0.16595126688480377, -0.0979510024189949, -0.09261225908994675, -0.02947939932346344, -0.15091964602470398, -0.061117567121982574, -0.11584946513175964, -0.017328932881355286, 0.1742178350687027, 0.13455642759799957, -0.1321779489517212, -0.0956040546298027, 0.09862430393695831, -0.07180216908454895, 0.15789000689983368, -0.048648297786712646, 0.17420007288455963, 0.16670085489749908, -0.10284028947353363, 0.009292542934417725, -0.13470271229743958, -0.043163299560546875, 0.01327216625213623, 0.07863922417163849, 0.1079699844121933, 0.14727140963077545, 0.08599092066287994, -0.13675269484519958, 0.0026892274618148804, -0.1043161004781723, 0.035286515951156616, 0.17310400307178497, 0.1368204802274704, 0.007798343896865845, 0.14900995790958405], [0.15339063107967377, 0.09988309442996979, 0.04711276292800903, 0.028392896056175232, 0.11972908675670624, 0.04969778656959534, -0.06956779956817627, 0.0974896103143692, 0.09031952917575836, -0.07110244780778885, -0.13761433959007263, -0.043734773993492126, -0.10090583562850952, -0.13522833585739136, 0.039226233959198, 0.061907485127449036, -0.07045815140008926, -0.14239582419395447, 0.09589262306690216, -0.014063134789466858, 0.05119214951992035, -0.17621996998786926, -0.17657598853111267, -0.09148529917001724, 0.07546885311603546, -0.03446643054485321, -0.16884011030197144, 0.09019799530506134, 0.10814808309078217, 0.026185885071754456, 0.07016560435295105, 0.046532824635505676, -0.10494008660316467, -0.12692852318286896, 0.15278635919094086, 0.0704992413520813, 0.15937413275241852, -0.04401896893978119, 0.032672107219696045, 0.12034021317958832, 0.1427767127752304, 0.061950474977493286, 0.012683257460594177, 0.1456819325685501, 0.13234670460224152, 0.13649137318134308, -0.03804701566696167, 0.14526794850826263, -0.02115480601787567, 0.07017268240451813, 0.06408773362636566, -0.07754463702440262, -0.17151053249835968, 0.07789699733257294, 0.05935598909854889, 0.04500550031661987, 0.09945045411586761, 0.09029261767864227, -0.042561694979667664, 0.10072802007198334, 0.05244159698486328, 0.12541820108890533, -0.17553319036960602, 0.10892592370510101], [0.0967177301645279, 0.008719176054000854, -0.137854665517807, -0.15451961755752563, 0.14118684828281403, 0.02737314999103546, -0.13088253140449524, -0.12307722866535187, 0.025336697697639465, 0.08567239344120026, 0.052751705050468445, -0.1286720484495163, -0.025553420186042786, 0.14748091995716095, -0.00792500376701355, -0.08603081852197647, -0.08747927844524384, 0.016927942633628845, -0.03307528793811798, -0.04192562401294708, 0.13999314606189728, 0.16955600678920746, -0.11619114875793457, -0.1499873548746109, -0.15045277774333954, 0.13703085482120514, 0.00207480788230896, -0.11779731512069702, -0.03560207784175873, -0.08268710225820541, 0.04644371569156647, -0.0016443580389022827, -0.12296730279922485, -0.06594666838645935, 0.00704135000705719, -0.10199692845344543, -0.1753031611442566, 0.08988763391971588, 0.02091941237449646, -0.028615057468414307, 0.11569423973560333, -0.10665487498044968, 0.021171241998672485, -0.16989466547966003, -0.15894870460033417, 0.17590118944644928, 0.04129606485366821, 0.1625368744134903, 0.09962613880634308, -0.09052873402833939, -0.12402886152267456, 0.0927077978849411, 0.10786138474941254, 0.03400138020515442, -0.03306420147418976, 0.1277371495962143, 0.16320578753948212, -0.06299149990081787, -0.008981823921203613, -0.04676517844200134, 0.05548505485057831, 0.10857503116130829, -0.07459498941898346, -0.14046621322631836], [0.12399236857891083, 0.09264449775218964, -0.09951018542051315, -0.0012279003858566284, -0.08473897725343704, -0.12366867065429688, -0.04265585541725159, -0.08422339707612991, 0.15356026589870453, -0.0504579097032547, -0.10780126601457596, 0.10519511997699738, 0.14422167837619781, 0.013858050107955933, -0.07499904930591583, 0.1665179282426834, -0.11738954484462738, 0.15173493325710297, 0.0017769485712051392, 0.05773654580116272, -0.13206660747528076, -0.025416314601898193, 0.09186302125453949, 0.13293509185314178, -0.14170019328594208, 0.12701348960399628, 0.16911448538303375, 0.07184047996997833, 0.08840523660182953, -0.0759117379784584, -0.014070719480514526, -0.11441171169281006, -0.12365004420280457, 0.037679702043533325, 0.06804102659225464, 0.1367313414812088, -0.13714036345481873, -0.0656290054321289, 0.132417693734169, -0.0755956843495369, 0.11138097941875458, 0.021212473511695862, 0.0661596804857254, -0.00383073091506958, -0.049427419900894165, -0.12248606979846954, -0.08645620942115784, -0.042873039841651917, -0.10399620980024338, 0.15977342426776886, -0.12831911444664001, 0.07546423375606537, -0.1692643165588379, 0.02826540172100067, -0.059171222150325775, 0.10100151598453522, -0.11363034695386887, -0.09603092074394226, -0.05016671121120453, 0.08604966104030609, 0.12040288746356964, 0.13934718072414398, -0.12214657664299011, -0.07324237376451492], [0.09843696653842926, -0.1483752727508545, 0.13064275681972504, 0.01915346086025238, -0.04627196490764618, -0.03656648099422455, 0.07139527797698975, 0.074302539229393, -0.055266864597797394, 0.014833331108093262, -0.1007714718580246, 0.1611984521150589, -0.009123533964157104, 0.10272915661334991, 0.12053371965885162, 0.14702947437763214, 0.047743067145347595, -0.16496899724006653, 0.029844388365745544, -0.16451634466648102, 0.10502214729785919, -0.14246410131454468, 0.04273129999637604, -0.11104395985603333, 0.0578722208738327, 0.1042943149805069, 0.1268349438905716, 0.10850618779659271, -0.0313355028629303, -0.07454825192689896, -0.05392643064260483, 0.14380134642124176, -0.1569860577583313, -0.15629656612873077, -0.07697076350450516, -0.17298609018325806, -0.06939449161291122, 0.03649580478668213, 0.03404925763607025, 0.02831871807575226, 0.13407228887081146, -0.024919822812080383, -0.08939818292856216, -0.05957747995853424, -0.05555473268032074, 0.0321124792098999, 0.062297508120536804, 0.02689078450202942, -0.10509101301431656, -0.05482685565948486, -0.009934261441230774, -0.12621816992759705, 0.16321416199207306, 0.09574218094348907, 0.04746788740158081, -0.0764402225613594, -0.03533288836479187, -0.06337132304906845, 0.0435134619474411, 0.019858792424201965, -0.007565990090370178, 0.0032676011323928833, -0.13993950188159943, 0.031233131885528564], [0.038714706897735596, 0.02419532835483551, 0.07333232462406158, 0.12332125008106232, 0.12448097765445709, -0.11417070776224136, -0.16017083823680878, -0.029672011733055115, 0.15610717236995697, -0.09271442145109177, 0.044760286808013916, 0.03301720321178436, -0.003273412585258484, -0.05526387691497803, -0.06656888127326965, 0.0768422931432724, -0.061433203518390656, -0.11941373348236084, -0.0649297907948494, -0.008111417293548584, 0.1076718419790268, -0.07898517698049545, 0.15887199342250824, -0.06217204034328461, 0.1720573753118515, 0.10431025922298431, 0.13819240033626556, 0.035027652978897095, -0.027591392397880554, 0.14571042358875275, 0.08928881585597992, -0.04430164396762848, -0.10752879083156586, 0.06823553144931793, 0.025882035493850708, -0.03947962820529938, 0.012660622596740723, -0.010858416557312012, 0.16336973011493683, 0.10224594175815582, -0.12713457643985748, 0.01655156910419464, 0.08795304596424103, 0.1279827505350113, -0.14351215958595276, 0.005122825503349304, 0.02628973126411438, -0.13610553741455078, -0.1031704694032669, -0.006279662251472473, 0.10000647604465485, 0.12638525664806366, -0.16919367015361786, -0.009713545441627502, -0.08701477944850922, -0.011240899562835693, 0.14036859571933746, -0.10540968924760818, -0.15269166231155396, 0.06438091397285461, -0.15804658830165863, -0.17385464906692505, -0.15988849103450775, 0.16323091089725494], [0.017758622765541077, -0.11235430836677551, -0.1405060887336731, 0.14957739412784576, -0.1335527002811432, 0.1124950498342514, 0.05700601637363434, -0.003969267010688782, -0.027388036251068115, 0.17091308534145355, 0.04514138400554657, 0.15756793320178986, -0.15550976991653442, -0.11635303497314453, 0.14415483176708221, -0.11585207283496857, -0.04448877274990082, -0.023250684142112732, 0.1265961080789566, 0.17627264559268951, 0.13695482909679413, 0.008425489068031311, -0.08388592302799225, 0.036407873034477234, -0.08351212739944458, -0.1714479774236679, -0.09912150353193283, -0.14487797021865845, -0.1269274204969406, -0.019735261797904968, 0.02503897249698639, -0.020810097455978394, -0.08914130181074142, 0.05784836411476135, -0.06810631603002548, -0.1597045660018921, -0.09226004034280777, 0.009286642074584961, 0.03200353682041168, 0.023231685161590576, 0.0204494446516037, -0.16868099570274353, 0.16275937855243683, -0.05047127604484558, -0.07366084307432175, -0.1258665919303894, 0.06631343066692352, 0.07639794051647186, 0.17221422493457794, -0.03215062618255615, 0.08459116518497467, -0.15696564316749573, 0.06597591936588287, 0.02843339741230011, -0.1753513216972351, 0.07537256181240082, -0.15794581174850464, 0.04318796098232269, 0.043056800961494446, -0.16437384486198425, -0.0619613453745842, 0.04880338907241821, 0.1386374682188034, -0.05593898147344589], [-0.004071682691574097, -0.16992394626140594, -0.14166752994060516, 0.08107252418994904, -0.025143370032310486, -0.048918500542640686, 0.03318208456039429, 0.025347992777824402, -0.15023522078990936, 0.054860398173332214, 0.03335252404212952, 0.13258926570415497, 0.04043737053871155, -0.10324877500534058, 0.040386125445365906, -0.12121568620204926, -0.17113277316093445, -0.0008222460746765137, 0.11888860166072845, 0.09104324877262115, -0.046626925468444824, 0.1234101802110672, 0.03412710130214691, -0.015976443886756897, -0.08996130526065826, 0.08431018888950348, -0.16716012358665466, -0.02290061116218567, 0.10766910016536713, -0.010359689593315125, -0.1139545813202858, -0.1604655683040619, -0.08285029232501984, -0.07416218519210815, -0.17651116847991943, 0.1294577568769455, -0.0069473981857299805, 0.07212695479393005, 0.10046996176242828, 0.07923488318920135, -0.1441376656293869, 0.1303659826517105, 0.15279801189899445, -0.10370341688394547, 0.017075970768928528, -0.03078983724117279, 0.0953357070684433, 0.13262681663036346, -0.12214876711368561, -0.10563281178474426, -0.08198948204517365, 0.07486678659915924, 0.0702277272939682, 0.10970361530780792, -0.07881738990545273, 0.09286867082118988, -0.168488010764122, 0.012066394090652466, -0.03629003465175629, -0.12315447628498077, 0.10113726556301117, -0.0017645210027694702, 0.0961749404668808, -0.013135269284248352], [-0.06385929882526398, -0.06761492043733597, 0.016080841422080994, -0.055566154420375824, 0.02776890993118286, 0.1321382373571396, -0.051829203963279724, -0.04500073194503784, -0.06701774150133133, -0.14038503170013428, -0.009753912687301636, -0.022267743945121765, -0.1026684120297432, -0.16815610229969025, 0.11411722004413605, 0.13733799755573273, -0.07934350520372391, -0.10099737346172333, 0.12589363753795624, 0.09566886723041534, 0.12079180777072906, 0.05780516564846039, 0.07731880247592926, -0.11939363181591034, 0.08817319571971893, -0.14760592579841614, 0.015804097056388855, 0.04371096193790436, 0.10343046486377716, 0.09115342795848846, -0.12553350627422333, -0.1340957134962082, -0.15483585000038147, -0.15216264128684998, 0.03382144868373871, -0.0368368923664093, -0.03773103654384613, 0.16883744299411774, 0.05146045982837677, -0.13493119180202484, 0.05430106818675995, -0.12549570202827454, 0.13375385105609894, -0.1503981202840805, 0.16332368552684784, -0.0033113956451416016, -0.03909912705421448, 0.16875337064266205, 0.12405110895633698, -0.157326340675354, -0.03096267580986023, -0.12128804624080658, 0.08792562782764435, 0.11167405545711517, 0.11572958528995514, 0.11011500656604767, -0.1377371996641159, 0.13293276727199554, 0.020199507474899292, -0.07475337386131287, 0.039903536438941956, 0.06767885386943817, 0.07040268182754517, -0.08288577944040298], [-0.07821561396121979, 0.1410026103258133, -0.0892333909869194, -0.1722860336303711, 0.08853919804096222, -0.02269156277179718, -0.008778676390647888, -0.1676066815853119, 0.02550065517425537, 0.1372561901807785, -0.14120706915855408, -0.11388444900512695, -0.015739738941192627, -0.022774726152420044, 0.07572157680988312, 0.17111767828464508, 0.07820414006710052, -0.044501423835754395, -0.08642472326755524, -0.030677884817123413, 0.10120461881160736, -0.1530734747648239, 0.11978031694889069, 0.016745954751968384, 0.14789293706417084, -0.06890929490327835, 0.03419408202171326, -0.12397457659244537, 0.09676651656627655, -0.11794854700565338, 0.12091289460659027, 0.03996853530406952, 0.16757895052433014, 0.14680521190166473, 0.13086296617984772, -0.03305235505104065, -0.16326235234737396, 0.11997036635875702, -0.16457556188106537, 0.0005359351634979248, -0.06443528085947037, -0.009329169988632202, -0.027480214834213257, 0.1610877364873886, -0.15713900327682495, -0.09000324457883835, -0.1199578121304512, -0.1028728261590004, 0.16257990896701813, -0.1468767523765564, 0.028960496187210083, -0.0896788015961647, -0.018947452306747437, 0.06157127022743225, 0.1250951737165451, -0.08989231288433075, 0.11563409864902496, 0.027674421668052673, 0.05946992337703705, 0.006733879446983337, 0.10281722247600555, -0.049733832478523254, 0.10200570523738861, 0.10499246418476105], [-0.11124002933502197, 0.021143808960914612, 0.05373385548591614, 0.007334008812904358, -0.12698626518249512, -0.010177075862884521, -0.17348966002464294, -0.13646753132343292, 0.060084372758865356, 0.12425349652767181, -0.03547529876232147, -0.1461266130208969, -0.019649192690849304, -0.13929174840450287, 0.03746715188026428, -0.08532578498125076, -0.13266976177692413, -0.0852271243929863, 0.16234619915485382, 0.0007559508085250854, 0.11955328285694122, -0.172583669424057, -0.003353491425514221, 0.11515666544437408, 0.06548228859901428, 0.0064421892166137695, -0.11462303251028061, 0.023479580879211426, 0.017655909061431885, 0.12028397619724274, -0.12397845089435577, -0.08599980175495148, -0.08365778625011444, 0.10531507432460785, 0.033149972558021545, 0.0003360360860824585, -0.04156289994716644, 0.05142669379711151, 0.17622773349285126, 0.05674402415752411, 0.02989758551120758, -0.1350318044424057, -0.07530668377876282, 0.11715354025363922, 0.07333217561244965, -0.02614752948284149, -0.16886931657791138, 0.05468595027923584, -0.11098837107419968, -0.12685324251651764, 0.06358429789543152, 0.14337237179279327, -0.131011500954628, 0.03238378465175629, 0.07660765945911407, -0.027238458395004272, -0.16866368055343628, -0.09063894301652908, -0.047604069113731384, 0.09099151194095612, 0.001813247799873352, 0.12786810100078583, 0.0046832263469696045, 0.08923853933811188], [0.13238100707530975, -0.17259134352207184, 0.1753709763288498, 0.05173934996128082, 0.1167757660150528, -0.14040164649486542, -0.038311272859573364, -0.06849254667758942, -0.1007237583398819, -0.12961997091770172, 0.05660364031791687, 0.09619317948818207, 0.07812334597110748, -0.06069453805685043, -0.15683040022850037, 0.05948096513748169, -0.03331927955150604, -0.13344337046146393, -0.019761905074119568, 0.05063775181770325, 0.16102920472621918, -0.03397431969642639, -0.048628225922584534, 0.08893902599811554, -0.011597007513046265, 0.12203757464885712, -0.06275707483291626, 0.07631690800189972, 0.113740935921669, 0.08190871775150299, -0.06213676184415817, 0.09678463637828827, -0.05725880712270737, 0.06851458549499512, 0.12003730237483978, 0.15289847552776337, -0.10181181877851486, -0.0614342987537384, 0.16010309755802155, -0.12802353501319885, 0.05831021070480347, -0.13255250453948975, -0.15646368265151978, -0.1259036362171173, 0.0988374799489975, -0.167725071310997, 0.007873699069023132, 0.12702827155590057, -0.037388548254966736, 0.017192453145980835, 0.031685203313827515, 0.043645039200782776, -0.11100350320339203, -0.054322272539138794, 0.010209441184997559, 0.16717369854450226, -0.019148409366607666, -0.062312304973602295, -0.1165846735239029, 0.16290991008281708, 0.003909409046173096, 0.061827197670936584, -0.12097734212875366, -0.091584213078022], [-0.11115691810846329, 0.034007951617240906, -0.07372292876243591, 0.03995184600353241, 0.10263465344905853, -0.1200479194521904, -0.09287703037261963, 0.06818117201328278, -0.06911960989236832, 0.07949261367321014, 0.07458175718784332, -0.03385281562805176, 0.10131807625293732, -0.05197334289550781, -0.12338604032993317, 0.02736346423625946, 0.14638282358646393, 0.03251945972442627, -0.043714627623558044, -0.1144694909453392, 0.16639454662799835, -0.017517879605293274, -0.004567831754684448, -0.021584078669548035, 0.1503622978925705, -0.04200056195259094, 0.13795675337314606, -0.13005653023719788, -0.04200102388858795, 0.056818887591362, -0.154627725481987, 0.11717928946018219, -0.15183760225772858, 0.12780459225177765, -0.022197484970092773, -0.13417592644691467, -0.06587488949298859, -0.11257005482912064, -0.13782469928264618, 0.16607694327831268, 0.10089702904224396, -0.13266482949256897, 0.06073938310146332, -0.1487014889717102, -0.17147478461265564, 0.040542617440223694, -0.145582377910614, -0.04359084367752075, 0.09031791985034943, 0.0015346556901931763, 0.08889941871166229, 0.09326951205730438, 0.14326177537441254, -0.08574160933494568, -0.045008450746536255, 0.02806238830089569, 0.16035501658916473, -0.07389239966869354, 0.11589236557483673, 0.07950673997402191, -0.14317229390144348, -0.07031986862421036, 0.15708567202091217, -0.12939444184303284], [0.11580739915370941, 0.08832429349422455, 0.12910257279872894, -0.17592743039131165, -0.05215752124786377, -0.11355123668909073, 0.043492212891578674, 0.050482526421546936, -0.14296476542949677, -0.06694187968969345, -0.03733700513839722, 0.051221445202827454, -0.08905359357595444, 0.05020637810230255, -0.17374220490455627, -0.1042938083410263, 0.154081329703331, -0.08822574466466904, 0.1462068110704422, -0.01493026316165924, 0.09602640569210052, 0.016375571489334106, 0.09055544435977936, 0.13014103472232819, -0.03188072144985199, -0.09076028317213058, -0.16731898486614227, -0.15952228009700775, 0.03783762454986572, -0.02116374671459198, -0.034539222717285156, 0.061649709939956665, 0.16662360727787018, 0.071067214012146, 0.17520369589328766, -0.05275065451860428, -0.05501765012741089, -0.05807056277990341, 0.12823419272899628, 0.020123019814491272, -0.039884746074676514, -0.09133145958185196, -0.11250481754541397, -0.15196168422698975, 0.07512997090816498, 0.13459761440753937, 0.174036905169487, 0.0627250075340271, 0.006250843405723572, 0.10741643607616425, 0.009172379970550537, 0.17666052281856537, -0.04991362988948822, -0.1392979472875595, 0.016142025589942932, 0.015023455023765564, -0.16065645217895508, 0.042128220200538635, -0.13131579756736755, -0.07568296790122986, 0.1669928878545761, -0.05675932765007019, -0.16695234179496765, -0.1625581979751587], [-0.13802805542945862, -0.06383603811264038, 0.07497180998325348, 0.06285561621189117, -0.13960309326648712, -0.12378065288066864, 0.12078221142292023, 0.1481284648180008, 0.09260527789592743, 0.07339392602443695, -0.03556056320667267, -0.10793445259332657, -0.15880616009235382, 0.0348379909992218, -0.05647838115692139, 0.08934776484966278, -0.08519243448972702, -0.10371112823486328, 0.03466072678565979, 0.037721097469329834, 0.07431657612323761, 0.1422908753156662, -0.10079220682382584, -0.09435401856899261, -0.09884249418973923, 0.05880555510520935, 0.06681151688098907, -0.02185221016407013, -0.13548681139945984, -0.07658183574676514, -0.16263078153133392, 0.009692594408988953, 0.16158051788806915, -0.09099791198968887, 0.07995523512363434, 0.1250089854001999, 0.11303628981113434, -0.11849573254585266, -0.007921203970909119, 0.1675904542207718, 0.05600637197494507, 0.0002605915069580078, -0.04196847975254059, 0.1655966192483902, -0.08140107244253159, 0.035487011075019836, -0.07464767247438431, 0.16050384938716888, -0.175012469291687, 0.01066732406616211, -0.02096417546272278, -0.07729997485876083, -0.15241454541683197, -0.09242516756057739, 0.0626550018787384, -0.05052420496940613, 0.0669286847114563, -0.03084048628807068, -0.08799410611391068, 0.15548478066921234, 0.0712648332118988, 0.00854279100894928, -0.02541269361972809, -0.0021086037158966064], [0.05838616192340851, -0.14971309900283813, 0.0012926459312438965, 0.04315440356731415, 0.011371254920959473, 0.024081945419311523, -0.07838495820760727, 0.17347650229930878, -0.12634550034999847, -0.068885438144207, -0.027120232582092285, 0.03781925141811371, -0.10117115080356598, -0.11698839068412781, -0.07025403529405594, 0.15799854695796967, -0.16275161504745483, -0.06185336410999298, -0.0829881951212883, -0.04030865430831909, 0.05205881595611572, -0.1564948707818985, -0.06886782497167587, 0.03677552938461304, 0.12470819056034088, -0.15001335740089417, -0.10276265442371368, -0.08393401652574539, -0.008759751915931702, 0.06965246796607971, 0.139507457613945, 0.08917151391506195, -0.13006821274757385, 0.08541251718997955, 0.12506069242954254, 0.11197544634342194, -0.08765558153390884, 0.0011841505765914917, -0.12369538843631744, 0.11433161795139313, 0.1036415845155716, 0.145528182387352, 0.03407539427280426, 0.06718666851520538, -0.0025234967470169067, -0.08626262843608856, 0.015375718474388123, -0.1124894767999649, -0.0599118247628212, 0.12501652538776398, 0.0295848548412323, 0.0492083877325058, -0.16645632684230804, 0.12309606373310089, 0.08042626082897186, 0.13139228522777557, -0.14548644423484802, -0.04186096787452698, -0.12985599040985107, -0.05934710055589676, 0.17580009996891022, 0.07773144543170929, 0.011902481317520142, -0.0023808330297470093], [-0.06778839975595474, -0.15140143036842346, 0.09361489117145538, 0.09288595616817474, 0.0546402633190155, -0.004048630595207214, 0.13831259310245514, 0.045342132449150085, -0.004185393452644348, -0.1048007532954216, -0.12993961572647095, 0.03901888430118561, -0.11952964216470718, -0.03985641896724701, 0.07963903248310089, -0.0670037493109703, 0.13301916420459747, -0.006619587540626526, -0.16650079190731049, -0.12847968935966492, 0.047240763902664185, 0.14880187809467316, -0.1264716386795044, 0.1759539395570755, -0.13647785782814026, -0.05947919189929962, 0.13587237894535065, -0.11532013863325119, -0.1767154484987259, -0.12478809058666229, 0.13289259374141693, -0.031069979071617126, 0.13396240770816803, 0.16471759974956512, 0.16282974183559418, 0.012293562293052673, -0.14070656895637512, -0.013873651623725891, -0.05602209270000458, -0.038453564047813416, -0.1697276383638382, 0.13186503946781158, 0.03358560800552368, -0.003759831190109253, -0.07099100947380066, 0.17270173132419586, 0.1606692224740982, -0.08525358885526657, -0.030739128589630127, -0.03843666613101959, -0.07353980094194412, 0.1636289805173874, -0.15162290632724762, -0.09565248340368271, -0.06440885365009308, 0.0853717178106308, -0.02637667953968048, -0.030992984771728516, -0.14538533985614777, 0.16441227495670319, -0.07607409358024597, -0.02361348271369934, 0.16466812789440155, 0.13700135052204132], [0.05453215539455414, 0.029116645455360413, 0.11364872753620148, -0.07726006209850311, -0.10740681737661362, -0.0033049434423446655, -0.16422539949417114, 0.1177382618188858, 0.08118288218975067, -0.15173088014125824, -0.15084563195705414, -0.005292296409606934, 0.014453500509262085, -0.11703605949878693, 0.030803829431533813, 0.08172987401485443, -0.020713701844215393, 0.019881010055541992, -0.10348816961050034, 0.13652391731739044, -0.12554171681404114, 0.02875553071498871, -0.15685851871967316, 0.1753864735364914, 0.01661783456802368, -0.07071714103221893, -0.11303354799747467, 0.08979524672031403, 0.02011445164680481, 0.008417561650276184, -0.07488053292036057, 0.06422387063503265, 0.04934696853160858, 0.09960807859897614, 0.04845188558101654, 0.08121277391910553, -0.10230986773967743, -0.16218233108520508, 0.03214965760707855, 0.01104871928691864, 0.10967676341533661, -0.11184361577033997, -0.02803000807762146, 0.08773376047611237, 0.07953198254108429, 0.08823321759700775, 0.1211375743150711, -0.02180255949497223, -0.015269637107849121, -0.15008585155010223, 0.07704152166843414, -0.14807865023612976, -0.15037214756011963, -0.070194773375988, 0.07136768102645874, 0.15296046435832977, 0.02436240017414093, -0.12055372446775436, 0.004685595631599426, -0.045197442173957825, -0.06932469457387924, 0.1741294115781784, 0.10928688943386078, -0.048724785447120667], [-0.047362133860588074, 0.07741789519786835, -0.07962576299905777, 0.125894233584404, 0.07225613296031952, -0.11979272216558456, 0.04267473518848419, -0.14792586863040924, -0.030894950032234192, -0.08791474252939224, 0.03164106607437134, -0.04220589995384216, -0.01913323998451233, 0.017611101269721985, -0.162324458360672, 0.16403447091579437, 0.14817006886005402, 0.007601648569107056, -0.14497575163841248, -0.03698351979255676, 0.15663529932498932, 0.053051337599754333, 0.06053854525089264, -0.03537537157535553, -0.03726460039615631, -0.044123366475105286, -0.08258160948753357, 0.008905917406082153, -0.03923711180686951, 0.06161443889141083, 0.002917364239692688, 0.10201214253902435, -0.1623269021511078, -0.12111406773328781, 0.14567898213863373, 0.05639256536960602, -0.12741072475910187, 0.13268359005451202, 0.06591218709945679, 0.004444301128387451, -0.05105315148830414, -0.037204161286354065, 0.09983731806278229, -0.004096373915672302, 0.16978760063648224, 0.008203849196434021, 0.02404966950416565, 0.08728320896625519, -0.11630073189735413, -0.04645872116088867, 0.05090534687042236, 0.006739571690559387, 0.009192436933517456, 0.013562306761741638, -0.1560976803302765, 0.005226209759712219, -0.08397321403026581, 0.1436440497636795, -0.163802370429039, 0.07180073857307434, 0.08789856731891632, -0.006096243858337402, 0.17375202476978302, 0.15527205169200897], [-0.04506091773509979, -0.033149078488349915, 0.048256710171699524, 0.0310792475938797, -0.016278207302093506, 0.12420208752155304, 0.13868029415607452, 0.13129489123821259, -0.09496764093637466, 0.020725414156913757, 0.11320553719997406, -0.011849254369735718, -0.15370917320251465, -0.027175650000572205, -0.1073358803987503, 0.04189985990524292, -0.10019245743751526, 0.024289608001708984, 0.0644342303276062, 0.12206743657588959, -0.07158199697732925, 0.1363307684659958, -0.0694747343659401, 0.08105234801769257, 0.12337027490139008, 0.021062001585960388, 0.14776121079921722, -0.028843864798545837, -0.06610189378261566, 0.1343124657869339, -0.08785227686166763, -0.06149343401193619, -0.09456943720579147, -0.0807892307639122, 0.12534211575984955, -0.13642370700836182, -0.08099444210529327, 0.05635674297809601, -0.1533697247505188, 0.054499998688697815, 0.060060858726501465, 0.15729860961437225, 0.11522315442562103, 0.10655923187732697, 0.13829831779003143, -0.1658635288476944, -0.09967708587646484, -0.10816381871700287, 0.08378155529499054, 0.0741444081068039, -0.16220390796661377, -0.04503913223743439, 0.16920404136180878, -0.11604350805282593, -0.13673660159111023, -0.0626552477478981, -0.11925265192985535, 0.1287815421819687, -0.08404979109764099, 0.03422345221042633, -0.14347195625305176, -0.11424611508846283, -0.12834545969963074, 0.11278386414051056], [0.045289695262908936, -0.11139917373657227, 0.14830680191516876, -0.004934549331665039, -0.0903349369764328, -0.13976088166236877, -0.03131408989429474, 0.1677675098180771, -0.01125548779964447, -0.15466216206550598, -0.015383347868919373, -0.08067365735769272, 0.12886019051074982, 0.1419481784105301, 0.09201903641223907, -0.15560118854045868, -0.019216597080230713, 0.12532897293567657, -0.11672177910804749, -0.1527073085308075, 0.12192319333553314, -0.08354057371616364, 0.018638387322425842, -0.16738587617874146, -0.12782961130142212, -0.0918918028473854, -0.14009898900985718, 0.16264359652996063, -0.12294383347034454, -0.048537999391555786, 0.10266853868961334, -0.0029850900173187256, 0.12482605874538422, 0.04913453757762909, -0.10656961053609848, 0.150117889046669, -0.1554146111011505, 0.10828940570354462, -0.10250530391931534, 0.04161326587200165, 0.07311761379241943, 0.13681666553020477, -0.07627803832292557, -0.14797808229923248, -0.00931580364704132, -0.17005687952041626, 0.00743575394153595, 0.0781710296869278, -0.07471759617328644, -0.05364994704723358, 0.04681077599525452, -0.06406497955322266, 0.16990773379802704, -0.07451950758695602, 0.049520865082740784, -0.17508766055107117, 0.07774855196475983, -0.13339969515800476, -0.014846950769424438, 0.01702973246574402, 0.08562527596950531, -0.12334839999675751, 0.061457559466362, -0.11999304592609406], [0.007893726229667664, 0.0415748655796051, 0.02893216907978058, 0.1293172389268875, -0.0790354534983635, -0.010936945676803589, -0.13427147269248962, 0.16189570724964142, -0.1759931892156601, 0.11715380847454071, 0.12499208748340607, -0.1219690591096878, 0.051468461751937866, 0.041839808225631714, -0.1435849964618683, 0.07929264008998871, 0.04295429587364197, -0.1512126475572586, 