{"id": "ea0c1936-ff0b-4d38-b55b-6ea8f1dd7387", "population_size": 50, "crossover_prob": 0.5, "mutation_prob": 0.005, "fitness_rounds": 1000, "tournament_size": 5, "generational_best_individuals": [{"non_splittable_weights": [[[-0.03539830446243286, 0.20401689410209656, -0.2792235314846039, -0.3647925555706024, 0.36502406001091003, -0.23398733139038086, -0.1637314260005951, 0.30918440222740173, -0.10402277112007141, 0.12082675099372864, -0.263612300157547, -0.0033040642738342285, -0.25000929832458496, -0.19746971130371094, -0.3655146658420563, 0.2829453647136688, -0.18628880381584167, -0.06280010938644409, 0.28468629717826843, 0.30711326003074646, 0.2843349874019623, 0.3105323612689972, 0.28540822863578796, 0.342851847410202, 0.35600486397743225, -0.16271308064460754, 0.2983401119709015, 0.27183660864830017, -0.09501031041145325, -0.013796746730804443, 0.02744385600090027, -0.07536402344703674], [0.3964625895023346, 0.25015148520469666, -0.2987440526485443, -0.09714353084564209, -0.0321941077709198, -0.1745063215494156, -0.2815978229045868, -0.0702984631061554, 0.01637488603591919, 0.12756124138832092, -0.22345852851867676, -0.3740063011646271, -0.40740659832954407, -0.156683087348938, 0.17497751116752625, 0.3243963420391083, 0.24531778693199158, -0.19968843460083008, 0.15229114890098572, 0.36659225821495056, -0.0669589638710022, 0.2752355635166168, 0.3574273884296417, -0.24096143245697021, -0.07694640755653381, -0.09185123443603516, 0.13359549641609192, 0.3999357521533966, 0.06651592254638672, -0.19327138364315033, -0.3243178725242615, 0.36909541487693787], [0.3228287398815155, -0.25288596749305725, 0.00762176513671875, -0.24709536135196686, -0.08646160364151001, -0.11312514543533325, -0.25849631428718567, -0.24685044586658478, -0.3201334476470947, 0.2730065882205963, 0.39719000458717346, -0.3606242537498474, 0.1094612181186676, 0.16673114895820618, -0.03613826632499695, 0.10700532793998718, -0.10463646054267883, -0.3834281265735626, -0.1919483095407486, 0.032624900341033936, -0.11367970705032349, -0.2380760908126831, -0.33857759833335876, -0.37175294756889343, 0.24102017283439636, 0.020816951990127563, -0.29080790281295776, 0.25627514719963074, -0.06667259335517883, -0.4110856056213379, -0.3172145485877991, 0.19752439856529236]], [[0.37119683623313904, 0.28411683440208435, -0.13306719064712524, -0.008073031902313232, -0.15476198494434357, 0.3675570785999298, -0.2671257257461548, 0.1510849893093109, 0.19667354226112366, 0.36999276280403137], [0.36998996138572693, -0.013676285743713379, 0.12029328942298889, 0.1462654173374176, -0.024210423231124878, 0.3502410352230072, 0.20889946818351746, 0.13159403204917908, -0.35300952196121216, 0.37776628136634827], [-0.37260863184928894, -0.1170693039894104, 0.07924991846084595, 0.09402677416801453, -0.22928668558597565, 0.2899946868419647, -0.22464962303638458, 0.004284292459487915, 0.11593925952911377, -0.12065935134887695], [-0.15003903210163116, 0.2808631956577301, 0.2357725203037262, -0.20102250576019287, -0.1764054149389267, 0.10124504566192627, 0.16268512606620789, -0.013685405254364014, 0.1558680236339569, 0.16859564185142517], [0.2775716483592987, 0.09376156330108643, 0.213222473859787, 0.32712438702583313, -0.13668480515480042, -0.13674761354923248, -0.2533230185508728, -0.1632177233695984, 0.1010202169418335, 0.18874439597129822], [-0.03477013111114502, 0.05929303169250488, 0.17789599299430847, -0.20648087561130524, 0.28813663125038147, -0.21128159761428833, 0.12653180956840515, 0.20601943135261536, 0.29330405592918396, 0.289840430021286], [0.15984275937080383, -0.33382439613342285, -0.17434190213680267, 0.1981508433818817, 0.3184678256511688, -0.0507773756980896, 0.19485321640968323, -0.2783687710762024, -0.1310683786869049, 0.22399339079856873], [-0.23162135481834412, 0.217533141374588, 0.07972517609596252, 0.30063697695732117, -0.2005012035369873, -0.13506673276424408, -0.020890086889266968, 0.2539900243282318, -0.005632638931274414, -0.27916401624679565], [-0.34285569190979004, -0.16120918095111847, -0.08731192350387573, 0.2793748676776886, 0.37588444352149963, -0.22931930422782898, 0.3231412470340729, 0.0682918131351471, 0.27801135182380676, -0.13733848929405212], [0.19799277186393738, 0.017060518264770508, 0.2621993124485016, 0.017211109399795532, 0.30105480551719666, 0.2656806409358978, -0.20845653116703033, 0.33678123354911804, -0.0010066628456115723, -0.08194565773010254], [-0.19796045124530792, 0.07075902819633484, -0.020339131355285645, -0.15104173123836517, -0.07844546437263489, -0.063314288854599, 0.24668875336647034, 0.043563246726989746, 0.3104355037212372, 0.24536451697349548], [-0.1127939522266388, -0.09648993611335754, 0.2779037654399872, 0.37372562289237976, -0.07974013686180115, -0.2124260514974594, -0.3280346989631653, -0.17514634132385254, 0.2749830186367035, 0.1763131320476532], [-0.14622992277145386, 0.1212092936038971, 0.3589520752429962, 0.18489286303520203, 0.08546531200408936, 0.16970714926719666, 0.012533485889434814, -0.2324741929769516, 0.13366761803627014, 0.09413373470306396], [0.3760659396648407, 0.09046447277069092, -0.10345509648323059, 0.19219711422920227, 0.26324227452278137, 0.12478819489479065, 0.32860395312309265, 0.2570647895336151, -0.08793866634368896, -0.03692546486854553], [0.15956422686576843, 0.24917253851890564, 0.14360246062278748, -0.24869970977306366, -0.3036222457885742, -0.3193189799785614, -0.026508480310440063, -0.21149615943431854, -0.32487592101097107, -0.11253577470779419], [0.20022961497306824, 0.22040608525276184, 0.250590056180954, -0.16397133469581604, -0.07816323637962341, -0.14876185357570648, 0.33978500962257385, 0.20959511399269104, -0.29179707169532776, 0.14234158396720886], [-0.10975566506385803, -0.07171738147735596, 0.18832442164421082, 0.3502073585987091, -0.10002121329307556, -0.0484541654586792, -0.32643112540245056, -0.0745614767074585, 0.18344643712043762, -0.28248488903045654], [0.11509525775909424, 0.09940394759178162, -0.20987780392169952, -0.3003297448158264, 0.005589395761489868, 0.21759435534477234, -0.20077776908874512, 0.1532708704471588, 0.06973886489868164, 0.06980282068252563], [0.349454790353775, 0.34021231532096863, 0.29157212376594543, -0.11928141117095947, -0.33796945214271545, 0.31627628207206726, -0.2613595128059387, 0.2024364173412323, 0.20135369896888733, 0.31771185994148254], [-0.2173602283000946, -0.2412337064743042, -0.3509168326854706, 0.2721957862377167, -0.1522226780653, 0.24447527527809143, 0.15675488114356995, 0.04964295029640198, -0.37325042486190796, 0.3224058449268341], [0.06646817922592163, -0.06122860312461853, 0.30264291167259216, -0.172651007771492, 0.2045515477657318, 0.32088515162467957, 0.20239350199699402, 0.2100847065448761, 0.03398674726486206, -0.12578770518302917], [-0.14724478125572205, -0.07459941506385803, 0.2351038157939911, -0.11466002464294434, -0.09063488245010376, -0.2663995921611786, -0.34023311734199524, -0.22088250517845154, -0.18542733788490295, -0.21407116949558258], [0.27503177523612976, -0.037390708923339844, 0.15538504719734192, 0.1404232680797577, 0.1709115207195282, -0.19809526205062866, 0.16725632548332214, -0.16981665790081024, -0.35102379322052, 0.2060851752758026], [-0.2520187795162201, 0.011044710874557495, 0.0674532949924469, 0.14643773436546326, -0.014735668897628784, -0.3149915337562561, -0.07012030482292175, 0.08973139524459839, 0.34579530358314514, -0.05928322672843933], [-0.10015431046485901, -0.23953469097614288, 0.22505727410316467, 0.15608933568000793, 0.027956992387771606, 0.3771468698978424, 0.3473046123981476, -0.16023315489292145, 0.05120849609375, 0.3435700237751007], [0.27181562781333923, -0.24425755441188812, 0.21605566143989563, -0.29650038480758667, 0.32629939913749695, -0.1344800889492035, 0.33074429631233215, 0.23394349217414856, -0.024110376834869385, 0.28130581974983215], [0.09658807516098022, 0.0019414126873016357, 0.13913241028785706, -0.16579262912273407, 0.19805368781089783, 0.19628867506980896, 0.15371105074882507, 0.3463100492954254, -0.3189411163330078, -0.29761263728141785], [0.22836986184120178, 0.007388979196548462, -0.17807404696941376, -0.26178044080734253, -0.36778098344802856, 0.13707497715950012, -0.10742440819740295, 0.12537291646003723, -0.22422274947166443, 0.14448651671409607], [0.01966795325279236, 0.0853743851184845, 0.3692660629749298, 0.3609086573123932, -0.3144073188304901, 0.12660756707191467, -0.2689548432826996, -0.08664879202842712, 0.07618018984794617, -0.2240714430809021], [0.017261028289794922, -0.18628576397895813, 0.033898890018463135, -0.28152841329574585, -0.055491238832473755, -0.34261518716812134, 0.2177482545375824, 0.10266083478927612, 0.31674787402153015, 0.21075233817100525], [-0.0514792799949646, 0.327474445104599, -0.2595338225364685, -0.3101462125778198, 0.21205082535743713, 0.3174896538257599, -0.0643080472946167, -0.1389673948287964, -0.3025777339935303, 0.1850755512714386], [-0.05062013864517212, 0.36401233077049255, -0.21195736527442932, -0.10915127396583557, 0.19572994112968445, -0.009732097387313843, -0.16386374831199646, 0.18501731753349304, 0.28906723856925964, -0.31913334131240845]], [[0.5730715990066528, -0.6383734941482544, -0.5710738301277161], [0.5071722269058228, -0.0741506814956665, -0.4850347638130188], [-0.6586002707481384, 0.6048815250396729, -0.6443181037902832], [-0.26030394434928894, -0.479445219039917, 0.14464104175567627], [0.5518834590911865, -0.3496972918510437, -0.5139654874801636], [-0.14213776588439941, -0.6701311469078064, -0.5077005624771118], [0.4570275545120239, 0.12740641832351685, 0.07857805490493774], [-0.3522823750972748, 0.21310418844223022, 0.2899329662322998], [0.037889838218688965, 0.6518670320510864, -0.4630078077316284], [0.3377230167388916, 0.3384127616882324, 0.00420612096786499]]], "splittable_weights": [[[0.027632713317871094, -0.2929351031780243, -0.14355027675628662, -0.00744396448135376, 0.3776989281177521, -0.21833711862564087, 0.35044220089912415, -0.14758089184761047, -0.04598742723464966, -0.30111321806907654, 0.32911351323127747, 0.1838979423046112, 0.2811395823955536, 0.09647402167320251, -0.3639228940010071, 0.2728138864040375, 0.357278436422348, -0.17003671824932098, 0.376815527677536, 0.38565316796302795, 0.2903270423412323, -0.11092302203178406, 0.19618305563926697, -0.19105485081672668, -0.23105551302433014, 0.12360230088233948, -0.012545853853225708, 0.3963406980037689, 0.3671567738056183, 0.3997363746166229, 0.3271268904209137, -0.05210614204406738], [-0.19766132533550262, 0.33400967717170715, -0.2800425887107849, 0.027946114540100098, -0.3282633125782013, 0.05966797471046448, -0.3625670373439789, -0.2961921989917755, 0.41189518570899963, 0.009808003902435303, 0.4125351011753082, 0.12048104405403137, -0.2232319712638855, -0.20897649228572845, 0.31391414999961853, 0.36359336972236633, -0.3157327473163605, -0.18540450930595398, 0.32532230019569397, -0.052240192890167236, 0.14366796612739563, -0.30155062675476074, -0.14823371171951294, 0.18637850880622864, -0.4084698557853699, -0.26530879735946655, 0.003113359212875366, -0.1562148928642273, -0.3510786294937134, -0.1629522442817688, 0.16359320282936096, -0.39802396297454834], [0.3581041395664215, -0.07650968432426453, -0.38808736205101013, 0.34430840611457825, -0.18760229647159576, 0.340258926153183, -0.24536292254924774, 0.03771957755088806, -0.061087995767593384, -0.13488620519638062, 0.17529156804084778, 0.13263103365898132, -0.28198546171188354, 0.36935123801231384, 0.30064108967781067, 0.12390390038490295, 0.23113784193992615, -0.37299320101737976, 0.10263237357139587, 0.14245423674583435, 0.12146690487861633, 0.3614734709262848, -0.24648797512054443, 0.3177303373813629, 0.38246169686317444, 0.24966463446617126, 0.20951899886131287, -0.4132249355316162, 0.23276349902153015, -0.22738254070281982, -0.08591631054878235, 0.30425629019737244]], [[0.11684572696685791, -0.17366234958171844, -0.013511747121810913, -0.3356781303882599, 0.19448009133338928, -0.22552524507045746, -0.2965266704559326, 0.29172030091285706, -0.3235175609588623, -0.2541201412677765], [0.08869293332099915, 0.05574104189872742, -0.3194582164287567, 0.051354020833969116, 0.18317070603370667, 0.05282053351402283, 0.358416885137558, 0.021509617567062378, 0.2840289771556854, -0.03083169460296631], [0.1387801468372345, 0.22738787531852722, 0.06652367115020752, 0.13125482201576233, -0.17621374130249023, -0.03500640392303467, -0.30271613597869873, -0.02440163493156433, -0.15716026723384857, 0.3375532329082489], [0.2371169626712799, 0.056521326303482056, -0.3711234927177429, 0.21077075600624084, 0.11369732022285461, 0.36863550543785095, 0.08738917112350464, -0.3216199278831482, 0.12770774960517883, -0.22042463719844818], [0.11607390642166138, -0.30387312173843384, -0.03420141339302063, -0.30718010663986206, -0.03592383861541748, -0.024220943450927734, -0.34068334102630615, 0.3601168692111969, -0.06459391117095947, -0.20134863257408142], [0.20177331566810608, 0.20065942406654358, 0.26757892966270447, -0.18523134291172028, -0.15255717933177948, -0.04338464140892029, -0.15922729671001434, -0.12668272852897644, 0.33789220452308655, -0.06621676683425903], [-0.001977086067199707, -0.18874217569828033, -0.09881937503814697, 0.2957132160663605, -0.32088279724121094, -0.17083917558193207, 0.3696410357952118, 0.3735845983028412, 0.08838042616844177, -0.37543994188308716], [-0.06385910511016846, -0.04886355996131897, 0.25240156054496765, 0.18921735882759094, 0.311031311750412, 0.1741807758808136, -0.14208072423934937, -0.1724783480167389, 0.2442222535610199, 0.23256757855415344], [-0.08730840682983398, 0.26552531123161316, 0.32507869601249695, 0.0024916529655456543, -0.06648167967796326, -0.28103333711624146, 0.11449268460273743, -0.10216972231864929, -0.3251888155937195, -0.3722359240055084], [0.0015613138675689697, 0.0255357027053833, -0.04939118027687073, -0.15599952638149261, 0.337397962808609, 0.23256710171699524, -0.18733693659305573, -0.23985756933689117, 0.13203898072242737, 0.17040374875068665], [0.3383033573627472, -0.06491243839263916, 0.25307175517082214, 0.3419758379459381, 0.19622358679771423, -0.34656253457069397, 0.21964910626411438, -0.3339275121688843, 0.20861682295799255, -0.10806307196617126], [-0.17524142563343048, -0.3273780345916748, -0.05866071581840515, 0.003342956304550171, -0.28218886256217957, 0.3319322168827057, 0.04627314209938049, 0.2928004562854767, 0.09386581182479858, 0.35512062907218933], [-0.09993606805801392, -0.2693992853164673, -0.19884878396987915, -0.015741169452667236, -0.14458264410495758, -0.0025226473808288574, -0.09864842891693115, -0.15003840625286102, -0.050110816955566406, -0.36506325006484985], [0.2841138541698456, 0.091759592294693, 0.10544264316558838, -0.07680907845497131, 0.10630115866661072, 0.1321556270122528, -0.17582328617572784, -0.10786309838294983, -0.15063919126987457, -0.22836393117904663], [0.2514605224132538, 0.2568545639514923, 0.20281866192817688, 0.2805764377117157, -0.08054232597351074, 0.35135385394096375, 0.10169363021850586, -0.10275617241859436, 0.37148240208625793, 0.038540929555892944], [0.1932859718799591, -0.07069143652915955, -0.20807994902133942, -0.36251312494277954, 0.3087843954563141, 0.26130709052085876, 0.0003955960273742676, 0.3301750719547272, -0.349714070558548, -0.2085401564836502], [0.33927568793296814, -0.04003942012786865, -0.09785434603691101, -0.11600470542907715, 0.1084732711315155, -0.12501272559165955, -0.15385913848876953, -0.17761078476905823, -0.1831153780221939, -0.09456229209899902], [-0.05342718958854675, 0.22682800889015198, 0.17722871899604797, -0.080577552318573, -0.015326172113418579, 0.008704900741577148, 0.32921066880226135, -0.07976365089416504, -0.0363466739654541, 0.31570324301719666], [0.023236095905303955, 0.07238838076591492, 0.16253545880317688, -0.12074917554855347, -0.24787697196006775, -0.3767835199832916, -0.1779242902994156, 0.04026228189468384, -0.1326914131641388, -0.05286109447479248], [0.1604701578617096, 0.06324571371078491, 0.29179713129997253, 0.09512984752655029, -0.21971634030342102, 0.1468210518360138, -0.2805344760417938, 0.2497355043888092, -0.29696834087371826, 0.33733657002449036], [0.07977554202079773, -0.2368960827589035, 0.22597113251686096, -0.20382991433143616, -0.21679936349391937, -0.12884193658828735, -0.011274755001068115, 0.3773420751094818, 0.2409273087978363, -0.3685072958469391], [0.021741926670074463, 0.2858118712902069, -0.37247076630592346, 0.23678210377693176, 0.3157384693622589, 0.052349239587783813, 0.01198667287826538, -0.0019730329513549805, 0.3193151652812958, -0.19805164635181427], [0.23799201846122742, -0.22693166136741638, 0.16530022025108337, -0.3440428674221039, -0.32853907346725464, -0.3186820447444916, 0.17166247963905334, -0.060608625411987305, -0.21059565246105194, 0.2646684944629669], [-0.18422701954841614, 0.2913256585597992, 0.22481372952461243, -0.34148290753364563, 0.04888257384300232, -0.30261099338531494, 0.1459333598613739, -0.09534981846809387, -0.213569775223732, -0.016134947538375854], [-0.0746505856513977, -0.3458453118801117, 0.04196688532829285, -0.020130515098571777, -0.12242764234542847, -0.06784078478813171, 0.3005930483341217, 0.09901770949363708, -0.28594598174095154, -0.20423056185245514], [0.018601924180984497, 0.0722203254699707, -0.2524639368057251, 0.21224930882453918, 0.34885546565055847, -0.1325157880783081, 0.08228567242622375, -0.3188026249408722, -0.26222550868988037, 0.10460376739501953], [-0.00302809476852417, 0.2843596041202545, 0.05252000689506531, -0.11434650421142578, 0.014818042516708374, 0.10079267621040344, 0.16183826327323914, -0.032775551080703735, -0.35974276065826416, -0.14957846701145172], [0.0872684121131897, 0.33777961134910583, 0.3410908877849579, 0.2965562641620636, 0.2677874267101288, -0.03214392066001892, 0.3197716176509857, 0.3091070353984833, -0.06171369552612305, -0.004079997539520264], [0.13058021664619446, -0.3250533640384674, 0.0006157457828521729, -0.2794162631034851, 0.3596592843532562, -0.35760965943336487, -0.029050767421722412, 0.19079867005348206, -0.3424307107925415, 0.26310208439826965], [0.11424845457077026, 0.1961401402950287, 0.2215772569179535, 0.16006329655647278, -0.19354991614818573, -0.08408099412918091, -0.2790445387363434, -0.06392309069633484, 0.1999676525592804, -0.19144955277442932], [0.025108754634857178, 0.2305372655391693, -0.19600443542003632, -0.36438971757888794, -0.15343938767910004, -0.08710882067680359, -0.1610850840806961, 0.04142323136329651, 0.25298067927360535, 0.2945704758167267], [0.13912561535835266, -0.1563127487897873, 0.2523452937602997, 0.22614577412605286, 0.006525933742523193, -0.3518678843975067, -0.35952627658843994, 0.06871992349624634, 0.1272445023059845, -0.305486261844635]], [[-0.06873553991317749, 0.5718481540679932, 0.6165792942047119, -0.3234310448169708], [0.3057103157043457, -0.6320900321006775, 0.5109831094741821, -0.27014291286468506], [0.4876817464828491, -0.5454792976379395, -0.3738366663455963, -0.036062657833099365], [-0.6062014102935791, -0.4656500816345215, 0.5327807664871216, -0.02454054355621338], [0.31949514150619507, -0.3332047164440155, -0.12204813957214355, -0.4405108094215393], [-0.27218398451805115, -0.6263390779495239, -0.3545532524585724, -0.5988415479660034], [0.3153347969055176, 0.6479827165603638, -0.07015740871429443, 0.07465177774429321], [0.5040165185928345, 0.4046980142593384, 0.2866869568824768, 0.5794168710708618], [0.2713310122489929, -0.5135800838470459, -0.004944026470184326, 0.41032874584198], [0.2873281240463257, 0.0792393684387207, 0.3804056644439697, -0.6240315437316895]]], "generation_number": 0, "fitness": -145, "average_generation_fitness": -977.86, "csv_string": "S,S,S,S,S,S,S,S,S,S\nS,S,S,S,S,S,S,S,S,S\nS,S,S,S,S,S,S,S,S,S\nS,S,S,S,S,S,S,S,S,S\nS,S,S,S,S,S,S,S,S,S\nS,S,S,S,S,S,S,S,S,S\nS,S,S,S,S,S,S,S,S,S\nS,S,S,S,S,S,S,S,S,S\nS,S,S,S,S,S,S,S,S,S\nS,S,S,S,S,S,S,S,S,S\nS,S,S,S,S,S,S,S,S,S\nS,S,S,S,S,S,S,S,S,S\nS,S,S,S,S,S,S,S,S,S\nS,S,S,S,S,S,S,S,S,S\nS,S,S,S,S,S,S,S,S,S\nS,S,S,S,S,S,S,S,S,S\nS,S,S,S,S,S,S,S,S,S\nS,S,S,S,S,S,S,S,S,S\nS,S,S,S,S,S,S,S,S,S\nS,S,S,S,S,S,S,S,S,S\nS,S,S,S,S,S,S,S,S,S\nS,S,S,S,S,S,S,S,S,S\nS,S,S,S,S,S,S,S,S,S\nS,S,S,S,S,S,S,S,S,S\nS,S,S,S,S,S,S,S,S,S\nS,S,S,S,S,S,S,S,S,S\nS,S,S,S,S,S,S,S,S,S\nS,S,S,S,S,S,S,S,S,S\nS,S,S,S,S,S,S,S,S,S\nS,S,S,S,S,S,S,S,S,S\nS,S,S,S,S,S,S,S,S,S\nS,S,S,S,S,S,S,S,S,S\nS,S,S,S,S,S,S,S,S,S\nS,S,S,S,S,S,S,S,S,S\nS,S,S,S,S,S,S,S,S,S\nS,S,S,S,S,S,S,S,S,S\nS,S,S,S,S,S,S,S,S,S"}]}