{"id": "5834afae-8559-493a-92fb-f854f7b8acd3", "population_size": 10, "crossover_prob": 0.5, "mutation_prob": 0.005, "fitness_rounds": 100, "tournament_size": 5, "generational_best_individuals": [{"non_splittable_weights": [[[-0.09892582893371582, -0.14374971389770508, 0.03311754763126373, 0.15837465226650238, -0.0954376831650734, 0.19008566439151764, 0.023405417799949646, -0.009482786059379578, -0.03526277840137482, 0.188328817486763, 0.1078559011220932, 0.21180446445941925, 0.1572311967611313, 0.08129067718982697, 0.0038073062896728516, 0.034869641065597534, 0.01726643741130829, -0.06076882779598236, -0.018606960773468018, -0.09872566163539886, 0.14499594271183014, -0.18460795283317566, -0.195152148604393, -0.06487789750099182, 0.13590697944164276, 0.08326263725757599, 0.023014262318611145, 0.20341600477695465, 0.09974788129329681, 0.07821156084537506, -0.041941553354263306, 0.17771418392658234, -0.08665262162685394, -0.08552268147468567, -0.1701229214668274, 0.17373161017894745, 0.02841511368751526, 0.11276702582836151, 0.1585402935743332, -0.035135477781295776, 0.09115095436573029, -0.13503772020339966, -0.052423447370529175, -0.10889661312103271, 0.016456007957458496, -0.05067718029022217, -0.10604213923215866, -0.05247636139392853, 0.12141050398349762, 0.09590007364749908, 0.02093587815761566, -0.20302703976631165, 0.03396230936050415, 0.05785505473613739, 0.021263092756271362, 0.03678964078426361, -0.006770312786102295, -0.08417782187461853, -0.13640761375427246, 0.15000517666339874, -0.0042032599449157715, -0.06515735387802124, -0.18196743726730347, -0.05393540859222412, -0.18412725627422333, 0.10390783846378326, -0.01836647093296051, 0.21375446021556854, -0.054248496890068054, 0.002922847867012024, -0.1738274246454239, 0.02077479660511017, -0.13468676805496216, 0.022369205951690674, 0.039273008704185486, 0.15658287703990936, 0.10443495213985443, 0.07440920174121857, -0.06048518419265747, 0.11680002510547638, 0.1772858053445816, 0.11819334328174591, 0.06338976323604584, 0.06605421006679535, -0.15670017898082733, 0.1736256629228592, -0.03709523379802704, -0.20649871230125427, 0.081862673163414, 0.13838370144367218, 0.16890554130077362, -0.21357394754886627, -0.04669852554798126, -0.04992593824863434, 0.016626745462417603, 0.17022497951984406, -0.10213788598775864, -0.17406325042247772, 0.1333601325750351, -0.18475358188152313, -0.02433595061302185, -0.10893288999795914, 0.1185801774263382, 0.16679419577121735, 0.05264376103878021, 0.11943148076534271, 0.09631131589412689, 0.14609311521053314, -0.1981712281703949, 0.03654216229915619, 0.05693407356739044, 0.1148650199174881, -0.03537723422050476, 0.03945530951023102, -0.15345731377601624, 0.1553904265165329, -0.16362988948822021, 0.12731502950191498, -0.042109161615371704, -0.05901700258255005, -0.1580604463815689, -0.0865900069475174, 0.08337275683879852, -0.21229848265647888, 0.014949411153793335, -0.13631200790405273, -0.04976271092891693, -0.16387297213077545], [-0.09450127929449081, -0.09244967997074127, -0.17593815922737122, -0.2002985030412674, -0.15959113836288452, 0.09118421375751495, 0.10330243408679962, -0.018789619207382202, 0.004353940486907959, -0.15746136009693146, 0.14292286336421967, 0.024654045701026917, -0.163609579205513, -0.07079553604125977, -0.054685160517692566, 0.18682678043842316, -0.038885071873664856, 0.0885942131280899, -0.10078200697898865, -0.16569766402244568, -0.04637002944946289, 0.1998111754655838, 0.1374138742685318, 0.02417910099029541, 0.19654278457164764, -0.20913903415203094, 0.08185486495494843, -0.02172859013080597, 0.07688446342945099, 0.07943467795848846, 0.09761817753314972, -0.061404287815093994, 0.19474415481090546, -0.014100044965744019, 0.09914176166057587, -0.0484241247177124, 0.1789156049489975, -0.09424115717411041, -0.16326087713241577, -0.1424226611852646, 0.1595112830400467, -0.02674064040184021, 0.05451051890850067, 0.16699491441249847, -0.028004571795463562, 0.16815532743930817, 0.022899404168128967, 0.0575987845659256, -0.03403925895690918, -0.027560055255889893, 0.17742617428302765, -0.06756164133548737, -0.13983632624149323, -0.16090849041938782, 0.20160304009914398, 0.20075760781764984, 0.12743081152439117, 0.15036000311374664, -0.17008261382579803, 0.18627150356769562, 0.13573862612247467, 0.1656455248594284, 0.015361487865447998, -0.11029810458421707, 0.08501167595386505, 0.2050621658563614, 0.18477435410022736, 0.034446850419044495, -0.10788744688034058, -0.05374579131603241, -0.16303423047065735, -0.2063998281955719, -0.15557095408439636, 0.15517748892307281, 0.07629434764385223, 0.15467260777950287, -0.09381897747516632, -0.021597057580947876, -0.05345945060253143, 0.12296868860721588, -0.07399503886699677, 0.050894543528556824, -0.19042237102985382, -0.040495455265045166, -0.025720298290252686, 0.1991877406835556, -0.12535043060779572, -0.15716567635536194, 0.11881871521472931, -0.18717384338378906, -0.12549400329589844, 0.009744122624397278, 0.11863701045513153, 0.1573193222284317, 0.051352277398109436, 0.005565613508224487, 0.08527259528636932, 0.19139759242534637, 0.09291763603687286, -0.12911507487297058, -0.16053463518619537, -0.1789451390504837, -0.09087919443845749, -0.07896295189857483, 0.1918536275625229, 0.10572634637355804, 0.0632750540971756, -0.12473670393228531, 0.03627745807170868, 0.017996951937675476, 0.07109273970127106, -0.1283417046070099, 0.15347357094287872, -0.18645179271697998, 0.05151642858982086, 0.18995632231235504, -0.02785298228263855, 0.10809527337551117, 0.21073810756206512, 0.09220822155475616, -0.08391626179218292, -0.13953354954719543, -0.13282135128974915, 0.18492640554904938, -0.09077449142932892, 0.1729285567998886, -0.19449490308761597, 0.05929096043109894], [0.13889636099338531, 0.06675361096858978, 0.12028573453426361, -0.13981366157531738, -0.0011921972036361694, 0.09883315861225128, 0.13098277151584625, -0.1381334364414215, 0.13145343959331512, 0.06968115270137787, 0.02416318655014038, 0.03761298954486847, 0.09488920867443085, 0.17734290659427643, 0.1516917496919632, -0.08481338620185852, 0.20962943136692047, 0.1380658596754074, -0.14754155278205872, -0.08216111361980438, 0.14565925300121307, 0.13927514851093292, 0.10472734272480011, -0.03991107642650604, -0.028286129236221313, -0.06614795327186584, -0.009400680661201477, 0.020331382751464844, -0.06706880033016205, 0.027553975582122803, -0.012585029006004333, 0.14377398788928986, -0.03999608755111694, 0.12338484823703766, -0.16130030155181885, -0.21133947372436523, 0.1811821609735489, -0.10477738827466965, 0.04209880530834198, -0.08493824303150177, -0.16002152860164642, 0.05580897629261017, 0.0026040375232696533, 0.18164639174938202, -0.0427214652299881, 0.11509783565998077, -0.1795487105846405, 0.05794931948184967, 0.2061007171869278, 0.19386838376522064, -0.021570056676864624, -0.11288617551326752, 0.1181158572435379, 0.00439801812171936, -0.003778785467147827, -0.14646759629249573, -0.09688341617584229, -0.05733084678649902, -0.12803493440151215, 0.1158888190984726, -0.0248652845621109, 0.14993266761302948, 0.1748635321855545, -0.21038086712360382, -0.14522120356559753, 0.20510007441043854, 0.19795428216457367, 0.06440193951129913, 0.06863100826740265, -0.14429286122322083, 0.12433688342571259, 0.19766618311405182, -0.05780036747455597, -0.19298309087753296, -0.17675665020942688, 0.1123209148645401, -0.04891054332256317, 0.19982890784740448, -0.1428345888853073, -0.15535548329353333, 0.00926893949508667, 0.09024833142757416, -0.09367753565311432, 0.19361631572246552, 0.15475694835186005, -0.03475391864776611, 0.1330334097146988, 0.11850066483020782, 0.18844880163669586, -0.20280462503433228, -0.0162980854511261, 0.15963666141033173, 0.21220041811466217, -0.1879185438156128, -0.06527538597583771, 0.0602734237909317, -0.15667711198329926, -0.17590248584747314, -0.05630004405975342, 0.11359955370426178, -0.08260968327522278, -0.14585724472999573, 0.0981777161359787, -0.061854586005210876, 0.10334910452365875, 0.029069915413856506, 0.07896272838115692, 0.077253058552742, 0.1178981214761734, -0.05609425902366638, 0.1652766615152359, -0.18307676911354065, -0.14618654549121857, -0.09687775373458862, -0.1420390009880066, -0.20875129103660583, 0.13976000249385834, 0.010192424058914185, 0.11507691442966461, 0.030820578336715698, 0.07019339501857758, -0.20434817671775818, -0.18894943594932556, 0.028381243348121643, -0.03864575922489166, 0.0741453617811203, 0.20963610708713531, -0.15786588191986084]], [[-0.011378005146980286, -0.022720515727996826, -0.13659203052520752, 0.1719907969236374, -0.1125185564160347, -0.11674660444259644, 0.04332207143306732, -0.08919891715049744, -0.17577435076236725, 0.10662280023097992, -0.16347919404506683, 0.1380777806043625, 0.10108856856822968, -0.07390099763870239, -0.00334911048412323, -0.03982299566268921, -0.16319453716278076, -0.1719338446855545, -0.08316630870103836, 0.04907190799713135, -0.032288700342178345, 0.14821745455265045, -0.0248805433511734, -0.17079870402812958, 0.1388387531042099, -0.054759249091148376, -0.09705765545368195, 0.1209367960691452, -0.05064079165458679, 0.10231931507587433, 0.15492697060108185, 0.007436767220497131, -0.11254291236400604, -0.13200169801712036, 0.14248745143413544, -0.07278887182474136, 0.12055177986621857, -0.011907324194908142, 0.07202576100826263, 0.0044002532958984375, -0.14941824972629547, -0.04861116409301758, 0.1001587063074112, -0.07717522233724594, 0.1158766895532608, 0.00464041531085968, 0.1339646428823471, 0.1492237001657486, 0.16352815926074982, 0.09064565598964691, 0.10107095539569855, 0.05154681205749512, -0.15596365928649902, 0.12029342353343964, 0.07329480350017548, -0.02159777283668518, -0.024568066000938416, 0.05883404612541199, -0.1732102632522583, -0.08229058235883713, 0.05911208689212799, 0.09414036571979523, -0.01083962619304657, -0.13331633806228638], [0.0309760719537735, 0.04877658188343048, -0.09892936050891876, -0.09777407348155975, 0.05286049842834473, 0.046264469623565674, 0.07372875511646271, 0.16953177750110626, -0.007953450083732605, 0.16333703696727753, 0.16403000056743622, 0.16183508932590485, -0.14083650708198547, -0.030758515000343323, -0.14920157194137573, 0.07033419609069824, -0.03253643214702606, -0.017608314752578735, 0.023803487420082092, 0.10081632435321808, -0.06206228584051132, -0.08096687495708466, 0.012109637260437012, 0.1622837334871292, -0.012368246912956238, 0.02325233817100525, 0.07975561916828156, -0.14672645926475525, -0.013495415449142456, 0.09386049211025238, -0.15812237560749054, -0.10414085537195206, 0.023292630910873413, -0.05675629526376724, -0.0887414962053299, -0.06452517956495285, -0.01077374815940857, 0.09956233203411102, 0.06916247308254242, 0.09686888754367828, -0.10875433683395386, -0.012419119477272034, -0.07342962920665741, -0.1500558853149414, -0.1264701783657074, 0.15265537798404694, -0.17546255886554718, 0.0945529192686081, 0.14776639640331268, 0.06999719142913818, 0.11281152069568634, -0.15409857034683228, 0.12991391122341156, 0.060892537236213684, 0.15067578852176666, -0.05705591291189194, -0.0525762140750885, -0.171565443277359, 0.013399332761764526, 0.1106528788805008, 0.1651696115732193, -0.11349357664585114, 0.021575182676315308, -0.008309885859489441], [-0.1594473421573639, 0.12578849494457245, 0.15285514295101166, -0.08596225082874298, 0.12644247710704803, 0.15885989367961884, 0.025671809911727905, -0.009754419326782227, -0.17048197984695435, -0.08568369597196579, -0.1706976443529129, -0.0902007445693016, -0.1294117271900177, 0.0777934342622757, -0.09033919870853424, -0.0317891389131546, 0.15133504569530487, -0.12655961513519287, -0.09432561695575714, -0.027708858251571655, -0.07841362059116364, -0.17140646278858185, 0.14165879786014557, -0.16510501503944397, 0.08789177238941193, -0.1460346132516861, 0.01320628821849823, 0.04035337269306183, -0.09922918677330017, 0.010764390230178833, -0.008317336440086365, -0.0034932196140289307, -0.046807318925857544, 0.14129777252674103, -0.06259540468454361, -0.05135437846183777, -0.08615848422050476, 0.1704784780740738, 0.06260143220424652, -0.1743771880865097, 0.15890346467494965, 0.04297743737697601, 0.07626260817050934, 0.026403695344924927, 0.10088850557804108, -0.07012051343917847, -0.0032111257314682007, -0.03133070468902588, -0.055565521121025085, -0.15537115931510925, 0.024216994643211365, -0.05697035789489746, -0.08923115581274033, -0.0075929611921310425, 0.0232706218957901, 0.0028106868267059326, 0.0724857896566391, 0.16525621712207794, 0.10277010500431061, -0.12615622580051422, 0.0732399970293045, 0.08215413987636566, 0.16921715438365936, -0.08812800794839859], [-0.14734812080860138, 0.057660266757011414, -0.029230445623397827, -0.14038428664207458, -0.0739104375243187, 0.06981123983860016, 0.05247826874256134, -0.02219414710998535, 0.07739000022411346, 0.17654044926166534, 0.15919797122478485, -0.17097900807857513, -0.14856822788715363, -0.07881776988506317, 0.09193138778209686, -0.09756796807050705, 0.049726784229278564, -0.17340005934238434, -0.14776511490345, -0.0035018622875213623, 0.03404432535171509, -0.15658190846443176, -0.09571687877178192, -0.043147504329681396, -0.024054884910583496, -0.04894348978996277, 0.028876110911369324, 0.08493362367153168, 0.17666222155094147, 0.08096392452716827, 0.0072332024574279785, 0.001846998929977417, 0.06068892776966095, 0.019206658005714417, -0.10713669657707214, -0.12003873288631439, 0.1644466370344162, -0.12427195906639099, 0.07270188629627228, -0.023960858583450317, -0.15697504580020905, -0.03655894100666046, 0.06122162938117981, 0.08599574863910675, 0.1402140110731125, 0.1613462120294571, 0.1615227907896042, 0.1438247710466385, -0.08183404803276062, 0.17244930565357208, -0.1423649787902832, 0.019303470849990845, -0.09281865507364273, 0.03204154968261719, 0.026041865348815918, 0.14091022312641144, 0.16775904595851898, -0.0055974870920181274, 0.08728046715259552, -0.13646478950977325, 0.16347725689411163, -0.1398211568593979, -0.09952868521213531, 0.10801781713962555], [-0.11904904246330261, 0.17419160902500153, 0.12679584324359894, 0.08823446929454803, 0.05971163511276245, -0.09119991958141327, 0.03933177888393402, -0.09408676624298096, 0.10971502959728241, -0.029112517833709717, 0.09602518379688263, 0.10692326724529266, 0.11056478321552277, 0.1685371845960617, 0.050765037536621094, -0.026071950793266296, -0.03076702356338501, 0.08479158580303192, -0.14856578409671783, 0.08454088866710663, -0.09715215116739273, -0.13075527548789978, -0.020663246512413025, -0.15400108695030212, 0.09448416531085968, -0.10941798239946365, 0.05619414150714874, 0.015640154480934143, -0.14228548109531403, -0.15338948369026184, 0.025776714086532593, -0.1598040759563446, -0.014058127999305725, 0.0190650075674057, -0.09841170907020569, -0.003060668706893921, -0.10105068981647491, -0.10052803158760071, 0.12814240157604218, 0.0078563392162323, -0.14455416798591614, -0.03559233248233795, 0.0823851078748703, 0.047566890716552734, -0.06372038275003433, 0.021285638213157654, 0.05378223955631256, -0.15854543447494507, -0.00706326961517334, -0.13721530139446259, -0.07483594119548798, 0.09100355207920074, 0.013975515961647034, 0.02300986647605896, 0.03538943827152252, -0.11172758787870407, -0.16305233538150787, -0.04462377727031708, -0.126743882894516, 0.04635816812515259, -0.11771260201931, 0.16882582008838654, -0.05872371047735214, -0.020152002573013306], [0.11840684711933136, 0.17345501482486725, 0.08869783580303192, -0.11583706736564636, -0.03334498405456543, 0.1452653557062149, 0.08440829813480377, 0.07442139089107513, -0.07085441797971725, 0.0399337112903595, -0.05191580951213837, 0.04317164421081543, 0.14202286303043365, 0.00894811749458313, -0.019233375787734985, 0.125496044754982, -0.15896770358085632, 0.000272899866104126, 0.0627916008234024, 0.09239034354686737, -0.08441874384880066, -0.0180385559797287, 0.10849322378635406, -0.10324506461620331, 0.03163541853427887, 0.10768337547779083, -0.10114523023366928, -0.05349910259246826, 0.11419053375720978, 0.10709531605243683, 0.11388896405696869, 0.10398875176906586, -0.10045246034860611, 0.0416439026594162, 0.024290025234222412, -0.0075957030057907104, -0.030870705842971802, -0.053474485874176025, 0.010199412703514099, -0.10932694375514984, 0.1187797337770462, -0.11289707571268082, 0.0016320496797561646, 0.13383956253528595, -0.03046998381614685, 0.07404224574565887, 0.1483386904001236, 0.08074776828289032, -0.12167137861251831, -0.1605606973171234, 0.1476239413022995, -0.17211027443408966, 0.08671687543392181, 0.04867994785308838, -0.14304295182228088, -0.06012749671936035, 0.06777462363243103, 0.10687302052974701, -0.05315648764371872, -0.04608345031738281, -0.06726784259080887, 0.024469450116157532, -0.1292000263929367, -0.13694830238819122], [-0.14654235541820526, -0.07241831719875336, -0.13931670784950256, 0.1720724254846573, 0.03141823410987854, 0.10482709109783173, -0.07523098587989807, 0.15455631911754608, -0.16201083362102509, 0.15879036486148834, -0.05869745463132858, 0.17327071726322174, -0.16975048184394836, -0.16763702034950256, -0.07998114824295044, -0.1465962678194046, 0.005181401968002319, -0.016165629029273987, 0.05578923225402832, 0.17149026691913605, -0.0896015465259552, -0.03562349081039429, 0.07427658140659332, 0.16371376812458038, -0.13475093245506287, 0.04637366533279419, 0.13288693130016327, 0.06108742952346802, -0.03129495680332184, -0.0760926753282547, 0.01926077902317047, 0.06527593731880188, 0.03911598026752472, 0.08865909278392792, 0.0012504607439041138, 0.030620649456977844, -0.033865541219711304, -0.13932757079601288, -0.14806246757507324, 0.09746922552585602, -0.11083073914051056, 0.0758308619260788, -0.15371908247470856, 0.11932657659053802, 0.01753164827823639, 0.013671338558197021, -0.12359234690666199, -0.05663116276264191, -0.11402007937431335, 0.14364959299564362, 0.03133006393909454, 0.14975111186504364, -0.026182711124420166, 0.05126063525676727, -0.06684806197881699, 0.10013647377490997, -0.13681107759475708, -0.09504009038209915, 0.12198995053768158, 0.09177295863628387, -0.11828293651342392, -0.12444332987070084, -0.14273838698863983, 0.12847508490085602], [-0.03888982534408569, -0.11757136881351471, -0.14515197277069092, -0.15303684771060944, 0.10579200088977814, -0.13209092617034912, -0.00850743055343628, -0.09890061616897583, -0.12484823167324066, -0.03875790536403656, -0.0367579460144043, -0.16296786069869995, 0.09764699637889862, 0.08645807206630707, -0.07312457263469696, 0.08983407914638519, -0.011042818427085876, 0.15524105727672577, 0.1717781275510788, 0.17545698583126068, -0.0029864907264709473, 0.1315907984972, 0.021946117281913757, -0.0012612491846084595, 0.011162206530570984, -0.11371257156133652, -0.060585714876651764, -0.138534277677536, 0.03593751788139343, -0.1365189105272293, -0.11008697748184204, -0.0660603791475296, 0.12384425103664398, 0.173551544547081, 0.15325327217578888, 0.12761922180652618, 0.030244499444961548, -0.036320462822914124, -0.06951629370450974, 0.16032136976718903, 0.05506084859371185, 0.07220163941383362, 0.054294079542160034, 0.16748811304569244, 0.16950370371341705, 0.14939631521701813, 0.09294404089450836, 0.10103826224803925, -0.06559208780527115, -0.02928030490875244, 0.10068376362323761, 0.01251356303691864, 0.17311201989650726, -0.0934445783495903, -0.1488257497549057, 0.06436434388160706, 0.031616538763046265, -0.15081165730953217, -0.07768717408180237, -0.03413461148738861, 0.023661702871322632, 0.14493189752101898, 0.020405903458595276, -0.07869212329387665], [-0.1241014301776886, 0.10563410818576813, 0.14779113233089447, -0.10596513748168945, -0.1576012223958969, 0.008020296692848206, 0.08703137934207916, 0.1592424362897873, -0.12351209670305252, -0.018678933382034302, 0.04938703775405884, -0.09240587055683136, 0.11399267613887787, 0.16417233645915985, 0.07281377911567688, 0.03931036591529846, -0.11401084810495377, 0.056481704115867615, 0.07389135658740997, -0.16709113121032715, 0.029444292187690735, -0.07387061417102814, -0.11832714825868607, 0.018058359622955322, 0.056058213114738464, 0.10644961893558502, -0.1737670749425888, 0.15530569851398468, 0.16916753351688385, -0.1120968759059906, 0.036599814891815186, -0.11476793140172958, -0.15593305230140686, 0.11195902526378632, 0.03240358829498291, -0.10703819990158081, -0.04064667224884033, 0.042649075388908386, 0.06805282831192017, 0.1276506930589676, -0.10635824501514435, 0.16292105615139008, 0.09642879664897919, 0.03384698927402496, 0.14319826662540436, -0.1714175045490265, -0.12240173667669296, -0.035416632890701294, -0.13603085279464722, 0.15007345378398895, -0.10118552297353745, 0.036577820777893066, -0.11022716015577316, 0.10624848306179047, 0.06140799820423126, -0.01662406325340271, 0.10676242411136627, 0.08648039400577545, -0.10598237812519073, 0.025768786668777466, 0.15241016447544098, -0.052822813391685486, 0.05426254868507385, 0.06954739987850189], [0.03736835718154907, 0.1582276076078415, 0.07900144159793854, 0.018551990389823914, 0.16128118336200714, -0.12084091454744339, 0.06329748034477234, -0.054766371846199036, -0.06100385636091232, 0.11142514646053314, -0.049427762627601624, -0.13684028387069702, 0.04333032667636871, -0.10728741437196732, 0.12417300045490265, 0.015919625759124756, 0.0996171087026596, -0.16343005001544952, -0.03204154968261719, -0.04338006675243378, -0.03757235407829285, -0.11549171805381775, -0.08697575330734253, -0.10634901374578476, -0.13887833058834076, -0.061769790947437286, 0.14332498610019684, -0.016004294157028198, 0.06047344207763672, 0.09546847641468048, -0.019908994436264038, -0.1059928759932518, -0.1215599775314331, -0.1498066782951355, 0.1319953352212906, 0.013422712683677673, -0.05062970519065857, 0.14615501463413239, 0.09273259341716766, -0.07755985110998154, -0.0637260302901268, 0.12836860120296478, 0.10908018052577972, 0.019010931253433228, -0.13568668067455292, -0.036758750677108765, -0.07554152607917786, -0.01691719889640808, 0.08544750511646271, -0.018099665641784668, -0.1315809041261673, -0.07313552498817444, -0.07763141393661499, 0.16016526520252228, -0.053379274904727936, 0.13597752153873444, 0.04047092795372009, -0.0627591460943222, 0.023729979991912842, -0.11413779109716415, 0.12288342416286469, -0.0936615914106369, -0.03807951509952545, 0.08303524553775787], [-0.03449130058288574, -0.06294922530651093, 0.06815250217914581, -0.08963243663311005, 0.05616717040538788, 0.14600329101085663, -0.03850865364074707, -0.17570948600769043, 0.07078410685062408, 0.004736289381980896, -0.027845576405525208, 0.145931676030159, 0.10563255846500397, 0.042231857776641846, 0.043646439909935, -0.09919580817222595, -0.09792208671569824, -0.09345928579568863, 0.09971316158771515, 0.07015663385391235, -0.10770593583583832, -0.14468106627464294, -0.16893593966960907, -0.08676358312368393, 0.17556749284267426, 0.10232509672641754, 0.06264875829219818, 0.1738942712545395, 0.011223658919334412, 0.027673915028572083, 0.1618162840604782, 0.14798255264759064, -0.030306115746498108, 0.01747491955757141, 0.17262236773967743, 0.05049808323383331, 0.10114572942256927, -0.008545607328414917, 0.05758599936962128, -0.041434019804000854, -0.12011666595935822, -0.10501363128423691, 0.01922786235809326, 0.003857821226119995, 0.024463415145874023, 0.06101679801940918, -0.07324507087469101, -0.09596694260835648, 0.04585994780063629, -0.06461212784051895, 0.08110059797763824, 0.12889881432056427, 0.029221385717391968, 0.009304553270339966, -0.06001247465610504, -0.17485003173351288, 0.1374063938856125, 0.012416213750839233, -0.0427946001291275, -0.0076005905866622925, 0.04870636761188507, 0.07490907609462738, 0.06566761434078217, 0.15209196507930756], [0.09374459087848663, -0.09258954226970673, -0.022426500916481018, -0.16695600748062134, 0.10685335099697113, 0.1078445166349411, 0.1610340029001236, 0.1710004359483719, -0.059458836913108826, -0.10823433101177216, 0.05804932117462158, -0.070820152759552, 0.14535124599933624, -0.04236580431461334, -0.07199457287788391, 0.16804908215999603, -0.0021430402994155884, -0.08433862775564194, -0.10532472282648087, -0.06744684278964996, -0.08706215023994446, -0.17549239099025726, 0.1251116544008255, 0.1343652755022049, 0.013488426804542542, 0.02349059283733368, -0.14100657403469086, -0.06396310776472092, -0.12623372673988342, -0.06725583225488663, -0.1065182313323021, 0.04606907069683075, -0.049024924635887146, -0.005261868238449097, 0.008430078625679016, 0.08595018088817596, 0.05992729961872101, -0.11140705645084381, 0.04054231941699982, 0.15940381586551666, -0.10189548134803772, 0.038135185837745667, -0.14000731706619263, -0.06571127474308014, -0.0006146281957626343, -0.04103374481201172, 0.029873430728912354, 0.0392068475484848, 0.05854159593582153, 0.057711511850357056, 0.039177849888801575, 0.01720932126045227, 0.02863970398902893, -0.14047746360301971, 0.09571497142314911, -0.16271696984767914, 0.030313029885292053, -0.01514403522014618, -0.1336068958044052, 0.14429254829883575, 0.1346626728773117, -0.05213889479637146, -0.1516178846359253, -0.01606355607509613], [0.13343839347362518, 0.1306595355272293, 0.07390816509723663, 0.002667635679244995, 0.0948595255613327, 0.04055078327655792, 0.15104274451732635, 0.09696237742900848, 0.014201849699020386, -0.12044325470924377, 0.11955137550830841, 0.13184072077274323, 0.030923902988433838, 0.09478239715099335, -0.1563670039176941, -0.16080446541309357, -0.14306271076202393, -0.02925395965576172, -0.1136394515633583, -0.1363236904144287, -0.13659393787384033, -0.09272879362106323, -0.09534396976232529, 0.03984411060810089, -0.009100303053855896, -0.16733954846858978, -0.14643070101737976, 0.07399778068065643, 0.13464944064617157, -0.008107200264930725, -0.06636016815900803, -0.052594542503356934, -0.020867198705673218, -0.08241588622331619, -0.033590614795684814, 0.020620346069335938, 0.1062258929014206, -0.13921180367469788, 0.0012835413217544556, -0.08937521278858185, 0.0573706328868866, 0.0923943966627121, 0.0017981529235839844, -0.10786406695842743, 0.10502038896083832, 0.004785865545272827, -0.010389119386672974, 0.16641877591609955, -0.10405074805021286, 0.035789042711257935, -0.10224513709545135, 0.03438584506511688, -0.07409816235303879, 0.13763631880283356, 0.15642313659191132, 0.05206716060638428, 0.12977169454097748, 0.13334251940250397, 0.16784818470478058, -0.055863626301288605, -0.01942366361618042, 0.13180799782276154, 0.15533460676670074, 0.009062960743904114], [0.11216236650943756, 0.10119514167308807, 0.007965877652168274, 0.03937682509422302, 0.16226665675640106, -0.04766176640987396, 0.13596244156360626, 0.0029009729623794556, 0.02841898798942566, -0.1563023030757904, 0.051659390330314636, -0.1488623321056366, -0.1530875861644745, 0.14850686490535736, 0.0034216493368148804, 0.012649282813072205, -0.17620007693767548, 0.052713021636009216, -0.022964507341384888, -0.04936149716377258, -0.027938678860664368, -0.15383338928222656, 0.0983530730009079, 0.1359606236219406, -0.02741159498691559, 0.03879706561565399, 0.1615162044763565, 0.04952225089073181, -0.06416486948728561, 0.16611294448375702, -0.13779212534427643, 0.14427872002124786, -0.15883882343769073, -0.17381145060062408, 0.14213110506534576, -0.049144238233566284, 0.05570578575134277, 0.12281839549541473, -0.07358970493078232, 0.034178778529167175, -0.02661438286304474, -0.1584310531616211, -0.0938551276922226, 0.06857052445411682, -0.15792301297187805, -0.10103998333215714, 0.04417027533054352, 0.15807567536830902, -0.17429697513580322, -0.02015736699104309, -0.011558562517166138, 0.01863674819469452, 0.01002281904220581, 0.05710338056087494, -0.12832079827785492, 0.09451924264431, 0.07757203280925751, -0.12745577096939087, 0.020478948950767517, -0.0019304156303405762, -0.07945422828197479, 0.0558168888092041, -0.0666755959391594, -0.1035090759396553], [-0.003998219966888428, 0.10411648452281952, -0.0542876273393631, -0.09424060583114624, 0.12980230152606964, 0.13902445137500763, -0.13089394569396973, -0.048848316073417664, 0.15020854771137238, -0.049802571535110474, -0.11670820415019989, 0.16733424365520477, -0.12257011234760284, 0.01754455268383026, -0.04772038757801056, 0.13256488740444183, 0.12243928015232086, -0.042256683111190796, -0.09962591528892517, 0.16078661382198334, -0.17409269511699677, -0.04880790412425995, -0.0007028877735137939, 0.15803582966327667, -0.10948242247104645, 0.07328237593173981, 0.0037190765142440796, -0.05259677767753601, 0.01305641233921051, 0.020304366946220398, -0.11232493072748184, 0.04155135154724121, -0.0033161938190460205, 0.07204042375087738, 0.03533385694026947, -0.014016479253768921, 0.10688267648220062, 0.06737282872200012, -0.143686905503273, 0.12555815279483795, -0.12374222278594971, 0.0502745658159256, 0.14459748566150665, 0.1674007922410965, 0.03835730254650116, 0.03545573353767395, -0.12625817954540253, 0.1630292385816574, -0.10456177592277527, 0.07979132235050201, 0.10486830770969391, -0.10017643868923187, -0.14055480062961578, -0.12287618219852448, -0.05737665295600891, 0.05793046951293945, 0.1586969941854477, 0.06180410087108612, 0.10293816030025482, -0.1441028118133545, -0.08578333258628845, 0.12151657044887543, -0.033886611461639404, 0.12060917913913727], [0.15436746180057526, 0.07189328968524933, -0.049611181020736694, 0.07462833821773529, 0.01604020595550537, -0.07842015475034714, 0.09659184515476227, -0.14365912973880768, -0.006895512342453003, 0.14564381539821625, 0.12776611745357513, 0.0076017677783966064, 0.009832516312599182, -0.1604081243276596, -0.16807138919830322, -0.05132478475570679, -0.009545877575874329, -0.07585732638835907, -0.10647094249725342, -0.11561516672372818, 0.062399208545684814, 0.03369240462779999, -0.16333365440368652, -0.14992214739322662, -0.007961586117744446, 0.15254352986812592, 0.012404114007949829, 0.15529675781726837, -0.08287760615348816, 0.14634303748607635, -0.13529622554779053, 0.02336879074573517, -0.056913502514362335, 0.14015935361385345, -0.021518409252166748, -0.1740984320640564, -0.04716712236404419, 0.10239826142787933, -0.08490213006734848, -0.12959237396717072, 0.16040144860744476, 0.04829241335391998, -0.060366421937942505, 0.004913359880447388, -0.13110020756721497, 0.08099780976772308, 0.08093051612377167, 0.03744402527809143, 0.10786499083042145, -6.283819675445557e-05, 0.08754856884479523, -0.010714486241340637, 0.15879203379154205, -0.006802543997764587, 0.07107703387737274, 0.1144808679819107, -0.01782272756099701, -0.11965705454349518, 0.04864896833896637, 0.07647638022899628, -0.17438216507434845, -0.12369804829359055, -0.008971333503723145, -0.149920254945755], [-0.12146131694316864, 0.0825287252664566, -0.00632140040397644, -0.06350211054086685, 0.1466227024793625, -0.022720351815223694, -0.14501449465751648, -0.142425537109375, -0.08212633430957794, 0.06481178104877472, -0.0999031588435173, 0.13182999193668365, 0.022111326456069946, 0.09503637254238129, 0.16711841523647308, 0.08075197041034698, 0.140036478638649, 0.044985949993133545, -0.015588566660881042, 0.09135018289089203, 0.022958904504776, -0.004095152020454407, -0.0011460930109024048, -0.12341001629829407, -0.07451840490102768, -0.07870755344629288, -0.07148223370313644, 0.07786549627780914, -0.11862441152334213, -0.024308577179908752, 0.001450866460800171, 0.14407388865947723, -0.10421912372112274, -0.1636856645345688, 0.0220574289560318, -0.006079718470573425, 0.160490944981575, 0.026041656732559204, 0.007808297872543335, -0.10674051940441132, -0.1325174868106842, 0.0799742192029953, 0.10549654066562653, -0.14137119054794312, -0.09009630233049393, 0.04125480353832245, -0.13471126556396484, -0.11691244691610336, 0.10667930543422699, -0.10689844191074371, -0.04018726944923401, -0.0798177421092987, 0.007999643683433533, -0.007474526762962341, 0.15277226269245148, -0.1342671662569046, -0.13273939490318298, 0.10811804234981537, 0.0684923380613327, 0.1467500478029251, -0.057605594396591187, 0.14939139783382416, 0.08931700885295868, -0.027940332889556885], [-0.08144772797822952, -0.04185663163661957, -0.09643375873565674, -0.13108234107494354, -0.007918044924736023, 0.04236707091331482, -0.12406548857688904, 0.01092122495174408, 0.06131865084171295, 0.07844652235507965, -0.06254596263170242, -0.17323416471481323, -0.0822022408246994, 0.04094485938549042, -0.06409229338169098, -0.05366360396146774, -0.1270843744277954, -0.10759854316711426, -0.10993470251560211, -0.02748286724090576, 0.10911954939365387, -0.12444207072257996, -0.0688423216342926, 0.16683660447597504, -0.15756872296333313, 0.12668587267398834, 0.04636010527610779, 0.021002277731895447, 0.0865759402513504, 0.09833566844463348, -0.07074913382530212, 0.08001367747783661, 0.03964126110076904, 0.0009475946426391602, 0.005112752318382263, -0.023649781942367554, -0.12300237268209457, 0.12822659313678741, -0.059983059763908386, 0.15903602540493011, 0.04467591643333435, 0.11498434841632843, -0.12878762185573578, 0.025824472308158875, 0.17111022770404816, -0.03890778124332428, 0.12723274528980255, 0.06045451760292053, -0.14861606061458588, -0.03826913237571716, 0.008235663175582886, -0.16287530958652496, 0.13855259120464325, 0.15846823155879974, 0.1370391994714737, 0.17321456968784332, 0.17170007526874542, 0.15376295149326324, -0.03314352035522461, -0.06115638464689255, 0.15752960741519928, -0.17486023902893066, -0.14513187110424042, 0.05804835259914398], [-0.05777009576559067, 0.10399912297725677, -0.05116771161556244, 0.05669775605201721, -0.07202664762735367, -0.047596558928489685, 0.07173840701580048, 0.14918728172779083, -0.04539570212364197, -0.04994186758995056, -0.08788439631462097, 0.1519889384508133, -0.15809278190135956, -0.08778893202543259, -0.03207893669605255, 0.029248908162117004, 0.003935202956199646, -0.020885497331619263, 0.11272485554218292, -0.01947741210460663, -0.05508487671613693, -0.14383290708065033, 0.142183318734169, -0.059003815054893494, 0.1336219757795334, 0.14489509165287018, 0.014917925000190735, -0.10760743170976639, -0.12202435731887817, 0.1114376038312912, 0.0821341723203659, -0.0402979850769043, -0.04190324246883392, -0.05220666527748108, 0.17374752461910248, 0.05973625183105469, -0.00503966212272644, -0.029752224683761597, -0.1305469125509262, -0.15337178111076355, 0.03655855357646942, -0.17338189482688904, -0.17674656212329865, 0.004660382866859436, 0.11855043470859528, 0.012438595294952393, -0.0838143602013588, -0.08137881755828857, 0.12320555746555328, -0.027559950947761536, 0.11709417402744293, -0.00387515127658844, 0.0889839380979538, -0.1448216289281845, 0.0014160871505737305, 0.055499687790870667, -0.09270026534795761, 0.14007146656513214, 0.11277909576892853, 0.16998644173145294, -0.1545441448688507, 0.0895928293466568, 0.02494865655899048, 0.12320779263973236], [-0.15089721977710724, 0.07919295132160187, 0.11365427076816559, 0.14291439950466156, -0.11455104500055313, -0.16541226208209991, 0.06652390956878662, -0.05643492192029953, 0.10156337916851044, -0.15627224743366241, 0.09764783084392548, -0.11650784313678741, 0.13631583750247955, 0.15412946045398712, -0.10114210844039917, 0.14862431585788727, -0.08368096500635147, -0.06781701743602753, -0.15347062051296234, 0.08173160254955292, 0.12648560106754303, -0.043070629239082336, 0.055814310908317566, -0.04898454248905182, 0.08044256269931793, -0.000845298171043396, 0.08056379854679108, -0.0546850711107254, 0.13597892224788666, -0.03827182948589325, -0.16441577672958374, 0.15145845711231232, -0.0033432096242904663, 0.022939473390579224, -0.09062883257865906, -0.01165895164012909, 0.0930628627538681, 0.039338141679763794, -0.11584322154521942, 0.08992813527584076, 0.15048550069332123, 0.027836397290229797, 0.11093790829181671, -0.014952093362808228, -0.03726321458816528, 0.17109225690364838, 0.06880737841129303, -0.16561999917030334, -0.008398264646530151, 0.10572598874568939, 0.08654303848743439, 0.1202235072851181, 0.0325290709733963, 0.09492786228656769, -0.16031742095947266, 0.08405245840549469, -0.1407531052827835, -0.17208389937877655, -0.033570125699043274, 0.12836523354053497, -0.10038013756275177, -0.16353128850460052, 0.09653188288211823, 0.08444373309612274], [0.03903880715370178, -0.03332677483558655, -0.10735337436199188, 0.018781855702400208, -0.11032072454690933, -0.113498255610466, -0.08930221945047379, 0.06424392759799957, 0.060025960206985474, -0.05090007185935974, -0.12091374397277832, 0.1663278192281723, -0.14261949062347412, 0.06456062197685242, 0.010743275284767151, 0.12838591635227203, -0.051313117146492004, 0.1497187465429306, 0.05652259290218353, -0.01743476092815399, 0.0543268620967865, -0.1310976892709732, 0.01988711953163147, 0.07040154933929443, -0.0396077036857605, 0.08623252809047699, -0.09484562277793884, -0.11452600359916687, -0.023137643933296204, -0.035882607102394104, -0.020367339253425598, 0.03280685842037201, 0.12437902390956879, -0.1673039346933365, -0.07340843230485916, -0.17265060544013977, 0.047159790992736816, 0.12613917887210846, -0.05546347796916962, -0.009150207042694092, -0.04106493294239044, 0.16843624413013458, 0.15375317633152008, -0.05778387933969498, 0.10007242858409882, 0.15100590884685516, -0.05704512447118759, 0.04559420049190521, -0.08970973640680313, -0.07203802466392517, -0.07809014618396759, -0.12945063412189484, 0.15247555077075958, -0.1144447922706604, 0.15295089781284332, -0.06121749430894852, -0.14649321138858795, 0.1076865941286087, 0.034212157130241394, -0.15963822603225708, 0.14665471017360687, -0.15826264023780823, 0.17653076350688934, 0.022066444158554077], [-0.16637182235717773, 0.10689599812030792, -0.06260054558515549, 0.08555598556995392, 0.05517520010471344, 0.03523838520050049, 0.13948841392993927, -0.1102403923869133, -0.1643853485584259, 0.09432102739810944, 0.0007768571376800537, 0.06370589137077332, -0.059643059968948364, -0.05309832841157913, -0.042436107993125916, -0.11856371909379959, -0.012913882732391357, 0.0831008106470108, -0.13782285153865814, -0.07089845836162567, -0.08477231860160828, -0.1205461397767067, -0.06147530674934387, -0.1361241638660431, 0.10697661340236664, -0.03824320435523987, -0.0004141777753829956, -0.1534879505634308, 0.10688744485378265, -0.0035791993141174316, -0.054353922605514526, 0.06308001279830933, -0.11746929585933685, 0.04893311858177185, 0.009385213255882263, -0.11927562206983566, 0.16621200740337372, 0.1161765605211258, -0.04557427763938904, 0.1511714607477188, 0.14730356633663177, 0.13560833036899567, -0.01100778579711914, -0.11723335087299347, 0.043588608503341675, -0.05193663388490677, -0.010782212018966675, 0.14549075067043304, 0.12796272337436676, 0.02812628448009491, 0.13698209822177887, -0.04390247166156769, -0.1315613090991974, 0.027197524905204773, -0.015139862895011902, -0.13715384900569916, -0.15923640131950378, -0.045905545353889465, 0.051827773451805115, 0.10373355448246002, -0.1397618055343628, -0.11377305537462234, 0.03314584493637085, -0.0876179039478302], [-0.00771881639957428, -0.15971961617469788, -0.020949676632881165, -0.084574393928051, 0.12346450984477997, -0.07758720219135284, -0.04675227403640747, 0.15824417769908905, 0.07615502178668976, -0.005734756588935852, 0.15842722356319427, 0.17189954221248627, -0.12568387389183044, 0.142857626080513, -0.04137825965881348, -0.013454332947731018, 0.14147330820560455, 0.11508281528949738, 0.10312174260616302, 0.09883706271648407, -0.07376520335674286, -0.041953861713409424, -0.16652068495750427, 0.02468430995941162, 0.17645932734012604, -0.1267816722393036, 0.12038896977901459, -0.01038670539855957, 0.12892134487628937, -0.07155485451221466, 0.15345187485218048, 0.09804253280162811, -0.073849156498909, -0.11818894743919373, -0.08924346417188644, -0.1096581295132637, -0.12923665344715118, -0.14045196771621704, -0.13414987921714783, -0.0868772566318512, -0.1111171692609787, -0.056952737271785736, -0.06259515136480331, 0.08396042883396149, 0.13462437689304352, -0.14673727750778198, -0.0025008320808410645, 0.09627722203731537, -0.08832858502864838, -0.12832316756248474, -0.1506139487028122, -0.09391675144433975, 0.09100200235843658, -0.07401289790868759, 0.05999426543712616, 0.04573245346546173, 0.1441209763288498, -0.03555035591125488, 0.0036870837211608887, 0.17076991498470306, -0.10675501823425293, -0.009540662169456482, 0.05851419270038605, -0.13355779647827148], [0.09667326509952545, 0.04013487696647644, 0.15993590652942657, 0.06289443373680115, -0.09761509299278259, 0.007624104619026184, 0.1265985518693924, 0.0854647308588028, -0.134490966796875, -0.09320653229951859, -0.0021073073148727417, -0.07493916153907776, -0.0261814147233963, -0.038898766040802, -0.10778289288282394, -0.16317181289196014, 0.08785970509052277, -0.06391468644142151, -0.17669615149497986, -0.07375513017177582, -0.03370121121406555, 0.06227003037929535, -0.06479138135910034, 0.10268126428127289, 0.017177075147628784, 0.15159673988819122, -0.15603505074977875, -0.13978372514247894, -0.08764968067407608, -0.11547604203224182, -0.06280259788036346, 0.03251582384109497, 0.02354702353477478, 0.11150218546390533, 0.16986297070980072, -0.11598879843950272, -0.17123404145240784, -0.11335525661706924, -0.05386105924844742, -0.007011502981185913, -0.14265185594558716, -0.025773808360099792, -0.14821310341358185, -0.13127891719341278, 0.16300435364246368, 0.1576797515153885, 0.05775028467178345, -0.05574982613325119, 0.12966801226139069, 0.013961389660835266, 0.06512893736362457, 0.12741483747959137, -0.07761400938034058, 0.14839057624340057, 0.1105177253484726, 0.03355179727077484, 0.14742757380008698, 0.13879679143428802, -0.11767719686031342, 0.13604210317134857, 0.021901100873947144, 0.1371568888425827, 0.01524721086025238, -0.13885080814361572], [-0.049615055322647095, -0.10999366641044617, 0.0303545743227005, 0.047694042325019836, 0.09166784584522247, -0.03699570894241333, -0.0009670108556747437, -0.006020501255989075, -0.003876209259033203, 0.08584226667881012, 0.13026057183742523, -0.1523032784461975, 0.11504517495632172, 0.1648254543542862, -0.031418874859809875, 0.1146378368139267, 0.11252470314502716, 0.022892653942108154, 0.1610674113035202, -0.04165069758892059, 0.10661737620830536, 0.07910765707492828, 0.13221947848796844, -0.1394035667181015, -0.028006836771965027, 0.1439123898744583, 0.1335417777299881, -0.10498905926942825, -0.1313241869211197, 0.0991901308298111, 0.04064604640007019, -0.02752774953842163, -0.12449783086776733, 0.052660077810287476, -0.032379403710365295, 0.04677204787731171, 0.009794041514396667, 0.006564155220985413, 0.013751551508903503, -0.047456249594688416, 0.008428394794464111, 0.07111990451812744, -0.02592608332633972, 0.016593798995018005, 0.15622587502002716, 0.09892018139362335, -0.06752464175224304, 0.08482252061367035, -0.043410032987594604, -0.030396342277526855, -0.07304292917251587, -0.13072194159030914, 0.0825033038854599, 0.15402920544147491, 0.07621468603610992, -0.023583486676216125, 0.11731760203838348, -0.014494255185127258, -0.011015042662620544, 0.1390821486711502, -0.17342399060726166, -0.15027394890785217, 0.11801226437091827, -0.1740475594997406], [0.05374683439731598, -0.016907423734664917, 0.1439753621816635, -0.12595538794994354, 0.09041185677051544, 0.09211055934429169, 0.15019004046916962, -0.1328231692314148, -0.10449514538049698, -0.05063074827194214, 0.08714647591114044, 0.042405128479003906, 0.058135807514190674, 0.06450262665748596, 0.12084369361400604, 0.1500014215707779, 0.1269240528345108, 0.022755756974220276, -0.17230339348316193, -0.014704152941703796, 0.08940224349498749, -0.07094182819128036, -0.16730351746082306, -0.09531981498003006, -0.1174505352973938, 0.17124907672405243, 0.05028456449508667, 0.1455998569726944, 0.12676508724689484, 0.1033192127943039, -0.13360482454299927, -0.0011981874704360962, -0.13857103884220123, -0.1725493222475052, -0.0802559033036232, -0.0011982321739196777, 0.12207712233066559, -0.07326555252075195, -0.030965164303779602, -0.008306846022605896, -0.08879856020212173, -0.0353606641292572, 0.16321904957294464, -0.04259262979030609, -0.038348108530044556, 0.10229198634624481, -0.0859258770942688, 0.049990713596343994, 0.16292424499988556, 0.08649297058582306, -0.09443569928407669, -0.1499641239643097, 0.15636907517910004, -0.09960509836673737, 0.048185184597969055, 0.12900160253047943, 0.05653446912765503, 0.0038700103759765625, -0.15940292179584503, -0.09486673772335052, -0.0966445729136467, 0.16840888559818268, -0.015429958701133728, 0.04277576506137848], [0.07478781044483185, -0.09768720716238022, 0.09688378870487213, 0.03019215166568756, -0.12326102703809738, 0.023766860365867615, -0.17319539189338684, 0.0655573159456253, -0.14668363332748413, -0.16213196516036987, 0.16493956744670868, 0.062030091881752014, -0.08876370638608932, -0.03616364300251007, 0.006555482745170593, 0.0196111798286438, 0.06367769837379456, 0.0774424821138382, -0.0017841160297393799, -0.09743773937225342, 0.058247074484825134, 0.0033887773752212524, -0.12122373282909393, -0.14686672389507294, -0.02399955689907074, -0.08132516592741013, -0.0860598161816597, 0.08045648038387299, 0.061486005783081055, 0.06446225941181183, 0.12269814312458038, 0.07160146534442902, 0.005341187119483948, -0.13207721710205078, 0.1339847892522812, 0.09460626542568207, 0.17323829233646393, 0.05208832025527954, 0.06422656774520874, -0.10014677047729492, 0.0512675940990448, 0.11191387474536896, 0.05660836398601532, 0.16117577254772186, -0.020092204213142395, -0.0001404285430908203, -0.05899538844823837, -0.025911718606948853, -0.06814879924058914, 0.1278972178697586, 0.12213034927845001, 0.0209055095911026, -0.10645977407693863, -0.1084776446223259, -0.05072154104709625, 0.04304946959018707, 0.06404736638069153, 0.011836305260658264, -0.015896186232566833, 0.02657438814640045, 0.00505337119102478, -0.032379359006881714, 0.15569673478603363, -0.027576938271522522], [0.16985036432743073, -0.12585027515888214, -0.14576107263565063, -0.10918360203504562, 0.05075576901435852, 0.17527179419994354, -0.12159108370542526, 0.1645437330007553, -0.11474968492984772, 0.005073383450508118, -0.015679001808166504, 0.14500196278095245, -0.10988429188728333, 0.03242698311805725, -0.028694123029708862, 0.17501957714557648, -0.059007443487644196, -0.06754180043935776, -0.11818001419305801, -0.15814019739627838, 0.10354970395565033, 0.059075936675071716, -0.05369655787944794, -0.08133123815059662, -0.009615883231163025, -0.04237426817417145, -0.07024290412664413, -0.1250116378068924, 0.13308937847614288, 0.03497931361198425, -0.043418750166893005, -0.16396619379520416, 0.09806288778781891, -0.030004680156707764, -0.0031917840242385864, -0.008937746286392212, 0.042919307947158813, 0.02910129725933075, -0.008761659264564514, -0.08706729859113693, 0.04860948026180267, 0.16847194731235504, 0.17629246413707733, 0.04475308954715729, -0.08733939379453659, 0.06300756335258484, 0.16186951100826263, 0.06273971498012543, 0.03923425078392029, 0.14740900695323944, 0.04878316819667816, -0.006148591637611389, 0.1697222739458084, -0.11990179866552353, 0.03691932559013367, 0.04279009997844696, 0.143413707613945, -0.005080714821815491, 0.09122525155544281, 0.009861692786216736, -0.10533774644136429, -0.07482995837926865, -0.12127628922462463, 0.09477372467517853], [0.15329180657863617, 0.14787591993808746, 0.13796083629131317, 0.06625564396381378, -0.03535488247871399, -0.06261710822582245, -0.12528829276561737, -0.04839642345905304, 0.14867748320102692, 0.01145753264427185, -0.06101645529270172, -0.10213959962129593, 0.15653763711452484, -0.08269940316677094, 0.055120572447776794, 0.032824888825416565, 0.09885801374912262, 0.08548159897327423, 0.14311261475086212, -0.08622119575738907, -0.05863574892282486, 0.12519092857837677, 0.1401659995317459, -0.06999440491199493, -0.08154214173555374, 0.12531818449497223, -0.14283853769302368, -0.14120328426361084, 0.07840596139431, -0.0020262151956558228, 0.15632395446300507, -0.06741459667682648, 0.08658860623836517, -0.14981131255626678, -0.08639998733997345, 0.12656252086162567, -0.08886793255805969, 0.15068526566028595, -0.03081899881362915, 0.010101497173309326, -0.11239641159772873, -0.14931392669677734, 0.06276668608188629, 0.039724200963974, -0.0903092697262764, -0.14872868359088898, -0.13138732314109802, -0.08789332956075668, 0.08443178236484528, 0.07857103645801544, -0.015179947018623352, -0.1496506929397583, -0.14853447675704956, -0.046044424176216125, 0.1301601380109787, 0.020534738898277283, 0.020144209265708923, -0.14969173073768616, -0.14689916372299194, -0.13483387231826782, -0.031938716769218445, 0.024930402636528015, -0.022442519664764404, 0.16780228912830353], [-0.09872203320264816, 0.03140424191951752, 0.009373247623443604, -0.02179400622844696, 0.07531152665615082, -0.09314596652984619, -0.036199331283569336, 0.08395896852016449, 0.16501058638095856, 0.04730802774429321, -0.08257541060447693, 0.1625194400548935, 0.06261791288852692, -0.0334143191576004, -0.1370517760515213, 0.003954678773880005, 0.17074476182460785, -0.11134623736143112, 0.1270286589860916, -0.10744714736938477, -0.13372647762298584, -0.1589052528142929, -0.16381654143333435, -0.13486480712890625, -0.022954270243644714, 0.04448789358139038, -0.10349862277507782, 0.07788144052028656, -0.06952278316020966, -0.07103269547224045, -0.11486339569091797, 0.030604511499404907, -0.1403007060289383, 0.06208163499832153, -0.13528354465961456, -0.16652004420757294, -0.052119508385658264, 0.1599685400724411, 0.11557669937610626, 0.021095722913742065, -0.0859258770942688, -0.10157807916402817, -0.16848409175872803, 0.1557682901620865, 0.10229887068271637, 0.15771262347698212, -0.07556504011154175, -0.08799448609352112, 0.02988991141319275, 0.1627347618341446, 0.1472688764333725, -0.02583479881286621, -0.09401233494281769, -0.1428065448999405, -0.11211537569761276, 0.15826110541820526, -0.005146801471710205, -0.08003800362348557, 0.033013716340065, -0.1495572030544281, -0.17320770025253296, -0.0359632670879364, -0.14757347106933594, -0.1642393171787262], [0.04117181897163391, -0.0748775452375412, -0.16591811180114746, -0.09300119429826736, 0.16159687936306, 0.04977943003177643, 0.1415693312883377, -0.008852362632751465, -0.16925618052482605, -0.03263223171234131, 0.08968259394168854, 0.1251884549856186, -0.16362547874450684, 0.03243696689605713, -0.0008030682802200317, 0.0941971093416214, 0.09508092701435089, -0.137880340218544, 0.10634218156337738, 0.08088965713977814, 0.002451300621032715, -0.03780786693096161, -0.03646911680698395, 0.10944195091724396, 0.030943796038627625, 0.0746501237154007, -0.15949159860610962, 0.12246836721897125, -0.00856676697731018, 0.1522575169801712, -0.17628677189350128, -0.15547390282154083, 0.14068178832530975, -0.027401775121688843, -0.03581389784812927, 0.007375821471214294, -0.011840909719467163, 0.05639795958995819, -0.11170192062854767, -0.04928065836429596, -0.1165299266576767, -0.05575185269117355, -0.09047836810350418, -0.11990344524383545, 0.16817857325077057, -0.08128057420253754, 0.015081241726875305, -0.08552505820989609, -0.0703546404838562, 0.14326857030391693, -0.12338578701019287, 0.04256334900856018, 0.11947290599346161, -0.15752679109573364, -0.046534836292266846, -0.11948104202747345, 0.11664675176143646, -0.00824064016342163, -0.11994528770446777, 0.08982552587985992, 0.15260644257068634, 0.059391990303993225, -0.021984383463859558, -0.07517088204622269], [0.10834036767482758, -0.15912188589572906, 0.1617429405450821, 0.029235661029815674, 0.1711336225271225, 0.031663328409194946, -0.17233702540397644, -0.107388436794281, -0.10177940875291824, -0.01558847725391388, 0.07192569971084595, -0.08293319493532181, -0.12045594304800034, -0.07399637997150421, 0.16686128079891205, -0.06269174814224243, -0.0907893255352974, -0.1525677591562271, -0.02742213010787964, 0.17295514047145844, -0.11715656518936157, -0.07201016694307327, 0.1721852868795395, 0.12731780111789703, 0.12470503151416779, 0.06646692752838135, 0.009351462125778198, 0.0670611560344696, -0.0074265748262405396, -0.04120360314846039, 0.09923021495342255, -0.011111259460449219, 0.11309407651424408, 0.1547800451517105, 0.008876457810401917, -0.11903394758701324, -0.06310740113258362, -0.1636420041322708, -0.010732531547546387, -0.09772926568984985, 0.1751803308725357, -0.057386644184589386, 0.1427067071199417, 0.09118621051311493, 0.06409081816673279, 0.005860850214958191, 0.15039239823818207, -0.0980202928185463, 0.07217711210250854, -0.1261412501335144, 0.1706192046403885, -0.10355985909700394, -0.11097412556409836, 0.1326853483915329, -0.07175825536251068, 0.08532287180423737, -0.004485100507736206, 0.12141247093677521, -0.07757139950990677, 0.03090721368789673, -0.07342098653316498, -0.15567755699157715, 0.024203971028327942, 0.11252276599407196], [0.12757636606693268, -0.1315189003944397, 0.08742861449718475, -0.009763985872268677, -0.15450426936149597, -0.1023307740688324, 0.11577241122722626, -0.08832588791847229, 0.170166477560997, 0.15571655333042145, -0.09257529675960541, -0.03027138113975525, 0.1495904177427292, -0.11260739713907242, -0.134077250957489, 0.13340257108211517, 0.17585046589374542, -0.05207044631242752, -0.11718475818634033, 0.04259777069091797, 0.12592105567455292, -0.003543287515640259, -0.11918323487043381, 0.1109326034784317, 0.07777546346187592, -0.08760946989059448, 0.06124468147754669, -0.08969481289386749, 0.10873730480670929, -0.06056569516658783, -0.11364749819040298, -0.13390298187732697, -0.15020276606082916, -0.07186703383922577, 0.13823311030864716, 0.024617895483970642, -0.08344139903783798, -0.11700037121772766, 0.004244953393936157, -0.05319914221763611, 0.024697795510292053, 0.05839568376541138, -0.15948708355426788, -0.12299689650535583, 0.11807902157306671, -0.15802952647209167, 0.04720716178417206, 0.16061104834079742, 0.10901059210300446, -0.037455737590789795, -0.16802236437797546, -0.05510055273771286, 0.11820842325687408, -0.06956910341978073, -0.09616152942180634, 0.03953278064727783, -0.17666985094547272, -0.1654975265264511, 0.00022135674953460693, 0.15021057426929474, -0.10164812207221985, -0.022694721817970276, -0.08390914648771286, 0.10329346358776093], [0.020046770572662354, 0.06864887475967407, -0.03725604712963104, -0.14442232251167297, -0.06559769064188004, 0.0070093125104904175, 0.0007045269012451172, 0.0872931033372879, 0.09553711116313934, 0.10133068263530731, 0.042269155383110046, -0.07186901569366455, -0.12218965590000153, -0.014418050646781921, -0.022247210144996643, -0.07333943247795105, 0.1602003425359726, 0.12498129904270172, -0.13473039865493774, 0.09523405134677887, -0.07678388804197311, -0.06866096705198288, -0.04949940741062164, -0.021200239658355713, -0.009390994906425476, 0.06440046429634094, 0.08295954763889313, 0.1444271355867386, -0.04295888543128967, -0.007207408547401428, 0.12436731159687042, -0.07612357288599014, 0.11058501899242401, -0.1259494125843048, -0.10850731283426285, -0.007827043533325195, 0.1061975508928299, 0.050369277596473694, -0.08025703579187393, -0.11266948282718658, 0.12237848341464996, 0.16341470181941986, 0.07897855341434479, -0.03907586634159088, -0.07757097482681274, 0.12790502607822418, 0.05024687945842743, 0.004183322191238403, 0.12405087053775787, 0.16382883489131927, 0.1694037765264511, 0.14111216366291046, 0.0018167346715927124, -0.011372014880180359, -0.094651959836483, 0.10122866928577423, -0.08388187736272812, -0.17005464434623718, 0.09130628407001495, 0.005139216780662537, 0.042502403259277344, 0.10215689241886139, -0.003875821828842163, 0.11616311967372894], [0.08865158259868622, 0.10506965219974518, -0.14125296473503113, -0.06979168206453323, -0.08111637085676193, 0.04379403591156006, -0.14205573499202728, -0.07849138230085373, -0.10898040980100632, -0.12254520505666733, -0.17590366303920746, -0.019879862666130066, 0.011555448174476624, -0.02291359007358551, 0.06547769904136658, -0.006454244256019592, -0.020561978220939636, -0.0731702595949173, 0.07159657776355743, -0.03861384093761444, 0.14856891334056854, 0.11117680370807648, 0.12742619216442108, -0.05254393070936203, -0.11922205239534378, 0.14632682502269745, 0.14425159990787506, -0.10374370962381363, -0.0701146125793457, 0.03660997748374939, 0.12725920975208282, 0.0883864015340805, -0.017076462507247925, 0.10335330665111542, 0.14529435336589813, -0.06742694973945618, -0.09251793473958969, 0.12387193739414215, -0.008412003517150879, 0.07311601936817169, -0.0004547238349914551, -0.041408225893974304, 0.02628648281097412, -0.06328732520341873, -0.03895401954650879, 0.09443847835063934, 0.014231979846954346, 0.16432680189609528, 0.1655249148607254, 0.021183758974075317, -0.13107901811599731, -0.13237911462783813, 0.03981389105319977, -0.127653568983078, -0.1738346368074417, 0.15960539877414703, 0.023014575242996216, 0.09059317409992218, 0.12115727365016937, 0.1706555038690567, -0.06977515667676926, 0.10123802721500397, -0.16469994187355042, 0.1733085960149765], [-0.09631570428609848, 0.06073765456676483, 0.005606412887573242, -0.040487825870513916, -0.16454386711120605, -0.08890274912118912, 0.10695348680019379, 0.02496059238910675, -0.07072944939136505, -0.017930448055267334, 0.05195096135139465, 0.05186624825000763, 0.008538320660591125, -0.07019262760877609, -0.003490343689918518, -0.09616081416606903, -0.04484833776950836, -0.1624448597431183, 0.09656916558742523, -0.172873392701149, 0.10857896506786346, -0.16496427357196808, 0.08796586096286774, -0.011860460042953491, -0.081149622797966, -0.021593227982521057, 0.05688256025314331, 0.1634628027677536, 0.06506562232971191, -0.011211439967155457, 0.08077920973300934, -0.1582460254430771, -0.08995747566223145, -0.06624156981706619, -0.043712809681892395, -0.05052909255027771, -0.10996437072753906, 0.1710253208875656, -0.13946235179901123, -0.08478731662034988, 0.028329715132713318, 0.06787236034870148, -0.055613696575164795, 0.0483003705739975, -0.07295619696378708, 0.06635987758636475, -0.107030488550663, -0.12014739215373993, 0.1235666424036026, -0.13644009828567505, -0.08001570403575897, 0.1428360790014267, -0.01866014301776886, 0.10125930607318878, 0.01559668779373169, 0.029650598764419556, 0.08420450985431671, -0.09617628157138824, -0.04681280255317688, -0.008613720536231995, -0.017524823546409607, 0.05386801064014435, 0.16926740109920502, -0.0022766441106796265], [0.12116937339305878, 0.021821871399879456, 0.17291907966136932, -0.12094387412071228, -0.03793434798717499, -0.03554260730743408, -0.07738856971263885, -0.15433424711227417, -0.14177988469600677, 0.033077359199523926, -0.15880300104618073, 0.0997544378042221, -0.11823336780071259, -0.08818338811397552, -0.030644893646240234, -0.033177152276039124, -0.06818828731775284, 0.12999941408634186, 0.0619947612285614, 0.16735361516475677, 0.06564763188362122, 0.03149266541004181, 0.07663427293300629, 0.0679558515548706, -0.06901142001152039, 0.14928586781024933, 0.09621809422969818, -0.003287956118583679, -0.052902303636074066, -0.0758262649178505, -0.15222328901290894, 0.11721228063106537, -0.1444104015827179, 0.019931748509407043, -0.1679302453994751, -0.06690487265586853, -0.161690816283226, -0.029053598642349243, -0.15613675117492676, -0.10585926473140717, 0.08073775470256805, 0.018208831548690796, 0.08403323590755463, -0.03303857147693634, -0.030970647931098938, 0.09718166291713715, 0.08708323538303375, 0.07280130684375763, -0.1213555634021759, 0.060546308755874634, 0.11119534075260162, 0.06205052137374878, 0.07590596377849579, -0.00528968870639801, -0.11533012986183167, 0.02931275963783264, -0.10770238935947418, 0.06574465334415436, 0.002188175916671753, 0.1703023761510849, 0.1656421273946762, -0.05370406061410904, 0.06416667997837067, -0.06170310825109482], [0.13935230672359467, -0.006787031888961792, 0.03802299499511719, -0.14052879810333252, 0.0893891304731369, -0.17507682740688324, -0.06301607191562653, -0.14027389883995056, 0.13895659148693085, -0.00681653618812561, 0.06639304757118225, 0.06727868318557739, -0.14756812155246735, -0.043657392263412476, -0.17632150650024414, -0.05020663142204285, 0.07838697731494904, -0.15793481469154358, 0.037590816617012024, 0.05006173253059387, 0.14904247224330902, -0.018981128931045532, 0.07297123968601227, -0.06287816911935806, 0.12260459363460541, -0.1329587996006012, 0.0006461590528488159, 0.09324280917644501, 0.01602165400981903, 0.12138544023036957, -0.01763799786567688, 0.03230723738670349, -0.02228522300720215, -0.17367321252822876, -0.12978139519691467, -0.009852126240730286, 0.1392814666032791, 0.09242938458919525, -0.1384170800447464, 0.17562322318553925, 0.08719389140605927, -0.13363045454025269, -0.16797365248203278, -0.14611460268497467, -0.14537286758422852, 0.07052524387836456, 0.027406498789787292, 0.15529675781726837, -0.07752082496881485, -0.05975348502397537, -0.00017634034156799316, -0.08634110540151596, -0.0862063616514206, 0.15436090528964996, -0.114895299077034, -0.06431954354047775, -0.05072154104709625, -0.14066636562347412, -0.09223344177007675, 0.15670333802700043, 0.017479941248893738, -0.16894420981407166, 0.12253804504871368, -0.11523719131946564], [-0.05405957251787186, -0.0022377073764801025, -0.10470756143331528, 0.01827053725719452, -0.09228469431400299, 0.03168363869190216, 0.06033030152320862, 0.112470343708992, 0.05455838143825531, -0.11751148104667664, -0.09033161401748657, -0.15377306938171387, 0.16236494481563568, -0.15687140822410583, -0.04993613064289093, 0.11572448909282684, 0.03894616663455963, 0.12766681611537933, -0.14496269822120667, -0.09328678250312805, -0.1483493149280548, -0.17182034254074097, -0.007157370448112488, -0.004242837429046631, -0.1299743950366974, -0.03805860877037048, 0.10713867843151093, 0.08904321491718292, -0.12851636111736298, -0.10714015364646912, 0.10158742964267731, -0.11911386251449585, -0.07889708876609802, -0.17011761665344238, -0.13952912390232086, 0.07298389077186584, 0.08822803199291229, -0.1459929645061493, -0.13117215037345886, 0.07641850411891937, -0.06884666532278061, -0.02664068341255188, 0.17209090292453766, 0.1274721771478653, -0.11102428287267685, -0.06909748166799545, 0.08853168785572052, 0.15085099637508392, -0.03487551212310791, -0.05175422132015228, 0.03585866093635559, 0.16621465981006622, -0.03414429724216461, 0.10353188216686249, -0.12561172246932983, 0.034152641892433167, -0.07518099993467331, 0.1534661501646042, 0.08189325034618378, 0.06382592022418976, -0.052560701966285706, 0.06423735618591309, -0.11274521797895432, -0.1253833770751953], [0.15574850142002106, -0.09932912141084671, -0.15815705060958862, 0.16447503864765167, -0.05416308343410492, 0.09744979441165924, -0.11773604154586792, -0.008387848734855652, -0.032576099038124084, -0.031595379114151, -0.12098682671785355, -0.1366901993751526, -0.16068097949028015, 0.04796396195888519, -0.1621280461549759, 0.15270031988620758, -0.021834343671798706, 0.029119595885276794, -0.04374910891056061, -0.1324811577796936, -0.10120604187250137, 0.006418243050575256, -0.0821659117937088, -0.10108672827482224, 0.056969985365867615, -0.1386517584323883, -0.16608408093452454, -0.08232640475034714, -0.051250606775283813, 0.1458602398633957, 0.008334249258041382, -0.12750715017318726, -0.040757134556770325, 0.10656367242336273, 0.04855097830295563, 0.12421329319477081, 0.13275472819805145, -0.010358184576034546, -0.1322421431541443, 0.03853048384189606, 0.05881507694721222, 0.16583125293254852, 0.13467295467853546, 0.09858359396457672, 0.14935748279094696, 0.033979713916778564, 0.13916657865047455, 0.0774383395910263, -0.11933723837137222, 0.06341902911663055, -0.13920219242572784, -0.15884838998317719, 0.0818856805562973, 0.08896251022815704, -0.10659759491682053, 0.09084473550319672, -0.015774011611938477, -0.03176102042198181, 0.024849608540534973, -0.006103530526161194, 0.05238203704357147, 0.11938570439815521, -0.028847575187683105, -0.10550675541162491], [0.024083256721496582, -0.024717986583709717, 0.010934367775917053, -0.04547552764415741, -0.07259819656610489, 0.1536756306886673, -0.07638774812221527, 0.16938330233097076, -0.1527250111103058, 0.10728572309017181, 0.052443116903305054, 0.10899339616298676, -0.13430114090442657, 0.10854057967662811, -0.04336400330066681, 0.0402335524559021, -0.135614275932312, -0.017146646976470947, 0.17297299206256866, 0.011590048670768738, 0.09866754710674286, -0.1293412148952484, -0.08910534530878067, -0.009141147136688232, 0.12604136765003204, 0.09062643349170685, -0.1570620834827423, 0.1655534952878952, -0.0137319415807724, -0.05503063648939133, -0.001576840877532959, -0.0830366238951683, -0.053971946239471436, -0.019677653908729553, -0.023789286613464355, 0.14842595160007477, -0.15361922979354858, -0.06423765420913696, -0.11266088485717773, -0.07786756753921509, -0.07307761907577515, 0.02985590696334839, 0.07271309196949005, 0.10554416477680206, -0.012637525796890259, -0.12803824245929718, -0.09070629626512527, -0.16864602267742157, -0.019031494855880737, -0.14773313701152802, 0.00734025239944458, -0.10542212426662445, 0.013576298952102661, 0.0723409354686737, -0.012487813830375671, -0.10519511997699738, -0.028885215520858765, 0.17060036957263947, 0.1594022959470749, 0.03628283739089966, -0.015738606452941895, 0.0644884705543518, -0.051516637206077576, -0.04970073699951172], [-0.01797136664390564, 0.15771658718585968, -0.05766953527927399, 0.13872753083705902, -0.11080516129732132, -0.09886373579502106, -0.12642431259155273, -0.05732658505439758, 0.10880516469478607, 0.03627157211303711, -0.048606738448143005, -0.09432658553123474, 0.13291026651859283, 0.01030886173248291, -0.05539882928133011, -0.15095041692256927, -0.07003866136074066, 0.16174961626529694, 0.013838320970535278, 0.12897269427776337, 0.14348550140857697, -0.06374285370111465, -0.1295226514339447, -0.16669516265392303, -0.13319191336631775, -0.17446362972259521, 0.056273072957992554, -0.14044345915317535, 0.17301522195339203, 0.16830168664455414, 0.053154557943344116, -0.17470315098762512, 0.009735122323036194, -0.00958925485610962, 0.14793531596660614, 0.09987230598926544, 0.1368468552827835, 0.11649991571903229, -0.021704569458961487, -0.027706027030944824, 0.12905199825763702, -0.12049931287765503, -0.0821109488606453, 0.036693885922431946, -0.045134589076042175, 0.02780793607234955, 0.11281438171863556, -0.1305728703737259, 0.08592255413532257, -0.057640157639980316, -0.04595164954662323, 0.03878656029701233, -0.12877552211284637, -0.09095138311386108, -0.13944782316684723, -0.07691677659749985, 0.08464886248111725, -0.15057066082954407, 0.03480777144432068, -0.15532542765140533, -0.09540638327598572, -0.06395476311445236, 0.1388794630765915, -0.06257622689008713], [-0.012717142701148987, -0.009754210710525513, -0.0823715478181839, 0.11628951132297516, -0.16866903007030487, -0.1100761890411377, 0.0754932314157486, -0.12669958174228668, 0.152609720826149, 0.06801152229309082, 0.037365496158599854, -0.1265273243188858, 0.018884524703025818, 0.11202012002468109, 0.08003871142864227, -0.07906600832939148, -0.14221028983592987, 0.019882306456565857, -0.10460758954286575, 0.12225790321826935, 0.06450094282627106, 0.15702791512012482, 0.11251784861087799, -0.08668974041938782, -0.09901288896799088, -0.16383562982082367, -0.0627378597855568, 0.08513908088207245, -0.11471069604158401, 0.06769867241382599, -0.13135747611522675, -0.12597797811031342, -0.027629956603050232, 0.051067814230918884, 0.04854300618171692, 0.016719400882720947, 0.03085862100124359, -0.12244144082069397, -0.07271675765514374, -0.11334311217069626, -0.030023306608200073, 0.12745945155620575, 0.17548881471157074, -0.07138900458812714, -0.05267782509326935, -0.06514693051576614, -0.0841246023774147, 0.13180290162563324, 0.1650371104478836, 0.07414720952510834, -0.06974325329065323, 0.1162853091955185, 0.001545056700706482, 0.00024011731147766113, -0.09047722816467285, 0.1525484174489975, 0.0938190370798111, 0.08215437829494476, 0.09851960837841034, -0.11343107372522354, -0.15450073778629303, 0.02835792303085327, -0.15048561990261078, -0.13820120692253113], [0.08717067539691925, 0.020183533430099487, 0.15526466071605682, -0.0378638356924057, 0.019494935870170593, -0.12967734038829803, -0.05563497543334961, -0.06891056150197983, 0.02945558726787567, 0.1737012416124344, -0.014206483960151672, -0.11439775675535202, -0.13339102268218994, 0.021246105432510376, 0.1505463570356369, 0.15226761996746063, 0.028537288308143616, 0.03171516954898834, 0.06156963109970093, 0.07748816907405853, -0.09671159088611603, -0.10219940543174744, 0.02329152822494507, 0.14793525636196136, 0.13116152584552765, -0.09821905940771103, -0.06707291305065155, -0.09141769260168076, 0.04493996500968933, 0.09279628098011017, 0.05494582653045654, 0.13865415751934052, 0.030781105160713196, 0.16368044912815094, 0.010962188243865967, -0.03682522475719452, -0.0890989825129509, 0.12735222280025482, -0.07017412036657333, 0.0326736718416214, -0.059251390397548676, -0.10966593027114868, 0.007956519722938538, -0.0938214510679245, -0.01750873029232025, -0.14649853110313416, 0.012729734182357788, 0.046737149357795715, -0.07002028822898865, 0.1664898544549942, -0.0047464072704315186, 0.0899239331483841, 0.10076804459095001, 0.1655016988515854, -0.0007225722074508667, -0.08100653439760208, -0.13908708095550537, 0.15528790652751923, 0.07279425859451294, 0.13940058648586273, -0.11910434067249298, 0.14331109821796417, -0.04114560782909393, 0.15038560330867767], [-0.004321828484535217, -0.11489226669073105, -0.07689274847507477, -0.02969793975353241, 0.172512486577034, 0.10831199586391449, 0.157383993268013, 0.08131332695484161, -0.10758315771818161, -0.03104238212108612, 0.026141881942749023, -0.1436239778995514, 0.042725563049316406, 0.15236498415470123, -0.15932662785053253, -0.017326191067695618, -0.12402860820293427, 0.04474811255931854, 0.12836818397045135, 0.13175053894519806, 0.14868281781673431, -0.063771553337574, -0.08759893476963043, 0.1281460076570511, 0.10242320597171783, -0.0153961181640625, 0.020093262195587158, -0.034220293164253235, -0.016981258988380432, -0.17119430005550385, 0.15370537340641022, -0.05932493507862091, -0.08401776105165482, -0.0716385543346405, -0.11958451569080353, 0.05805745720863342, -0.14327120780944824, -0.10175483673810959, -0.02299654483795166, -0.05014340579509735, 7.838010787963867e-06, 0.1318945437669754, 0.16686631739139557, -0.09579595178365707, 0.15647362172603607, -0.10864955931901932, 0.0893113762140274, -0.12828329205513, 0.14387811720371246, -0.057150453329086304, 0.05775505304336548, 0.15418045222759247, 0.0829266756772995, -0.01742851734161377, 0.03500974178314209, -0.07206521183252335, 0.129416361451149, 0.0019230395555496216, 0.04993276298046112, 0.16169722378253937, 0.08932678401470184, -0.07894323766231537, -0.10653749853372574, 0.09950943291187286], [-0.027816250920295715, -0.14292265474796295, 0.13879813253879547, -0.05626300722360611, 0.12250570952892303, 0.1628255397081375, 0.13800092041492462, 0.045585647225379944, 0.1511256843805313, -0.1725720316171646, -0.01700735092163086, -0.14341206848621368, 0.13503535091876984, 0.06452113389968872, 0.16593344509601593, -0.00524391233921051, -0.1129707470536232, 0.021167829632759094, 0.09716252982616425, 0.04166190326213837, 0.13942496478557587, -0.1517755687236786, -0.03959935903549194, 0.10758547484874725, -0.14276519417762756, -0.08460461348295212, 0.09368030726909637, -0.1548745334148407, 0.13058249652385712, 0.17444904148578644, 0.12857963144779205, 0.06518296897411346, -0.056732311844825745, -0.0871211588382721, 0.0645170509815216, -0.09591653198003769, -0.03702692687511444, 0.027424946427345276, -0.07495007663965225, -0.11974429339170456, 0.16455380618572235, 0.11347667872905731, 0.0873512476682663, -0.16019746661186218, -0.0949341282248497, -0.08719925582408905, -0.04987064003944397, 0.15378804504871368, -0.021449163556098938, 0.16767562925815582, -0.15931344032287598, 0.13690577447414398, 0.001423761248588562, 0.04534541070461273, 0.02332209050655365, 0.0654446929693222, -0.032114967703819275, -0.012526541948318481, -0.12059275805950165, -0.03756400942802429, -0.11291346698999405, 0.14083991944789886, -0.07136565446853638, 0.11422760784626007], [-0.0411970317363739, -0.07047796249389648, -0.13207106292247772, 0.0031472742557525635, 0.16523335874080658, 0.09939907491207123, 0.06214021146297455, 0.060333460569381714, -0.12389293313026428, -0.11614790558815002, -0.0029988735914230347, -0.04832051694393158, -0.0960724726319313, 0.10360844433307648, -0.040769994258880615, 0.0270841121673584, -0.1247948408126831, 0.05582062900066376, -0.02524629235267639, -0.020052790641784668, -0.09203881025314331, -0.17161045968532562, 0.08676670491695404, 0.0317225456237793, 0.09408102929592133, -0.15556451678276062, 0.1499573141336441, 0.028036415576934814, -0.05820757895708084, 0.15609650313854218, 0.14283429086208344, -0.07230401039123535, 0.06953926384449005, 0.11768560111522675, -0.03418758511543274, 0.09736679494380951, -0.10929685086011887, 0.03265959024429321, 0.03872722387313843, 0.10350005328655243, 0.1361389011144638, -0.13794250786304474, 0.0138254314661026, -0.07722141593694687, -0.11081426590681076, -0.08216097950935364, 0.05270551145076752, -0.06953424960374832, -0.10355231910943985, 0.025578245520591736, 0.06510786712169647, 0.04939749836921692, -0.07331869751214981, -0.1562938243150711, 0.029510974884033203, -0.015043139457702637, -0.0004856586456298828, -0.12867197394371033, 0.11781637370586395, -0.05787305533885956, -0.17003850638866425, 0.06796583533287048, 0.04862751066684723, -0.14630047976970673], [-0.07315807789564133, 0.026416629552841187, 0.09808270633220673, 0.13532747328281403, 0.04427163302898407, -0.13647237420082092, 0.16661618649959564, -0.07140940427780151, 0.1389622837305069, 0.025824472308158875, -0.164768248796463, -0.08763686567544937, 0.01543813943862915, 0.14942567050457, -0.015945255756378174, -0.15355339646339417, 0.07157394289970398, -0.09798522293567657, 0.06215450167655945, 0.13084472715854645, 0.03794480860233307, 0.011478736996650696, 0.0992884486913681, 0.06485940515995026, 0.025822356343269348, 0.007879316806793213, -0.0663604661822319, 0.027647241950035095, -0.028244540095329285, -0.15666978061199188, 0.07514260709285736, -0.044035404920578, -0.05118785798549652, 0.012424126267433167, 0.024499788880348206, 0.1414956897497177, 0.1680709272623062, 0.11934976279735565, 0.1644107550382614, 0.000956222414970398, 0.01746472716331482, -0.10848379135131836, 0.044481441378593445, 0.1717364639043808, 0.022564411163330078, -0.02092510461807251, -0.12758289277553558, 0.03164191544055939, -0.1279643177986145, -0.11555594950914383, 0.018798217177391052, -0.14104244112968445, -0.09386229515075684, -0.15128716826438904, -0.1713026612997055, -0.07214018702507019, 0.12763400375843048, -0.026500552892684937, 0.05958430469036102, 0.14558856189250946, -0.03749905526638031, -0.15926556289196014, -0.13492992520332336, 0.14811821281909943], [-0.17229816317558289, 0.1686713546514511, 0.0149984210729599, 0.044901564717292786, 0.12928549945354462, -0.1763405203819275, 0.014922812581062317, -0.08873453736305237, 0.02275019884109497, -0.09571540355682373, 0.054718151688575745, 0.0649690330028534, 0.03031378984451294, -0.061082080006599426, 0.15090803802013397, -0.11762136220932007, 0.016910791397094727, 0.04653526842594147, 0.025049850344657898, -0.10566147416830063, 0.07255226373672485, 0.15233854949474335, -0.15751874446868896, -0.0918414369225502, -0.02607123553752899, 0.10514791309833527, 0.05415056645870209, 0.050557300448417664, -0.13819411396980286, -0.0765613541007042, 0.10017715394496918, 0.013363629579544067, -0.13344690203666687, -0.174554243683815, -0.04074069857597351, -0.17502743005752563, -0.12770363688468933, 0.1265655905008316, -0.10510547459125519, 0.12823225557804108, -0.029352113604545593, -0.1215556412935257, 0.15685568749904633, -0.02364446222782135, 0.1499224454164505, -0.0221758633852005, -0.16553515195846558, 0.014778494834899902, -0.07620314508676529, -0.048951923847198486, -0.012161299586296082, 0.0770648866891861, -0.15473924577236176, 0.02012161910533905, -0.07630134373903275, 0.16672049462795258, -0.03707851469516754, -0.12067586183547974, -0.1657390594482422, -0.05464625358581543, 0.08958472311496735, -0.10307015478610992, 0.11297433078289032, -0.0495399534702301], [-0.17003121972084045, 0.15146641433238983, 0.09879077970981598, 0.11076165735721588, -0.09297771751880646, -0.09919766336679459, -0.10260321199893951, 0.09243069589138031, -0.06677106022834778, -0.00990547239780426, 0.13235776126384735, 0.11323176324367523, -0.12232279777526855, -0.027414798736572266, 0.026847124099731445, 0.055324360728263855, -0.028297945857048035, 0.04131390154361725, -0.136271670460701, -0.12034033238887787, 0.007436305284500122, 0.10195823013782501, -0.003700748085975647, -0.07266723364591599, -0.014403179287910461, -0.03884127736091614, -0.015290871262550354, -0.05073539912700653, -0.05609867721796036, -0.15861110389232635, 0.058627575635910034, 0.12403668463230133, 0.15944404900074005, -0.16041554510593414, -0.10671472549438477, -0.026737868785858154, 0.1259697526693344, 0.14735974371433258, -0.0892319604754448, -0.011527374386787415, -0.060505807399749756, -0.0429171621799469, -0.09883026778697968, 0.05392692983150482, -0.07750539481639862, -0.027127772569656372, -0.01361873745918274, 0.1607627123594284, -0.12641310691833496, 0.1447126418352127, 0.010105416178703308, -0.06621059030294418, 0.13919882476329803, 0.17281176149845123, -0.07501207292079926, 0.1221371442079544, -0.17080840468406677, 0.12569628655910492, 0.1224021166563034, -0.17596030235290527, 0.11403454840183258, 0.08495940268039703, 0.16724766790866852, 0.11493377387523651], [0.12272845208644867, -0.023210600018501282, -0.09273529052734375, -0.09067945182323456, 0.029031336307525635, -0.07701906561851501, -0.16380532085895538, -0.06281498819589615, 0.06430429220199585, 0.08734981715679169, -0.06700004637241364, -0.004549041390419006, -0.053902193903923035, -0.0917443335056305, -0.15495334565639496, -0.17180167138576508, -0.04378838837146759, -0.025718212127685547, 0.11840428411960602, 0.0710250735282898, -0.03556455671787262, 0.0938071757555008, -0.1663724035024643, 0.07153947651386261, 0.04104644060134888, -0.008289188146591187, 0.021059900522232056, 0.04885004460811615, -0.17674516141414642, -0.002598315477371216, -0.055429935455322266, -0.06934374570846558, -0.01822248101234436, 0.13343043625354767, -0.008513957262039185, -0.1264611929655075, 0.1543998271226883, -0.143483966588974, -0.16102038323879242, -0.16171985864639282, -0.052035003900527954, -0.16240011155605316, -0.11131083965301514, -0.12145313620567322, 0.008395567536354065, 0.06623268127441406, 0.13503773510456085, -0.11341198533773422, -0.10352825373411179, -0.14832192659378052, 0.05044209957122803, 0.15844209492206573, 0.023727700114250183, -0.03219681978225708, -0.01919683814048767, 0.15039707720279694, 0.0681663304567337, 0.013569727540016174, -0.1746804416179657, -0.1146552711725235, -0.12087997794151306, -0.17419999837875366, 0.0360758900642395, 0.04402904212474823], [-0.15254132449626923, -0.14783242344856262, -0.0033358782529830933, -0.14082324504852295, 0.032767996191978455, 0.09637822210788727, -0.0768691897392273, -0.06944654136896133, 0.13147886097431183, 0.15133576095104218, -0.12523379921913147, -0.15781301259994507, 0.08414272964000702, -0.15163922309875488, 0.12460555136203766, 0.14212723076343536, -0.08127425611019135, 0.1222047358751297, 0.1458435207605362, 0.09855259954929352, 0.1386115401983261, 0.007036030292510986, 0.10004530847072601, 0.13825573027133942, -0.014818578958511353, 0.1685204952955246, -0.020466923713684082, -0.07026111334562302, 0.06423723697662354, -0.11476801335811615, -0.024806544184684753, -0.02036409080028534, -0.01448148488998413, -0.1004519984126091, -0.08741778880357742, -0.01052027940750122, 0.07966850697994232, 0.10503579676151276, 0.06934955716133118, 0.08816222846508026, 0.1373613327741623, 0.036426469683647156, -0.004769667983055115, -0.15461014211177826, -0.042955562472343445, -0.1767171025276184, -0.01158827543258667, 0.09727071225643158, 0.15526144206523895, 0.045484915375709534, 0.16887180507183075, -0.0122595876455307, -0.042952150106430054, 0.03200766444206238, -0.13383230566978455, -0.032506391406059265, 0.1303185075521469, -0.13663434982299805, 0.13264380395412445, 0.06102173030376434, -0.15409308671951294, -0.1681385338306427, 0.039176374673843384, -0.12616519629955292], [-0.03410317003726959, -0.13161331415176392, 0.12201182544231415, 0.06519143283367157, 0.06939183175563812, 0.07527978718280792, -0.09717031568288803, 0.17135067284107208, 0.034036785364151, 0.07718925178050995, -0.0456346720457077, -0.01906546950340271, -0.15532003343105316, 0.07338292896747589, -0.01254640519618988, -0.034488677978515625, 0.004049554467201233, 0.011241868138313293, -0.1720096319913864, -0.09417502582073212, 0.12470780313014984, -0.11565963178873062, -0.140547513961792, 0.0013625621795654297, -0.15383173525333405, 0.14255808293819427, 0.13376237452030182, 0.050128787755966187, -0.034313470125198364, 0.12155400216579437, 0.007553219795227051, -0.13313734531402588, 0.11011625826358795, 0.026475176215171814, 0.03357835114002228, -0.02024000883102417, 0.06104312837123871, 0.029275119304656982, 0.1483200341463089, 0.09480325877666473, 0.0847582072019577, 0.16074399650096893, 0.04169979691505432, -0.1265215128660202, -0.058349862694740295, 0.027094990015029907, -0.1425504982471466, -0.020200565457344055, -0.028741881251335144, -0.02511252462863922, 0.07350338995456696, -0.07519819587469101, 0.00034703314304351807, -0.06282299757003784, -0.1469697207212448, -0.11005144566297531, 0.06585559248924255, 0.15464307367801666, 0.06493383646011353, -0.07970812171697617, -0.0038310587406158447, -0.1559169888496399, 0.021380245685577393, -0.04049372673034668], [0.12409640848636627, -0.0875818207859993, -0.15569816529750824, 0.03566373884677887, 0.0843183845281601, 0.03719247877597809, 0.1345892697572708, -0.17484498023986816, -0.1382315456867218, -0.10749233514070511, 0.1751948446035385, 0.055269137024879456, -0.017081737518310547, -0.08205624669790268, -0.03781259059906006, -0.0961923822760582, 0.04145997762680054, 0.0058710575103759766, 0.006986349821090698, -0.1490873545408249, -0.03442768752574921, -0.05880821496248245, -0.17552514374256134, 0.09682415425777435, 0.10681195557117462, -0.05335225909948349, -0.02124921977519989, -0.041581571102142334, 0.0252763032913208, 0.019940733909606934, 0.16858430206775665, 0.01726330816745758, 0.1471053510904312, -0.08555738627910614, -0.11017295718193054, -0.10325805097818375, 0.11532293260097504, 0.14521177113056183, -0.0800618976354599, 0.14012013375759125, 0.026680395007133484, -0.016799569129943848, 0.1548730581998825, 0.1440451592206955, 0.0820944756269455, 0.1506139487028122, -0.03225970268249512, -0.14707893133163452, -0.17537105083465576, -0.1451168656349182, 0.10247235000133514, 0.009133979678153992, 0.11048842966556549, -0.13858166337013245, 0.013673454523086548, 0.16635508835315704, 0.1324072629213333, -0.04429371654987335, -0.12475551664829254, -0.044592082500457764, -0.06377361714839935, -0.04862047731876373, 0.01717555522918701, -0.07865048199892044], [-0.1646164059638977, -0.09443835914134979, 0.05672463774681091, 0.1246684342622757, -0.0028855353593826294, -0.12940847873687744, 0.08812735974788666, 0.01959647238254547, 0.09983862936496735, 0.09855256974697113, 0.11283992230892181, -0.02621854841709137, -0.0024588853120803833, -0.020488426089286804, -0.09504342079162598, -0.024227142333984375, 0.09800340235233307, -0.06088348478078842, 0.09639950096607208, -0.0878002718091011, 0.014968246221542358, 0.09434770047664642, 0.02586345374584198, -0.0460037887096405, -0.16049548983573914, 0.038716644048690796, 0.10467679798603058, 0.02182687819004059, 0.0438414067029953, -0.1033000722527504, 0.014063820242881775, 0.015128403902053833, 0.1695280522108078, -0.06383995711803436, 0.1313527673482895, -0.16164155304431915, -0.15623022615909576, 0.161319300532341, 0.0024671852588653564, -0.08689609169960022, 0.08860169351100922, 0.16703711450099945, 0.1471874862909317, -0.1258019357919693, 0.1748039573431015, 0.009507104754447937, -0.15894494950771332, -0.10880478471517563, -0.13425005972385406, -0.027082040905952454, 0.17436690628528595, -0.036528974771499634, -0.10937031358480453, -0.036261171102523804, -0.09832383692264557, -0.16722899675369263, -0.1658507138490677, -0.00882597267627716, 0.11783458292484283, 0.11472417414188385, -0.037810444831848145, -0.12037603557109833, -0.17542044818401337, 0.12666846811771393], [-0.03197681903839111, 0.032840192317962646, -0.13923025131225586, -0.037496790289878845, -0.16154229640960693, -0.0968661829829216, 0.11635510623455048, -0.14099940657615662, -0.006993219256401062, 0.02654746174812317, 0.09092141687870026, -0.16930094361305237, -0.07122121751308441, 0.16207845509052277, -0.09322237968444824, -0.1427355259656906, 0.049716755747795105, -0.14674702286720276, 0.004355922341346741, 0.019791990518569946, 0.026511341333389282, -0.14473484456539154, 0.1201993077993393, 0.054025352001190186, -0.01353125274181366, -0.13638517260551453, 0.12652592360973358, 0.11024461686611176, 0.08404435217380524, 0.16485653817653656, -0.08558519929647446, 0.08980958163738251, -0.055210091173648834, 0.0009204894304275513, -0.09162071347236633, -0.005207911133766174, -0.09458321332931519, -0.06391055136919022, -0.070348359644413, 0.15636123716831207, 0.16957490146160126, 0.07069593667984009, 0.15519405901432037, -0.07542886584997177, -0.027592405676841736, -0.14283710718154907, 0.17075930535793304, 0.13366593420505524, 0.07273238897323608, -0.02757158875465393, -0.022248893976211548, 0.1292131394147873, 0.051928624510765076, 0.14887340366840363, -0.03815343976020813, -0.145172581076622, -0.09888767451047897, -0.05490638315677643, -0.08132748305797577, -0.07675746083259583, -0.17665274441242218, -0.09178386628627777, -0.08768145740032196, -0.03667724132537842], [-0.04624761641025543, 0.05415335297584534, -0.1130073294043541, 0.15239976346492767, 0.09209157526493073, -0.11021683365106583, -0.009615093469619751, -0.11042001843452454, 0.013525262475013733, 0.07141150534152985, -0.06549759209156036, -0.018249034881591797, 0.009276941418647766, 0.16322223842144012, 0.16974575817584991, -0.1324785351753235, 0.09466437995433807, -0.1635407656431198, 0.007852420210838318, -0.1760912984609604, -0.028809979557991028, 0.05196571350097656, -0.1565549671649933, -0.08398252725601196, -0.03737780451774597, 0.11424534022808075, -0.03434555232524872, -0.1328928917646408, 0.0026499032974243164, 0.0009051859378814697, -0.05930883437395096, 0.08630456030368805, 0.0015538334846496582, 0.05213522911071777, 0.175456240773201, -0.13232892751693726, 0.15614362061023712, 0.12327300012111664, 0.06531590223312378, -0.041373953223228455, -0.0015712827444076538, -0.11295848339796066, 0.0027017742395401, 0.12579865753650665, 0.1546284407377243, -0.012502610683441162, -0.023359760642051697, 0.015453353524208069, 0.02985750138759613, -0.09007544070482254, -0.0867791399359703, -0.0011133551597595215, -0.0686752125620842, -0.17537614703178406, 0.13261468708515167, -0.03501921892166138, 0.13472627103328705, -0.1566186100244522, -0.15548010170459747, 0.135512575507164, 0.11627547442913055, 0.017678409814834595, -0.08782029151916504, 0.0035852640867233276], [0.006228208541870117, -0.010080128908157349, 0.1629960983991623, 0.15573479235172272, 0.10234324634075165, -0.12366563826799393, -0.124504953622818, -0.11527697741985321, 0.10260982811450958, 0.012419119477272034, -0.05906948447227478, -0.0801611989736557, -0.1210964024066925, 0.0021434128284454346, -0.168646439909935, -0.020361989736557007, -0.12820667028427124, 0.16694067418575287, 0.14527197182178497, 0.020610690116882324, -0.10483269393444061, -0.08062182366847992, 0.13662250339984894, 0.1348511427640915, 0.07150684297084808, -0.17139728367328644, 0.16836895048618317, 0.16239787638187408, 0.05699951946735382, -0.10400215536355972, -0.09553708136081696, -0.021632075309753418, -0.08843225985765457, 0.11214427649974823, -0.11703707277774811, -0.06313049793243408, -0.15648745000362396, -0.16112984716892242, 0.09610791504383087, -0.06527918577194214, -0.14163608849048615, -0.17275449633598328, -0.05602871626615524, -0.1049300953745842, -0.06216774135828018, -0.019817695021629333, -0.14387930929660797, 0.15432851016521454, 0.17546583712100983, 0.05147242546081543, 0.10633863508701324, -0.15467917919158936, 0.12522552907466888, 0.05068039894104004, 0.03978826105594635, 0.021469905972480774, -0.014411821961402893, 0.038606688380241394, -0.17526033520698547, 0.1654777079820633, 0.13841451704502106, 0.059385329484939575, 0.023042023181915283, 0.1491657942533493], [-0.1331615298986435, 0.12480850517749786, 0.09497447311878204, 0.14507324993610382, -0.15029186010360718, 0.03637006878852844, 0.17333193123340607, 0.005202651023864746, 0.03977431356906891, 0.055900588631629944, -0.05966603010892868, -0.1574641615152359, -0.1440841406583786, 0.04722216725349426, 0.01925891637802124, 0.0240086168050766, -0.07318674027919769, 0.11173267662525177, -0.06428562104701996, 0.14948643743991852, 0.03640715777873993, 0.1565864235162735, -0.11378582566976547, 0.07369796931743622, -0.03239554166793823, 0.09520833194255829, 0.11507521569728851, -0.025990575551986694, 0.08165155351161957, -0.07461155205965042, 0.023959428071975708, 0.1747230440378189, 0.15905044972896576, -0.1464962512254715, -0.15863344073295593, -0.014097526669502258, -0.11547604203224182, 0.07688884437084198, 0.09704460203647614, 0.16618062555789948, 0.10042043030261993, 0.06802277266979218, -0.09758040308952332, -0.12763611972332, -0.03253449499607086, -0.10990064591169357, -0.011879757046699524, 0.09943793714046478, 0.04565043747425079, 0.12339948117733002, 0.1646491438150406, 0.08141760528087616, 0.07384355366230011, -0.11652107536792755, -0.06307671964168549, 0.09139163792133331, 0.16973541676998138, 0.1701168566942215, 0.01090039312839508, -0.0413130521774292, -0.14287929236888885, 0.06543618440628052, 0.12423188984394073, 0.06207813322544098], [0.0014842897653579712, 0.054082706570625305, -0.10075170546770096, -0.056927792727947235, -0.06281435489654541, 0.08621560037136078, 0.07299871742725372, 0.08567704260349274, 0.03701832890510559, 0.06841975450515747, -0.0337069034576416, -0.08788726478815079, 0.00466194748878479, -0.11986415833234787, -0.03675264120101929, -0.06741148233413696, 0.15180455148220062, -0.015003100037574768, 0.06973524391651154, -0.03756658732891083, 0.05171477794647217, -0.034092873334884644, -0.07209353148937225, 0.17086176574230194, -0.12520816922187805, -0.06952447444200516, -0.08658050000667572, -0.017013877630233765, -0.10024998337030411, 0.09435917437076569, -0.08442363142967224, -0.016738668084144592, 0.016809552907943726, 0.09016196429729462, -0.06549354642629623, 0.12470497190952301, 0.027524083852767944, -0.08427730202674866, 0.1544771045446396, -0.1671801060438156, 0.11960123479366302, 0.05774080753326416, -0.1410115510225296, -0.17658184468746185, -0.032926127314567566, -0.1651705950498581, -0.03682370483875275, -0.1480458676815033, -0.1263384222984314, 0.10721804201602936, 0.025641977787017822, -0.14005178213119507, 0.0024525225162506104, 0.10502929985523224, 0.028592005372047424, -0.06526414304971695, 0.10876132547855377, 0.12192924320697784, -0.14439265429973602, 0.1234280914068222, -0.15574297308921814, -0.13524198532104492, 0.024278774857521057, -0.1670876443386078], [0.0012891888618469238, -0.07723628729581833, 0.04103653132915497, -0.10278162360191345, -0.05224325507879257, 0.0960163027048111, 0.08529956638813019, 0.023388803005218506, -0.08634987473487854, 0.11239396035671234, -0.09802977740764618, -0.14947834610939026, 0.17442239820957184, 0.03771473467350006, 0.0036581754684448242, 0.052474260330200195, 0.0795341283082962, 0.04246029257774353, 0.0482647567987442, -0.009151309728622437, -0.14464974403381348, -0.06208420544862747, -0.12618792057037354, -0.1438552439212799, -0.000993281602859497, 0.0896676629781723, 0.1420520395040512, -0.09241526573896408, 0.096024289727211, 0.0208471417427063, 0.16819365322589874, -0.0023569315671920776, -0.05339335650205612, -0.04783801734447479, 0.02420775592327118, 0.038825422525405884, -0.09333014488220215, 0.160929337143898, -0.027331680059432983, -0.11561377346515656, -0.13483421504497528, 0.13003645837306976, -0.11963091790676117, -0.0063690245151519775, 0.16471315920352936, 0.12036146223545074, -0.0612059086561203, -0.011740386486053467, -0.15719568729400635, -0.033252596855163574, 0.13675130903720856, -0.043349459767341614, -0.05599592626094818, 0.04706193506717682, 0.14642159640789032, -0.05764293670654297, 0.09733612835407257, 0.08455707132816315, -0.09135379642248154, -0.1411854475736618, 0.06815347075462341, 0.1580243855714798, 0.0015511363744735718, -0.13941696286201477], [-0.14269493520259857, 0.03192657232284546, 0.07664556801319122, 0.1695217341184616, -0.06152760982513428, 0.13971059024333954, 0.054685622453689575, 0.1445699781179428, -0.020665019750595093, -0.15920259058475494, -0.1666388213634491, -0.11937858164310455, -0.15708455443382263, 0.017107367515563965, 0.014082267880439758, 0.11537446081638336, 0.0886123925447464, -0.07318340986967087, 0.12485106289386749, 0.14685563743114471, -0.1108975037932396, 0.07088661193847656, 0.01981326937675476, -0.09655071794986725, 0.1423696130514145, 0.149399533867836, -0.10350309312343597, -0.022941112518310547, -0.02762654423713684, -0.16688182950019836, -0.17409808933734894, 0.11079113185405731, 0.039113953709602356, -0.16481736302375793, -0.17334948480129242, -0.008580207824707031, 0.033212810754776, -0.11580739915370941, 0.054335206747055054, 0.15088869631290436, 0.07829068601131439, 0.10968126356601715, 0.036307647824287415, 0.17285563051700592, 0.16114185750484467, -0.16719679534435272, -0.03377050161361694, 0.08143119513988495, 0.029127731919288635, 0.042921170592308044, 0.03193369507789612, 0.029207885265350342, -0.1581035703420639, 0.0063784122467041016, 0.17627619206905365, -0.014466360211372375, 0.13055922091007233, 0.16341210901737213, 0.0865815132856369, -0.1197478324174881, -0.1054048016667366, -0.03366732597351074, 0.029068052768707275, 0.022241994738578796], [0.033464983105659485, 0.14100299775600433, 0.16585935652256012, -0.11239506304264069, -0.1593143194913864, 0.03342893719673157, 0.14219824969768524, -0.06461630016565323, 0.09494884312152863, 0.007232695817947388, -0.03551103174686432, 0.1147327870130539, -0.09500350803136826, -0.12489691376686096, -0.017789050936698914, -0.17372480034828186, 0.03447219729423523, 0.10707364976406097, -0.08409252762794495, 0.17260073125362396, -0.05154505372047424, 0.09021691977977753, -0.09762811660766602, 0.11526356637477875, -0.017597824335098267, 0.08903332054615021, -0.07961354404687881, 0.14170141518115997, -0.029297158122062683, 0.08896504342556, 0.15148241817951202, 0.12458448112010956, 0.06106749176979065, 0.07128405570983887, -0.06972159445285797, -0.02128787338733673, -0.1693776398897171, 0.11525531113147736, 0.1121329516172409, 0.1206945925951004, -0.042631834745407104, -0.1355697214603424, -0.17360645532608032, 0.13414303958415985, -0.03922779858112335, -0.0082482248544693, 0.16517548263072968, 0.06172402203083038, -0.034921109676361084, -0.029528498649597168, -0.07812470197677612, 0.08073128759860992, -0.13878211379051208, -0.0006407648324966431, -0.012356743216514587, 0.007555916905403137, 0.17069663107395172, -0.02781088650226593, -0.011573776602745056, -0.15057238936424255, -0.062162846326828, 0.01594364643096924, -0.07667616009712219, 0.10561589896678925], [-0.13112062215805054, 0.09280894696712494, -0.1102561503648758, -0.05734221637248993, -0.10913749039173126, -0.030473947525024414, -0.15729068219661713, -0.04743197560310364, -0.13232505321502686, -0.06420857459306717, -0.13272911310195923, 0.04301835596561432, 0.08830542862415314, 0.09201399981975555, -0.1341158151626587, -0.12525597214698792, -0.1597694754600525, 0.06183768808841705, 0.13893501460552216, 0.027686938643455505, -0.1608700156211853, -0.09338553249835968, -0.07301995903253555, -0.016107425093650818, -0.14168286323547363, -0.09147459268569946, 0.11560936272144318, -0.1009838879108429, -0.05494064837694168, -0.16467957198619843, -0.03149259090423584, 0.07417218387126923, 0.10812319815158844, 0.008943259716033936, -0.1757757067680359, -0.11877024173736572, -0.021090537309646606, -0.1557704508304596, 0.11719752848148346, 0.09405021369457245, 0.15485425293445587, -0.11037959903478622, -0.05776718258857727, -0.12330376356840134, -0.00902259349822998, 0.01386888325214386, -0.04853461682796478, 0.17176316678524017, -0.14057853817939758, 0.1302085965871811, -0.02750001847743988, 0.11743529140949249, 0.05968441069126129, -0.09300060570240021, -0.07564625889062881, -0.004832729697227478, -0.13788652420043945, -0.03532968461513519, 0.09659112989902496, -0.1467130482196808, 0.024848520755767822, -0.08646240085363388, 0.05476266145706177, -0.031737834215164185], [0.06041155755519867, -0.14988549053668976, 0.014963611960411072, 0.12802498042583466, 0.10179354250431061, -0.1617286205291748, 0.16398783028125763, -0.17487916350364685, 0.11694057285785675, 0.07656683027744293, 0.1741209477186203, 0.13168741762638092, 0.1385749727487564, 0.011131197214126587, -0.08550183475017548, -0.11438692361116409, 0.058459535241127014, -0.04645088315010071, -0.06293295323848724, 0.01764044165611267, -0.05499826371669769, -0.14149367809295654, 0.04320254921913147, 0.1272173970937729, 0.07602356374263763, 0.12197794020175934, 0.08659966289997101, -0.00338001549243927, 0.07663510739803314, 0.09289126098155975, 0.12476561963558197, -0.1623247116804123, 0.07136224210262299, 0.024519100785255432, 0.12181626260280609, 0.008260071277618408, 0.08463768661022186, 0.04874241352081299, -0.1629057079553604, -0.03183510899543762, 0.08024074137210846, 0.15070869028568268, -0.1552310585975647, 0.06713992357254028, -0.07073745876550674, -0.1392677277326584, 0.1339455395936966, -0.17505790293216705, -0.04945823550224304, 0.051696062088012695, 0.05863942205905914, -0.06678121536970139, -0.026859432458877563, -0.11429795622825623, -0.0035163909196853638, -0.08672329038381577, 0.14503531157970428, 0.11127571761608124, 0.0038332194089889526, -0.1463017463684082, -0.11753377318382263, -0.0971398875117302, -0.06270890682935715, -0.035686835646629333], [-0.05029396712779999, -0.1171984151005745, 0.1334138959646225, 0.13237129151821136, -0.012689158320426941, 0.07315562665462494, -0.13940031826496124, -0.15141478180885315, -0.014424845576286316, -0.0062717050313949585, 0.02832968533039093, -0.016401827335357666, 0.045193299651145935, 0.0037774592638015747, 0.10803757607936859, 0.059134677052497864, -0.10911186784505844, 0.015017673373222351, 0.02419629693031311, 0.011798888444900513, -0.01782125234603882, -0.07706344872713089, -0.03592213988304138, -0.0076878368854522705, -0.1293516308069229, 0.12400053441524506, -0.17216718196868896, -0.032908812165260315, -0.07203435897827148, 0.03151451051235199, -0.04029920697212219, -0.10395844280719757, 0.13862638175487518, -0.06530232727527618, -0.03696472942829132, 0.13791851699352264, -0.05861353874206543, -0.14993023872375488, -0.13149449229240417, -0.15967383980751038, -0.0009660124778747559, 0.1754578799009323, -0.01372748613357544, -0.09039951115846634, 0.01084531843662262, -0.143744558095932, -0.13218793272972107, 0.1467881053686142, 0.009660646319389343, -0.15432460606098175, 0.122359499335289, -0.022899985313415527, -0.16959638893604279, -0.05324116349220276, -0.09007759392261505, 0.05103427171707153, 0.144638791680336, -0.13217753171920776, -0.17525076866149902, 0.02757588028907776, -0.07867126166820526, -0.10618030279874802, 0.09868662059307098, -0.17630843818187714], [-0.06605414301156998, 0.008542075753211975, 0.10441716015338898, 0.06800583004951477, -0.17301610112190247, -0.10526933521032333, -0.028133109211921692, -0.03436484932899475, 0.06395113468170166, 0.03063136339187622, 0.007179126143455505, 0.05912768840789795, -0.10621174424886703, -0.05128297209739685, -0.05417585372924805, 0.04001505672931671, 