{"id": "04887150-9285-4de8-8f7d-317835eaecf3", "population_size": 10, "crossover_prob": 0.5, "mutation_prob": 0.005, "fitness_rounds": 1000, "tournament_size": 5, "generational_best_individuals": [{"non_splittable_weights": [[[-0.053503453731536865, -0.3094547986984253, 0.08079549670219421, -0.18853811919689178, -0.3181070387363434, 0.27132460474967957, 0.17807534337043762, 0.08484506607055664, -0.2744455337524414, -0.22835764288902283, 0.3441613018512726, 0.1410413682460785, 0.05429533123970032, -0.1732126623392105, 0.0657649040222168, -0.18443414568901062, -0.15049773454666138, -0.01179531216621399, -0.03051486611366272, 0.11419561505317688, 0.17670795321464539, 0.1973462998867035, -0.1606946587562561, 0.2694215476512909, 0.3296404778957367, -0.3482385277748108, -0.04258638620376587, 0.28702494502067566, 0.3083232343196869, 0.19233539700508118, -0.24260511994361877, -0.38595888018608093], [0.11846235394477844, -0.33878400921821594, 0.18676063418388367, -0.09827440977096558, 0.33506354689598083, 0.061932116746902466, 0.17541202902793884, 0.01188555359840393, -0.275326669216156, -0.31628280878067017, -0.006261467933654785, -0.36472800374031067, -0.19808530807495117, -0.1709795445203781, 0.31454381346702576, 0.31466957926750183, -0.13064008951187134, 0.052511751651763916, 0.3055090606212616, -0.40188705921173096, -0.2397373616695404, -0.2607617974281311, -0.10381188988685608, -0.2333785593509674, 0.09289059042930603, 0.3532208502292633, 0.23956206440925598, 0.028427451848983765, 0.07728815078735352, 0.25575539469718933, -0.34772875905036926, 0.15713617205619812], [0.13493099808692932, -0.3546296954154968, 0.11000701785087585, 0.33757516741752625, 0.29578033089637756, 0.295162171125412, 0.24941721558570862, 0.30910149216651917, -0.12706264853477478, 0.23066022992134094, 0.05364489555358887, -0.2915450930595398, -0.4124390780925751, -0.2743915319442749, 0.1437758505344391, 0.18321648240089417, -0.17659305036067963, -0.03923019766807556, -0.09487605094909668, 0.3741008937358856, 0.1140686571598053, 0.3181300461292267, 0.3314010202884674, -0.22572579979896545, 0.4013405740261078, -0.32256844639778137, -0.059378743171691895, -0.193777397274971, -0.16504895687103271, 0.09719237685203552, -0.40160661935806274, 0.225257009267807]], [[-0.20937074720859528, -0.1691965013742447, -0.2284964770078659, 0.31908920407295227, 0.08314740657806396, -0.13159401714801788, -0.200382798910141, -0.3148646652698517, -0.15060612559318542, -0.29487887024879456], [0.22474011778831482, -0.3269839584827423, -0.27023401856422424, 0.3047439754009247, 0.3308638036251068, 0.11754608154296875, 0.29771581292152405, 0.01415163278579712, -0.18398839235305786, 0.20359840989112854], [-0.055029213428497314, 0.23912450671195984, -0.37534964084625244, 0.27272024750709534, 0.07443457841873169, -0.0024493038654327393, 0.3605916202068329, 0.17902061343193054, -0.3257490396499634, 0.31872621178627014], [0.17882278561592102, -0.030810624361038208, 0.19260886311531067, 0.2485785186290741, 0.023920685052871704, 0.19024023413658142, -0.23243868350982666, 0.1924097239971161, -0.2884301543235779, 0.33009353280067444], [-0.08289104700088501, -0.011168688535690308, -0.14022591710090637, 0.056397050619125366, 0.2753775417804718, 0.37406423687934875, -0.3297417163848877, -0.23052404820919037, 0.23808738589286804, -0.3606605529785156], [-0.24608461558818817, -0.036318808794021606, 0.09932246804237366, -0.09789407253265381, -0.010761380195617676, -0.1478051096200943, -0.2554985284805298, -0.0016465485095977783, -0.18117648363113403, -0.1735658496618271], [-0.11307761073112488, -0.28886881470680237, 0.08972159028053284, 0.2349020540714264, -0.020794838666915894, 0.03022894263267517, 0.22301378846168518, 0.02389863133430481, 0.09189268946647644, -0.017616242170333862], [0.07673034071922302, -0.1799810379743576, -0.06589242815971375, -0.09190601110458374, -0.35127773880958557, -0.20505844056606293, 0.055752575397491455, 0.1051434576511383, -0.03666737675666809, -0.2855145335197449], [0.2497938573360443, -0.3762916028499603, -0.23495222628116608, 0.19058582186698914, -0.1320190727710724, 0.10377699136734009, 0.2550187408924103, -0.05560901761054993, -0.19107170403003693, -0.09795382618904114], [0.10494250059127808, 0.35586097836494446, 0.10451942682266235, -0.08223959803581238, 0.35664626955986023, -0.15499339997768402, -0.3510800302028656, 0.2756592333316803, 0.08558771014213562, 0.06529101729393005], [0.07501456141471863, 0.26315656304359436, 0.04287683963775635, 0.03045952320098877, -0.02649533748626709, -0.10495135188102722, 0.20844075083732605, -0.3243104815483093, -0.3775407373905182, -0.2520105838775635], [-0.07336080074310303, 0.34816887974739075, 0.23601385951042175, 0.05967360734939575, 0.02776360511779785, 0.11609426140785217, -0.23311734199523926, 0.056527554988861084, 0.2212682068347931, -0.0020111501216888428], [0.3494216501712799, -0.20729884505271912, -0.09357672929763794, 0.1634683907032013, -0.337576299905777, -0.25090911984443665, -0.2449558526277542, 0.3089695870876312, -0.3416048288345337, -0.17811253666877747], [0.10951361060142517, 0.12486657500267029, 0.14502981305122375, -0.18599216639995575, -0.2465219348669052, 0.04260316491127014, -0.06620386242866516, 0.024182111024856567, -0.07880303263664246, 0.01668986678123474], [0.05957600474357605, 0.12347647547721863, 0.03567451238632202, 0.3655374348163605, -0.10789462924003601, -0.02151411771774292, -0.21561859548091888, 0.03392881155014038, -0.010303616523742676, 0.04872432351112366], [0.1746557056903839, 0.08915528655052185, 0.29903653264045715, 0.34039613604545593, 0.2494918406009674, -0.2457774132490158, 0.3276483714580536, 0.18313166499137878, -0.10068410634994507, 0.08552083373069763], [0.005310773849487305, -0.1856967806816101, 0.23615631461143494, 0.29111507534980774, 0.14371755719184875, -0.134616419672966, 0.03304263949394226, -0.2407398819923401, -0.31659024953842163, 0.30973491072654724], [0.2952684462070465, 0.2204459011554718, -0.20147451758384705, 0.0950683057308197, -0.35394003987312317, 0.07973742485046387, -0.33437076210975647, 0.24142321944236755, -0.12352082133293152, -0.34792160987854004], [0.1970755159854889, 0.06411728262901306, 0.21456310153007507, -0.2564864456653595, -0.35599085688591003, 0.1694454848766327, -0.37430304288864136, 0.04365992546081543, -0.37719812989234924, 0.053765565156936646], [0.040088802576065063, -0.3348201513290405, -0.19331426918506622, -0.18015225231647491, 0.2483598291873932, 0.2794668972492218, 0.08912304043769836, -0.024728834629058838, 0.32333770394325256, 0.18709012866020203], [-0.12312215566635132, -0.17527206242084503, 0.08722451329231262, 0.2501765787601471, 0.053776293992996216, -0.3700953722000122, -0.22862903773784637, 0.32244959473609924, -0.30474865436553955, -0.3748874366283417], [-0.08696708083152771, -0.13465003669261932, 0.2829616963863373, -0.3267657160758972, 0.16361060738563538, 0.17607054114341736, 0.30999353528022766, -0.05076557397842407, -0.34132683277130127, 0.08190491795539856], [0.3378547728061676, -0.17100363969802856, 0.27580025792121887, 0.3573053777217865, 0.16927501559257507, -0.2648134231567383, -0.2691117525100708, 0.016389518976211548, 0.26099738478660583, 0.20317694544792175], [0.3751430809497833, -0.07088139653205872, -0.06842651963233948, 0.17336425185203552, 0.07362771034240723, 0.2846125066280365, -0.04005160927772522, -0.1546640396118164, 0.2175760567188263, 0.3089900314807892], [0.28712406754493713, 0.3167553246021271, -0.02800518274307251, 0.050993651151657104, 0.3424619734287262, 0.3556273281574249, -0.08107686042785645, -0.3736184537410736, 0.02168262004852295, 0.10069194436073303], [0.33735135197639465, -0.08186987042427063, 0.16830363869667053, -0.19689539074897766, -0.3593047857284546, 0.1427980363368988, -0.3018687963485718, 0.10373958945274353, -0.052519291639328, 0.2602734863758087], [-0.2028130739927292, -0.1126939058303833, -0.17130868136882782, 0.24054822325706482, 0.1479910910129547, 0.211061030626297, -0.07750818133354187, -0.2145206481218338, 0.30329629778862, 0.3584822118282318], [0.029848933219909668, -0.31738558411598206, -0.18227696418762207, -0.17763565480709076, 0.21229204535484314, 0.2609628736972809, -0.23981837928295135, 0.25641748309135437, 0.03167697787284851, 0.33114054799079895], [0.08930721879005432, 0.30962786078453064, 0.24090144038200378, 0.05449071526527405, 0.3124028146266937, -0.2980431318283081, -0.2975009083747864, -0.14852774143218994, -0.24747984111309052, -0.15379172563552856], [0.29537954926490784, -0.3611011207103729, 0.0128287672996521, -0.06674021482467651, -0.2756289541721344, 0.02762553095817566, -0.17279013991355896, 0.3545386493206024, -0.272071897983551, 0.26343485713005066], [-0.13776662945747375, 0.18401923775672913, -0.2113989293575287, -0.08626580238342285, 0.004525244235992432, -0.049621760845184326, 0.05996674299240112, -0.1481059193611145, -0.2143065333366394, 0.34973379969596863], [0.02457067370414734, -0.14724361896514893, 0.09625545144081116, 0.09181860089302063, -0.03135833144187927, 0.23434188961982727, 0.011614322662353516, -0.24114574491977692, -0.04256308078765869, -0.3722289204597473]], [[0.5143626928329468, 0.06709200143814087, 0.10253119468688965], [0.4535475969314575, 0.4811592102050781, 0.6074907779693604], [0.38735365867614746, -0.25541800260543823, -0.24066594243049622], [-0.6286761164665222, 0.5372748374938965, -0.18187490105628967], [-0.5081271529197693, -0.22478410601615906, 0.14986032247543335], [-0.1219477653503418, -0.3757740557193756, -0.5460717678070068], [-0.5759478807449341, -0.4917038679122925, 0.43806540966033936], [0.1751725673675537, -0.40450072288513184, 0.3761070966720581], [0.47685229778289795, -0.6188417673110962, -0.6549187302589417], [0.1784159541130066, -0.6033907532691956, -0.5308369994163513]]], "splittable_weights": [[[-0.30285048484802246, 0.316057950258255, 0.15451392531394958, 0.15924087166786194, 0.18832841515541077, 0.1710258424282074, -0.06738224625587463, -0.3426998257637024, -0.33584704995155334, -0.3994520902633667, 0.27530089020729065, -0.29353123903274536, -0.3313172459602356, 0.03375232219696045, 0.05784502625465393, -0.018891125917434692, -0.010664254426956177, 0.052881836891174316, -0.3064050078392029, -0.26676177978515625, -0.30762502551078796, 0.3644198477268219, -0.23573705554008484, 0.22415634989738464, -0.22194434702396393, 0.055846333503723145, 0.22480729222297668, -0.34601181745529175, 0.06770828366279602, 0.32185098528862, -0.013744235038757324, 0.3763657510280609], [0.4042111933231354, -0.30175456404685974, -0.22294224798679352, 0.1724410355091095, 0.09553566575050354, -0.018150776624679565, -0.1280028223991394, -0.18536315858364105, 0.18393072485923767, 0.29550907015800476, 0.23924675583839417, 0.41151097416877747, 0.24557366967201233, 0.008289754390716553, 0.13645288348197937, 0.05424192547798157, 0.26121464371681213, -0.2541571259498596, -0.18333743512630463, -0.4019834101200104, -0.24340027570724487, 0.03787100315093994, -0.34551379084587097, 0.17250487208366394, -0.3992481231689453, 0.2200470268726349, -0.3298763930797577, -0.2417275458574295, 0.29267939925193787, 0.22319987416267395, 0.26756957173347473, -0.3617592751979828], [0.3672240078449249, 0.3665676414966583, 0.1214352548122406, 0.07403087615966797, 0.33986881375312805, 0.0005059242248535156, -0.24792644381523132, 0.08343896269798279, 0.0321936309337616, -0.35937026143074036, 0.10494384169578552, -0.183869406580925, 0.33139440417289734, -0.034662872552871704, -0.2302771508693695, -0.10918346047401428, 0.09710851311683655, 0.19280663132667542, 0.3439302146434784, 0.2478025257587433, -0.2688405215740204, -0.015444308519363403, -0.2988578677177429, -0.21973057091236115, 0.11448583006858826, 0.39776286482810974, 0.34329554438591003, 0.18572625517845154, 0.28400662541389465, 0.2149834930896759, -0.4066148102283478, 0.27099964022636414]], [[-0.2849932014942169, -0.23074562847614288, 0.24327799677848816, 0.25894978642463684, -0.2563578486442566, 0.08544892072677612, -0.246024951338768, -0.07728856801986694, -0.3317830562591553, 0.2117774784564972], [0.3517563045024872, -0.15888306498527527, -0.32135266065597534, -0.3538967967033386, 0.03413426876068115, -0.335517555475235, -0.12829089164733887, 0.17135509848594666, 0.22807690501213074, -0.20220868289470673], [0.1781887710094452, -0.303073525428772, 0.2659202516078949, 0.28231576085090637, -0.15082122385501862, 0.35629013180732727, -0.3675476908683777, 0.14164504408836365, -0.2315535843372345, -0.21612288057804108], [0.22928956151008606, -0.2791541814804077, -0.3261174261569977, -0.3405790627002716, 0.29998478293418884, 0.3484245240688324, -0.0030102431774139404, 0.1672707498073578, 0.05394884943962097, -0.21504484117031097], [0.18638625741004944, 0.15022584795951843, -0.3484177887439728, -0.06532695889472961, -0.08730995655059814, 0.2675122320652008, 0.00015616416931152344, 0.06628397107124329, -0.0012561976909637451, -0.09944990277290344], [0.2209756076335907, 0.3404190242290497, 0.18633416295051575, 0.3141709864139557, -0.2975238859653473, -0.1729259490966797, -0.19556468725204468, -0.3336496651172638, 0.25469860434532166, 0.32833853363990784], [-0.32685571908950806, 0.30525490641593933, 0.06276676058769226, 0.35203835368156433, -0.22306495904922485, -0.22366251051425934, -0.1431674063205719, -0.34075847268104553, -0.21540701389312744, 0.07376432418823242], [0.19102999567985535, 0.3384421169757843, 0.0344596803188324, 0.09160783886909485, 0.13660594820976257, -0.3452368676662445, -0.17859022319316864, 0.193330317735672, 0.25367775559425354, 0.10715147852897644], [0.05932098627090454, 0.32947948575019836, -0.13781672716140747, -0.0016570985317230225, -0.32379987835884094, -0.1193808913230896, -0.019587308168411255, -0.28558894991874695, 0.1667397916316986, -0.0011206567287445068], [-0.037457406520843506, 0.10072526335716248, -0.36299648880958557, 0.32567885518074036, -0.14305990934371948, 0.30886778235435486, -0.26486486196517944, 0.21108004450798035, -0.22196729481220245, -0.3331379294395447], [0.14722737669944763, -0.2219039350748062, -0.3524666130542755, -0.17457926273345947, 0.3608383238315582, -0.1403799206018448, -0.34252724051475525, -0.01633581519126892, 0.1262836754322052, 0.3263773024082184], [-0.016497403383255005, 0.2168709933757782, -0.2787437438964844, 0.13098350167274475, 0.003443509340286255, 0.06084570288658142, -0.010307401418685913, 0.31695935130119324, 0.33480069041252136, -0.13961359858512878], [-0.30726733803749084, 0.14433303475379944, -0.15893469750881195, 0.1545916497707367, -0.3073446750640869, 0.055230796337127686, -0.06638726592063904, 0.10346788167953491, -0.18649427592754364, 0.3173716366291046], [-0.2644077241420746, -0.059070736169815063, 0.11942657828330994, 0.008741587400436401, 0.29560086131095886, -0.10780841112136841, -0.15527771413326263, 0.33090129494667053, 0.2609100639820099, 0.13509801030158997], [0.0996178686618805, -0.32718202471733093, 0.10343444347381592, -0.33211323618888855, 0.35011473298072815, 0.35659435391426086, 0.018121063709259033, -0.24306489527225494, -0.1404321938753128, -0.18658313155174255], [0.07362636923789978, -0.2949697971343994, -0.2508663237094879, -0.1725432276725769, -0.02692103385925293, 0.07694786787033081, -0.06811589002609253, -0.3129597306251526, 0.18244346976280212, -0.010214030742645264], [-0.21722739934921265, 0.19915559887886047, -0.25713878870010376, -0.011184453964233398, 0.08472126722335815, -0.08161449432373047, -0.2685489058494568, -0.3626357614994049, -0.24248051643371582, 0.13030573725700378], [0.048324406147003174, -0.2046595960855484, -0.26089373230934143, -0.22575683891773224, 0.34150752425193787, -0.23406723141670227, -0.29161664843559265, -0.23464637994766235, -0.193014457821846, -0.06407195329666138], [0.20207998156547546, 0.1813804805278778, 0.25259003043174744, 0.36822882294654846, 0.17318764328956604, 0.17049285769462585, -0.2967132329940796, -0.3280549645423889, 0.03507271409034729, 0.18971982598304749], [0.35868653655052185, 0.3066641390323639, -0.08597943186759949, 0.29836228489875793, -0.11580237746238708, 0.2827856242656708, 0.35797807574272156, -0.07058033347129822, 0.30198362469673157, -0.1464509814977646], [-0.1669570803642273, 0.1557924449443817, 0.08141452074050903, 0.23239806294441223, 0.1378403604030609, 0.3255915939807892, -0.19558513164520264, -0.09883242845535278, -0.13972173631191254, -0.24241472780704498], [-0.34991222620010376, -0.3045996129512787, 0.30228713154792786, -0.28987863659858704, -0.17672722041606903, 0.039677441120147705, -0.3105008006095886, 0.2187640368938446, 0.33629849553108215, 0.02543136477470398], [0.08699536323547363, 0.1683044731616974, 0.21083322167396545, -0.2034406214952469, 0.15766534209251404, 0.09323465824127197, 0.16195884346961975, -0.36981305480003357, -0.18804757297039032, -0.14771580696105957], [-0.3036697506904602, -0.06832686066627502, -0.368104487657547, -0.3571808934211731, -0.15267449617385864, -0.07515135407447815, 0.3163595497608185, 0.0013068318367004395, 0.2159036099910736, 0.2573671042919159], [-0.05125048756599426, -0.24340346455574036, -0.17183412611484528, -0.283550500869751, 0.03985488414764404, -0.32897016406059265, -0.25870224833488464, -0.13171422481536865, 0.2260100543498993, -0.2526721954345703], [-0.3675878643989563, -0.2372361719608307, 0.37519392371177673, -0.20834767818450928, 0.13872697949409485, 0.11156037449836731, 0.04262876510620117, 0.19352540373802185, 0.013320088386535645, 0.07168972492218018], [-0.25731971859931946, 0.09647154808044434, 0.02999192476272583, -0.0476326048374176, -0.11758708953857422, 0.31062135100364685, -0.009370028972625732, -0.08329042792320251, 0.14211514592170715, 0.2792353928089142], [-0.10491961240768433, 0.19605526328086853, -0.33896809816360474, -0.08640161156654358, 0.1970401108264923, -0.3259948790073395, -0.22062315046787262, -0.36057278513908386, 0.303079217672348, 0.14311560988426208], [0.3373291790485382, 0.20422270894050598, 0.1694730818271637, 0.04197651147842407, 0.3768770396709442, 0.026809006929397583, 0.011741727590560913, 0.21983501315116882, -0.3512183427810669, -0.16304758191108704], [0.222164124250412, 0.15460500121116638, -0.18914993107318878, 0.2041613757610321, -0.2745209038257599, -0.1365470290184021, -0.1987202912569046, 0.17553463578224182, 0.1547967493534088, -0.22494077682495117], [-0.1668744534254074, -0.11789682507514954, -0.12504860758781433, -0.2525249719619751, 0.1056012511253357, 0.11380511522293091, 0.24441459774971008, -0.1293356716632843, -0.23713280260562897, -0.22085385024547577], [0.13480260968208313, 0.03172507882118225, -0.0861172080039978, -0.009667932987213135, 0.09544497728347778, -0.024234116077423096, -0.1705840677022934, 0.1790667474269867, -0.020411312580108643, -0.29903149604797363]], [[-0.06374120712280273, -0.27691295742988586, 0.1643596887588501, 0.30862683057785034], [0.03394073247909546, 0.5612330436706543, -0.2930215001106262, 0.4101121425628662], [0.43517184257507324, -0.48199009895324707, -0.029143571853637695, -0.24818286299705505], [0.5991600751876831, -0.41248995065689087, -0.49767524003982544, -0.44646018743515015], [0.4337359666824341, 0.4191790819168091, -0.2992230951786041, 0.4033294916152954], [-0.1019544005393982, -0.596174418926239, -0.3963159918785095, 0.49659228324890137], [-0.08533138036727905, -0.4397096633911133, 0.14292031526565552, -0.08398783206939697], [0.17457491159439087, 0.18956172466278076, 0.21792876720428467, -0.324283242225647], [0.20480668544769287, 0.4315692186355591, -0.24845460057258606, 0.234513521194458], [0.5178869962692261, -0.3604339361190796, 0.10085761547088623, 0.07469642162322998]]], "generation_number": 0, "fitness": -207, "average_generation_fitness": -1401.1, "csv_string": "S,S,S,S,S,S,S,S,S,S\nS,S,S,S,S,S,S,S,S,S\nS,S,S,S,S,S,S,S,S,S\nS,S,S,S,S,S,S,S,S,S\nS,S,S,S,S,S,S,S,S,S\nS,S,S,S,S,S,S,S,S,S\nS,S,S,S,S,S,S,S,S,S\nS,S,S,S,S,S,S,S,S,S\nS,S,S,S,S,S,S,S,S,S\nS,S,S,S,S,S,S,S,S,S\nS,S,S,S,S,S,S,S,S,S\nS,S,S,S,S,S,S,S,S,S\nS,S,S,S,S,S,S,S,S,S\nS,S,S,S,S,S,S,S,S,S\nS,S,S,S,S,S,S,S,S,S\nS,S,S,S,S,S,S,S,S,S\nS,S,S,S,S,S,S,S,S,S\nS,S,S,S,S,S,S,S,S,S\nS,S,S,S,S,S,S,S,S,S\nS,S,S,S,S,S,S,S,S,S\nS,S,S,S,S,S,S,S,S,S\nS,S,S,S,S,S,S,S,S,S\nS,S,S,S,S,S,S,S,S,S\nS,S,S,S,S,S,S,S,S,S\nS,S,S,S,S,S,S,S,S,S\nS,S,S,S,S,S,S,S,S,S\nS,S,S,S,S,S,S,S,S,S\nS,S,S,S,S,S,S,S,S,S\nS,S,S,S,S,S,S,S,S,S\nS,S,S,S,S,S,S,S,S,S\nS,S,S,S,S,S,S,S,S,S\nS,S,S,S,S,S,S,S,S,S\nS,S,S,S,S,S,S,S,S,S\nS,S,S,S,S,S,S,S,S,S\nS,S,S,S,S,S,S,S,S,S\nS,S,S,S,S,S,S,S,S,S\nS,S,S,S,S,S,S,S,S,S"}, {"non_splittable_weights": [[[-0.1757875382900238, 0.3823150098323822, -0.4067098796367645, 0.29425331950187683, -0.07360529899597168, 0.297237366437912, 0.011567294597625732, -0.04336211085319519, 0.07433521747589111, -0.3011597990989685, 0.22681137919425964, -0.15985903143882751, -0.14358434081077576, -0.06935802102088928, 0.16999396681785583, 0.22772958874702454, 0.27393826842308044, -0.35929474234580994, -0.19480155408382416, -0.08445218205451965, 0.006907075643539429, -0.4031054973602295, -0.1941947638988495, 0.034193187952041626, -0.035117149353027344, -0.28099745512008667, 0.366292268037796, -0.16334682703018188, -0.11370992660522461, 0.11943796277046204, 0.39170822501182556, 0.3960174024105072], [2.547619104385376, -0.4002905488014221, 0.17358717322349548, 0.3749949038028717, -0.11405760049819946, -0.19315233826637268, 0.07013192772865295, 0.018555879592895508, 0.3047042787075043, -0.19190102815628052, -0.31441688537597656, -0.29870930314064026, 0.11016765236854553, 0.2135809361934662, -0.22216399013996124, 0.34855321049690247, 0.22628524899482727, -0.38246485590934753, -0.01161012053489685, 0.24920037388801575, -0.07076430320739746, 0.23215165734291077, 0.12565413117408752, 0.009696245193481445, -0.1614997684955597, -0.12453466653823853, -0.41183769702911377, 0.15152493119239807, 0.156124085187912, 0.39529314637184143, 0.11697492003440857, 0.16796615719795227], [0.33521369099617004, -0.21845793724060059, 0.12773874402046204, 0.24840286374092102, -0.1628592610359192, -0.27404385805130005, -0.20086787641048431, -0.4108106791973114, 0.41265568137168884, -0.20152422785758972, -0.27263501286506653, 0.37194445729255676, 0.1990438997745514, -0.22828923165798187, 0.1869763433933258, -0.013132214546203613, 0.061447203159332275, -0.41119301319122314, -0.30687451362609863, 0.40967366099357605, -0.33147627115249634, -0.11855247616767883, -0.34296703338623047, -0.23709861934185028, -0.23256585001945496, -0.3245778977870941, 0.34306004643440247, -0.20898665487766266, 0.36937788128852844, 0.25166091322898865, -0.19970767199993134, -0.022960245609283447]], [[-0.0747104287147522, 0.23485442996025085, -0.34826964139938354, -0.042380958795547485, -0.10756689310073853, 0.2005273401737213, 0.037766486406326294, -0.018390148878097534, 0.15485623478889465, 0.07636654376983643], [0.23707690834999084, 0.2824800908565521, -0.36919522285461426, -0.35071414709091187, -0.14593642950057983, 0.06933748722076416, -0.007451862096786499, 0.28157249093055725, -0.12152686715126038, -0.18427279591560364], [-0.047497063875198364, -0.31600478291511536, 0.15678754448890686, -0.04894247651100159, 0.19406530261039734, -0.1811850517988205, -0.29851964116096497, 0.013151288032531738, 0.24313077330589294, 0.10164201259613037], [-0.022301793098449707, -0.07770419120788574, -0.2708837389945984, -0.28391897678375244, 0.23712900280952454, -0.06516829133033752, 0.2981307804584503, -0.13024428486824036, -0.257595032453537, 0.207363098859787], [-0.008849173784255981, 0.3553156554698944, -0.1414153277873993, 0.14255735278129578, -0.2291172742843628, -0.2282523661851883, 0.3628028333187103, -0.034448593854904175, -0.19719457626342773, -0.13982996344566345], [-0.2585013806819916, 0.1734289824962616, 0.0020117759704589844, 0.147195965051651, 0.2760615050792694, -0.14074848592281342, 0.09342336654663086, -0.3499092757701874, -0.07287704944610596, 0.3681996762752533], [-0.16987162828445435, 0.3206978142261505, 0.3361080586910248, 0.1983354389667511, 0.21271702647209167, -0.28857892751693726, -0.16893985867500305, -0.1893676519393921, 0.001154094934463501, 0.033206284046173096], [0.3226940333843231, -0.16623958945274353, -0.3374880850315094, -0.12828755378723145, 0.09134164452552795, 0.3026706278324127, 0.11890977621078491, -0.2800329923629761, 0.23330071568489075, -0.10763421654701233], [0.09285005927085876, -0.3498225808143616, -0.28677088022232056, 0.0837411880493164, 0.14556679129600525, 0.3502071797847748, 0.24059298634529114, -0.011978626251220703, 0.30155131220817566, 0.1450617015361786], [-0.2731107175350189, 0.2836613357067108, 0.18678507208824158, 0.040338337421417236, 0.36406198143959045, 0.013166964054107666, 0.14903047680854797, -0.04510501027107239, 0.19461414217948914, -0.2677784264087677], [-0.08074769377708435, -0.36941176652908325, 0.17623111605644226, -0.11815065145492554, 0.35483279824256897, -0.07056671380996704, -0.12025922536849976, -0.08749422430992126, 1.868348479270935, -0.3044235408306122], [-0.08355987071990967, 0.017652928829193115, 0.06668967008590698, 0.11314943432807922, -0.27405664324760437, 0.1625201404094696, 0.20784184336662292, -0.23024117946624756, 0.1758612096309662, -0.21809987723827362], [-0.32428377866744995, -0.005491882562637329, 0.13985255360603333, 0.24005934596061707, -0.20924034714698792, 0.03370019793510437, 0.03789788484573364, -0.1981814056634903, -0.319635808467865, -0.1326974481344223], [-0.27330437302589417, -0.3619614243507385, 0.07821178436279297, -0.10404497385025024, 0.3641880452632904, -0.04365694522857666, 0.1490071713924408, 0.12453845143318176, -0.15937310457229614, -0.18958987295627594], [-0.03848344087600708, -0.33473914861679077, -0.2337588518857956, 0.3680962026119232, -0.111651211977005, 0.28212013840675354, 0.020953059196472168, 0.1849784553050995, -0.004892826080322266, 0.19898107647895813], [-0.21640250086784363, -0.19686466455459595, -0.25683391094207764, -0.08702671527862549, 0.3294658958911896, 0.011536270380020142, 0.2846567928791046, 0.044578373432159424, -0.3282187879085541, 0.35115715861320496], [0.04539039731025696, -0.15308848023414612, -0.0856611430644989, 0.07006695866584778, -0.1037830114364624, 0.0005523860454559326, 0.16506531834602356, 0.23363205790519714, -0.23550643026828766, -0.08598673343658447], [0.0808497965335846, 0.3683018386363983, -0.23547813296318054, -0.11967366933822632, 0.28460922837257385, -0.22042597830295563, 0.26754096150398254, 0.3756836950778961, 0.25658658146858215, 0.3316708505153656], [0.0765748918056488, -0.0034177303314208984, 0.09168308973312378, 0.2731751501560211, -0.35696470737457275, -0.34966927766799927, 0.116178959608078, -0.2982197403907776, -0.24768809974193573, -0.13215379416942596], [-0.23105904459953308, 0.34928014874458313, 0.33526769280433655, 0.31175950169563293, 0.043838709592819214, -0.17887435853481293, -0.017682671546936035, 0.13581451773643494, -0.25130248069763184, -0.019526571035385132], [0.020856380462646484, 0.1810443103313446, -0.035638272762298584, 0.31299903988838196, -0.3632670044898987, -0.333688348531723, 0.3653322160243988, 0.04680842161178589, 0.30850496888160706, -0.2530800700187683], [0.1205257773399353, 0.05430641770362854, 0.25870659947395325, 0.2823164761066437, -0.2654418647289276, -0.13692648708820343, -0.08161231875419617, 0.0358852744102478, 0.2532036006450653, 0.3541111648082733], [-0.17369253933429718, -0.037735313177108765, 0.1870901882648468, 0.1109524667263031, 0.12621477246284485, 0.09405657649040222, 0.251812607049942, 0.32633593678474426, 0.32466360926628113, -0.3581306040287018], [-0.19967693090438843, -0.18975315988063812, 0.2439155876636505, -0.0989237129688263, 0.18699243664741516, 0.2420566976070404, 0.16339656710624695, 0.01464870572090149, -0.08607557415962219, -0.05037611722946167], [-0.25887835025787354, 0.08892947435379028, 0.055472493171691895, -0.22654731571674347, -0.020132839679718018, 0.3271026313304901, -0.03593960404396057, 0.2554055154323578, -0.14972291886806488, -3.057927131652832], [0.0031149685382843018, -0.032377690076828, 0.05510708689689636, -0.14816899597644806, 0.259325236082077, -0.18079963326454163, -0.24765007197856903, -0.09846439957618713, -0.2313208281993866, -0.37087738513946533], [-0.24094371497631073, 4.021393299102783, -0.1288803219795227, 0.04273465275764465, 0.10680794715881348, 0.15330573916435242, -0.299764484167099, 0.266452819108963, 0.038223832845687866, 0.16920748353004456], [-0.20848745107650757, -0.24654680490493774, -0.13211126625537872, -0.3513862192630768, 0.08235487341880798, -0.09308424592018127, -0.047115445137023926, -0.2981979250907898, -0.284322589635849, 0.35287758708000183], [0.0062513649463653564, -0.21607258915901184, -0.2905365526676178, -0.003068089485168457, 0.09181490540504456, 0.08328557014465332, 0.23211565613746643, 0.12419393658638, 0.013279885053634644, 0.2053094208240509], [0.32114461064338684, 0.05400922894477844, 0.05134248733520508, -0.31240004301071167, -0.05633270740509033, 0.012918263673782349, 0.078571617603302, 0.07776501774787903, -0.14079543948173523, -0.15254798531532288], [0.28817376494407654, 0.29824885725975037, 0.03246834874153137, 0.1044718325138092, 0.11196514964103699, -0.31535738706588745, -0.08501783013343811, -0.17550942301750183, 0.15741023421287537, -0.36152997612953186], [-0.16112248599529266, -0.0066901445388793945, 0.26787057518959045, 0.021148622035980225, -0.17744901776313782, -0.019010305404663086, -0.1542057991027832, 0.06965243816375732, -0.12491163611412048, 0.3329506814479828]], [[0.14897239208221436, -0.632280707359314, 0.21837949752807617], [0.5895878076553345, -0.13859397172927856, -0.22968915104866028], [-0.5652100443840027, -0.13461703062057495, -0.3980855941772461], [0.5897479057312012, 0.6650134325027466, 0.6489402055740356], [0.39009618759155273, -0.06870430707931519, -0.51109778881073], [0.6319276094436646, 0.34020090103149414, 0.2929649353027344], [0.32078254222869873, 0.0019286274909973145, 0.20514273643493652], [0.389768123626709, 0.07041943073272705, -0.2255617380142212], [0.08953720331192017, 0.5134404897689819, -0.6247460246086121], [-0.5819720029830933, 0.40227437019348145, -0.156544029712677]]], "splittable_weights": [[[-0.40467575192451477, 0.35346683859825134, -0.31392765045166016, -0.2781798243522644, -0.3994806110858917, 0.3931564390659332, -0.28013813495635986, -0.3878917098045349, -0.25445234775543213, -0.40493500232696533, 0.1841990053653717, -0.26741230487823486, 0.17823496460914612, 0.05996638536453247, -0.12477219104766846, 0.34372445940971375, -0.3994745910167694, 0.12974128127098083, 0.22496601939201355, 0.219170480966568, -0.24005137383937836, 0.3176719844341278, 0.052441179752349854, 0.06869465112686157, -0.34529393911361694, -0.17387652397155762, -0.003638237714767456, -0.4066334664821625, -0.22412514686584473, -0.3662318289279938, 0.3456008732318878, 0.3087565004825592], [-0.1922874003648758, -0.12183058261871338, 0.06982672214508057, 0.39931586384773254, 0.20749935507774353, 0.09651824831962585, -0.08347252011299133, -0.33837050199508667, -0.32364365458488464, -0.17444758117198944, 0.10435542464256287, 0.1676746904850006, -0.09263968467712402, -0.1057579517364502, 0.3728751242160797, 1.3741354942321777, -0.03499940037727356, -0.057292014360427856, 0.030825644731521606, -0.2126016914844513, 0.06637278199195862, 0.30523887276649475, -0.034301191568374634, 0.19969412684440613, 0.05054271221160889, 0.16739925742149353, 0.16779986023902893, -0.35463908314704895, 0.00780525803565979, -0.024349063634872437, 0.2487618625164032, -0.1098286509513855], [0.15151944756507874, 0.3972422778606415, 0.2697508633136749, 0.3012356460094452, 0.18551751971244812, 0.04274442791938782, -0.33532989025115967, 0.4068472683429718, 0.2683464586734772, -0.21068939566612244, 0.25642892718315125, -0.13073939085006714, -0.4021264612674713, 0.16966357827186584, 0.00784406065940857, 0.27217212319374084, -0.1154719889163971, 0.31153759360313416, 0.40859255194664, 0.23638835549354553, 0.03105229139328003, -0.2945300340652466, -0.1461179554462433, -0.18164171278476715, -0.21192115545272827, 0.4100474417209625, 0.1586489975452423, -0.33190271258354187, 0.2742638885974884, -0.3194715678691864, 0.009497642517089844, -0.10962638258934021]], [[-0.12919175624847412, -0.2734403610229492, -0.128318190574646, -0.15665203332901, -0.2582605183124542, -0.08730906248092651, -0.25865620374679565, -0.20006658136844635, -0.30838701128959656, 0.3317415416240692], [0.3235888183116913, 0.3033793866634369, -0.2624928951263428, -0.20470312237739563, -0.24412211775779724, -0.021952956914901733, 0.15869924426078796, 0.3239937126636505, -0.0486108660697937, 0.20993664860725403], [0.30343303084373474, -0.02354806661605835, -0.29144662618637085, 0.1443212330341339, -0.12448295950889587, -0.1817200630903244, -0.007724285125732422, -0.2556917369365692, 0.18247374892234802, -0.1549210399389267], [0.13004353642463684, 0.15675672888755798, 0.21458271145820618, -0.14076055586338043, -0.316569060087204, -0.14813321828842163, 0.010935664176940918, -0.3552645444869995, -0.27647051215171814, 0.2202453315258026], [-0.2612553536891937, -0.12519431114196777, 0.0020300745964050293, -0.21195854246616364, -0.07572951912879944, 0.3377358615398407, -0.03959470987319946, -0.05372878909111023, 0.027447670698165894, 0.14714965224266052], [0.02571585774421692, -0.2839335501194, 0.029294729232788086, -0.12866540253162384, -0.02553534507751465, 0.2060510218143463, -0.3722604513168335, -0.2945551872253418, 0.2292015254497528, -0.06292128562927246], [-0.3065163493156433, 0.10186782479286194, 0.31327196955680847, -0.10564368963241577, -0.2413700371980667, 0.22451427578926086, 0.2782077491283417, 0.35450246930122375, -0.3284375071525574, -0.30792564153671265], [-0.19209368526935577, -0.08939230442047119, -0.33196571469306946, -0.13870498538017273, 0.16742154955863953, -0.25628548860549927, -0.23191016912460327, 0.22927990555763245, -0.062357813119888306, 0.19235572218894958], [-0.15541620552539825, 0.16783037781715393, 0.1803503930568695, -0.20439916849136353, 0.1451973021030426, 0.3440682590007782, 0.29541298747062683, 0.19024410843849182, -0.18792825937271118, -0.03306993842124939], [0.35221120715141296, -0.3558419942855835, 0.0919448733329773, -0.02886110544204712, 0.1427457630634308, 0.04102122783660889, -0.1978975534439087, 0.11079016327857971, -0.29145896434783936, 0.005243539810180664], [0.010999470949172974, 0.06104928255081177, -0.3347133696079254, -0.05091750621795654, 0.21013841032981873, -0.3563327491283417, -0.015246719121932983, 0.08193638920783997, 0.28365305066108704, -0.20323975384235382], [0.2012796700000763, -0.25025397539138794, 0.3235289752483368, 0.1528310477733612, -0.27636075019836426, 0.3046818673610687, 0.09411263465881348, 0.04679840803146362, -0.3203585147857666, -0.2689746022224426], [0.0008196830749511719, -0.22440460324287415, 0.22175517678260803, 0.30469128489494324, 0.030439168214797974, 0.3065050542354584, 0.11917760968208313, 0.2933798134326935, 0.13990572094917297, 0.06649357080459595], [-0.0544717013835907, 0.2945503294467926, 0.13356110453605652, 0.06127887964248657, 0.13022968173027039, -0.24958309531211853, -0.038865894079208374, 0.09443199634552002, 0.1899682581424713, -0.2206987589597702], [0.11126318573951721, -0.03715452551841736, 0.09515470266342163, 0.1746266782283783, -0.21083851158618927, -0.2445521354675293, 0.27852097153663635, 0.30172762274742126, -0.3773939609527588, 0.19479545950889587], [-0.12485620379447937, 0.0645819902420044, 0.2503359019756317, -0.36663952469825745, -0.21397951245307922, 0.1718248426914215, -0.18046332895755768, -0.0356161892414093, 0.011019378900527954, 0.03555572032928467], [0.33337733149528503, -0.022290080785751343, -0.037555813789367676, 0.20856973528862, -0.29479026794433594, 0.23715713620185852, -0.3157525360584259, 0.32405731081962585, 0.2806050479412079, 0.08334529399871826], [-0.22943367063999176, 0.3006960451602936, 0.05008351802825928, -0.024204909801483154, 0.2925097644329071, -0.16089576482772827, -0.17584706842899323, -0.06851214170455933, -0.36882340908050537, -0.08167251944541931], [-0.35876402258872986, 0.16695836186408997, 0.23541656136512756, 0.26707515120506287, -0.2391582876443863, 0.06917545199394226, -0.33278584480285645, 0.24244806170463562, -0.2628714442253113, 0.2620292603969574], [-0.08061277866363525, 0.19353660941123962, 0.09709486365318298, 0.13923177123069763, 0.13726875185966492, -0.10762879252433777, -0.12735334038734436, 0.18715497851371765, -0.3048084080219269, -0.3394252359867096], [0.2033936083316803, 0.20351740717887878, 0.187881201505661, -0.15847738087177277, 0.3248489797115326, -0.19925501942634583, 0.07853007316589355, 0.10984748601913452, 0.32518622279167175, -0.36103588342666626], [0.314393013715744, 0.09072238206863403, 0.3457886278629303, -0.1018228530883789, 0.07655984163284302, 0.3270595967769623, -0.07935190200805664, 0.33028319478034973, 0.1702403724193573, -0.3601263463497162], [-0.03710108995437622, 0.03972214460372925, -0.10341238975524902, 0.03838115930557251, -0.2515714764595032, 0.1715276539325714, 0.34663650393486023, 0.37203750014305115, 0.046128690242767334, -0.36619460582733154], [0.2063201367855072, -1.2077374458312988, 0.3678005635738373, -0.2692325711250305, -0.2961665987968445, -0.1520593911409378, 0.0820542573928833, 0.3305928409099579, 0.11114838719367981, 0.1250472366809845], [0.2644177973270416, -0.23338209092617035, 0.29810258746147156, 0.289735347032547, -0.09416437149047852, -0.28554749488830566, -0.28250938653945923, -0.3161313831806183, -0.08995136618614197, -0.09199047088623047], [0.024492919445037842, 0.3707294166088104, 0.15356823801994324, 0.18385979533195496, 0.07302114367485046, 0.11826041340827942, 0.25905606150627136, -0.24898402392864227, 0.3262467682361603, -0.0235825777053833], [0.34638598561286926, 0.2657683193683624, -0.019364893436431885, 0.2375865876674652, 0.32473114132881165, -0.3051767945289612, -0.1492317020893097, 0.22653111815452576, -0.31392034888267517, -0.04152819514274597], [0.04191318154335022, 0.0906200110912323, 0.3458866775035858, 0.3600916564464569, -0.34353235363960266, -0.032810866832733154, -0.31863248348236084, 0.003399461507797241, -0.22187042236328125, -0.06720349192619324], [0.24555400013923645, -0.16705197095870972, 0.07132196426391602, 0.2128833830356598, 0.2751302421092987, 0.1893673837184906, 0.34351256489753723, -0.2711701989173889, 0.12072321772575378, 0.047984302043914795], [-0.22608719766139984, -0.2876024544239044, -0.21587470173835754, 0.3220420181751251, -0.07395896315574646, -0.3575795590877533, -0.14199215173721313, -0.1715286374092102, 0.008637219667434692, -0.04130291938781738], [-0.2478129118680954, -0.1665838360786438, -0.050899773836135864, 0.027107924222946167, 0.15146616101264954, 0.187903493642807, 0.10060209035873413, -0.3061443567276001, -0.2004452496767044, 0.009224414825439453], [-0.2665831446647644, 0.34644338488578796, 0.31790921092033386, 0.2711663544178009, -0.06851646304130554, 0.3348216116428375, 0.2035575807094574, -0.1250039041042328, -0.06430760025978088, -0.09472513198852539]], [[0.12226951122283936, 0.49526965618133545, -0.0805201530456543, 0.5451297760009766], [0.21790099143981934, -0.004451453685760498, -0.45507460832595825, -0.325979083776474], [0.12980026006698608, -0.24660766124725342, 0.19447219371795654, -0.45900821685791016], [0.15094774961471558, 0.16408765316009521, -0.6541640162467957, 0.3482464551925659], [0.2478722333908081, -0.013924837112426758, 0.1497548222541809, 0.5610876083374023], [0.6042627096176147, -0.3662290871143341, 0.5642713308334351, -0.36279669404029846], [-0.400341659784317, 0.2529321312904358, 0.021814584732055664, -0.6203745603561401], [0.5526440143585205, 0.3625572919845581, 0.34741830825805664, 0.04445594549179077], [0.4905780553817749, -0.021471679210662842, 0.806396484375, 0.3427790403366089], [0.47118401527404785, -0.5240992307662964, -0.604412853717804, -0.17382901906967163]]], "generation_number": 1, "fitness": -227, "average_generation_fitness": -709.0, "csv_string": "S,S,S,S,S,S,S,S,S,S\nS,S,S,S,S,S,S,S,S,S\nS,S,S,S,S,S,S,S,S,S\nS,S,S,S,S,S,S,S,S,S\nS,S,S,S,S,S,S,S,S,S\nS,S,S,S,S,S,S,S,S,S\nS,S,S,S,S,S,S,S,S,S\nS,S,S,S,S,S,S,S,S,S\nS,S,S,S,S,S,S,S,S,S\nS,S,S,S,S,S,S,S,S,S\nS,S,S,S,S,S,S,S,S,S\nS,S,S,S,S,S,S,S,S,S\nS,S,S,S,S,S,S,S,S,S\nS,S,S,S,S,S,S,S,S,S\nS,S,S,S,S,S,S,S,S,S\nS,S,S,S,S,S,S,S,S,S\nS,S,S,S,S,S,S,S,S,S\nS,S,S,S,S,S,S,S,S,S\nS,S,S,S,S,S,S,S,S,S\nS,S,S,S,S,S,S,S,S,S\nS,S,S,S,S,S,S,S,S,S\nS,S,S,S,S,S,S,S,S,S\nS,S,S,S,S,S,S,S,S,S\nS,S,S,S,S,S,S,S,S,S\nS,S,S,S,S,S,S,S,S,S\nS,S,S,S,S,S,S,S,S,S\nS,S,S,S,S,S,S,S,S,S\nS,S,S,S,S,S,S,S,S,S\nS,S,S,S,S,S,S,S,S,S\nS,S,S,S,S,S,S,S,S,S\nS,S,S,S,S,S,S,S,S,S\nS,S,S,S,S,S,S,S,S,S\nS,S,S,S,S,S,S,S,S,S\nS,S,S,S,S,S,S,S,S,S\nS,S,S,S,S,S,S,S,S,S\nS,S,S,S,S,S,S,S,S,S\nS,S,S,S,S,S,S,S,S,S"}, {"non_splittable_weights": [[[-0.053503453731536865, 0.3823150098323822, 0.09465155005455017, 0.29425331950187683, -0.3181070387363434, 0.27132460474967957, -0.14231881499290466, 0.2290482223033905, -0.22748292982578278, -0.23442049324512482, -0.08115777373313904, -0.15985903143882751, 0.05057823657989502, -0.1732126623392105, 0.16999396681785583, -0.18443414568901062, -0.16739214956760406, -0.35929474234580994, -0.03051486611366272, 0.11419561505317688, 0.3724888861179352, 0.1973462998867035, -0.1606946587562561, 0.034193187952041626, 0.23814913630485535, -0.40151986479759216, -0.04258638620376587, 0.28702494502067566, -0.11370992660522461, 0.19233539700508118, -0.8567450642585754, 0.3960174024105072], [-0.3032551407814026, -0.4002905488014221, -0.10016292333602905, 0.326856404542923, -0.11405760049819946, -0.19315233826637268, 0.02291157841682434, 0.05119746923446655, -0.12377616763114929, -0.19484291970729828, -0.006261467933654785, 0.21715351939201355, 0.08838805556297302, 0.3650839030742645, -0.22216399013996124, 0.3879341781139374, -0.13064008951187134, -0.41013774275779724, 0.3055090606212616, -0.40188705921173096, -0.07076430320739746, 0.23215165734291077, 0.12565413117408752, 0.02577725052833557, 0.09289059042930603, 0.08547240495681763, -0.41183769702911377, 0.028427451848983765, 0.24786284565925598, 0.39529314637184143, -0.15344157814979553, 0.16796615719795227], [0.33521369099617004, 0.2584117352962494, 0.33297744393348694, 0.33757516741752625, -0.059831053018569946, -0.054994940757751465, 0.24941721558570862, -0.18327178061008453, 0.3943789303302765, 0.23066022992134094, -0.27263501286506653, -0.2915450930595398, 0.34974828362464905, -0.22828923165798187, 0.1869763433933258, 0.35936495661735535, 0.061447203159332275, 0.24007973074913025, -0.09487605094909668, -0.009055882692337036, 0.1140686571598053, 0.3181300461292267, -0.2842663526535034, -0.22572579979896545, 0.11371937394142151, -0.3245778977870941, 0.1410641372203827, -0.2323554903268814, 0.36937788128852844, 0.25166091322898865, -0.40160661935806274, -0.05936107039451599]], [[-0.20937074720859528, -0.1691965013742447, 0.32215461134910583, 0.31908920407295227, -0.01942276954650879, -2.0686686038970947, -0.200382798910141, 0.3232181966304779, 0.3149912655353546, -0.13574257493019104], [0.22474011778831482, 0.26785656809806824, -0.27023401856422424, -0.19309142231941223, 0.3308638036251068, 0.06933748722076416, -0.36808323860168457, 0.01415163278579712, -0.18398839235305786, -0.06000179052352905], [-0.047497063875198364, 0.23912450671195984, 0.1840028464794159, -0.17992886900901794, -0.35628950595855713, -0.0024493038654327393, 0.3605916202068329, 0.27329733967781067, -0.3257490396499634, 0.10164201259613037], [0.18142518401145935, 0.2771911323070526, 0.28158238530158997, -0.28391897678375244, -0.15490923821926117, -0.06516829133033752, -0.2659745216369629, -0.033210426568984985, -0.17892986536026, 0.207363098859787], [-0.08289104700088501, 0.3553156554698944, -0.1419648379087448, 0.2965008318424225, -0.3756546676158905, 0.37406423687934875, -0.08083599805831909, -0.23052404820919037, -0.19719457626342773, -0.04551655054092407], [-0.24608461558818817, 0.1734289824962616, 0.03385421633720398, 0.147195965051651, 0.2760615050792694, -0.14074848592281342, 0.12933167815208435, -0.3499092757701874, -0.07287704944610596, -0.1735658496618271], [-0.11307761073112488, -0.3152523338794708, 0.08972159028053284, -0.2903861403465271, 0.09072074294090271, 0.2331831157207489, 0.29492470622062683, 0.02389863133430481, -0.07822999358177185, 0.18176743388175964], [0.3226940333843231, -0.09689101576805115, 0.36196592450141907, -0.12828755378723145, 0.13001981377601624, 0.13633140921592712, -0.06459859013557434, 0.1051434576511383, -0.03666737675666809, -0.10763421654701233], [0.2497938573360443, -0.3498225808143616, -0.23495222628116608, 0.10611876845359802, -0.1320190727710724, 0.3502071797847748, 0.2550187408924103, 0.22600522637367249, -0.19107170403003693, -0.2924347221851349], [0.10494250059127808, -0.18480582535266876, 0.10451942682266235, -0.25424623489379883, -0.17359450459480286, -0.15499339997768402, 0.14903047680854797, 0.2756592333316803, -0.021585583686828613, -0.16658194363117218], [-0.08074769377708435, 0.3506244719028473, 0.04287683963775635, 0.24484458565711975, -0.02649533748626709, -0.07056671380996704, 0.20844075083732605, 0.04070529341697693, -0.1617421954870224, 0.17263785004615784], [0.35334017872810364, 0.017652928829193115, 0.06668967008590698, 0.05967360734939575, 0.006675630807876587, -0.06074586510658264, 0.23549148440361023, -0.3350386917591095, 0.2212682068347931, 0.28639039397239685], [0.30052557587623596, -0.23122097551822662, -0.09357672929763794, 0.0018613934516906738, 0.13537070155143738, -0.25090911984443665, 0.03789788484573364, 0.3089695870876312, -0.3416048288345337, -0.17811253666877747], [0.10951361060142517, -0.3619614243507385, 0.07821178436279297, -0.18599216639995575, 0.3641880452632904, -0.04365694522857666, 0.1924891173839569, 0.024182111024856567, -0.15937310457229614, -0.18958987295627594], [-0.03848344087600708, 0.12347647547721863, 0.34876713156700134, -0.1956140697002411, 0.03479030728340149, -0.29574134945869446, 0.29826804995536804, -0.028880834579467773, -0.010303616523742676, -0.20434987545013428], [-0.17628160119056702, -0.19686466455459595, 0.29903653264045715, -0.10547038912773132, 0.2494918406009674, 0.011536270380020142, -0.08018690347671509, 0.044578373432159424, 0.17782536149024963, 0.08552083373069763], [0.36576709151268005, -0.15308848023414612, -0.0856611430644989, 0.29111507534980774, 0.14371755719184875, 0.2862013876438141, 0.03304263949394226, 0.23363205790519714, -0.23550643026828766, -0.08598673343658447], [0.2952684462070465, 0.2204459011554718, -0.0331425666809082, 0.0950683057308197, -0.37574461102485657, -0.22042597830295563, -0.33437076210975647, -0.02591770887374878, -0.12352082133293152, 0.28631654381752014], [0.16107109189033508, 0.06411728262901306, 0.09168308973312378, -0.2564864456653595, -0.35696470737457275, -0.20695757865905762, 0.24797603487968445, -0.08687976002693176, 0.09135100245475769, 0.1930345594882965], [0.040088802576065063, 0.34928014874458313, 0.33526769280433655, -0.18015225231647491, 0.043838709592819214, 0.07530805468559265, -0.017682671546936035, 0.08264666795730591, 0.10190072655677795, -0.019526571035385132], [0.020856380462646484, -0.03355574607849121, -0.3621322810649872, 0.3651062548160553, 0.053776293992996216, -0.3700953722000122, 0.3653322160243988, 0.04680842161178589, 0.30850496888160706, -0.2530800700187683], [-0.08696708083152771, -0.04585474729537964, 0.25870659947395325, 0.2823164761066437, -0.2294025719165802, -0.13692648708820343, -0.16912783682346344, -0.145910382270813, -0.2227546125650406, 0.3541111648082733], [-0.17369253933429718, -0.34697282314300537, 0.13073065876960754, -0.274818480014801, 0.16927501559257507, -0.2648134231567383, 0.251812607049942, -0.12925133109092712, 0.26099738478660583, 0.10441598296165466], [0.03609451651573181, 0.26251307129859924, -0.06842651963233948, -0.0989237129688263, 0.07362771034240723, -0.088101327419281, 0.140162855386734, 0.01464870572090149, -0.08607557415962219, -0.05037611722946167], [0.05576580762863159, -0.2687159776687622, 0.055472493171691895, -0.22654731571674347, 0.3424619734287262, 0.23397520184516907, -0.08107686042785645, -0.34214550256729126, -0.14972291886806488, 0.2980097830295563], [-0.28145840764045715, -0.08186987042427063, 0.08158791065216064, -0.26468318700790405, -0.04991987347602844, 0.13774749636650085, -0.3018687963485718, 0.10373958945274353, 0.2858019173145294, 0.2602734863758087], [-0.11830690503120422, -0.050771623849868774, -0.17130868136882782, -0.19449232518672943, 0.1479910910129547, 0.211061030626297, -0.07750818133354187, -0.017232626676559448, 0.30329629778862, 0.27970030903816223], [0.029848933219909668, -0.24654680490493774, -0.13211126625537872, -0.3513862192630768, 0.21229204535484314, 0.2609628736972809, 0.10950082540512085, -0.2981979250907898, 0.03167697787284851, 0.06863325834274292], [0.08930721879005432, -0.061018913984298706, -0.1136307418346405, 0.2981097996234894, 0.3124028146266937, 0.08520588278770447, -0.07722783088684082, 0.12419393658638, 0.013279885053634644, -0.35890713334083557], [0.29537954926490784, 0.05400922894477844, -0.2659222483634949, 0.05768531560897827, -0.2756289541721344, 0.012918263673782349, 0.08978807926177979, 0.3545386493206024, 0.26026394963264465, -0.04999473690986633], [-0.30810198187828064, 0.0870186984539032, -0.2113989293575287, -0.08626580238342285, 0.10429424047470093, -0.31535738706588745, -0.08501783013343811, -0.0673494040966034, -0.36154448986053467, -0.25201788544654846], [-0.16112248599529266, -0.0066901445388793945, 0.26787057518959045, 0.021148622035980225, -0.03135833144187927, 0.23434188961982727, -0.19192300736904144, 0.06965243816375732, -0.12491163611412048, 0.08644890785217285]], [[0.26026684045791626, -0.06531310081481934, -0.398710161447525], [0.3833118677139282, -0.13859397172927856, 0.28124356269836426], [0.38735365867614746, -0.13461703062057495, 0.3708435297012329], [0.20707249641418457, 0.428830623626709, 0.28714168071746826], [-0.5081271529197693, 0.4577246904373169, 0.14986032247543335], [0.6319276094436646, -0.3757740557193756, 0.2929649353027344], [-0.5759478807449341, -0.4917038679122925, -0.10499268770217896], [0.389768123626709, -0.6335421204566956, -0.23682311177253723], [0.47685229778289795, 0.5134404897689819, -0.6247460246086121], [-0.5819720029830933, 0.01445615291595459, 0.4758058786392212]]], "splittable_weights": [[[-0.30285048484802246, -0.15324020385742188, -0.31392765045166016, -0.2781798243522644, 0.18832841515541077, 0.1710258424282074, 0.30480149388313293, -0.3426998257637024, 0.15927818417549133, 0.2320176661014557, 0.07234206795692444, -0.29353123903274536, 0.07630583643913269, -0.20445111393928528, -0.24893668293952942, -0.018891125917434692, 0.39358022809028625, 0.13666585087776184, 0.22496601939201355, -0.26676177978515625, -0.30762502551078796, 0.3644198477268219, 0.18121770024299622, 0.06869465112686157, -0.34529393911361694, -0.17387652397155762, -0.30375391244888306, -0.15619423985481262, 0.4035404622554779, -0.3662318289279938, 0.15929219126701355, -0.23505622148513794], [0.13560524582862854, -0.12183058261871338, -0.25465255975723267, -0.3254879415035248, -0.3073939383029938, -0.20653043687343597, -0.1280028223991394, -0.18536315858364105, 0.18393072485923767, -0.3772400915622711, 0.1335563361644745, 0.41151097416877747, -0.14537116885185242, 0.3183958828449249, 0.3872649371623993, -0.05035525560379028, -0.03499940037727356, -0.057292014360427856, -0.2342311590909958, -0.29777517914772034, 0.06637278199195862, 0.30523887276649475, -0.09747758507728577, 0.23291847109794617, 0.05054271221160889, 0.01307782530784607, 0.16779986023902893, -0.35463908314704895, 0.29770973324775696, -0.0889749825000763, -0.35799458622932434, -0.059352099895477295], [0.3672240078449249, 0.3665676414966583, 0.1214352548122406, 0.3012356460094452, -0.3934413492679596, 0.04274442791938782, -0.33532989025115967, -0.047681450843811035, 0.0321936309337616, -0.35937026143074036, 0.2931567132472992, 0.2790444791316986, -0.2867549657821655, -0.034662872552871704, -0.22500400245189667, 0.27217212319374084, -0.24689842760562897, -0.22504675388336182, 0.3439302146434784, -0.3886469602584839, 0.03105229139328003, -0.07240423560142517, -0.1461179554462433, -0.18164171278476715, 0.12277904152870178, 0.06161513924598694, 0.0322566032409668, -0.33190271258354187, -0.3307296931743622, 0.2149834930896759, 0.06974843144416809, -0.20787355303764343]], [[0.19956347346305847, -0.23074562847614288, -0.128318190574646, 0.19495192170143127, -0.2563578486442566, 0.2671007812023163, 0.2754429280757904, -0.20006658136844635, 0.21898570656776428, 0.057484835386276245], [-0.2336556762456894, -0.32091641426086426, -0.2624928951263428, -0.20470312237739563, 0.03413426876068115, -0.335517555475235, -0.12829089164733887, 0.17135509848594666, 0.0005379021167755127, -0.20220868289470673], [-0.22622236609458923, -0.303073525428772, 0.2659202516078949, 0.05077376961708069, 0.013494610786437988, 0.2773416340351105, 0.24971172213554382, 0.14164504408836365, 0.18247374892234802, -0.1549210399389267], [0.13004353642463684, -0.02318897843360901, -0.3261174261569977, -0.14076055586338043, -0.19084525108337402, -0.14813321828842163, -0.0030102431774139404, 0.1672707498073578, 0.05394884943962097, 0.10506218671798706], [0.18638625741004944, -0.08342579007148743, 0.14363572001457214, -0.21195854246616364, -0.07572951912879944, 0.3377358615398407, -0.03959470987319946, -0.17000536620616913, -0.0519881546497345, -0.09944990277290344], [0.2209756076335907, -0.15367287397384644, 0.029294729232788086, -0.28964900970458984, 0.3693474233150482, 0.2712429463863373, -0.1119966208934784, -0.059556812047958374, 0.22121968865394592, 0.1812223494052887], [-0.32685571908950806, 0.10186782479286194, -0.2140498012304306, -0.26251810789108276, -0.01110425591468811, -0.2976031005382538, 0.15304270386695862, -0.34075847268104553, 0.1793554723262787, 0.1768164336681366], [0.23546931147575378, -0.08939230442047119, 0.0344596803188324, -0.13870498538017273, 0.16742154955863953, -0.25628548860549927, -0.23191016912460327, -0.19411438703536987, 0.19881156086921692, -0.37217843532562256], [0.3634099066257477, 0.10880875587463379, -0.2401275485754013, -0.20439916849136353, 0.1451973021030426, 0.3440682590007782, 0.29541298747062683, -0.3474927842617035, 0.1667397916316986, -0.0011206567287445068], [0.35221120715141296, 0.3690018355846405, 0.0919448733329773, -0.24959760904312134, -0.14305990934371948, 0.30886778235435486, 0.13190922141075134, 0.21108004450798035, -0.22196729481220245, 0.06251615285873413], [0.010999470949172974, 0.06104928255081177, -0.2203071266412735, -0.05091750621795654, 0.21013841032981873, 0.08063694834709167, -0.015246719121932983, -0.12294605374336243, 0.1262836754322052, -0.20323975384235382], [-0.01520434021949768, -0.0830339789390564, 0.3235289752483368, 0.1528310477733612, 0.003443509340286255, -0.03474751114845276, -0.35527563095092773, 0.04679840803146362, 0.33480069041252136, 0.018670499324798584], [0.0008196830749511719, 0.14433303475379944, 0.22175517678260803, 0.30469128489494324, -0.3073446750640869, -0.2223324328660965, -0.2730505168437958, 0.237481027841568, -0.18649427592754364, 0.12801828980445862], [-0.2644077241420746, -0.059070736169815063, 0.11942657828330994, -0.1158546507358551, 0.1799549162387848, 0.31558486819267273, -0.038865894079208374, 0.1213129460811615, 0.2609100639820099, -0.2206987589597702], [0.2976283133029938, 0.03003564476966858, 0.10343444347381592, -0.33211323618888855, -0.21083851158618927, 0.35659435391426086, 0.20381876826286316, -0.05335870385169983, 0.21032145619392395, 0.20084860920906067], [-0.15422463417053223, -0.1395956575870514, -0.11273005604743958, -0.1725432276725769, -0.21397951245307922, -0.02976122498512268, 0.23244354128837585, 0.26378998160362244, 0.011019378900527954, 0.05030238628387451], [0.33337733149528503, -0.3605280816555023, -0.279399037361145, 0.20856973528862, 0.08472126722335815, 0.23715713620185852, 0.09871402382850647, -0.3626357614994049, -0.24073338508605957, -0.371271550655365], [1.4240608215332031, -0.25720420479774475, -0.057197004556655884, -0.024204909801483154, -0.007917404174804688, -0.16089576482772827, 0.2995634377002716, -0.06851214170455933, -0.193014457821846, -0.08167251944541931], [0.1722191870212555, 0.1813804805278778, 0.23541656136512756, 0.34253832697868347, -0.2391582876443863, -0.3259565830230713, -0.33278584480285645, -0.3280549645423889, 0.03507271409034729, -0.017145752906799316], [-0.08061277866363525, 0.19353660941123962, -0.08597943186759949, 0.009623438119888306, 0.13726875185966492, -0.10762879252433777, -0.12735334038734436, -0.041143327951431274, -0.3048084080219269, -0.1464509814977646], [0.2461968958377838, 0.2989575266838074, 0.11919498443603516, -0.15847738087177277, 0.1378403604030609, -0.19925501942634583, -0.20800110697746277, 0.3048166334629059, -0.13972173631191254, -0.24241472780704498], [-0.34991222620010376, 0.2333676517009735, 0.3779187500476837, -0.1018228530883789, 0.07655984163284302, 0.3270595967769623, 0.3139049708843231, -0.31032687425613403, -0.3008183538913727, -0.3601263463497162], [-0.03710108995437622, 0.1683044731616974, 0.17358514666557312, 0.2227781116962433, 0.15766534209251404, 0.2500203549861908, 0.106944739818573, -0.36981305480003357, -0.18804757297039032, -0.29290133714675903], [0.2128821313381195, -0.11429893970489502, -0.12838244438171387, -0.2692325711250305, -4.248057842254639, 0.27875182032585144, 0.0820542573928833, 0.3305928409099579, -0.06740960478782654, 0.1250472366809845], [0.2644177973270416, -0.23338209092617035, 0.29810258746147156, -0.283550500869751, -0.05772453546524048, -0.28554749488830566, -0.3403104245662689, -0.3161313831806183, -0.08995136618614197, -0.2526721954345703], [0.18599197268486023, 0.3707294166088104, -0.17300398647785187, 0.18385979533195496, 0.12601915001869202, 0.07667014002799988, -0.3653530478477478, -0.24898402392864227, 0.013320088386535645, 0.07168972492218018], [-0.25731971859931946, 0.2265249788761139, -0.019364893436431885, 0.32882264256477356, -0.11758708953857422, -0.22128883004188538, -0.28130242228507996, 0.21713122725486755, 0.37096062302589417, -0.04152819514274597], [-0.3535193204879761, 0.0906200110912323, 0.18696889281272888, -0.016002386808395386, -0.34353235363960266, -0.3259948790073395, 0.08908367156982422, -0.0991048514842987, -0.24362261593341827, -0.278567910194397], [0.3373291790485382, 0.20422270894050598, -0.1632561981678009, 0.00799560546875, -0.09693789482116699, 0.1893673837184906, 0.011741727590560913, 0.21983501315116882, 0.15621092915534973, -0.2357366681098938], [-0.22608719766139984, 0.15460500121116638, -0.21587470173835754, 0.30135777592658997, 0.17705413699150085, -0.1988457292318344, -0.20226211845874786, 0.17553463578224182, 0.008637219667434692, -0.22494077682495117], [0.025026649236679077, -0.11789682507514954, -0.050899773836135864, -0.2922801673412323, 0.017194420099258423, 0.11380511522293091, 0.06559064984321594, -0.1293356716632843, -0.10079187154769897, 0.009224414825439453], [0.3689481317996979, 0.03172507882118225, -0.279602587223053, 0.2711663544178009, -0.06851646304130554, 0.19257846474647522, 0.24859455227851868, -0.0958789587020874, -0.020411312580108643, 0.0910235345363617]], [[-0.06374120712280273, 0.07702410221099854, 0.1643596887588501, -0.154424786567688], [0.03394073247909546, 0.5792855024337769, -0.45507460832595825, -0.325979083776474], [0.2939850091934204, -0.4471030831336975, 0.348294734954834, -0.2640955150127411], [-0.5369397401809692, 0.024287521839141846, -0.010626673698425293, 0.5544182062149048], [-0.03699010610580444, -0.013924837112426758, -0.47063377499580383, -0.3433631360530853], [-0.061024606227874756, -0.3662290871143341, 0.07024407386779785, 0.49659228324890137], [-0.08533138036727905, 0.2529321312904358, -0.35447457432746887, 0.3338621258735657], [0.4713249206542969, 0.3249818682670593, -0.4650093913078308, 0.04445594549179077], [0.5426710844039917, -0.021471679210662842, 0.5891817808151245, 0.234513521194458], [0.5178869962692261, -0.5240992307662964, -0.604412853717804, -0.5034619569778442]]], "generation_number": 2, "fitness": -170, "average_generation_fitness": -441.2, "csv_string": "S,S,S,S,S,S,S,S,S,S\nS,S,S,S,S,S,S,S,S,S\nS,S,S,S,S,S,S,S,S,S\nS,S,S,S,S,S,S,S,S,S\nS,S,S,S,S,S,S,S,S,S\nS,S,S,S,S,S,S,S,S,S\nS,S,S,S,S,S,S,S,S,S\nS,S,S,S,S,S,S,S,S,S\nS,S,S,S,S,S,S,S,S,S\nS,S,S,S,S,S,S,S,S,S\nS,S,S,S,S,S,S,S,S,S\nS,S,S,S,S,S,S,S,S,S\nS,S,S,S,S,S,S,S,S,S\nS,S,S,S,S,S,S,S,S,S\nS,S,S,S,S,S,S,S,S,S\nS,S,S,S,S,S,S,S,S,S\nS,S,S,S,S,S,S,S,S,S\nS,S,S,S,S,S,S,S,S,S\nS,S,S,S,S,S,S,S,S,S\nS,S,S,S,S,S,S,S,S,S\nS,S,S,S,S,S,S,S,S,S\nS,S,S,S,S,S,S,S,S,S\nS,S,S,S,S,S,S,S,S,S\nS,S,S,S,S,S,S,S,S,S\nS,S,S,S,S,S,S,S,S,S\nS,S,S,S,S,S,S,S,S,S\nS,S,S,S,S,S,S,S,S,S\nS,S,S,S,S,S,S,S,S,S\nS,S,S,S,S,S,S,S,S,S\nS,S,S,S,S,S,S,S,S,S\nS,S,S,S,S,S,S,S,S,S\nS,S,S,S,S,S,S,S,S,S\nS,S,S,S,S,S,S,S,S,S\nS,S,S,S,S,S,S,S,S,S\nS,S,S,S,S,S,S,S,S,S\nS,S,S,S,S,S,S,S,S,S\nS,S,S,S,S,S,S,S,S,S"}, {"non_splittable_weights": [[[-0.053503453731536865, 0.3823150098323822, -0.4067098796367645, 4.501281261444092, -0.07360529899597168, -0.17983375489711761, -0.14231881499290466, 0.2290482223033905, -0.22748292982578278, -0.23442049324512482, -0.08115777373313904, -0.15985903143882751, -0.14358434081077576, -0.06935802102088928, 0.16999396681785583, -0.3233352601528168, -0.16739214956760406, -0.35929474234580994, -0.03051486611366272, -0.08445218205451965, 0.3724888861179352, 0.2879292666912079, 0.4035254418849945, 0.034193187952041626, 0.23814913630485535, -0.28099745512008667, -0.04258638620376587, -0.16334682703018188, -0.11370992660522461, 0.19233539700508118, -0.8567450642585754, 0.3960174024105072], [-0.3032551407814026, -0.4002905488014221, -0.10016292333602905, 0.3749949038028717, -0.11405760049819946, -0.19315233826637268, 0.02291157841682434, 0.05119746923446655, -0.12377616763114929, -0.19484291970729828, -0.006261467933654785, 0.21715351939201355, 0.11016765236854553, 0.3650839030742645, -0.22216399013996124, 0.3879341781139374, -0.13064008951187134, -0.38246485590934753, -0.01161012053489685, -0.40188705921173096, -0.07076430320739746, 0.23215165734291077, 0.12565413117408752, 0.02577725052833557, 0.09289059042930603, 0.08547240495681763, -0.41183769702911377, 0.028427451848983765, 0.24786284565925598, 0.39529314637184143, -0.15344157814979553, 0.16796615719795227], [0.33521369099617004, 0.2584117352962494, 0.33297744393348694, -0.12862688302993774, -0.059831053018569946, -0.054994940757751465, 0.24941721558570862, -0.18327178061008453, 0.3943789303302765, 0.23066022992134094, -0.27263501286506653, 0.37194445729255676, 0.1990438997745514, -0.22828923165798187, 0.1869763433933258, 0.35936495661735535, 0.061447203159332275, 0.24007973074913025, -0.09487605094909668, 0.40967366099357605, 0.1140686571598053, 0.3181300461292267, -0.2842663526535034, 0.21445533633232117, -0.23256585001945496, -0.3245778977870941, 0.1410641372203827, -0.2323554903268814, 0.36937788128852844, 0.30407097935676575, -0.19970767199993134, -0.05936107039451599]], [[-0.20937074720859528, -0.1691965013742447, 0.32215461134910583, 0.011627018451690674, -0.01942276954650879, 0.2005273401737213, -0.330078125, -0.018390148878097534, 0.3149912655353546, -0.13574257493019104], [0.23707690834999084, 0.2824800908565521, -0.27023401856422424, -0.19309142231941223, -0.14593642950057983, 0.06933748722076416, -0.36808323860168457, 0.01415163278579712, -0.028274893760681152, -0.06000179052352905], [-0.047497063875198364, -0.31600478291511536, 0.1840028464794159, -0.04894247651100159, -0.35628950595855713, -0.0024493038654327393, 0.3605916202068329, 0.27329733967781067, -0.3257490396499634, 0.10164201259613037], [0.18142518401145935, 0.2771911323070526, 0.28158238530158997, -0.28391897678375244, -0.15490923821926117, -0.06516829133033752, -0.2659745216369629, -0.033210426568984985, -0.17892986536026, 0.207363098859787], [-0.08289104700088501, 0.3553156554698944, -0.1419648379087448, 0.14255735278129578, -0.3756546676158905, -0.2282523661851883, -0.08083599805831909, -0.23052404820919037, -0.19719457626342773, -0.13982996344566345], [0.3199714720249176, 0.1734289824962616, 0.03385421633720398, 0.147195965051651, 0.2760615050792694, -0.3426065444946289, 0.12933167815208435, -0.3499092757701874, -0.07287704944610596, -0.37589582800865173], [-0.11307761073112488, 0.3206978142261505, 0.3361080586910248, -0.2903861403465271, 0.09072074294090271, 0.2331831157207489, -0.16893985867500305, 0.02389863133430481, -0.07822999358177185, 0.033206284046173096], [0.3226940333843231, -0.09689101576805115, 0.36196592450141907, -0.12828755378723145, 0.13001981377601624, 0.13633140921592712, 0.11890977621078491, 0.1051434576511383, -0.03666737675666809, -0.10763421654701233], [-0.3638031780719757, -0.3498225808143616, -0.28677088022232056, 0.10611876845359802, 0.14556679129600525, 0.3502071797847748, 0.24059298634529114, 0.22600522637367249, -0.17749236524105072, 0.1450617015361786], [-0.2731107175350189, 0.2836613357067108, 0.18678507208824158, 0.040338337421417236, 0.36406198143959045, -0.15499339997768402, 0.14903047680854797, 0.2756592333316803, -0.021585583686828613, -0.2677784264087677], [-0.08074769377708435, 0.3506244719028473, 0.04287683963775635, -0.11815065145492554, -0.02649533748626709, -0.07056671380996704, 0.20844075083732605, -0.08749422430992126, -0.1617421954870224, 0.17263785004615784], [0.35334017872810364, 0.017652928829193115, 0.06668967008590698, 0.05967360734939575, -0.27405664324760437, -0.06074586510658264, 0.23549148440361023, -0.23024117946624756, 0.2212682068347931, 0.28639039397239685], [-0.32428377866744995, -0.23122097551822662, 0.05551952123641968, 0.0018613934516906738, 0.13537070155143738, 0.03370019793510437, 0.03789788484573364, 0.3089695870876312, -0.3416048288345337, -0.1326974481344223], [0.10951361060142517, -0.3619614243507385, 0.07821178436279297, -0.18599216639995575, 0.3641880452632904, -0.04365694522857666, 0.1490071713924408, 0.024182111024856567, -0.15937310457229614, -0.18958987295627594], [0.03747406601905823, -0.33473914861679077, -0.2337588518857956, -0.1956140697002411, 0.03479030728340149, -0.29574134945869446, 0.29826804995536804, -0.028880834579467773, -0.004892826080322266, -0.20434987545013428], [-0.21640250086784363, -0.19686466455459595, -0.25683391094207764, -0.10547038912773132, 0.3294658958911896, 0.011536270380020142, -0.08018690347671509, 0.044578373432159424, 0.17782536149024963, 0.08552083373069763], [0.36576709151268005, -0.15308848023414612, -0.0856611430644989, 0.29111507534980774, 0.14371755719184875, 0.0005523860454559326, 0.16506531834602356, 0.23363205790519714, -0.23550643026828766, -0.08598673343658447], [0.2952684462070465, 0.3683018386363983, -0.0331425666809082, -0.11967366933822632, 0.28460922837257385, -0.22042597830295563, 0.26754096150398254, -1.6270924806594849, -0.12352082133293152, 0.3316708505153656], [0.16107109189033508, -0.26592153310775757, 0.09168308973312378, 0.2731751501560211, -0.35696470737457275, -0.20695757865905762, 0.24797603487968445, -0.2982197403907776, 0.3224407136440277, -0.30552878975868225], [-0.23105904459953308, 0.34928014874458313, 0.33526769280433655, -0.18015225231647491, 0.043838709592819214, -0.17887435853481293, -0.017682671546936035, 0.08264666795730591, 0.10190072655677795, -0.019526571035385132], [-0.2706770896911621, -0.03355574607849121, -0.035638272762298584, 0.3651062548160553, 0.053776293992996216, -0.3700953722000122, 0.3653322160243988, 0.04680842161178589, 0.30850496888160706, -0.2530800700187683], [-0.08696708083152771, 0.05430641770362854, 0.25870659947395325, 0.2823164761066437, -0.2294025719165802, 0.25852617621421814, -0.16912783682346344, -0.145910382270813, 0.2532036006450653, 0.3541111648082733], [-0.17369253933429718, -0.037735313177108765, 0.1870901882648468, 0.1109524667263031, 0.12621477246284485, -0.2648134231567383, 0.251812607049942, -0.12925133109092712, 0.26099738478660583, -0.3581306040287018], [0.03609451651573181, 0.26251307129859924, -0.06842651963233948, -0.0989237129688263, 0.07362771034240723, -0.088101327419281, 0.16339656710624695, 0.01464870572090149, -0.08607557415962219, 0.14940932393074036], [0.05576580762863159, -0.2687159776687622, 0.07441186904907227, -0.22654731571674347, 0.3424619734287262, 0.23397520184516907, -0.08107686042785645, -0.34214550256729126, -0.14972291886806488, 0.2980097830295563], [0.0031149685382843018, -0.08186987042427063, 0.08158791065216064, -0.26468318700790405, 0.259325236082077, -0.18079963326454163, -0.24765007197856903, -0.09846439957618713, 0.2858019173145294, 0.2602734863758087], [-0.11830690503120422, -0.050771623849868774, -0.1288803219795227, -0.19449232518672943, 0.10680794715881348, 0.15330573916435242, -0.07750818133354187, -0.27563220262527466, 0.038223832845687866, 0.27970030903816223], [0.029848933219909668, -0.24654680490493774, -0.13211126625537872, -0.3513862192630768, 0.21229204535484314, 0.2609628736972809, 0.10950082540512085, -0.2981979250907898, -0.284322589635849, 0.35287758708000183], [0.08930721879005432, -0.061018913984298706, -0.1136307418346405, 0.2981097996234894, -0.31703197956085205, 0.08520588278770447, -0.07722783088684082, 0.12419393658638, 0.013279885053634644, -0.35890713334083557], [0.29537954926490784, 0.05400922894477844, -0.2659222483634949, 0.05768531560897827, -0.2756289541721344, 0.012918263673782349, 0.08978807926177979, 0.07776501774787903, 0.26026394963264465, -0.04999473690986633], [-0.3413535952568054, 0.29824885725975037, -0.2113989293575287, -0.08626580238342285, 0.10429424047470093, -0.31535738706588745, -0.08501783013343811, -0.17550942301750183, 0.15741023421287537, -0.25201788544654846], [-0.16112248599529266, -0.0066901445388793945, 0.26787057518959045, 0.021148622035980225, -0.03135833144187927, 0.23434188961982727, 0.29375848174095154, 0.06965243816375732, -0.12491163611412048, 0.08644890785217285]], [[0.26026684045791626, -0.632280707359314, -0.398710161447525], [0.3833118677139282, -0.13859397172927856, 0.28124356269836426], [0.38735365867614746, -0.13461703062057495, 0.3708435297012329], [0.20707249641418457, 0.428830623626709, 0.28714168071746826], [0.39009618759155273, 0.4577246904373169, -0.4553362727165222], [0.6319276094436646, -0.3757740557193756, 0.2929649353027344], [-0.5759478807449341, -0.4917038679122925, -0.10499268770217896], [0.389768123626709, -0.6335421204566956, -0.2255617380142212], [0.08953720331192017, 0.5134404897689819, -0.6247460246086121], [-0.5819720029830933, 0.01445615291595459, -0.156544029712677]]], "splittable_weights": [[[-0.02650389075279236, -0.15324020385742188, -0.31392765045166016, 4.45688533782959, 0.18832841515541077, -0.01537284255027771, 0.30480149388313293, -0.3426998257637024, -0.25445234775543213, 0.2320176661014557, 0.07234206795692444, -0.29353123903274536, 0.27381089329719543, -0.20445111393928528, -0.24893668293952942, 0.34372445940971375, 0.39358022809028625, 0.13666585087776184, 0.22496601939201355, -0.25599825382232666, -0.24005137383937836, -0.031099170446395874, 0.18121770024299622, 0.06869465112686157, -0.34529393911361694, -0.17387652397155762, -0.30375391244888306, -0.15619423985481262, 0.4035404622554779, -0.3662318289279938, 0.15929219126701355, -0.23505622148513794], [0.13560524582862854, -0.12183058261871338, -0.25465255975723267, 0.39931586384773254, -0.3073939383029938, -0.20653043687343597, -0.1280028223991394, -0.33837050199508667, 0.18393072485923767, -0.3772400915622711, 0.1335563361644745, 0.41151097416877747, -0.09263968467712402, 0.3183958828449249, 0.3872649371623993, -0.05035525560379028, -0.03499940037727356, -0.057292014360427856, -0.2342311590909958, -0.29777517914772034, 0.06637278199195862, 0.30523887276649475, -0.09747758507728577, 0.23291847109794617, 0.05054271221160889, 0.043308407068252563, 0.16779986023902893, -0.34140637516975403, 0.29770973324775696, -0.0889749825000763, -0.35799458622932434, -0.059352099895477295], [0.3672240078449249, 0.3665676414966583, 0.19260969758033752, 0.3012356460094452, -0.3934413492679596, 0.04274442791938782, -0.33532989025115967, -0.047681450843811035, -0.2974558472633362, -0.21068939566612244, 0.2931567132472992, -0.13073939085006714, 0.3175247013568878, -0.034662872552871704, -0.22500400245189667, 0.27217212319374084, -0.24689842760562897, -0.22504675388336182, 0.40859255194664, -0.3886469602584839, 0.03105229139328003, -0.07240423560142517, -0.1461179554462433, -0.18164171278476715, 0.12277904152870178, 0.06161513924598694, 0.0322566032409668, -0.33190271258354187, 0.2742638885974884, 0.2149834930896759, 0.06974843144416809, -0.20787355303764343]], [[0.19956347346305847, -0.2734403610229492, -0.2634243071079254, 0.19495192170143127, -0.2563578486442566, 0.2671007812023163, 0.2754429280757904, -0.20006658136844635, 0.21898570656776428, 0.3317415416240692], [-0.2336556762456894, -0.32091641426086426, -0.2624928951263428, -0.20470312237739563, 0.03413426876068115, 0.07248198986053467, -0.12829089164733887, 0.3239937126636505, 0.0005379021167755127, 0.2232833206653595], [-0.22622236609458923, -0.303073525428772, 0.2659202516078949, 0.05077376961708069, 0.013494610786437988, 0.2773416340351105, 0.2369302213191986, 0.04836854338645935, 0.18247374892234802, -0.1549210399389267], [0.13004353642463684, -0.02318897843360901, -2.5045483112335205, -0.14076055586338043, -0.316569060087204, -0.14813321828842163, -0.0030102431774139404, 0.1672707498073578, 0.05394884943962097, 0.2202453315258026], [-0.2637154459953308, -0.12519431114196777, 0.14363572001457214, -0.21195854246616364, -0.07572951912879944, 0.3377358615398407, -0.03959470987319946, -0.17000536620616913, -0.0519881546497345, -0.09944990277290344], [0.2209756076335907, 0.025849133729934692, 0.029294729232788086, -0.12809039652347565, -0.02553534507751465, 0.2060510218143463, -0.3722604513168335, -0.059556812047958374, 0.22121968865394592, -0.06292128562927246], [-0.3065163493156433, 0.10186782479286194, 0.31327196955680847, -0.10564368963241577, -0.01110425591468811, -0.2976031005382538, 0.2782077491283417, -0.34075847268104553, 0.1793554723262787, 0.1768164336681366], [0.23546931147575378, -0.08939230442047119, -0.33196571469306946, -0.13870498538017273, 0.16742154955863953, -0.25628548860549927, -0.23191016912460327, -0.19411438703536987, 0.19881156086921692, 0.19235572218894958], [0.3634099066257477, 0.10880875587463379, 0.1803503930568695, -0.20439916849136353, 0.1451973021030426, 0.3440682590007782, 0.29541298747062683, -0.3474927842617035, 0.1667397916316986, -0.0011206567287445068], [0.35221120715141296, 0.3690018355846405, 0.0919448733329773, -0.02886110544204712, -0.14305990934371948, 0.04102122783660889, -0.1978975534439087, 0.11079016327857971, -0.22196729481220245, 0.005243539810180664], [-0.09062117338180542, 0.06104928255081177, -0.3347133696079254, -0.05091750621795654, 0.21013841032981873, 0.08063694834709167, -0.015246719121932983, -0.12294605374336243, 0.28365305066108704, -0.20323975384235382], [-0.01520434021949768, -0.0830339789390564, 0.3235289752483368, 0.08420607447624207, 0.003443509340286255, -0.03474751114845276, -0.35527563095092773, 0.04679840803146362, -0.3414537012577057, 0.018670499324798584], [0.0008196830749511719, 0.14433303475379944, 0.22175517678260803, 0.30469128489494324, 0.030439168214797974, -0.2223324328660965, -0.2730505168437958, 4.191866874694824, 0.13990572094917297, 0.12801828980445862], [-0.2644077241420746, -0.059070736169815063, -0.043930619955062866, -0.1158546507358551, 0.1799549162387848, 0.31558486819267273, -0.038865894079208374, 0.1213129460811615, 0.1899682581424713, -0.2206987589597702], [0.2976283133029938, -0.034138232469558716, 0.10343444347381592, -0.33211323618888855, -0.21083851158618927, -0.2445521354675293, 0.20381876826286316, -0.05335870385169983, 0.21032145619392395, 0.20084860920906067], [-0.15422463417053223, -0.1395956575870514, -0.11273005604743958, -0.1725432276725769, -0.21397951245307922, -0.3272770941257477, 0.23244354128837585, -0.0356161892414093, 0.011019378900527954, 0.05030238628387451], [0.33337733149528503, -0.022290080785751343, -0.29792219400405884, 0.20856973528862, 0.08472126722335815, 0.23715713620185852, 0.09871402382850647, -0.3626357614994049, 0.2806050479412079, 0.08334529399871826], [1.4240608215332031, -0.25720420479774475, -0.057197004556655884, -0.024204909801483154, 0.2925097644329071, -0.16089576482772827, 0.2995634377002716, -0.06851214170455933, -0.193014457821846, -0.08167251944541931], [0.1722191870212555, 0.16695836186408997, 0.23541656136512756, 0.34253832697868347, -0.2391582876443863, -0.3259565830230713, -0.33278584480285645, -0.3280549645423889, -0.2628714442253113, -0.017145752906799316], [-0.08061277866363525, 0.19353660941123962, 0.09709486365318298, 0.009623438119888306, 0.13726875185966492, -0.10762879252433777, -0.12735334038734436, 0.18715497851371765, -0.3048084080219269, -0.1464509814977646], [0.2033936083316803, 0.20351740717887878, 0.11919498443603516, -0.15847738087177277, 0.1378403604030609, -0.19925501942634583, -0.20800110697746277, 0.3048166334629059, -0.13972173631191254, -0.36103588342666626], [0.314393013715744, 0.09072238206863403, 0.3779187500476837, -0.1018228530883789, 0.07655984163284302, 0.25306788086891174, -0.07935190200805664, 0.33028319478034973, 0.1702403724193573, -0.3601263463497162], [-0.03710108995437622, 0.03972214460372925, -0.10341238975524902, 0.2227781116962433, -0.023221760988235474, 0.1715276539325714, 0.106944739818573, -0.36981305480003357, 0.046128690242767334, -0.29290133714675903], [0.2063201367855072, -0.11429893970489502, -0.12838244438171387, 0.2342865765094757, 4.006787300109863, 0.27875182032585144, 0.0820542573928833, -2.63157320022583, 0.11114838719367981, 0.1250472366809845], [0.2644177973270416, -0.23338209092617035, 0.29810258746147156, 0.289735347032547, -0.09416437149047852, -0.28554749488830566, -0.3403104245662689, -0.3161313831806183, -0.08995136618614197, -0.2526721954345703], [0.18599197268486023, 0.3707294166088104, 0.15356823801994324, 0.18385979533195496, 0.12601915001869202, 0.07667014002799988, -0.3653530478477478, -0.24898402392864227, 0.013320088386535645, 0.07168972492218018], [-0.25731971859931946, 0.2657683193683624, -0.019364893436431885, 0.2375865876674652, -0.11758708953857422, -0.22128883004188538, -0.1492317020893097, 0.21713122725486755, 0.37096062302589417, -0.04152819514274597], [-0.3535193204879761, 0.0906200110912323, 0.18696889281272888, -0.016002386808395386, -0.34353235363960266, -0.3259948790073395, 0.08908367156982422, 0.003399461507797241, -0.24362261593341827, -0.06720349192619324], [0.3373291790485382, -0.16705197095870972, 0.07132196426391602, 0.00799560546875, 0.2751302421092987, 0.1893673837184906, 0.011741727590560913, 0.21983501315116882, 0.15621092915534973, 0.047984302043914795], [-0.22608719766139984, -0.17549292743206024, -0.21587470173835754, 0.3220420181751251, 0.17705413699150085, -0.1988457292318344, -0.14199215173721313, 0.17553463578224182, 0.008637219667434692, -0.22494077682495117], [0.025026649236679077, -0.11789682507514954, -0.050899773836135864, 0.027107924222946167, 0.017194420099258423, 0.02412453293800354, 0.06559064984321594, -0.3061443567276001, -0.10079187154769897, 0.009224414825439453], [-0.2665831446647644, 0.22545722126960754, -0.279602587223053, 0.2711663544178009, -0.06851646304130554, 0.19257846474647522, 0.2035575807094574, -0.0958789587020874, -0.10718995332717896, 0.0910235345363617]], [[-0.06374120712280273, 0.07702410221099854, 0.5458146333694458, -0.154424786567688], [0.1921178698539734, 0.5792855024337769, -0.45507460832595825, -0.325979083776474], [0.12980026006698608, -0.24660766124725342, 0.348294734954834, -0.2640955150127411], [-0.5369397401809692, 0.024287521839141846, -0.010626673698425293, 0.5544182062149048], [0.2478722333908081, -0.013924837112426758, -0.47063377499580383, -0.3433631360530853], [-0.061024606227874756, -0.3662290871143341, 0.07024407386779785, 0.49659228324890137], [-0.400341659784317, 0.2529321312904358, -0.35447457432746887, 0.3338621258735657], [0.4713249206542969, 0.3249818682670593, -0.4650093913078308, 0.04445594549179077], [0.5426710844039917, -0.021471679210662842, 0.806396484375, 0.234513521194458], [0.5178869962692261, -0.5240992307662964, -0.604412853717804, -0.5034619569778442]]], "generation_number": 3, "fitness": -235, "average_generation_fitness": -787.9, "csv_string": "S,S,S,S,S,S,S,S,S,S\nS,S,S,S,S,S,S,S,S,S\nS,S,S,S,S,S,S,S,S,S\nS,S,S,S,S,S,S,S,S,S\nS,S,S,S,S,S,S,S,S,S\nS,S,S,S,S,S,S,S,S,S\nS,S,S,S,S,S,S,S,S,S\nS,S,S,S,S,S,S,S,S,S\nS,S,S,S,S,S,S,S,S,S\nS,S,S,S,S,S,S,S,S,S\nS,S,S,S,S,S,S,S,S,S\nS,S,S,S,S,S,S,S,S,S\nS,S,S,S,S,S,S,S,S,S\nS,S,S,S,S,S,S,S,S,S\nS,S,S,S,S,S,S,S,S,S\nS,S,S,S,S,S,S,S,S,S\nS,S,S,S,S,S,S,S,S,S\nS,S,S,S,S,S,S,S,S,S\nS,S,S,S,S,S,S,S,S,S\nS,S,S,S,S,S,S,S,S,S\nS,S,S,S,S,S,S,S,S,S\nS,S,S,S,S,S,S,S,S,S\nS,S,S,S,S,S,S,S,S,S\nS,S,S,S,S,S,S,S,S,S\nS,S,S,S,S,S,S,S,S,S\nS,S,S,S,S,S,S,S,S,S\nS,S,S,S,S,S,S,S,S,S\nS,S,S,S,S,S,S,S,S,S\nS,S,S,S,S,S,S,S,S,S\nS,S,S,S,S,S,S,S,S,S\nS,S,S,S,S,S,S,S,S,S\nS,S,S,S,S,S,S,S,S,S\nS,S,S,S,S,S,S,S,S,S\nS,S,S,S,S,S,S,S,S,S\nS,S,S,S,S,S,S,S,S,S\nS,S,S,S,S,S,S,S,S,S\nS,S,S,S,S,S,S,S,S,S"}, {"non_splittable_weights": [[[-0.053503453731536865, 0.3823150098323822, -0.4067098796367645, 0.29425331950187683, -0.07360529899597168, -0.17983375489711761, -0.14231881499290466, 0.2290482223033905, 0.07433521747589111, -0.23442049324512482, 0.22681137919425964, -0.15985903143882751, -0.14358434081077576, -0.06935802102088928, 0.16999396681785583, -0.3233352601528168, -0.16739214956760406, -0.35929474234580994, -0.19480155408382416, -0.08445218205451965, 0.006907075643539429, -0.4031054973602295, -0.1606946587562561, 0.034193187952041626, 0.23814913630485535, -0.40151986479759216, -0.04258638620376587, -0.16334682703018188, -0.11370992660522461, 0.19233539700508118, -0.8567450642585754, 0.3960174024105072], [-0.3032551407814026, -0.4002905488014221, 0.17358717322349548, 0.3749949038028717, -0.11405760049819946, -0.19315233826637268, 0.02291157841682434, 0.018555879592895508, -0.12377616763114929, -0.31628280878067017, -0.09983843564987183, 0.21715351939201355, 0.11016765236854553, 0.3650839030742645, -0.22216399013996124, 0.3879341781139374, -0.13064008951187134, -0.41013774275779724, -0.01161012053489685, -0.40188705921173096, -0.16642050445079803, 0.23215165734291077, 0.12565413117408752, 0.02577725052833557, 0.09289059042930603, 0.08547240495681763, -0.41183769702911377, 0.028427451848983765, 0.24786284565925598, 0.39529314637184143, -0.15344157814979553, 0.16796615719795227], [0.33521369099617004, -0.21845793724060059, 0.33297744393348694, 0.24840286374092102, -0.1628592610359192, -0.27404385805130005, 0.24941721558570862, -0.4108106791973114, 0.3943789303302765, -0.20152422785758972, -0.27263501286506653, -0.2915450930595398, 0.1990438997745514, -0.22828923165798187, 0.1869763433933258, -0.013132214546203613, 0.061447203159332275, -0.41119301319122314, -0.09487605094909668, 0.40967366099357605, 0.1140686571598053, -0.11855247616767883, -0.2842663526535034, -0.22572579979896545, -0.23256585001945496, -0.3245778977870941, 0.1410641372203827, -0.20898665487766266, 0.36937788128852844, 0.25166091322898865, -0.19970767199993134, -0.05936107039451599]], [[-0.20937074720859528, -0.1691965013742447, 0.32215461134910583, -0.042380958795547485, -0.01942276954650879, -0.07892873883247375, -0.330078125, 0.3232181966304779, -0.15060612559318542, 0.07636654376983643], [-0.22224466502666473, 0.26785656809806824, -0.36919522285461426, -2.482433557510376, -0.14593642950057983, 0.06933748722076416, -0.36808323860168457, 0.01415163278579712, -0.028274893760681152, 0.20359840989112854], [-0.047497063875198364, -0.31600478291511536, 0.1840028464794159, -0.04894247651100159, 0.19406530261039734, -0.1811850517988205, -0.29851964116096497, 0.27329733967781067, -0.3257490396499634, 0.10164201259613037], [-0.022301793098449707, 0.2771911323070526, -0.30302730202674866, -0.28391897678375244, 0.23712900280952454, -0.06516829133033752, -0.2659745216369629, 0.1924097239971161, -0.257595032453537, 0.207363098859787], [-0.08289104700088501, 0.3553156554698944, -0.14022591710090637, 0.2965008318424225, 0.2753775417804718, -0.2282523661851883, 0.3628028333187103, -0.23052404820919037, -0.19719457626342773, -0.10265803337097168], [0.3199714720249176, 0.1734289824962616, 0.03385421633720398, 0.147195965051651, 0.2760615050792694, -0.14074848592281342, 0.12933167815208435, -0.3499092757701874, -0.07287704944610596, -0.37589582800865173], [-0.11307761073112488, 0.3206978142261505, 0.3361080586910248, -0.2903861403465271, 0.09072074294090271, 0.2331831157207489, -0.16893985867500305, 0.02389863133430481, -0.07822999358177185, 0.18176743388175964], [0.3226940333843231, -0.16623958945274353, -0.3374880850315094, -0.12828755378723145, 0.13001981377601624, 0.13633140921592712, 0.11890977621078491, 0.1051434576511383, -0.03666737675666809, -0.10763421654701233], [0.09285005927085876, -4.060245037078857, -0.23495222628116608, 0.10611876845359802, 0.14556679129600525, 0.3502071797847748, 0.24059298634529114, 0.22600522637367249, 0.30155131220817566, 0.1450617015361786], [-0.2731107175350189, 0.2836613357067108, 0.18678507208824158, 0.040338337421417236, 0.36406198143959045, -0.15499339997768402, 0.14903047680854797, 0.2756592333316803, -0.021585583686828613, -0.2677784264087677], [-0.08074769377708435, 0.3506244719028473, 0.04287683963775635, 0.24484458565711975, -0.02649533748626709, -0.07056671380996704, 0.20844075083732605, -0.3243104815483093, -0.1617421954870224, -0.3044235408306122], [0.35334017872810364, 0.017652928829193115, 0.06668967008590698, 0.05967360734939575, 0.02776360511779785, 0.1625201404094696, 0.23549148440361023, -0.23024117946624756, 0.2212682068347931, 0.28639039397239685], [-0.32428377866744995, -0.23122097551822662, 0.05551952123641968, 0.0018613934516906738, 0.13537070155143738, 0.03370019793510437, 0.03789788484573364, 0.3089695870876312, -0.19601155817508698, -0.17811253666877747], [0.10951361060142517, -0.3619614243507385, 0.14502981305122375, -0.18599216639995575, 0.3641880452632904, -0.04365694522857666, 0.1490071713924408, 0.12453845143318176, -0.15937310457229614, -0.18958987295627594], [-0.03848344087600708, -0.33473914861679077, -0.2337588518857956, -0.1956140697002411, -0.111651211977005, -0.3096103072166443, 0.29826804995536804, 0.1849784553050995, -0.004892826080322266, -0.20434987545013428], [-0.21640250086784363, -0.19686466455459595, -0.25683391094207764, -0.08702671527862549, 0.3294658958911896, 0.011536270380020142, -0.08018690347671509, 0.044578373432159424, 0.17782536149024963, 0.08552083373069763], [0.36576709151268005, -0.15308848023414612, -0.0856611430644989, 0.07006695866584778, 0.14371755719184875, 0.2862013876438141, 0.16506531834602356, 0.23363205790519714, -0.23550643026828766, -0.08598673343658447], [0.0808497965335846, 0.3683018386363983, -0.0331425666809082, -0.11967366933822632, -0.37574461102485657, -0.22042597830295563, 0.26754096150398254, -1.6270924806594849, -0.12352082133293152, 0.28631654381752014], [0.0765748918056488, 0.06411728262901306, 0.09168308973312378, -0.2564864456653595, -0.35696470737457275, -0.20695757865905762, 0.24797603487968445, -0.2982197403907776, 0.3224407136440277, -0.30552878975868225], [-0.23105904459953308, 0.34928014874458313, 0.33526769280433655, 0.31175950169563293, 0.043838709592819214, -0.17887435853481293, -0.017682671546936035, -0.32552817463874817, 0.10190072655677795, -0.019526571035385132], [-0.2706770896911621, -0.03355574607849121, -0.3621322810649872, 0.3651062548160553, 0.2630203068256378, -0.3700953722000122, -0.22862903773784637, 0.04680842161178589, 0.30850496888160706, -0.1442912220954895], [-0.08696708083152771, 0.05430641770362854, 0.25870659947395325, 0.2823164761066437, -0.2654418647289276, 0.25852617621421814, -0.08161231875419617, -0.145910382270813, 0.2532036006450653, 0.3171961009502411], [-0.17369253933429718, -0.037735313177108765, 0.1870901882648468, 0.1109524667263031, 0.12621477246284485, 0.09405657649040222, 0.251812607049942, -0.12925133109092712, 0.26099738478660583, -0.3581306040287018], [-0.19967693090438843, -0.18975315988063812, 0.2439155876636505, -0.0989237129688263, 0.18699243664741516, -0.088101327419281, 0.16339656710624695, 0.01464870572090149, -0.08607557415962219, 0.14940932393074036], [0.05576580762863159, 0.08892947435379028, 0.07441186904907227, -0.22654731571674347, -0.020132839679718018, 0.3271026313304901, -0.08107686042785645, -0.3736184537410736, -0.14972291886806488, -3.6750543117523193], [-0.28145840764045715, -0.08186987042427063, 0.08158791065216064, -0.26468318700790405, -0.04991987347602844, -0.18079963326454163, -0.36618345975875854, -0.09846439957618713, -0.2313208281993866, -0.10244446992874146], [-0.11830690503120422, -0.050771623849868774, -0.1288803219795227, -0.19449232518672943, 0.2799800932407379, 0.15330573916435242, -0.07750818133354187, 0.266452819108963, 0.038223832845687866, 0.27970030903816223], [-0.20848745107650757, -0.24654680490493774, -0.13211126625537872, -0.3513862192630768, 0.21229204535484314, 0.2609628736972809, 0.10950082540512085, -0.2981979250907898, -0.284322589635849, 0.35287758708000183], [0.08930721879005432, 4.165668487548828, -0.1136307418346405, -0.003068089485168457, 0.09181490540504456, 0.08520588278770447, -0.07722783088684082, 0.12419393658638, 0.013279885053634644, -0.35890713334083557], [0.29537954926490784, -3.6838808059692383, -0.2659222483634949, 0.05768531560897827, -0.2756289541721344, 0.012918263673782349, 0.08978807926177979, 0.07776501774787903, 0.26026394963264465, -0.04999473690986633], [-0.3413535952568054, 0.0870186984539032, -0.2113989293575287, 0.1044718325138092, 0.10429424047470093, -0.31535738706588745, -0.08501783013343811, -0.17550942301750183, -0.36154448986053467, -0.25201788544654846], [-0.16112248599529266, -0.0066901445388793945, 0.26787057518959045, 0.021148622035980225, -0.03135833144187927, 0.23434188961982727, -0.1542057991027832, 0.06965243816375732, -0.12491163611412048, 0.3329506814479828]], [[0.26026684045791626, -0.632280707359314, 0.10253119468688965], [0.3833118677139282, -0.13859397172927856, 0.28124356269836426], [0.38735365867614746, -0.13461703062057495, -0.3980855941772461], [0.5897479057312012, 0.428830623626709, 0.6489402055740356], [0.39009618759155273, 0.4577246904373169, -0.4553362727165222], [0.6319276094436646, -0.3757740557193756, -1.7651790380477905], [-0.5759478807449341, -0.4917038679122925, 0.20514273643493652], [0.389768123626709, -0.6335421204566956, -0.23682311177253723], [0.3911001682281494, 0.5134404897689819, -0.6247460246086121], [-0.5819720029830933, 0.01445615291595459, -0.156544029712677]]], "splittable_weights": [[[-0.02650389075279236, 0.35346683859825134, 0.1794433295726776, -0.2781798243522644, 0.18832841515541077, -0.01537284255027771, 0.30480149388313293, -0.3426998257637024, -0.25445234775543213, 0.2320176661014557, 0.27530089020729065, -0.29353123903274536, 0.17823496460914612, -0.20445111393928528, -0.24893668293952942, 0.34372445940971375, -0.3994745910167694, 0.13666585087776184, 0.22496601939201355, 0.219170480966568, -0.0727912187576294, 0.3176719844341278, 0.18121770024299622, 0.06869465112686157, -0.34529393911361694, -0.17387652397155762, -0.30375391244888306, -0.15619423985481262, 0.4035404622554779, -0.3662318289279938, 0.15929219126701355, -0.23505622148513794], [-0.1922874003648758, -0.12183058261871338, 0.06982672214508057, -0.3254879415035248, -0.3073939383029938, -0.20653043687343597, -0.1280028223991394, -0.33837050199508667, 0.18393072485923767, -0.3772400915622711, 0.23924675583839417, 0.1676746904850006, -0.14537116885185242, 0.3183958828449249, 0.3728751242160797, -0.025227725505828857, -0.03499940037727356, -0.057292014360427856, -0.03769528865814209, -0.29777517914772034, 0.06637278199195862, 0.30523887276649475, -0.034301191568374634, 0.19969412684440613, 0.05054271221160889, 0.01307782530784607, 0.16779986023902893, -0.35463908314704895, 0.29770973324775696, -0.0889749825000763, -0.35799458622932434, -0.1098286509513855], [0.3672240078449249, 0.3972422778606415, 0.2697508633136749, 0.3012356460094452, -0.3934413492679596, 0.04274442791938782, -0.33532989025115967, -0.047681450843811035, -0.2974558472633362, -0.21068939566612244, 0.25642892718315125, 0.2790444791316986, -0.4021264612674713, -0.034662872552871704, -0.22500400245189667, 0.27217212319374084, -0.24689842760562897, -0.22504675388336182, 0.40859255194664, -0.3886469602584839, 0.03105229139328003, -0.2945300340652466, -0.1461179554462433, -0.18164171278476715, 0.12277904152870178, 0.06161513924598694, 0.0322566032409668, -0.33190271258354187, 0.2742638885974884, 0.2149834930896759, 0.06974843144416809, -0.20787355303764343]], [[0.19956347346305847, 0.10267966985702515, -0.128318190574646, 0.19495192170143127, -0.2582605183124542, -0.08730906248092651, -0.25865620374679565, -0.20006658136844635, 0.21898570656776428, 0.3317415416240692], [-0.2336556762456894, -0.32091641426086426, -0.2624928951263428, -0.20470312237739563, -0.24412211775779724, -0.021952956914901733, -0.12829089164733887, 0.3239937126636505, 0.0005379021167755127, 0.20993664860725403], [-0.22622236609458923, -0.02354806661605835, -1.5326027870178223, 0.05077376961708069, 0.013494610786437988, 0.2773416340351105, 0.2369302213191986, -0.2556917369365692, -0.2315535843372345, -0.21612288057804108], [0.13004353642463684, 0.15675672888755798, 0.0747632384300232, -0.14076055586338043, -0.316569060087204, -0.14813321828842163, -0.0030102431774139404, -0.3552645444869995, 0.05394884943962097, 0.2202453315258026], [-0.2612553536891937, -0.12519431114196777, 0.0020300745964050293, -0.21195854246616364, -0.07572951912879944, 0.3377358615398407, -0.03959470987319946, -0.17000536620616913, 0.027447670698165894, 0.14714965224266052], [0.02571585774421692, 0.025849133729934692, 0.029294729232788086, -0.12866540253162384, -0.02553534507751465, 0.2712429463863373, -0.3722604513168335, -0.059556812047958374, 0.22121968865394592, 0.1812223494052887], [-0.3065163493156433, 0.10186782479286194, 0.31327196955680847, -0.26251810789108276, -0.01110425591468811, -2.387878179550171, 0.2782077491283417, -0.043636590242385864, -0.3284375071525574, 0.1768164336681366], [0.23546931147575378, -0.13609780371189117, 0.0344596803188324, -0.13870498538017273, 0.16742154955863953, -0.25628548860549927, -0.23191016912460327, 0.22927990555763245, -0.062357813119888306, 0.19235572218894958], [0.3634099066257477, 0.10880875587463379, 0.1803503930568695, -0.20439916849136353, -0.32379987835884094, 0.3440682590007782, 0.29541298747062683, 0.19024410843849182, 0.1667397916316986, -0.0011206567287445068], [0.35221120715141296, -0.3558419942855835, 0.0919448733329773, 0.32567885518074036, -0.14305990934371948, 0.04102122783660889, 0.028347700834274292, 0.11079016327857971, -0.29145896434783936, 0.005243539810180664], [-0.09062117338180542, 0.06104928255081177, -0.3347133696079254, -0.05091750621795654, 0.3608383238315582, 0.08063694834709167, -0.015246719121932983, -0.01633581519126892, 0.28365305066108704, -0.20323975384235382], [-0.01520434021949768, -0.0830339789390564, 0.3235289752483368, 0.08420607447624207, -0.27636075019836426, 0.08271262049674988, -0.35527563095092773, 0.04679840803146362, -0.3414537012577057, -0.2689746022224426], [0.0008196830749511719, 0.14433303475379944, 0.22175517678260803, 0.30469128489494324, 0.030439168214797974, 0.3065050542354584, -0.2730505168437958, 4.191866874694824, -0.18649427592754364, 0.12801828980445862], [-0.0544717013835907, 0.2945503294467926, -0.043930619955062866, 0.06127887964248657, 0.1799549162387848, 0.31558486819267273, -0.038865894079208374, 0.09443199634552002, 0.1899682581424713, -0.2206987589597702], [0.2976283133029938, -0.034138232469558716, 0.10343444347381592, -0.33211323618888855, 0.07374098896980286, 0.35659435391426086, 0.20381876826286316, -0.05335870385169983, -0.3773939609527588, 0.20084860920906067], [-0.12485620379447937, -0.1395956575870514, -0.11273005604743958, -0.36663952469825745, -0.21397951245307922, 0.1718248426914215, 0.23244354128837585, -0.0356161892414093, 0.011019378900527954, 0.05030238628387451], [0.33337733149528503, -0.022290080785751343, -0.037555813789367676, 0.20856973528862, 0.08472126722335815, -0.1744508445262909, -0.3157525360584259, 0.32405731081962585, -0.24073338508605957, -0.3331301808357239], [1.4240608215332031, -0.25720420479774475, -0.046248823404312134, -0.024204909801483154, 0.2925097644329071, -0.16089576482772827, -0.17584706842899323, -0.06851214170455933, -0.36882340908050537, -0.08167251944541931], [0.1722191870212555, 0.1813804805278778, 0.23541656136512756, 0.34253832697868347, -0.2391582876443863, 0.06917545199394226, -0.33278584480285645, 0.24244806170463562, -0.2628714442253113, 0.18971982598304749], [-0.08061277866363525, 0.3066641390323639, -0.08597943186759949, 0.009623438119888306, 0.13726875185966492, -0.10762879252433777, -0.04354611039161682, -0.041143327951431274, -0.3048084080219269, -0.1464509814977646], [0.2033936083316803, 0.20351740717887878, 0.11919498443603516, -0.15847738087177277, 0.1378403604030609, -0.19925501942634583, -0.20800110697746277, 0.3048166334629059, 0.32518622279167175, -0.24241472780704498], [0.314393013715744, -0.11239862442016602, 0.30228713154792786, -0.1018228530883789, -0.17672722041606903, 0.3270595967769623, -0.07935190200805664, -0.31032687425613403, 0.1702403724193573, -0.3601263463497162], [0.35603079199790955, 0.1683044731616974, -0.10341238975524902, 0.2227781116962433, 0.15766534209251404, 0.1715276539325714, 0.106944739818573, -0.36981305480003357, 0.046128690242767334, -0.14771580696105957], [0.36487534642219543, -0.11429893970489502, -0.03471425175666809, 0.2342865765094757, -0.2961665987968445, 0.27875182032585144, 0.0820542573928833, -2.63157320022583, 0.11114838719367981, 0.1250472366809845], [0.2644177973270416, -0.23338209092617035, 0.29810258746147156, 0.289735347032547, -0.09416437149047852, -0.28554749488830566, -0.28250938653945923, -0.3161313831806183, -0.08995136618614197, -0.09199047088623047], [0.18599197268486023, 0.37532320618629456, -0.17300398647785187, 0.18385979533195496, 0.07302114367485046, 0.07667014002799988, -0.3653530478477478, -0.24898402392864227, 0.3262467682361603, 0.07168972492218018], [-0.25731971859931946, 0.2657683193683624, -0.019364893436431885, 0.32882264256477356, 0.32473114132881165, -0.22128883004188538, -0.28130242228507996, 0.21713122725486755, -0.31392034888267517, -0.04152819514274597], [-0.10491961240768433, 0.0906200110912323, 0.3458866775035858, -0.016002386808395386, -0.34353235363960266, -0.032810866832733154, 0.08908367156982422, 0.003399461507797241, -0.24362261593341827, -0.278567910194397], [0.3373291790485382, -0.16705197095870972, -0.1632561981678009, 0.00799560546875, 0.2751302421092987, 0.1893673837184906, 0.011741727590560913, 0.21983501315116882, -0.3512183427810669, 0.047984302043914795], [-0.22608719766139984, -0.17549292743206024, -0.21587470173835754, 0.3220420181751251, 0.17705413699150085, -0.1988457292318344, -0.14199215173721313, 0.17553463578224182, 0.008637219667434692, -0.22494077682495117], [0.025026649236679077, -0.11789682507514954, 2.3364007472991943, 0.027107924222946167, 0.017194420099258423, 0.11380511522293091, 0.06559064984321594, 0.0223979651927948, -0.2004452496767044, 0.009224414825439453], [-0.2665831446647644, 0.22545722126960754, -0.279602587223053, 0.2711663544178009, -0.06851646304130554, 0.3348216116428375, 0.2035575807094574, -0.1250039041042328, -0.06430760025978088, 0.0910235345363617]], [[0.12226951122283936, 0.07702410221099854, 0.5458146333694458, 0.5451297760009766], [0.1921178698539734, 0.5792855024337769, -0.45507460832595825, -0.325979083776474], [0.5911206007003784, -0.4471030831336975, 0.348294734954834, -0.2640955150127411], [0.5991600751876831, 0.024287521839141846, 